SVM-light Version V6.02
0 # kernel type
3 # kernel parameter -d 
1 # kernel parameter -g 
1 # kernel parameter -s 
1 # kernel parameter -r 
empty# kernel parameter -u 
64 # highest feature index 
1684 # number of training documents 
521 # number of support vectors plus 1 
-0.2348517 # threshold b, each following line is a SV (starting with alpha*y)
-8.1318924289973359975647326791659 1:0.3051303 2:0.20959835 3:0.094464108 4:-0.074885495 5:-0.057270572 6:-0.016401695 7:0.046168059 8:-0.067528948 9:-0.059972193 10:0.0021097518 11:0.12303277 12:0.025793614 13:-0.092555694 14:-0.0046344679 15:0.064613238 16:0.06936381 17:-0.046134599 18:-0.039261442 19:0.031884436 20:-0.013161808 21:-0.0066995793 22:0.014908608 23:0.029412987 24:-0.030884933 25:-0.0047558011 26:0.0054878797 27:0.013519267 28:0.0057704276 29:0.014288114 30:-0.0068283775 31:-0.0028569633 32:0.018168889 33:0.0060030408 34:0.0096821561 35:-0.0014925543 36:0.012033103 37:-0.011497356 38:-0.0039361794 39:0.0062142895 40:0.0016293474 41:0.016835975 42:0.0088775177 43:-0.01549331 44:-0.013689036 45:0.0061041242 46:0.0093877558 47:-0.0049094865 48:-0.0037979807 49:0.0068418211 50:0.0014178398 51:0.019086614 52:-0.0068008364 53:-0.0089012906 54:-0.0048252335 55:-0.012055991 56:-0.0012175845 57:0.0084787942 58:0.00735632 59:0.0017852969 60:-0.00010981016 61:-0.0019503863 62:0.0050494606 63:0.0079476442 64:0.0012073547 #
8.1318924289973359975647326791659 1:0.31213683 2:0.21360679 3:0.074439585 4:0.01140953 5:-0.063437596 6:0.026553813 7:-0.0057319175 8:-0.093957469 9:-0.052864347 10:0.0075752023 11:0.012408107 12:0.010010049 13:-0.0067821834 14:0.023095068 15:0.03624244 16:-0.0037221604 17:0.0033973174 18:0.012508666 19:-0.010936919 20:0.041583493 21:-0.0375681 22:-0.011470093 23:0.0068327547 24:-0.011082022 25:0.0091702668 26:0.0059251795 27:-0.0034505248 28:0.01030234 29:0.0083235409 30:0.01079452 31:-0.0018087149 32:0.0028345184 33:-0.0029826541 34:0.0038410628 35:0.001144824 36:-0.0072695981 37:0.016009146 38:0.00038829265 39:0.0063704886 40:0.00057358464 41:-0.010478696 42:-0.0090083275 43:0.0011554229 44:0.0027852778 45:0.011190035 46:-0.014552779 47:0.010354223 48:-0.0069220099 49:-0.0090254573 50:0.0050837281 51:-0.01053724 52:0.0052790157 53:-0.00021025224 54:0.013208286 55:0.012761543 56:0.0018082917 57:-0.00036517036 58:-0.0088679306 59:0.0046119173 60:0.0008354201 61:-0.016725389 62:0.0076918034 63:-0.0024849339 64:-0.0044900272 #
-8.1318924289973359975647326791659 1:-0.29399601 2:0.17789675 3:-0.1086051 4:0.0055368189 5:0.037336476 6:-0.035686754 7:0.07245063 8:-0.074792713 9:0.07170812 10:0.03804896 11:0.0085087223 12:-0.067214683 13:-0.043548673 14:0.045214269 15:-0.0038236585 16:-0.031274911 17:0.023830418 18:-0.051609181 19:-0.0070254412 20:0.025371252 21:-0.00011772184 22:0.050580826 23:-0.040937781 24:-0.01345257 25:-0.046425588 26:-0.02505186 27:-0.0032918251 28:0.017119184 29:0.01081499 30:0.034370758 31:0.015002946 32:0.0053808801 33:-0.02850353 34:-0.038676705 35:-0.035030402 36:-0.023708295 37:-0.029961424 38:-0.00053085183 39:-0.00078282069 40:-0.00082215737 41:-0.0083777551 42:0.0026969574 43:-0.01724628 44:-0.0092421342 45:0.016650699 46:0.014062753 47:0.02050769 48:0.022263737 49:-0.00058345287 50:0.018768281 51:0.00092605891 52:0.0053295405 53:0.018050056 54:0.0047440184 55:-0.018110605 56:0.0060224747 57:0.0045422819 58:0.0027132647 59:0.0012132083 60:-0.0013263667 61:-0.0074905031 62:0.0028766135 63:-0.0068891267 64:0.017236706 #
8.1318924289973359975647326791659 1:0.30882096 2:0.20406754 3:0.061203811 4:0.017989764 5:-0.048768841 6:0.040785626 7:0.0028624372 8:-0.066299602 9:-0.018265881 10:-0.0033857478 11:0.014255373 12:0.031226404 13:-0.0097890086 14:0.035006486 15:0.036735591 16:-0.012582867 17:0.0024023494 18:0.022272298 19:-0.027349103 20:0.028223939 21:-0.045105554 22:-0.010361669 23:0.0047706962 24:-0.014746861 25:0.0035727129 26:0.0064661549 27:0.0082150782 28:0.015368024 29:0.015670761 30:0.0077982736 31:0.0091566024 32:-0.0069473553 33:-0.0013979685 34:0.0070959283 35:0.0029384294 36:-0.013602166 37:0.021796247 38:-0.0080674272 39:0.0060986816 40:0.0078988578 41:-0.012755779 42:0.0022380922 43:0.010365134 44:0.0056974487 45:0.0023728826 46:-0.012345696 47:0.0047545508 48:0.00082707731 49:-0.0020646574 50:0.00076021621 51:-0.015737955 52:0.0071470956 53:0.009947503 54:0.013342428 55:0.015488698 56:0.0018469634 57:0.0020549439 58:-0.013920125 59:0.003957089 60:0.0012494414 61:-0.017528808 62:0.010465395 63:-0.0091218846 64:-0.0047255591 #
8.1318924289973359975647326791659 1:0.25306353 2:0.19987918 3:0.039849769 4:0.11276312 5:-0.10360118 6:-0.024813222 7:-0.061602164 8:-0.081262685 9:-0.041488335 10:-0.016303729 11:0.01399679 12:0.023191649 13:0.0064733145 14:0.034896117 15:0.040736433 16:-0.016162982 17:0.017228933 18:0.019111689 19:-0.0061118938 20:0.032610081 21:-0.029982099 22:0.0012517886 23:-0.00061343325 24:-0.0027341091 25:0.0095685702 26:0.0057539768 27:-0.0074208565 28:0.0077068685 29:0.016734861 30:0.0098024188 31:0.0039995019 32:-0.0067117773 33:-0.0049699945 34:0.0066660824 35:0.00019106783 36:-0.015879413 37:0.0099773556 38:0.0041790111 39:0.0015702615 40:0.0088575492 41:-0.0041154022 42:-0.0077085844 43:0.00023498453 44:0.0015458554 45:0.013068384 46:-0.015985498 47:0.017342757 48:-0.0097493976 49:-0.0077759353 50:-0.0017114782 51:-0.0092828944 52:0.00014511003 53:0.0055139917 54:0.014376679 55:0.018232485 56:0.0014478526 57:0.0020194051 58:-0.011000047 59:0.0018222155 60:0.003445321 61:-0.014576743 62:0.0092524383 63:-0.0077806828 64:-0.0077852169 #
8.1318924289973359975647326791659 1:0.061800789 2:-0.14833334 3:-0.0052262186 4:0.13608006 5:-0.031992704 6:-0.02377254 7:0.063810766 8:-0.032512907 9:0.0083120195 10:-0.042623971 11:0.0096524218 12:-0.022339627 13:0.010099594 14:0.0036360531 15:-0.016042735 16:-0.018566094 17:-0.019966995 18:-0.0050534764 19:0.010906458 20:0.0074760816 21:-0.0055525783 22:-0.010519869 23:-0.0091584381 24:0.00026316932 25:0.0017855288 26:0.0057384288 27:0.0077408324 28:0.01588735 29:0.018236527 30:-0.0029458601 31:-0.0058833743 32:-0.0012236343 33:0.0005884078 34:0.00083071942 35:-0.0053721634 36:0.01683587 37:-0.0031808626 38:0.0029628838 39:0.002092832 40:0.0075284955 41:-0.005200367 42:-0.0054994682 43:0.0068173483 44:0.011205276 45:0.012774672 46:0.00048707283 47:-0.0079671843 48:0.0076707373 49:0.0034942767 50:-0.00017561142 51:-0.0014887218 52:0.00020256455 53:0.0047612316 54:-0.0015447765 55:-0.0081784371 56:-0.0040484313 57:-0.010253678 58:0.0053168535 59:-0.0060175415 60:0.00017346868 61:0.0046888832 62:-0.012488373 63:0.0084342854 64:0.004570832 #
-8.1318924289973359975647326791659 1:0.053515755 2:-0.2090394 3:-0.22883442 4:0.18821062 5:-0.006956785 6:-0.13723768 7:0.07545545 8:0.00154658 9:-0.17886119 10:0.076900184 11:0.0011639172 12:0.040991448 13:0.0065399026 14:0.090148434 15:0.021079453 16:-0.02040231 17:0.023405371 18:0.01390088 19:-0.092864044 20:-0.053513188 21:0.02620166 22:-0.0054150373 23:0.062616773 24:0.010128457 25:-0.056369957 26:-0.039593212 27:0.034007378 28:-0.049421463 29:-0.033608634 30:-0.008508089 31:-0.016984584 32:0.035449356 33:0.0070970231 34:0.023746183 35:-0.026893759 36:-0.013362497 37:0.010389421 38:0.030418398 39:0.02913885 40:-0.019939497 41:0.0017821738 42:0.008978297 43:-0.0036583741 44:0.0031915184 45:-0.0011276365 46:-0.0085122949 47:-0.0055500236 48:0.015322864 49:0.0093375677 50:-0.0026247862 51:-0.0029823033 52:-0.0062982412 53:-0.0022094911 54:-0.0018623552 55:-0.0074964357 56:0.000530619 57:-0.014964799 58:0.007090081 59:0.013649327 60:-0.00017754365 61:-0.0017705325 62:-0.0031237735 63:-0.023731476 64:-0.013311001 #
-8.1318924289973359975647326791659 1:0.025433848 2:-0.22253126 3:0.094716318 4:0.0050887046 5:-0.062374458 6:0.028595993 7:-0.0024161723 8:-0.029003134 9:0.075943448 10:-0.015335602 11:0.01456536 12:-0.088608719 13:-0.0030162015 14:-0.042870391 15:0.084132023 16:-0.022743205 17:0.044048697 18:-0.0094974227 19:-0.037652764 20:-0.029784093 21:0.025218224 22:-0.021979645 23:0.053487532 24:-0.0023852731 25:-0.0015739978 26:-0.023585679 27:-0.034617294 28:0.034181252 29:0.003508993 30:0.00014423256 31:0.012469814 32:-0.01018399 33:-0.0072753401 34:-0.017980855 35:0.028126052 36:0.0031886024 37:-0.0092046894 38:0.00020010694 39:-0.00049915654 40:-0.00065041002 41:-0.0043101069 42:-0.00033400289 43:-0.0048762751 44:-0.012201573 45:0.01414651 46:-0.0059991116 47:-0.014946448 48:0.0081233708 49:0.0060693389 50:-0.01086286 51:-0.0093722474 52:-0.0081513161 53:0.0040656519 54:-0.002563535 55:0.0073589925 56:0.0057874955 57:-0.0060074739 58:0.018391164 59:-0.005163827 60:-0.0071397186 61:-0.010780993 62:0.0075395359 63:0.0079366844 64:-0.0025154927 #
-8.1318924289973359975647326791659 1:0.33984613 2:0.21789055 3:0.09328527 4:-0.12493087 5:-0.027702678 6:0.050585158 7:0.027764102 8:-0.10195708 9:-0.08334846 10:0.040525191 11:0.034247871 12:-0.019394038 13:-0.038415272 14:-0.025916258 15:0.026461946 16:0.068419613 17:-0.052455999 18:-0.045281652 19:0.012008804 20:0.012627795 21:0.0094067659 22:0.012460127 23:0.04294141 24:-0.019212391 25:-0.012364591 26:-0.012753096 27:0.019430686 28:-0.023606 29:0.012198303 30:-0.0086016888 31:0.0056284419 32:0.022046538 33:0.0043799398 34:-0.012510448 35:0.016772287 36:0.004564859 37:-0.0051325723 38:-0.015209923 39:-0.0095871054 40:0.0056415489 41:0.018945478 42:0.01832331 43:-0.0040493561 44:-0.0032047799 45:-0.010798795 46:0.01684387 47:-0.0097258855 48:0.012791654 49:0.0033133745 50:-0.0036935769 51:0.0071169408 52:-0.016817724 53:0.005505403 54:-0.014337932 55:-0.0032087604 56:-0.00098469737 57:0.016593745 58:0.0036888444 59:-0.0019099123 60:0.0019690869 61:0.0046104402 62:-0.0041252426 63:-0.0045234803 64:0.0020237765 #
-8.1318924289973359975647326791659 1:0.30336022 2:0.063259445 3:-0.1314835 4:-0.10020291 5:0.14120068 6:0.13777359 7:-0.11276197 8:0.10300928 9:0.079468146 10:-0.018559879 11:-0.014946899 12:0.021795835 13:-0.02116557 14:-0.0074984799 15:-0.0058472096 16:0.0095786089 17:0.001951044 18:0.034906924 19:-0.013711156 20:-0.011940342 21:-0.0057800012 22:0.037578024 23:-8.704963e-05 24:0.00054438366 25:-0.0031815514 26:0.0050560785 27:-0.0095013976 28:-0.0003145794 29:-0.00091379997 30:-0.013133042 31:0.0096679386 32:-0.016358508 33:0.010415639 34:0.001236211 35:0.0010514846 36:-0.010919913 37:0.013847524 38:-0.014269479 39:-0.00716693 40:-0.0029434452 41:0.015097878 42:0.013352351 43:-0.0077422424 44:0.0015637875 45:0.0014578917 46:-0.003446639 47:0.0037757305 48:0.0023256061 49:-0.0010812583 50:0.0058836541 51:-0.012474943 52:0.0017199987 53:-0.00037718148 54:-0.011671539 55:-0.0031083499 56:0.0056608352 57:-0.0057970691 58:-0.0018749313 59:0.010683878 60:-0.0032555519 61:-0.0043833409 62:-0.001575431 63:-0.0086994981 64:0.0016205751 #
8.1318924289973359975647326791659 1:-0.066602103 2:-0.17173934 3:0.093049407 4:0.12177125 5:-0.045378905 6:0.016307311 7:0.063268229 8:-0.01167959 9:0.037567466 10:0.021008736 11:-0.01148053 12:-0.01191761 13:0.00078267069 14:-0.020633725 15:0.0019517748 16:-0.0055128043 17:-0.030907918 18:0.014621301 19:0.0029118997 20:-0.011237479 21:-0.026266443 22:0.018314442 23:-0.017925534 24:0.012697225 25:-0.0090806885 26:-0.0048768683 27:-0.015447469 28:-0.0094144186 29:-0.026104217 30:-0.023685927 31:0.0082483049 32:0.0081230532 33:0.017661203 34:0.0053367028 35:-0.0053529157 36:-0.00413572 37:0.0075862058 38:0.011152212 39:0.0014049455 40:0.0032805859 41:0.016376149 42:-0.011941184 43:-0.00048482901 44:-0.012753237 45:-0.0017238852 46:0.01073776 47:0.003816728 48:0.0040321886 49:0.00088833796 50:0.0080086803 51:-0.002602624 52:-0.00096087524 53:-0.00097027241 54:-0.00073417171 55:0.0068614134 56:0.0013662642 57:-0.0012180076 58:0.0009326982 59:0.0022813245 60:-0.0084556229 61:0.0013691296 62:0.0073656812 63:0.0039810697 64:0.0032985897 #
8.1318924289973359975647326791659 1:-0.041198865 2:-0.18568924 3:0.10586528 4:0.074385405 5:-0.011064508 6:0.036388803 7:0.092774816 8:-0.01199438 9:0.0208364 10:0.01298559 11:-0.012554117 12:0.0086383168 13:-0.0007716426 14:-0.022104038 15:-0.0032183928 16:-0.022816861 17:-0.026139276 18:0.023594435 19:0.036437191 20:0.001644149 21:-0.028399065 22:0.011039671 23:-0.01908211 24:0.020590384 25:-0.016131192 26:-0.015863625 27:-0.012628147 28:0.0058848443 29:-0.031332344 30:-0.033415407 31:0.0039046681 32:0.0097124884 33:0.020419698 34:-0.0021230434 35:0.0025504238 36:-0.019114291 37:-0.0087271417 38:0.01344562 39:0.0016071794 40:0.0090905707 41:0.0036164576 42:-0.0037704136 43:0.011928745 44:-0.0095002428 45:0.0072960672 46:0.0055213869 47:-0.002625894 48:0.00023392799 49:0.0065984949 50:0.010651676 51:-0.0040688943 52:-0.0012138619 53:-0.0033685027 54:-0.010486825 55:0.0039914465 56:0.009108833 57:0.0050415318 58:-0.0010150144 59:-0.0047905613 60:0.0070642014 61:0.0083081108 62:0.01493768 63:-0.0060166498 64:-0.0022625725 #
8.1318924289973359975647326791659 1:0.24968745 2:0.16337387 3:0.016890666 4:0.14459398 5:-0.063727073 6:-0.019107869 7:-0.0084019294 8:-0.0043012556 9:0.0265343 10:-0.029565409 11:0.012575061 12:0.026779538 13:-0.016335877 14:0.020781826 15:0.0031978353 16:-0.019354595 17:0.025045177 18:-0.0069749476 19:0.0076242732 20:-0.012571765 21:-0.033486456 22:-0.0099647157 23:0.018703859 24:-0.0028773611 25:-0.0041104034 26:0.0034415461 27:0.02797344 28:0.010384554 29:0.0062352582 30:-0.0088929283 31:0.012702772 32:-0.019598367 33:0.0023865532 34:0.0054595815 35:-0.0017665206 36:-0.0025422415 37:0.0087016644 38:-0.016181726 39:0.003551827 40:-0.0013493609 41:-0.0018401522 42:-0.010914905 43:0.0013442246 44:0.01811533 45:0.01597481 46:0.0014586776 47:0.010065845 48:-0.0053845826 49:-0.0072636325 50:-0.0075707575 51:-0.0098472079 52:0.0023252917 53:0.014529788 54:-0.0075587719 55:-0.0022874186 56:0.00058134412 57:-0.0041533378 58:-0.0071768751 59:-0.0043535945 60:-0.0017323553 61:0.0053765015 62:-0.0023244007 63:0.0049975766 64:0.0039151972 #
8.1318924289973359975647326791659 1:-0.2488372 2:-0.009873637 3:-0.043988012 4:0.051003978 5:-0.061562479 6:-0.021299116 7:-0.010501897 8:-0.027702413 9:0.03291614 10:0.074845739 11:-0.012469991 12:0.039268497 13:-0.024628581 14:-0.02831261 15:-0.010321986 16:0.036984362 17:-0.031682868 18:-0.0021213293 19:-0.04990463 20:-0.015494926 21:-0.028195765 22:0.017947379 23:-0.0061347755 24:-0.00062058639 25:-0.0068940306 26:-0.0039990563 27:-0.027048821 28:0.0021661352 29:-0.01383752 30:-0.016100526 31:-0.0018229942 32:-0.0073733306 33:0.0097666513 34:-0.010670595 35:-0.0029938687 36:-0.012999102 37:0.0029547268 38:0.0027797502 39:0.0033568956 40:0.011557165 41:-0.0021396945 42:0.0017756592 43:0.0077742655 44:0.009087937 45:-0.0085964305 46:-0.0057861861 47:-0.0011251792 48:0.0020416158 49:0.0042217178 50:-0.011909543 51:0.0077005648 52:-0.0031302203 53:-0.0017927963 54:-0.0032144166 55:0.0035562324 56:0.0040841303 57:-0.0010917317 58:0.002730917 59:0.0018505136 60:0.0046997042 61:-0.0032300164 62:-0.0055426881 63:0.004761111 64:-0.0029024705 #
-8.1318924289973359975647326791659 1:0.30544573 2:0.21344729 3:0.089195013 4:-0.018676072 5:-0.066192053 6:0.018485328 7:0.036308549 8:-0.1012779 9:-0.073316582 10:0.026219655 11:0.044537708 12:-0.0040526488 13:-0.038016982 14:-0.0029651865 15:0.051134255 16:0.057103842 17:-0.037943136 18:-0.038144082 19:0.023495132 20:0.021049697 21:-0.00528546 22:0.0036901899 23:0.036222566 24:-0.021008693 25:-0.0042140773 26:-0.0012633387 27:0.015488668 28:-0.0082361111 29:0.010790505 30:-0.0046254881 31:-0.0068976069 32:0.029755557 33:0.001417943 34:-0.0082363309 35:0.013280892 36:0.013815816 37:-0.0077945404 38:-0.015469261 39:-0.0015561208 40:0.0013504293 41:0.016083559 42:0.011991051 43:-0.0096224314 44:-0.0048395447 45:-0.0070727328 46:0.013642101 47:-0.0058592958 48:0.0066034142 49:0.0030741834 50:0.0015624544 51:0.0034612392 52:-0.010383887 53:0.00092827185 54:-0.014409143 55:-0.0073933527 56:-0.0031305999 57:0.004789752 58:0.0014619759 59:-0.0077181254 60:0.00030921362 61:0.0057028956 62:-0.0049300226 63:0.0049963794 64:0.003460662 #
8.1318924289973359975647326791659 1:-0.047196161 2:-0.10355506 3:0.10870493 4:-0.090088598 5:0.048202585 6:0.039990772 7:-0.039354984 8:0.0021568595 9:0.011055425 10:0.0080443835 11:0.022451827 12:0.010317746 13:0.0085457405 14:-0.034723576 15:0.028708506 16:-0.005624705 17:0.031631932 18:-0.0035096814 19:0.005017872 20:-0.0018719631 21:-0.0054584895 22:-0.011233088 23:0.0048389621 24:0.01096497 25:-0.0045541464 26:-0.027526718 27:0.0036125935 28:0.014378901 29:-0.012654189 30:-0.012750844 31:-0.0049845064 32:0.011729378 33:0.0018293317 34:0.0022769859 35:-0.0030818465 36:0.017360758 37:-0.0073195305 38:-0.0021329285 39:2.3423872e-05 40:-0.0010920804 41:0.022196148 42:-0.005253898 43:-0.0017646181 44:0.0053875064 45:0.0028895999 46:-0.016932622 47:0.015839702 48:0.011317832 49:-0.0071260692 50:-0.0083701098 51:0.00053092942 52:0.012300064 53:0.012826173 54:0.012731347 55:-0.015347534 56:0.0065717604 57:0.0055404822 58:0.002712402 59:0.00087082322 60:-0.0098413583 61:0.0027170402 62:-0.0062207421 63:0.001666288 64:-0.0033112038 #
-8.1318924289973359975647326791659 1:-0.2809687 2:0.16102712 3:-0.085323691 4:0.033446975 5:0.084623195 6:-0.10507783 7:-0.01931111 8:-0.11786114 9:0.08933533 10:0.061248831 11:0.024202637 12:-0.061494045 13:-0.040007487 14:0.054930631 15:-0.019812461 16:-0.0057588592 17:0.030411711 18:-0.032640938 19:-0.015814714 20:0.018089879 21:0.0071774111 22:0.026017927 23:-0.0287377 24:-0.031403892 25:-0.06387347 26:0.00053725298 27:-0.0096489778 28:0.0044811298 29:0.0097951852 30:0.016082631 31:0.024725029 32:0.0025219126 33:-0.050819084 34:-0.016455464 35:-0.020797448 36:-0.022688029 37:-0.013124742 38:-0.0037916396 39:0.0030219411 40:-0.0067110993 41:-0.012390802 42:-0.00049841014 43:-0.01723917 44:4.4641412e-05 45:0.0018899615 46:0.015681215 47:0.012258567 48:0.033405084 49:0.001129057 50:0.026661821 51:0.0081622144 52:0.0040804483 53:0.018168677 54:0.014078121 55:-0.010697551 56:0.0066764527 57:0.00098935154 58:0.00089857733 59:0.0059007923 60:-0.0068014422 61:-0.0067748223 62:-0.0069339443 63:-0.0038776109 64:0.005244934 #
8.1318924289973359975647326791659 1:0.35972577 2:0.17260976 3:0.025552208 4:-0.092609391 5:0.04266851 6:0.12115138 7:0.023594346 8:-0.012014193 9:0.015883747 10:-0.017849172 11:0.064406022 12:0.032749921 13:-0.046858072 14:0.00068710808 15:-0.0028119059 16:0.014941596 17:-0.02001041 18:-0.0084417108 19:-0.040097781 20:-0.0054899086 21:-0.018667005 22:-0.00088794105 23:0.023121528 24:-0.034454431 25:-0.0091830045 26:-0.023637496 27:0.024383016 28:-0.028882828 29:0.016670099 30:-0.00031164693 31:0.036169101 32:-0.014099268 33:0.010615365 34:-0.0084614763 35:0.012108286 36:-0.03556167 37:0.031998027 38:0.00041400609 39:-0.0066733849 40:-0.012030208 41:0.009514017 42:-0.023758899 43:-0.004637952 44:0.0088548921 45:0.011870897 46:0.0012158789 47:0.015731936 48:-0.0054812925 49:0.0051827719 50:-0.012470716 51:0.0058247875 52:-0.010261972 53:0.0085489089 54:0.00043558649 55:-0.00023023644 56:-0.0066503505 57:0.0027892934 58:0.0020045845 59:0.0030650017 60:-0.0039322292 61:0.0078951148 62:-0.0051047411 63:0.0061070127 64:0.0070256954 #
8.1318924289973359975647326791659 1:0.29865909 2:0.14666907 3:0.049723074 4:-0.073746219 5:0.013702082 6:0.015856445 7:0.022417892 8:-0.005730838 9:-0.0036122832 10:0.028669924 11:-0.063528642 12:-0.010476222 13:-0.026244568 14:-0.0025439996 15:0.015298928 16:0.031060154 17:-0.025976161 18:-0.039681636 19:0.020703394 20:-0.046948738 21:0.038756717 22:-0.013356165 23:-0.010442728 24:0.0019465139 25:-0.0080588944 26:-0.0010172416 27:0.018607367 28:0.00014830219 29:0.0015759724 30:0.007498276 31:0.0038044199 32:0.026215108 33:-0.0044733509 34:-0.013814923 35:0.015819695 36:-0.008969794 37:0.0071165385 38:0.011930085 39:-0.013524963 40:-0.0013399137 41:-0.015990071 42:0.008360072 43:0.0073190443 44:-0.0008964283 45:-0.021992879 46:-0.0055609713 47:0.0042547132 48:-4.7432721e-05 49:-0.00026551381 50:-0.0043882295 51:-0.0069730375 52:0.006029129 53:0.011147534 54:0.010940935 55:0.0042858967 56:-0.0037652845 57:-0.010242097 58:-0.010146456 59:-0.0097985687 60:0.0081177298 61:-0.0029944924 62:0.02000623 63:0.00077165046 64:-0.011043485 #
5.8011116460127336580399060039781 1:-0.31518823 2:0.15662377 3:-0.057457976 4:-0.07483869 5:0.022844367 6:-0.0089235641 7:-0.019020602 8:-0.0094889887 9:0.013651501 10:-0.020639248 11:0.021281429 12:-0.053884994 13:0.0091058863 14:0.037302349 15:-0.0082724504 16:0.0091245277 17:-0.0061684907 18:0.062237665 19:0.050319117 20:-0.022472151 21:-0.002402456 22:-0.043553881 23:0.031991262 24:0.016827382 25:0.053048309 26:-0.0020574126 27:0.012065042 28:-0.012440082 29:0.0092815217 30:0.0062333085 31:0.0093010617 32:0.013479389 33:-0.038228001 34:0.0062257517 35:-0.0049197404 36:0.0031245493 37:-0.0044388841 38:0.0096304175 39:-0.018224964 40:0.0077652782 41:0.03024652 42:-0.0097735096 43:-0.0043549822 44:-0.0010155732 45:0.015512998 46:-0.0084270332 47:-0.021302365 48:-0.0041970853 49:-0.0040076529 50:-0.015048998 51:-0.012780351 52:0.0088441456 53:0.0046867053 54:0.0064350655 55:-0.0073302495 56:0.0020776095 57:-0.0042723259 58:0.0032989925 59:-0.0091398684 60:-0.0054508927 61:-0.004188953 62:0.0026558395 63:-0.011894438 64:0.011061648 #
8.1318924289973359975647326791659 1:0.085061125 2:-0.18294768 3:-0.073637001 4:-0.0013745163 5:0.019131221 6:-0.072922796 7:0.016355818 8:-0.03729777 9:-0.080823839 10:-0.013443471 11:0.018934628 12:0.010880861 13:0.0028611063 14:0.047720846 15:0.0012589153 16:-0.036559921 17:-0.005114032 18:-0.011034137 19:-0.0058653126 20:-0.020135207 21:-0.0035235861 22:-0.019076139 23:0.014521662 24:0.0069620581 25:-0.016167564 26:-0.0056908601 27:0.026291221 28:0.006604665 29:0.0081558069 30:-0.0045143655 31:-0.0065924735 32:0.0071885893 33:-1.8371877e-05 34:-0.0028699539 35:-0.0092040272 36:0.018813102 37:-0.0016682596 38:0.020105878 39:-0.015388368 40:0.0035815896 41:-0.0052541224 42:-0.01610758 43:0.0095357848 44:0.0010692989 45:0.028339593 46:-0.018058097 47:0.006700912 48:0.010256847 49:0.013619421 50:0.015559219 51:0.0010905432 52:-0.019063337 53:-0.0034613286 54:-0.01866406 55:-0.018702187 56:4.7690919e-06 57:-0.012304303 58:-0.0010101225 59:0.0054324348 60:0.010239095 61:-0.005017431 62:0.0061820243 63:-0.015983682 64:-0.0063087214 #
-8.1318924289973359975647326791659 1:0.4795773 2:0.4901261 3:-0.064975783 4:0.35376936 5:-0.18528073 6:0.62905258 7:0.53473222 8:-0.074396364 9:0.27737635 10:0.13919559 11:0.60105133 12:0.423722 13:0.77796078 14:-0.077533036 15:0.16697626 16:0.11712821 17:0.27087608 18:0.053684 19:0.050903078 20:0.094967626 21:0.084109604 22:0.35880053 23:0.13003904 24:0.22206856 25:0.0021758706 26:0.076717086 27:0.08550597 28:0.01951565 29:0.072007373 30:0.11743176 31:0.10044793 32:0.12609331 33:-0.0040361052 34:0.00098852685 35:0.021163665 36:-0.014467933 37:0.051732644 38:0.080711849 39:-0.051036365 40:-0.011228423 41:-0.042393614 42:0.0066110902 43:0.026480453 44:0.00048425965 45:-0.002350864 46:-0.0093473429 47:-0.029596519 48:0.024485743 49:0.0207201 50:0.0082140882 51:-0.0035178824 52:0.027880626 53:-0.0049649701 54:0.0030298978 55:-0.024429709 56:0.010146828 57:0.0039709588 58:-0.0088927047 59:-0.01835984 60:-0.0031775113 61:0.0007593215 62:-0.011268547 63:0.019841859 64:-0.0086867139 #
-8.1318924289973359975647326791659 1:0.1460007 2:-0.21363077 3:-0.049016189 4:-0.21005523 5:0.041389931 6:0.027439207 7:0.0049569425 8:-0.090802632 9:0.025370866 10:-0.10978109 11:0.007255998 12:-0.0057975533 13:0.042624559 14:0.019361928 15:-0.031697478 16:0.045458104 17:-0.037342045 18:0.0066762753 19:0.017109409 20:0.012463787 21:-0.020354364 22:0.03258587 23:-0.03468233 24:-0.014024143 25:-0.001425157 26:0.035905406 27:0.02511848 28:-0.020160558 29:-0.0050729853 30:-0.028926624 31:-0.020067975 32:-0.0092081474 33:-0.0009933965 34:-0.022290636 35:-0.01296408 36:0.02050381 37:0.022307234 38:0.01496969 39:0.012616925 40:-0.002822075 41:0.0067070276 42:0.015802978 43:-0.010020038 44:0.011905015 45:0.012679989 46:-0.00036607927 47:-0.0026796523 48:0.011590312 49:-0.0051413062 50:-0.0031301442 51:-0.013169206 52:-0.0015320983 53:0.0018720013 54:0.0062216874 55:0.0011015409 56:0.0070786746 57:0.0010620428 58:0.0085938722 59:0.0035364071 60:-0.014523607 61:-0.0066245105 62:-0.00021550625 63:-0.0010307785 64:-0.0043046954 #
-8.1318924289973359975647326791659 1:0.28260383 2:0.05332914 3:-0.13456878 4:-0.035600889 5:0.12141255 6:0.11499851 7:-0.10334918 8:0.09572345 9:0.065140918 10:-0.012635892 11:-0.019961443 12:0.01088104 13:-0.01660265 14:-0.0094868988 15:-0.00093550223 16:0.019841028 17:0.012563544 18:0.019429071 19:-0.010565941 20:0.0020777276 21:-0.0092789633 22:0.031287555 23:0.00014174639 24:0.0017315815 25:0.0056448295 26:0.011238273 27:-0.018119378 28:0.0044628531 29:-0.0054325401 30:-0.01001846 31:0.0052358415 32:-0.014929741 33:0.010370112 34:0.0054000136 35:-0.0043537612 36:-0.013093617 37:0.011843822 38:-0.010904945 39:-0.0066717104 40:-0.0040514213 41:0.021762472 42:0.011119714 43:-0.013601353 44:0.003129632 45:0.0048954859 46:-0.0049503664 47:0.0056825285 48:0.0032036353 49:-0.00069832715 50:0.0071385284 51:-0.017584432 52:-0.0033000521 53:0.0031377038 54:-0.0061454158 55:0.0029141731 56:0.0018021765 57:-0.0070890016 58:-0.0035484247 59:0.0014187464 60:0.0014919596 61:6.1927298e-05 62:0.0021380102 63:-0.0050238539 64:-0.0031259381 #
-8.1318924289973359975647326791659 1:0.14488567 2:-0.24407411 3:0.0052176835 4:-0.12981448 5:0.039923914 6:0.041557897 7:0.079045348 8:-0.029913548 9:0.010482469 10:0.043233868 11:-0.018745271 12:0.021972863 13:-0.053945962 14:-0.0060554552 15:0.0062880637 16:-0.025246371 17:-0.0062566195 18:-0.0052030194 19:-0.0025703907 20:-0.005324929 21:-0.014969612 22:-0.0091856681 23:0.0052681793 24:0.0065038055 25:0.0049085291 26:0.0097709587 27:-0.0083622644 28:-0.011252607 29:-0.00013597825 30:0.027847024 31:0.0073873554 32:-0.006554245 33:0.012043515 34:-0.0043958542 35:0.0043205651 36:-0.0022825885 37:0.019715073 38:0.0098070735 39:-0.011572258 40:0.01762942 41:-0.0013097421 42:-0.0038408064 43:0.0020649456 44:-0.0097318804 45:0.00052170223 46:0.020709654 47:-0.0025976337 48:-0.0056841196 49:-0.0021528972 50:-0.0014346752 51:-0.0015199862 52:0.00052474852 53:-0.0019190833 54:-0.0060227858 55:0.0013884949 56:-0.0019690422 57:0.0012803418 58:0.0088791624 59:0.016763223 60:-0.0018911011 61:-0.0097430618 62:-0.003326084 63:0.0025682233 64:-0.00025833401 #
-8.1318924289973359975647326791659 1:-0.27852535 2:0.16766727 3:-0.10703485 4:-0.00011076776 5:0.059352405 6:-0.10948149 7:-0.056665119 8:-0.10913425 9:0.081981331 10:0.057116408 11:0.031188019 12:-0.063668139 13:-0.037398778 14:0.053349532 15:-0.022801351 16:-0.013255463 17:0.01984537 18:-0.0091918167 19:-0.0094789732 20:0.017672628 21:0.010577157 22:0.034061614 23:-0.025251789 24:-0.026408592 25:-0.05469498 26:-0.010586068 27:-0.0018016404 28:0.0084446529 29:0.010234865 30:0.025966665 31:0.026557885 32:0.0025508003 33:-0.045923412 34:-0.022322509 35:-0.023053046 36:-0.025462158 37:-0.0093996013 38:-0.0021650775 39:-0.0022135752 40:-0.0026487603 41:-0.02804522 42:0.0022242535 43:-0.010623331 44:-0.0061452109 45:0.0024267633 46:0.01577094 47:0.021295967 48:0.032131765 49:0.0053025177 50:0.020306652 51:0.012698689 52:0.010417923 53:0.016869808 54:0.0012858639 55:-0.01499509 56:0.0082246335 57:0.0025631122 58:0.0022034368 59:-0.0056597674 60:-0.0028939568 61:-0.0033911096 62:0.00026415408 63:-0.0044071116 64:0.0017286226 #
-8.1318924289973359975647326791659 1:-0.33807707 2:0.18417391 3:-0.097280122 4:0.013227446 5:-0.0041608554 6:-0.039385371 7:-0.0045934711 8:-0.0078262463 9:-0.026906116 10:-0.035982504 11:-0.010616517 12:-0.011551629 13:-0.0069626383 14:-0.016122749 15:0.020833926 16:-0.031906765 17:-0.046667892 18:-0.036304116 19:-0.059643846 20:-0.0024476543 21:-0.010001883 22:0.059759166 23:-0.010525148 24:-0.0038861409 25:0.044533987 26:-0.027040241 27:0.038954496 28:0.0090948287 29:-0.029291768 30:0.027777443 31:-0.0021537212 32:-0.013100622 33:0.013039402 34:-0.0021773328 35:0.010719012 36:0.0090334332 37:0.0086568724 38:-0.012290329 39:0.0091494936 40:-0.012295739 41:-0.011794206 42:0.019200759 43:0.024664242 44:0.0053554373 45:0.0025887515 46:-0.0035876525 47:-0.01813026 48:0.0034231741 49:0.002432103 50:-0.0019575458 51:0.00064919889 52:0.0088521559 53:-0.00364097 54:-0.0059189205 55:-0.0010007168 56:0.0047422186 57:0.0020674716 58:0.0032245864 59:0.0082750339 60:-0.0083672926 61:0.0049715391 62:0.0070541678 63:0.0016475096 64:-6.105248e-05 #
8.1318924289973359975647326791659 1:-0.30783617 2:0.16013628 3:-0.11463851 4:-0.018018434 5:0.0019178609 6:-0.061363198 7:-0.033110406 8:-0.049617611 9:0.036896218 10:0.021259569 11:0.0090099424 12:-0.037170421 13:-0.020699974 14:0.024133468 15:-0.004239779 16:-0.013437212 17:-0.022444334 18:-0.00047109567 19:-0.029012498 20:0.0020068309 21:7.101598e-05 22:0.025659656 23:-0.0073470944 24:-0.017484212 25:-0.012663675 26:-0.003726634 27:0.016349966 28:0.0035080404 29:-0.0016006094 30:0.030567404 31:0.014640382 32:-0.00030690961 33:-0.0095360689 34:-0.020751713 35:-0.013448934 36:-0.0064058853 37:-0.0002101376 38:0.002420129 39:0.0042106402 40:0.0016257223 41:-0.00071402162 42:-0.0063010273 43:-0.0069557792 44:0.011481408 45:-0.010712264 46:-0.009280636 47:-0.0075808945 48:-0.0035637622 49:-0.00011844786 50:0.0078592766 51:-0.0016013173 52:0.0043888539 53:0.0019650226 54:-0.0045209299 55:-0.0029018093 56:0.0072894851 57:0.0059273066 58:-0.0012619679 59:0.0029450837 60:-0.0037057442 61:0.0058849696 62:0.0028331743 63:0.0024765339 64:-0.0049801571 #
8.1318924289973359975647326791659 1:-0.26874754 2:0.13238677 3:0.090109542 4:0.037206963 5:0.23177916 6:-0.0042163683 7:0.11686946 8:-0.074192442 9:0.025312923 10:-0.01988042 11:-0.011190888 12:0.0072497195 13:-0.016155303 14:-0.024129337 15:0.010356656 16:-0.021389168 17:0.035227831 18:0.020573497 19:0.038303778 20:0.01181601 21:0.039146423 22:-0.027147938 23:0.011715953 24:0.0022655625 25:-0.021492545 26:0.039560642 27:-0.02472714 28:-0.016727556 29:0.036545601 30:-0.0063633961 31:-0.017087163 32:-0.0046902196 33:0.045407549 34:-0.011676232 35:-0.013940678 36:-0.0076146852 37:-0.011964047 38:-0.0012059024 39:0.0087164706 40:0.014675561 41:0.0075328955 42:-0.007620451 43:0.0038411987 44:0.0091978982 45:-0.0089349095 46:-0.011168159 47:-0.0028048998 48:-0.018128382 49:-0.00052308262 50:-0.0066745197 51:-0.0015410711 52:-0.014355903 53:-0.01674442 54:-0.00075366249 55:0.00082943687 56:0.0076084137 57:-0.00011474629 58:-0.010677269 59:0.0030220775 60:-0.001756471 61:0.0070677162 62:0.00080592756 63:0.0033697141 64:0.0023168025 #
8.1318924289973359975647326791659 1:0.16486351 2:-0.15192783 3:-0.029292939 4:-0.23194186 5:0.089636423 6:0.027551545 7:0.024441741 8:-0.025112741 9:-0.038474716 10:-0.014914445 11:0.047433458 12:0.018820405 13:0.0085330503 14:0.029186038 15:-0.023049705 16:-0.022504844 17:-0.037726205 18:0.008464139 19:-0.027374018 20:-0.021962589 21:-0.00035061088 22:0.013969379 23:0.010271228 24:-0.013033845 25:-0.018475462 26:-0.005417557 27:-0.0033045239 28:0.0016074191 29:0.0069932756 30:-0.0094495378 31:-0.012245784 32:0.0067748735 33:0.010536104 34:0.0044230763 35:-0.011428677 36:0.026723055 37:0.0023305735 38:0.012117627 39:-0.0032660742 40:-0.0093240626 41:-0.0049164114 42:-0.011685128 43:-0.00049536396 44:0.003320416 45:0.017425437 46:-0.0040259007 47:-0.01212703 48:0.012444801 49:0.0040243817 50:0.0092484029 51:-0.0044129137 52:-0.010427838 53:0.00042166928 54:-0.008242025 55:-0.008897962 56:0.0036951103 57:-0.0031242317 58:-0.00055197295 59:0.019972989 60:-0.0045912741 61:-0.0017658867 62:0.0042330963 63:-0.0073708207 64:0.0011353398 #
-8.1318924289973359975647326791659 1:-0.27336526 2:0.16171637 3:-0.056777585 4:0.01448069 5:0.13935819 6:-0.073768757 7:0.034011595 8:-0.12349901 9:0.09761411 10:0.065595746 11:0.03004821 12:-0.046710834 13:-0.025599137 14:0.048553191 15:-0.01242355 16:-0.0025553966 17:0.046004742 18:-0.050772812 19:-0.0012074811 20:0.018035654 21:0.0053135492 22:-0.0047036158 23:-0.022832353 24:-0.016331743 25:-0.046520256 26:0.021102566 27:-0.011273419 28:-0.0074743186 29:0.004157946 30:-0.0091679301 31:0.021451138 32:0.0071194014 33:-0.058798283 34:0.019937752 35:0.0097392099 36:-0.00402488 37:-0.0040371614 38:-0.00034283509 39:-0.00055134133 40:0.016147366 41:-0.006671187 42:-0.012701413 43:-0.031252321 44:0.016991204 45:-0.0002145794 46:-0.01557742 47:0.0045004194 48:0.0079182303 49:-0.0012968504 50:0.01311612 51:0.0070735835 52:0.0090443939 53:0.012259535 54:-0.012484041 55:-0.0045591146 56:0.0086921174 57:0.0047561866 58:0.0085724574 59:-0.0043634744 60:-0.019114945 61:-0.0060866191 62:0.0053717769 63:-0.007274094 64:-0.0070448401 #
-8.1318924289973359975647326791659 1:-0.24378996 2:0.14417776 3:-0.016206849 4:0.042500444 5:0.16886202 6:-0.037319276 7:0.13651921 8:-0.12009082 9:0.10800173 10:0.06925571 11:0.0075826356 12:-0.06738288 13:-0.059560105 14:0.057813402 15:-0.024966799 16:-0.027609905 17:0.03462743 18:-0.016889697 19:0.026822705 20:0.019881308 21:0.010498132 22:0.028190849 23:-0.031993229 24:-0.0085426038 25:-0.046528593 26:0.0037505559 27:-0.035362959 28:-0.014162317 29:0.028861981 30:-0.0068960404 31:0.014666429 32:0.0010487726 33:-0.062627375 34:0.02053667 35:0.018491404 36:-0.018215861 37:-0.011559167 38:0.0088263722 39:-0.00037542134 40:0.0081178527 41:-0.0068642665 42:-0.01368842 43:-0.01352489 44:-0.0036598011 45:-0.0074266102 46:0.005745736 47:0.018737527 48:0.021087909 49:0.0043651471 50:0.013031486 51:0.010741526 52:0.0067507541 53:0.014338772 54:-0.00166712 55:-0.0025447358 56:0.00068142766 57:-0.00092421181 58:0.0069789896 59:-0.0025620684 60:-0.010244811 61:-0.01003186 62:-0.00087682134 63:-0.0052276463 64:-0.0044433465 #
-8.1318924289973359975647326791659 1:0.24883957 2:-0.08026585 3:-0.175401 4:-0.10064881 5:0.17491058 6:0.030179569 7:-0.0064644725 8:0.13507971 9:-0.029303063 10:0.046883631 11:0.004504133 12:-0.033341501 13:-0.049451206 14:-0.043506309 15:0.0078475913 16:0.075809017 17:0.020076379 18:-0.0049937824 19:-0.0041990103 20:0.024030449 21:-0.00041280291 22:0.025898788 23:0.028925886 24:-0.0049716732 25:0.0083530508 26:0.0094224932 27:-0.0098753162 28:-0.015118981 29:-0.018670496 30:0.012455781 31:0.0027799706 32:0.0017407154 33:-0.0025149435 34:0.007619868 35:-0.0088400953 36:-0.01165539 37:0.0067836377 38:0.016870189 39:0.029839996 40:-0.017959474 41:-0.0059848102 42:-0.018008277 43:-0.0085149137 44:-0.023847517 45:-0.0037834402 46:-0.0033932603 47:-0.0048341933 48:-0.0065830243 49:-0.0039498382 50:-0.00093032856 51:0.0054882863 52:0.0092074769 53:0.012464671 54:0.0099362554 55:0.008642613 56:0.0050762105 57:0.028330045 58:-0.019995766 59:-0.0087789269 60:0.0010055505 61:0.0022370112 62:0.0085422453 63:-0.0032264146 64:0.011339958 #
-8.1318924289973359975647326791659 1:0.19636329 2:-0.18716574 3:-0.21651143 4:-0.10300732 5:0.15846908 6:-0.032615419 7:0.026261015 8:0.075235277 9:-0.14290766 10:0.077826783 11:0.024676504 12:-0.0095695741 13:-0.037033737 14:0.011909427 15:0.037560303 16:0.031620719 17:0.051390607 18:0.033531867 19:-0.020199319 20:-0.0024657829 21:-0.014362055 22:0.030193325 23:-0.0005902212 24:0.0046198657 25:-0.0012585332 26:0.0059881597 27:-0.00602778 28:-0.0027707224 29:-0.011678465 30:-0.014737018 31:0.0069348929 32:-0.005889846 33:0.004171154 34:-0.001732667 35:0.00092624302 36:-0.019240523 37:-0.0024022132 38:-0.0073455982 39:-0.016886255 40:0.0012243725 41:0.012376266 42:0.0034916666 43:0.013100186 44:0.027581884 45:-0.0030631169 46:0.00513107 47:0.0034510645 48:0.011761639 49:0.0028960034 50:-0.003689334 51:-0.01513061 52:-0.0066255466 53:0.0008985289 54:0.00017800054 55:0.010606333 56:-0.004113853 57:0.0012933881 58:0.0092590125 59:0.0049677119 60:-0.0023050262 61:-0.00092167559 62:-0.0033162986 63:0.015560087 64:0.00049111224 #
8.1318924289973359975647326791659 1:-0.30748647 2:0.15974753 3:-0.10757978 4:-0.014511881 5:-0.0050396752 6:-0.044922601 7:-0.0022814882 8:-0.039555598 9:0.04079584 10:0.01880618 11:0.0069587054 12:-0.048972636 13:-0.02099658 14:0.031921491 15:-0.001173663 16:-0.018025437 17:-0.023252839 18:-0.0076709674 19:-0.025000969 20:-0.0016937095 21:0.0028241 22:0.022184877 23:-0.00071898079 24:-0.0060298052 25:0.030965356 26:0.0012526726 27:0.022513224 28:-0.0052276794 29:0.0047418494 30:0.021009874 31:-0.0079471562 32:-0.0099467961 33:0.001658203 34:0.0025739078 35:0.018074598 36:-0.015488229 37:-0.013607207 38:0.0089943409 39:0.0071750726 40:0.0018168545 41:0.0054364186 42:-0.0026892505 43:0.0095011322 44:0.012087882 45:-0.0052876463 46:-0.006591781 47:-0.0081536649 48:-0.011965154 49:-0.0015145901 50:0.0068060132 51:-0.0072051496 52:-0.006605756 53:0.00043407991 54:0.0045734323 55:-0.011209858 56:0.011281225 57:0.0065789712 58:-0.0034971584 59:0.0010042789 60:-0.013660763 61:0.0073236455 62:0.0048700655 63:-0.0029764494 64:-0.0044064978 #
8.1318924289973359975647326791659 1:0.11049327 2:-0.17074731 3:-0.15957458 4:0.10122027 5:0.030270882 6:-0.072976917 7:-0.0003055408 8:0.029022042 9:-0.06858217 10:0.0067669502 11:-0.00095089135 12:-0.033403825 13:-0.0089412984 14:0.0090544624 15:0.010890636 16:0.031165207 17:0.028820999 18:-0.0032744205 19:-0.011142758 20:0.0085762152 21:0.0048215254 22:-0.0048824982 23:-0.0017901806 24:9.2346563e-05 25:0.010078735 26:0.016934296 27:0.014167241 28:0.014707872 29:0.00097657321 30:-0.001690843 31:0.023599427 32:0.024453115 33:0.012895995 34:0.010009091 35:0.0039000355 36:0.016108388 37:-0.014003205 38:-0.0011456561 39:-0.010512775 40:-0.0035221805 41:-0.005251857 42:0.00097891211 43:-0.0070396056 44:0.0026902447 45:-0.0028089131 46:0.0041339775 47:0.011553094 48:-0.010308154 49:-0.0084513677 50:0.0028719739 51:-0.003453122 52:0.0021470881 53:0.0025452366 54:-0.00089676573 55:0.00044822367 56:-0.0088707181 57:0.0032544381 58:-0.0038676732 59:0.0046164142 60:-0.0046695485 61:0.0058177304 62:0.0021023895 63:0.00014489154 64:0.0068656616 #
-8.1318924289973359975647326791659 1:0.093671769 2:-0.23593216 3:-0.025974836 4:-0.079797916 5:-0.013151092 6:-0.025894813 7:0.021574251 8:-0.073620953 9:0.036448784 10:-0.073380306 11:-0.0052891881 12:-0.0255627 13:0.011746901 14:-0.010785491 15:0.027250789 16:0.041723013 17:0.022701645 18:-0.013816892 19:-0.011451967 20:-0.015863927 21:-0.029544668 22:-0.02645226 23:0.0032076533 24:0.01204616 25:-0.0061514443 26:-0.00079148944 27:0.014550837 28:-0.01612982 29:-0.024116673 30:0.035821114 31:-0.0034160272 32:0.0090793744 33:-0.0037766295 34:0.035667241 35:-0.013597142 36:-0.017061369 37:-0.00087425084 38:-0.019245928 39:-0.011741392 40:0.0093391109 41:0.0098894499 42:0.00098921789 43:0.0047177132 44:0.014285484 45:-0.0090813935 46:0.0046431301 47:0.019271422 48:-0.010246454 49:-0.0096268952 50:0.0063976385 51:0.0044749342 52:0.0075010434 53:-0.0032205509 54:6.2144543e-05 55:-0.0038383941 56:-0.0019902601 57:0.0028745951 58:-0.0014014224 59:0.00044365699 60:0.010895446 61:0.0042857602 62:0.002066147 63:0.0058683008 64:0.0077006645 #
8.1318924289973359975647326791659 1:-0.32256353 2:0.13889496 3:-0.045142971 4:0.021696186 5:0.021439316 6:-0.0038117457 7:0.050355673 8:-0.013290058 9:0.015066316 10:-0.0025938957 11:0.0012477377 12:-0.038609136 13:0.0041039879 14:0.022656295 15:0.00070381747 16:0.018094828 17:-0.02751511 18:0.02954841 19:-0.025657423 20:-0.031769529 21:-0.0027086802 22:-0.0015628937 23:0.017920965 24:0.0034993412 25:0.036559884 26:-0.0054926137 27:-0.0033869566 28:-0.0035005035 29:0.018787203 30:0.011886042 31:0.0049668723 32:0.0087755434 33:-0.016877042 34:-0.022902597 35:-0.025050849 36:-0.012548114 37:-0.013427863 38:0.016337926 39:-0.014625959 40:0.018813504 41:0.01352026 42:-0.014708834 43:-0.035879049 44:0.010555398 45:0.019224152 46:-0.0088969553 47:-0.024304524 48:0.0052439207 49:-0.00094938278 50:-0.0059955209 51:-0.0095153209 52:0.031570196 53:0.009842135 54:-0.01182681 55:0.0099507449 56:-0.011424901 57:-0.0021754496 58:0.015008772 59:0.0042577242 60:0.0023001959 61:-0.00066465145 62:0.010552974 63:-0.0057804426 64:0.0074780667 #
8.1318924289973359975647326791659 1:0.11644166 2:-0.18590011 3:-0.090109386 4:-0.0048520598 5:0.078836665 6:-0.043735452 7:0.057717007 8:0.017422706 9:-0.10633185 10:0.03038829 11:0.021194179 12:-0.024125772 13:-0.013232072 14:0.027435154 15:0.022780387 16:-0.0033934994 17:0.010725321 18:-0.0020112966 19:-0.0054263822 20:-0.015365216 21:-0.026069136 22:-0.0068201046 23:-0.018849216 24:0.0050529744 25:-0.0074221287 26:0.001609917 27:0.024416935 28:0.0062652463 29:0.015134464 30:-0.017372634 31:-0.0020514345 32:0.0092383474 33:-0.0028228229 34:-0.0029354393 35:-0.0009498765 36:0.015031668 37:-0.021405131 38:0.017995162 39:-0.020490749 40:0.008349644 41:-0.019742608 42:-0.018992446 43:0.027989024 44:0.013257424 45:0.022551641 46:-0.0065056998 47:-0.0176202 48:0.016858099 49:0.017197307 50:0.0029443013 51:0.0018230261 52:-0.017888561 53:-0.0051082321 54:-0.0051172413 55:0.0013895265 56:-0.013763328 57:0.0012779407 58:-0.0076859989 59:-0.0032091474 60:-0.0023481655 61:0.0024181383 62:-0.0029619827 63:-0.0054754009 64:-0.0070395279 #
8.1318924289973359975647326791659 1:0.36515212 2:0.21511759 3:0.062955193 4:-0.14619063 5:0.016000452 6:0.097999536 7:0.0066323951 8:-0.04402345 9:0.0041315784 10:0.0025885878 11:0.031580362 12:0.04600545 13:-0.011187012 14:0.026694015 15:0.030874118 16:0.001365799 17:-0.0079685114 18:0.018630838 19:-0.057680178 20:0.010456815 21:-0.043605994 22:-0.0089601288 23:0.0042143064 24:-0.025930263 25:0.002025563 26:0.0080738012 27:0.014237318 28:0.010724644 29:0.015433283 30:0.0072373468 31:0.013020404 32:0.0034784914 33:0.0076822271 34:0.0044148667 35:0.0033344992 36:-0.0074881925 37:0.023606857 38:0.00083027972 39:-0.0069044577 40:-0.0094113145 41:0.00079259084 42:0.00092939829 43:-0.0081196753 44:0.0017651684 45:-0.00058998016 46:-0.0076942574 47:0.013627579 48:-0.0037462318 49:0.0010112074 50:-0.0028124789 51:-0.012596142 52:-0.0005218942 53:0.010121627 54:0.0017324345 55:0.0087161735 56:0.0010424507 57:0.0064132232 58:-0.012430385 59:0.011208533 60:-0.00065832172 61:-0.016519621 62:0.0096815899 63:-0.0084335571 64:-0.0016254915 #
8.1318924289973359975647326791659 1:0.18115604 2:-0.051196329 3:-0.18708296 4:0.22447492 5:0.072386548 6:0.012553221 7:-0.019608634 8:0.11927526 9:0.013504918 10:0.013708768 11:-0.044592664 12:-0.078066275 13:-0.0337842 14:-0.044960551 15:-0.013679693 16:0.049199 17:-0.0035263821 18:-0.008419645 19:0.03803353 20:0.052948669 21:0.001585693 22:-0.01043394 23:0.013751484 24:-0.0049514882 25:0.017052077 26:0.019794775 27:-0.017517513 28:0.044288088 29:-0.017094111 30:0.0044115144 31:-0.01298912 32:0.026089372 33:0.01147608 34:0.029773621 35:-0.01454524 36:-0.00071963744 37:0.011932638 38:0.0050106253 39:0.012853158 40:-0.0032738652 41:-0.016550941 42:0.031846453 43:-0.012763716 44:-0.0050482396 45:-0.0066647017 46:0.0015969665 47:-0.0128151 48:-0.0072993264 49:-0.0097002406 50:-0.012125917 51:0.0039751842 52:0.020714652 53:0.020969825 54:0.017497499 55:-0.0090373792 56:0.033830188 57:-0.0058167302 58:0.0015424861 59:0.0095319441 60:0.017002804 61:0.0090044541 62:0.0027476784 63:-0.018607631 64:-0.0063800472 #
8.1318924289973359975647326791659 1:0.16845304 2:-0.071173131 3:-0.20809402 4:0.097157784 5:0.079584591 6:-0.041998807 7:-0.10568699 8:0.1075392 9:-0.046763148 10:0.017160164 11:-0.014210206 12:-0.069731206 13:-0.0330268 14:-0.050849233 15:-0.00045572832 16:0.049995761 17:0.0021872763 18:0.027669003 19:0.025756132 20:0.045204286 21:0.0069246506 22:0.039419051 23:-0.001500746 24:-0.011454822 25:0.022440394 26:0.023664461 27:-0.045083936 28:0.045406073 29:0.010882932 30:0.018655036 31:-0.0019861888 32:0.019736901 33:0.0070457151 34:0.039158251 35:-0.015179138 36:-0.016499894 37:0.0011651184 38:0.027266718 39:-0.012579448 40:0.013970487 41:-0.012067905 42:0.011222095 43:0.0054902043 44:0.008236547 45:-0.00039638806 46:0.024166029 47:0.012242011 48:-0.013699469 49:-0.0023545648 50:-0.023746209 51:-0.0011361568 52:0.00077409827 53:0.028639156 54:0.0028658563 55:0.019570736 56:0.038913708 57:0.025946233 58:-0.00089120964 59:-0.0051913434 60:0.010811878 61:-0.0011737873 62:0.0025388964 63:-0.0051854467 64:0.0019471075 #
8.1318924289973359975647326791659 1:0.11960902 2:-0.14781801 3:-0.2069167 4:0.16603976 5:0.047905512 6:-0.086145736 7:0.0070414599 8:0.064774714 9:-0.10262003 10:0.042685188 11:-0.0046928371 12:-0.044239651 13:-0.019871684 14:-0.0033649672 15:0.028031643 16:0.048704937 17:0.050316583 18:0.016283005 19:-0.013285168 20:0.017771998 21:-0.017515048 22:0.0069967303 23:-0.032662619 24:0.0033411763 25:0.021310523 26:0.04028422 27:0.018501461 28:0.026945967 29:0.0093960948 30:-0.017955702 31:0.044836387 32:0.002800267 33:0.019788556 34:-0.0088336822 35:0.018241616 36:0.0040923101 37:-0.0057993904 38:-0.0092341946 39:-0.049072281 40:0.001089757 41:-0.00026584236 42:-0.0086059878 43:0.01029765 44:0.019148586 45:0.0065279291 46:0.023214567 47:0.0013250638 48:0.0029901012 49:-0.0015264418 50:0.014162366 51:-0.0025207801 52:-0.0010298529 53:-0.01157898 54:-0.00042296835 55:0.00059394125 56:-0.0067284247 57:0.012943278 58:0.00083436642 59:0.00033727163 60:-0.019072745 61:-0.0074349116 62:0.0014023157 63:0.02380136 64:0.021433579 #
-8.1318924289973359975647326791659 1:0.22880511 2:-0.16819322 3:-0.14479049 4:-0.05720241 5:0.14803152 6:0.0069842809 7:0.12719788 8:0.074769743 9:-0.084973335 10:0.04821495 11:0.0023748889 12:-0.03125165 13:-0.042573676 14:0.0042699627 15:0.0049042515 16:0.042507771 17:0.041130036 18:0.022599259 19:0.024375457 20:0.038961817 21:6.539499e-05 22:0.012819129 23:0.0013636447 24:-0.0088014584 25:0.026313921 26:0.018402789 27:-0.013413373 28:0.034996033 29:-0.020542372 30:0.0031994511 31:0.01948634 32:-0.0044964165 33:0.0031290248 34:0.010389087 35:-0.00056524709 36:-0.028123189 37:0.0062320926 38:-0.013977333 39:-0.015305275 40:0.0025580467 41:0.020247666 42:0.0061714589 43:0.0066534285 44:0.022621803 45:-0.0042537884 46:0.010879215 47:0.011852127 48:0.0010911284 49:0.0024172745 50:-0.0037374906 51:-0.013912183 52:-0.0038607705 53:-0.0094815968 54:-0.011229465 55:0.0067028124 56:0.0051256195 57:-0.00073636422 58:0.01040761 59:0.023536464 60:-0.0081294542 61:-0.0095629189 62:-0.012242412 63:-0.00014216542 64:0.0028537931 #
-8.1318924289973359975647326791659 1:0.17080511 2:-0.19564763 3:-0.2299719 4:-0.0082896575 5:0.13710065 6:-0.060067263 7:0.044346862 8:0.079832777 9:-0.16511682 10:0.096566088 11:0.018271128 12:-0.02427783 13:-0.041977022 14:0.012309977 15:0.06591288 16:0.032557342 17:0.076707892 18:0.041020468 19:-0.02159627 20:-0.0076276246 21:-0.033769507 22:0.014218009 23:-0.020282974 24:0.018328667 25:-0.0036742082 26:0.0099835163 27:0.024513921 28:-0.015994858 29:-0.0072113015 30:-0.024374548 31:0.014573297 32:-0.01088614 33:0.00028045443 34:-0.020343719 35:0.01298246 36:-0.01665975 37:-0.006348351 38:-0.013686802 39:-0.016848981 40:0.0052662697 41:0.011378431 42:0.0039827451 43:0.013076825 44:0.019993449 45:-0.004294856 46:0.0045669312 47:0.0035690141 48:0.0072473823 49:0.0024191437 50:-0.00099673029 51:-0.010652153 52:-0.0037305963 53:-0.0060415659 54:-0.0028359124 55:0.0078113284 56:0.00096859975 57:-0.0074583264 58:0.011521787 59:-0.0032568211 60:0.0025576688 61:5.587227e-06 62:-0.0029939481 63:0.018904524 64:-0.0048383158 #
-3.6091165827413078659446910023689 1:0.13265447 2:-0.19928783 3:-0.24911584 4:0.088101819 5:0.1027929 6:-0.099030003 7:0.03821715 8:0.077176586 9:-0.19031611 10:0.11285307 11:0.018250398 12:-0.03634211 13:-0.03099975 14:0.008603856 15:0.094870701 16:0.038789183 17:0.10667618 18:0.0511466 19:-0.027013756 20:-0.013936416 21:-0.052516904 22:0.0055533769 23:-0.049649779 24:0.029418269 25:-0.0016179724 26:0.021103928 27:0.053455345 28:-0.027085671 29:0.00099796511 30:-0.040629275 31:0.027151965 32:-0.02317499 33:0.00044389395 34:-0.046301547 35:0.028638974 36:-0.0066588186 37:-0.0096527841 38:-0.025530547 39:-0.02466657 40:-0.012850318 41:0.017485583 42:-0.0093740653 43:-0.0018620641 44:0.012377635 45:0.0023535532 46:-0.015695598 47:0.0069208187 48:0.0016514822 49:-0.0037482881 50:0.0092769694 51:0.0073913028 52:0.0042256555 53:-0.02847595 54:0.0079746889 55:-0.014074331 56:-0.013939411 57:-0.020854801 58:0.015804064 59:0.0092507508 60:0.0016107141 61:-0.0038411522 62:0.008423524 63:0.011190384 64:-0.015424006 #
8.1318924289973359975647326791659 1:0.017326782 2:-0.15440692 3:-0.083457865 4:0.044884343 5:0.0039969156 6:-0.048428055 7:-0.091226108 8:-0.019017182 9:-0.014984158 10:0.010154302 11:-0.026235728 12:-0.0078248177 13:0.023952823 14:-0.016283525 15:0.010334323 16:-0.030914517 17:-0.02706934 18:0.0068276147 19:0.0013789894 20:-0.014191884 21:-0.0058130231 22:0.012586574 23:-0.024875509 24:0.0052463585 25:-0.0031278974 26:-0.0042439708 27:-0.00043396803 28:0.00054036733 29:0.054783337 30:0.005209086 31:0.0065723467 32:0.021886604 33:0.01097746 34:0.0082519623 35:0.0021170909 36:0.027997304 37:-0.0074127046 38:0.0044514951 39:-0.011855638 40:0.004994066 41:-0.0066581042 42:0.0022511841 43:-0.0099876774 44:-0.0084582511 45:-0.0058136215 46:0.013958279 47:-0.0021503645 48:-0.0022482544 49:-0.0025919778 50:0.011490229 51:0.0052109296 52:0.0049385936 53:-0.0039626411 54:0.013906758 55:-0.001928137 56:0.018889779 57:-0.00036994822 58:-0.0014878712 59:-0.004753184 60:0.0046090879 61:-0.0056533655 62:0.0037459957 63:0.0014342865 64:-0.00080023491 #
8.1318924289973359975647326791659 1:0.18475723 2:-0.15182513 3:-0.17842853 4:0.010514951 5:0.10753967 6:-0.031426035 7:0.039844893 8:0.060839195 9:-0.093122393 10:0.040239021 11:0.0054478599 12:-0.034575593 13:-0.034552097 14:0.0076395557 15:0.024553712 16:0.037467096 17:0.046556778 18:0.017413698 19:-0.013022598 20:0.016327953 21:-0.02670151 22:-0.0092737926 23:-0.026009567 24:0.0067052236 25:0.01374085 26:0.029189615 27:0.034529179 28:0.016902363 29:-6.3560627e-05 30:-0.022216473 31:0.040528063 32:0.0050251964 33:0.019176846 34:-0.010865986 35:0.017285185 36:0.010607054 37:0.00030330848 38:-0.013806383 39:-0.028384324 40:0.0041976743 41:-0.0090704747 42:0.00091467006 43:0.007324921 44:0.0072826981 45:0.012110487 46:0.013037743 47:-0.0013536691 48:-0.0030625346 49:-0.0054282644 50:0.017676814 51:-0.0020685936 52:0.0049069081 53:-0.010501702 54:-0.0080092521 55:-0.0032962526 56:-0.0052905465 57:0.010443527 58:-0.006498856 59:-0.014295853 60:-0.01364068 61:-0.003153478 62:0.003565666 63:0.015072478 64:0.013920109 #
8.1318924289973359975647326791659 1:0.18453689 2:-0.15398715 3:-0.16692582 4:-0.051565774 5:0.10199402 6:-0.030283887 7:0.0035676099 8:0.044602357 9:-0.084836408 10:0.019706605 11:0.013883291 12:-0.025155332 13:-0.025469007 14:0.0075266426 15:0.012514316 16:0.023650587 17:0.029005766 18:0.034383394 19:-0.0071598827 20:0.0073504518 21:-0.0063452101 22:0.019057142 23:-0.014056278 24:0.0057479478 25:0.00081070262 26:0.010795973 27:0.013157234 28:0.00054634188 29:0.001495906 30:-0.016433451 31:0.024736036 32:0.011260427 33:0.017283773 34:0.0029951609 35:0.0059561287 36:0.013522245 37:-0.0042419503 38:-0.0059381966 39:-0.0080079129 40:0.0015476773 41:-0.0076273894 42:0.0058037192 43:-0.0015255811 44:0.00022290698 45:0.0012086153 46:0.0097552529 47:0.00044549216 48:-0.0037287404 49:-0.0069533926 50:0.010580179 51:-0.0096901786 52:0.0054382957 53:0.002022065 54:-0.0063172574 55:0.0032122273 56:-0.0035362339 57:0.0071151033 58:-0.00813099 59:-0.011683625 60:-0.0083189299 61:0.0031664774 62:0.0052119619 63:0.0067393673 64:0.01049718 #
8.1318924289973359975647326791659 1:0.19184305 2:-0.10979263 3:-0.19372092 4:0.0079142796 5:0.11772367 6:-0.031971872 7:-0.038809042 8:0.092314012 9:-0.084447004 10:0.039975472 11:0.0035682376 12:-0.054929063 13:-0.040112652 14:-0.029576086 15:0.018438084 16:0.052534815 17:0.031421263 18:0.027237387 19:0.0010646195 20:0.034762368 21:-0.01567146 22:0.03067892 23:-0.026313119 24:-0.0067266268 25:0.027278041 26:0.03397689 27:-0.025969641 28:0.048612293 29:0.014252027 30:-0.003775002 31:0.0259424 32:0.00041040653 33:0.013544176 34:0.016097957 35:0.0068322448 36:-0.014908365 37:-0.0063022976 38:-0.011339689 39:-0.049512334 40:0.023040742 41:-0.0042533884 42:0.0086774658 43:0.02820426 44:0.039443534 45:0.0015560244 46:0.035146743 47:0.0075573269 48:0.0017389408 49:-0.0025003094 50:-0.0026220409 51:-0.014144227 52:-0.00040450061 53:0.0093175964 54:-0.00182304 55:0.019033371 56:0.010486448 57:0.027479125 58:0.0017462526 59:-0.014591742 60:-0.0080949031 61:-0.003152072 62:0.0012099307 63:0.021151509 64:0.018466458 #
-8.1318924289973359975647326791659 1:0.11638008 2:-0.29057691 3:0.11283367 4:-0.029451014 5:0.0039432701 6:0.10462872 7:0.21034884 8:0.011354728 9:0.052888438 10:0.0091028074 11:-0.008446686 12:-0.088693976 13:-0.058112513 14:-0.003357518 15:-0.0019921262 16:-0.077648811 17:-0.017520597 18:0.10674826 19:0.063751109 20:0.017479347 21:0.045358527 22:0.0094371689 23:0.022467718 24:-0.0033790658 25:0.0030184446 26:0.011608907 27:0.0046229246 28:0.020916259 29:-0.013451001 30:0.011117115 31:0.026792254 32:-0.011425637 33:0.0069169579 34:-0.017678734 35:0.0019234651 36:0.016180437 37:0.045000173 38:0.024649613 39:-0.0091807274 40:-0.004976213 41:-0.015038901 42:0.0064301114 43:-0.012297783 44:0.00021607625 45:-0.0077751325 46:0.0066007241 47:0.052460615 48:-0.031113703 49:-0.0041702054 50:-0.0099830423 51:0.013743047 52:0.011426278 53:-0.0070492574 54:-0.031200729 55:-0.024432514 56:0.011694335 57:0.011591042 58:0.0076026749 59:0.018769529 60:-0.0009845061 61:-0.0038135732 62:0.0077409195 63:-0.016423797 64:0.010174496 #
8.1318924289973359975647326791659 1:-0.31259698 2:0.13883838 3:-0.091231771 4:0.018981248 5:-0.0047927643 6:-0.022369318 7:0.058344096 8:-0.051996961 9:0.069830216 10:0.057419907 11:0.015379896 12:-0.045822825 13:-0.020946896 14:0.0487529 15:-0.021508763 16:0.026252709 17:-0.0098912874 18:-0.0051890262 19:-0.049283251 20:-0.0074949376 21:0.0021237286 22:0.048570629 23:-0.024279987 24:-0.020948211 25:-0.027712261 26:-0.018425573 27:-0.01424942 28:0.0057935454 29:0.0023277053 30:0.015914483 31:0.012697913 32:0.0045399577 33:-0.020501329 34:-0.03572325 35:-0.037267063 36:-0.0085197482 37:-0.013922545 38:-0.0089085819 39:0.0036519906 40:0.023990432 41:-0.017129773 42:-0.0038612816 43:-0.024092654 44:0.016781814 45:0.0060777906 46:-0.0081529748 47:-0.0055665411 48:0.023323877 49:0.00083394907 50:0.011052337 51:-0.00015434346 52:0.021229504 53:0.010494039 54:-0.005752814 55:-0.0074676797 56:0.003879583 57:0.0040521631 58:-0.00066437153 59:0.0037154474 60:0.0018822796 61:-0.0049654352 62:-0.0045567141 63:0.0021821493 64:-0.00096210733 #
8.1318924289973359975647326791659 1:-0.28779054 2:0.13756311 3:-0.086528711 4:-0.00028450659 5:0.022310017 6:-0.034818523 7:0.037153836 8:-0.058549356 9:0.055577226 10:0.028846966 11:-4.8334714e-06 12:-0.0443152 13:-0.034617323 14:0.03388631 15:-0.0048075514 16:-0.014055949 17:0.0091302404 18:-0.020746995 19:-0.014137366 20:0.013911893 21:0.0013492653 22:0.042773794 23:-0.02491942 24:-0.010601141 25:-0.022690967 26:-0.019744592 27:0.0037759624 28:0.0096759479 29:0.0017309361 30:0.036123212 31:0.010171412 32:0.0029158834 33:-0.013843653 34:-0.028930904 35:-0.02528182 36:-0.0098223258 37:-0.012118809 38:0.0047596865 39:-0.00059593492 40:-0.0017483553 41:0.0014605671 42:-0.0032652677 43:-0.0069660149 44:-0.0037412997 45:0.0041055758 46:0.00686506 47:0.0034853138 48:0.00085349235 49:-0.0002120233 50:0.00081405765 51:-0.0083287572 52:-0.00059405994 53:0.00086067087 54:0.0058479491 55:-0.0049561267 56:-0.001477137 57:-0.00087377033 58:-0.0024176107 59:0.011328121 60:0.0055373847 61:0.00089309813 62:-0.0014300769 63:0.0011557436 64:0.0066517531 #
-8.1318924289973359975647326791659 1:-0.28781438 2:0.18873253 3:-0.13794336 4:-0.053434014 5:0.002328573 6:-0.087273881 7:-0.08181335 8:-0.054246839 9:0.014917265 10:-0.020699229 11:0.00050626014 12:-0.054842886 13:-0.048367262 14:0.015647981 15:0.011563846 16:-0.07346154 17:0.0041409209 18:-0.020420907 19:0.023391826 20:0.04151611 21:-0.0040842942 22:0.029212538 23:-0.018275928 24:-0.014891638 25:-0.027071703 26:-0.030068077 27:0.050381809 28:0.030786121 29:-0.015165069 30:0.073092505 31:0.024018543 32:-0.002911292 33:0.0038438705 34:-0.039059386 35:-0.018228946 36:-0.012791962 37:-0.00029864153 38:0.0075697792 39:0.0011626033 40:-0.030737149 41:0.0037836004 42:0.0094728703 43:0.011357185 44:-0.0030455822 45:-0.0055967644 46:0.010235989 47:-0.0074127284 48:-0.0006601364 49:0.0052980594 50:0.016238825 51:-0.0042219502 52:0.0024595491 53:0.0056908638 54:-0.0019332219 55:-0.016308498 56:0.0042564082 57:0.013695168 58:0.0088918768 59:-0.0006186713 60:0.0018469747 61:-0.0024237654 62:0.0027151278 63:-0.0061137951 64:-0.0047993227 #
8.1318924289973359975647326791659 1:0.13650602 2:-0.19827431 3:-0.052240878 4:-0.058069512 5:0.07611227 6:-0.015448423 7:0.11314019 8:-0.0237532 9:-0.081621394 10:0.0051446175 11:0.016662849 12:0.009404147 13:-0.015620441 14:0.04991572 15:-0.0023994071 16:-0.039638698 17:-0.01409481 18:0.0015885212 19:-0.0093486607 20:-0.023442712 21:-0.0088172825 22:-0.015196298 23:0.010660843 24:0.0020278923 25:-0.019901337 26:-0.01343134 27:0.022586279 28:0.0057351482 29:0.0056976844 30:-0.0046875868 31:-0.0033982834 32:0.0076512443 33:0.0015246278 34:-0.00018384549 35:-0.0098581547 36:0.010337324 37:-0.0055817566 38:0.021641647 39:-0.0087165982 40:0.0077608228 41:-0.0096718771 42:-0.020134447 43:0.026584601 44:0.006360325 45:0.016650833 46:-0.0070393551 47:-0.012524687 48:0.023027379 49:0.020215776 50:0.017202307 51:-0.0033047448 52:-0.020974906 53:-0.0055482918 54:-0.012252307 55:-0.0071808645 56:-0.0080295885 57:-0.012753791 58:0.00048729923 59:0.0058098324 60:0.0077161328 61:-0.0020610418 62:0.002938142 63:-0.015390671 64:-0.0051101544 #
8.1318924289973359975647326791659 1:0.1287882 2:-0.19316696 3:-0.07738027 4:-0.0057437392 5:0.083123952 6:-0.032082114 7:0.097112209 8:0.014434945 9:-0.10368591 10:0.029411612 11:0.011614827 12:-0.022267558 13:-0.02809999 14:0.033646408 15:0.01262184 16:-0.017048601 17:-0.0056866594 18:0.013958236 19:-0.0081589539 20:-0.017560927 21:-0.023413891 22:-0.010285337 23:-0.0114841 24:0.002652053 25:-0.014139755 26:-0.0034522945 27:0.030519219 28:0.0067231688 29:0.016332446 30:-0.010026316 31:0.0051364857 32:0.010812105 33:-0.00024369662 34:-0.0019990208 35:-0.0007208868 36:0.011775912 37:-0.0096123824 38:0.029062051 39:-0.021293571 40:0.0019236354 41:-0.022094645 42:-0.024485782 43:0.027003223 44:0.0062042978 45:0.017097939 46:-0.0055015013 47:-0.0138209 48:0.017522121 49:0.022825612 50:0.006703672 51:0.0029003876 52:-0.020210179 53:-0.003956317 54:-0.010772835 55:-0.00055008836 56:-0.012296912 57:-0.0001556394 58:-0.0069491118 59:-0.0032972516 60:0.00099751574 61:0.0033138609 62:0.0019429213 63:-0.01175176 64:-0.006653796 #
-8.1318924289973359975647326791659 1:0.18205461 2:-0.2000718 3:-0.19962372 4:-0.055460382 5:0.1220051 6:-0.05953585 7:0.072869807 8:0.03038403 9:-0.18627477 10:0.084020711 11:0.019695483 12:0.020047735 13:-0.030073091 14:0.079622187 15:0.050995957 16:-0.030918512 17:0.067688949 18:0.035589945 19:-0.051128395 20:-0.037014626 21:-0.0085642822 22:-0.0092188437 23:0.034489762 24:0.034757026 25:-0.050398901 26:-0.046954762 27:0.050083831 28:-0.069308981 29:-0.0237778 30:-0.020025704 31:-0.013563594 32:0.030226143 33:0.0010858178 34:0.0033491757 35:-0.011270865 36:-0.0045531197 37:-0.0023605262 38:0.025003443 39:0.046233151 40:-0.017597839 41:-0.0010451206 42:0.0072949058 43:-0.022362618 44:-0.016724456 45:0.0063482169 46:-0.019200122 47:0.0017766107 48:-0.0080285631 49:-0.0016332542 50:-0.011733619 51:0.0042246492 52:-0.0036273084 53:0.0029267478 54:-0.0045526326 55:-0.00429255 56:-0.0031656572 57:-0.011972006 58:-0.0041600741 59:0.00029897279 60:0.0017211766 61:0.0033555801 62:-0.011862689 63:-0.019473353 64:-0.013064212 #
-8.1318924289973359975647326791659 1:0.18145654 2:-0.20230973 3:-0.20884936 4:-0.049739745 5:0.14223064 6:-0.039623473 7:0.053096406 8:0.065398857 9:-0.13517207 10:0.068500996 11:0.014267066 12:-0.0085475063 13:-0.035452783 14:0.02274096 15:0.02864649 16:0.029283937 17:0.050668638 18:0.013468341 19:-0.0084797889 20:0.003565406 21:-0.011222747 22:0.01798594 23:0.0048348643 24:0.0051734606 25:0.0049769641 26:0.0087111173 27:-0.007638128 28:0.007547528 29:-0.017044384 30:-0.014556221 31:0.0074041579 32:-0.0051395916 33:0.003267081 34:-0.0017735997 35:0.0018747068 36:-0.019582268 37:-0.0071759922 38:-0.010672228 39:-0.020923266 40:0.011222074 41:0.01281957 42:0.0026825797 43:0.019652028 44:0.029978536 45:0.0031876918 46:0.0079928143 47:1.3833339e-05 48:0.010532333 49:0.0017699022 50:-0.0001788541 51:-0.012318376 52:-0.0071012704 53:-0.0061420905 54:0.002535145 55:0.011755019 56:-0.0032221198 57:0.00076145784 58:0.0089545557 59:0.0063905148 60:-0.001563476 61:-0.0052623232 62:-0.0058694794 63:0.015930193 64:1.4415566e-05 #
-8.1318924289973359975647326791659 1:0.15890105 2:-0.23484266 3:-0.092904642 4:-0.11660778 5:0.053847831 6:-0.021394599 7:0.1052784 8:-0.073984355 9:-0.040828653 10:-0.058250505 11:-0.008845441 12:0.069601521 13:0.016878281 14:0.088606469 15:-0.084189475 16:0.00590037 17:-0.038696259 18:-0.046107918 19:0.010635576 20:0.01891649 21:0.028449887 22:0.017521227 23:0.019574692 24:-0.031004598 25:0.027653607 26:0.038813099 27:-0.01265972 28:0.055345636 29:-0.0023454712 30:-0.027426207 31:0.031136032 32:-0.023640603 33:0.0057029515 34:-0.049203496 35:0.030940808 36:0.012233098 37:0.0046863295 38:-0.0048466413 39:-0.011353691 40:0.0022644498 41:-6.8909023e-05 42:-0.025650214 43:0.00014199756 44:-0.044092312 45:-0.004926634 46:-0.017079029 47:-0.025305485 48:0.0013845381 49:0.0073468639 50:0.0028161344 51:0.003884095 52:-0.0096368277 53:0.032535966 54:0.0082257865 55:0.0036507891 56:0.021165984 57:-0.0047649234 58:-0.026389914 59:0.010316406 60:0.016957695 61:0.0080555528 62:-0.010695823 63:0.011309273 64:0.010853351 #
-8.1318924289973359975647326791659 1:-0.31283337 2:0.080450632 3:0.021427458 4:0.075265817 5:-0.038588747 6:0.0091374367 7:0.041600607 8:0.024358552 9:-0.0095537379 10:-0.021435181 11:-0.013050278 12:-0.034272011 13:-0.0020565365 14:0.01698661 15:-0.014928726 16:0.064013071 17:-0.041343756 18:0.031466302 19:-0.082801372 20:-0.044146717 21:-0.001475867 22:0.045287687 23:-0.002137555 24:-0.019644411 25:0.021616096 26:-0.031069588 27:-0.0064223655 28:-0.0021302553 29:0.010054001 30:-0.012796528 31:-0.018964507 32:-0.015252976 33:-0.0021420564 34:0.011347605 35:0.015770067 36:0.0033554654 37:0.0094711641 38:-0.0024276308 39:0.0046600602 40:0.023748146 41:-0.0083895791 42:-0.013523618 43:0.0091105113 44:0.004174972 45:-0.02139603 46:-0.012137497 47:0.0090460079 48:-0.020703074 49:-0.0039329268 50:-0.004607108 51:-0.0017209646 52:-0.022915035 53:-0.011158553 54:-0.003362983 55:-0.011307296 56:0.012246042 57:0.0038846948 58:-0.0059908703 59:-0.011284957 60:0.0089068254 61:-0.0064700972 62:-0.0055927834 63:-0.0002451014 64:-0.003947095 #
8.1318924289973359975647326791659 1:-0.28004488 2:0.075383313 3:0.033307731 4:-0.011756928 5:0.01848379 6:0.0075993217 7:-0.019100742 8:0.00082255091 9:0.0052528027 10:0.012804335 11:0.023014737 12:-0.012157749 13:0.014244897 14:0.048432525 15:-0.012727639 16:0.048150536 17:0.03358794 18:-0.013562478 19:0.0041804085 20:-0.0032638027 21:-0.0038351363 22:-0.0077617527 23:-0.0020408493 24:0.010363663 25:0.0084499437 26:-0.022106169 27:0.0017749391 28:0.0078195548 29:-0.011314503 30:0.011767192 31:-0.0050359224 32:-0.0018433104 33:0.011659596 34:-0.0071096593 35:-0.013053223 36:0.023244411 37:0.01320155 38:-0.013419255 39:-0.0087297941 40:0.0011447406 41:-0.0017742062 42:0.010475422 43:0.013698171 44:-0.014755679 45:0.011457839 46:0.00031689758 47:0.0025371576 48:-0.010856064 49:0.00035660385 50:-0.0069969925 51:0.0061124456 52:-0.0017985064 53:0.007199313 54:-0.0034481487 55:0.0073096431 56:-0.00033648009 57:-0.0059143184 58:0.0026153186 59:-0.0035499325 60:0.0050681913 61:-0.0019274731 62:-0.0020977722 63:0.0035106649 64:0.0020576408 #
8.1318924289973359975647326791659 1:-0.27102065 2:0.14797999 3:-0.0844201 4:-0.059174005 5:0.052656576 6:-0.024389919 7:0.019560056 8:-0.05677326 9:0.048580822 10:0.022900835 11:0.01051025 12:-0.035843708 13:-0.025461134 14:0.025797177 15:0.0063007642 16:-0.026743785 17:0.018527735 18:-0.028942514 19:0.0053049535 20:0.019444641 21:-0.00071315299 22:0.030157343 23:-0.019367727 24:3.3158733e-05 25:-0.010767668 26:-0.015310936 27:0.011726896 28:0.011648445 29:-0.0042713787 30:0.037423287 31:0.010433692 32:0.0048885536 33:-0.010611509 34:-0.029381353 35:-0.024346754 36:-0.0092442287 37:-0.012333764 38:0.0038072744 39:-0.0049588676 40:-0.0017911146 41:-0.007222482 42:-0.0036276043 43:-0.016107807 44:-0.0032965937 45:0.0037578759 46:0.003583157 47:0.0076777264 48:0.0005100522 49:0.0021747092 50:0.0019175664 51:-0.0026237264 52:-0.00060044252 53:0.00016474651 54:-0.0013196928 55:-0.0016243893 56:0.00010602378 57:0.00032808472 58:-0.0051425057 59:0.0054655387 60:0.0082715247 61:0.0066016805 62:0.0024218936 63:0.0051315781 64:0.0015984837 #
-8.1318924289973359975647326791659 1:-0.29309088 2:0.10017277 3:0.02141251 4:0.042770635 5:0.00033269523 6:-0.016267838 7:-0.029072233 8:0.027354442 9:-0.034805041 10:-0.035172403 11:0.00022321282 12:-0.035545386 13:0.020395804 14:0.025489146 15:0.0037012759 16:0.034079406 17:-0.021262299 18:0.018711053 19:-0.026212659 20:-0.046837218 21:-0.01393755 22:0.015522912 23:0.027870186 24:0.013214836 25:0.066857234 26:-0.04050361 27:0.00095454458 28:0.014193339 29:0.0017606337 30:0.0023561043 31:-0.0058148005 32:-0.014776804 33:0.014262034 34:-0.02339022 35:-0.0057772947 36:0.0046707215 37:0.019540206 38:0.0080696885 39:0.0086763892 40:0.0011322193 41:-0.015645972 42:-0.00076952291 43:-0.0075949347 44:0.0086372066 45:-0.020875987 46:0.01033971 47:0.0082044089 48:0.0041337004 49:-0.00018845385 50:0.014451111 51:0.0080132661 52:-0.0058873892 53:0.0056655123 54:0.0095180208 55:-0.0087194582 56:-0.0044842972 57:0.0019205511 58:0.0018203669 59:0.012820147 60:-0.0014755235 61:-0.0075836475 62:-0.0091380673 63:0.00039700978 64:0.0067349561 #
8.1318924289973359975647326791659 1:0.3049334 2:0.076733373 3:-0.085601754 4:0.0048389053 5:0.10903376 6:0.14343336 7:-0.042825617 8:0.073006645 9:0.080454998 10:-0.03055713 11:-0.024961159 12:-0.015181093 13:-0.020975618 14:-0.013091778 15:-0.03822808 16:0.026404461 17:-0.037788965 18:-0.028772915 19:-0.024361733 20:0.039467048 21:0.0064602508 22:-0.0021278078 23:0.053831168 24:0.0038136658 25:-0.015775342 26:-0.020043202 27:0.012466419 28:-0.017432401 29:0.0072595179 30:0.0060511809 31:-0.0021528252 32:0.023181673 33:-0.002336079 34:-0.0044603636 35:0.014697815 36:-0.022204995 37:0.020830052 38:-0.007964408 39:0.027037425 40:0.0030037819 41:-9.3859649e-05 42:0.018122558 43:-0.008350878 44:-0.025718072 45:-0.013010426 46:-0.012042726 47:-0.013162478 48:0.0026279048 49:-0.010706629 50:0.0039200378 51:0.015693108 52:0.007321489 53:-0.010026143 54:0.0079177199 55:-0.015204428 56:-0.006233362 57:-0.025033556 58:0.003902948 59:-0.0087964265 60:0.0066275396 61:0.004675379 62:0.0062429043 63:0.0010970073 64:-0.0071998788 #
8.1318924289973359975647326791659 1:0.25199458 2:0.020859197 3:-0.15406306 4:0.0098857377 5:0.11065561 6:0.070833735 7:-0.11537147 8:0.10307119 9:0.040797371 10:-0.01622238 11:-0.027938448 12:-0.048863143 13:-0.019025648 14:-0.042662915 15:-0.03283222 16:0.036305882 17:-0.024299493 18:0.0038387156 19:0.0088272337 20:0.049613591 21:0.012608847 22:0.019459696 23:0.029733278 24:-0.0025889627 25:0.0046537411 26:-0.00036389826 27:-0.023881752 28:0.016246693 29:0.0024833214 30:0.011048055 31:-0.010209059 32:0.019572333 33:0.0036003108 34:0.022595797 35:-0.0066601867 36:-0.0099992882 37:0.012701746 38:0.0075626257 39:0.019874761 40:0.00090239593 41:-0.0064760665 42:0.018063748 43:-0.016000194 44:-0.019282481 45:0.0027452155 46:-0.012500715 47:0.0077310861 48:-0.018544599 49:-0.0063532307 50:-0.0072084866 51:0.011804506 52:0.016130695 53:0.0010934911 54:-0.0034991382 55:-0.019329341 56:0.012880307 57:-0.0082225287 58:-0.00093300763 59:0.00953029 60:0.0022880288 61:-0.0055810912 62:0.0090663321 63:-0.0059906649 64:-0.0042684623 #
8.1318924289973359975647326791659 1:-0.28901082 2:0.067398705 3:0.071658418 4:0.061475717 5:0.05110836 6:0.061733115 7:0.16525686 8:-0.0069054435 9:0.038749922 10:0.035040006 11:-0.00043793724 12:-0.02658033 13:-0.015940946 14:0.040930681 15:-0.031310726 16:0.023221979 17:0.0087936195 18:0.028652661 19:0.011206376 20:-0.0028270388 21:0.016842978 22:0.039951671 23:-0.017281197 24:0.0066058547 25:8.9251676e-05 26:-0.024454523 27:-0.021313921 28:-0.0038431697 29:-6.0871619e-09 30:0.0020252967 31:-0.010019089 32:0.00046979071 33:0.016755352 34:0.0033783473 35:-0.0088674678 36:0.020925187 37:0.0088516809 38:0.00064143067 39:-0.014377709 40:-0.0066641308 41:0.0052535976 42:-0.0020768465 43:0.00071547541 44:-0.018755971 45:0.0061313058 46:0.0026354247 47:0.013171203 48:-0.018054569 49:0.0025628239 50:-0.017510781 51:-0.0077625969 52:-0.012101536 53:-0.0057499562 54:-0.0029492881 55:-0.00078909827 56:-0.0034409221 57:0.0019143166 58:0.0041835592 59:-0.0056315404 60:0.011171332 61:0.0032733292 62:0.0013018817 63:0.0011776488 64:-0.0096415645 #
8.1318924289973359975647326791659 1:-0.32417268 2:0.15876681 3:-0.11917776 4:0.0037176351 5:-0.0045369142 6:-0.055367619 7:-0.0070441603 8:-0.051358242 9:0.041362364 10:0.025391376 11:0.0048045516 12:-0.029254301 13:-0.019977769 14:0.0065454566 15:0.00083321694 16:-0.013672346 17:-0.029124148 18:-0.001042967 19:-0.052799594 20:-0.0016156306 21:0.0083142836 22:0.035634182 23:-0.0062914225 24:-0.025636371 25:-0.014384286 26:-0.00028455644 27:0.015393842 28:0.0044176388 29:-0.0069492501 30:0.023901191 31:0.010590996 32:-0.00082608353 33:-0.006300258 34:-0.023551164 35:-0.01955338 36:-0.013339848 37:-0.0088081537 38:-0.0034080392 39:0.0028821121 40:0.0025678673 41:-0.0090172077 42:-0.0056992718 43:-0.012785579 44:0.0041391472 45:-0.0023892547 46:-0.00058570807 47:-0.011576049 48:0.011345905 49:-0.00014541121 50:0.0025138115 51:-0.0096439393 52:0.0078925723 53:-0.0030718972 54:0.00078281842 55:2.159442e-05 56:-0.0011364205 57:0.0043162275 58:-0.0015846464 59:0.011563961 60:0.00175042 61:0.0022196183 62:0.0032980428 63:0.0044399132 64:0.005894409 #
8.1318924289973359975647326791659 1:-0.29767701 2:0.079046249 3:0.030123362 4:0.054923046 5:0.019223889 6:0.0095920516 7:0.060430735 8:-0.013336405 9:0.027432684 10:0.032513145 11:0.005284972 12:-0.015349977 13:-0.010168871 14:0.039692044 15:-0.024425192 16:0.04654276 17:0.0032294127 18:-0.0010182401 19:-0.038209677 20:-0.0071608303 21:0.0088089239 22:0.025605923 23:-0.010534564 24:-0.0097872335 25:-0.0046524433 26:-0.014111945 27:-0.0082950667 28:-0.0011285489 29:-0.0042423685 30:0.00023767097 31:-0.0057450901 32:-0.0032356863 33:0.016516354 34:0.0020449047 35:-0.002427916 36:0.019009797 37:0.014022171 38:-0.0063077034 39:-0.0024606765 40:-0.00064066926 41:0.00050016551 42:0.00046101672 43:0.013550636 44:-0.015259177 45:0.00026539364 46:0.00081972504 47:0.00046575905 48:-0.0085997321 49:0.00080660795 50:-0.012634475 51:-0.0067229746 52:-0.0064258263 53:-0.0027041754 54:0.001634503 55:-0.0012588773 56:-0.0012333778 57:0.0020491525 58:0.005188135 59:0.00075737922 60:0.0088334866 61:9.1400425e-06 62:-0.0060174088 63:0.0032758557 64:-0.0048582815 #
8.1318924289973359975647326791659 1:0.30551055 2:0.1502924 3:-0.054081973 4:-0.067645118 5:0.040295277 6:0.10566796 7:-0.12468871 8:0.01208125 9:0.039004326 10:-0.051379073 11:0.037927166 12:0.028035253 13:0.0011185887 14:0.0045752283 15:-0.024815349 16:-0.01949071 17:-0.015435479 18:0.036578849 19:-0.023724416 20:0.0024849575 21:0.015736762 22:0.041680004 23:0.016817428 24:0.0033780874 25:-0.021660022 26:-0.037339151 27:0.0071640597 28:-0.039000586 29:0.024635388 30:-0.010612325 31:0.031276878 32:-0.01085749 33:0.0094238743 34:-0.0093713775 35:0.020859195 36:-0.039096389 37:0.030394193 38:-0.021905489 39:0.0060491106 40:0.0079605663 41:0.015457273 42:0.0014105735 43:-0.0032063574 44:-0.00031311953 45:0.012806905 46:-0.006265698 47:0.0064644888 48:-0.0016622696 49:-0.0031370504 50:-0.0048307651 51:0.01027366 52:-0.0024899966 53:-0.0078898128 54:-0.0059512402 55:-0.011773002 56:-0.0089697428 57:-0.006127927 58:0.00471973 59:0.0096202763 60:-0.013374366 61:-0.0066297157 62:-0.010157279 63:0.014260706 64:0.013401168 #
-8.1318924289973359975647326791659 1:0.051351801 2:-0.23167376 3:0.0066750492 4:-0.0086295372 5:-0.06198005 6:-0.021107109 7:0.0066230805 8:-0.10274895 9:0.066136792 10:-0.10629349 11:-0.012078995 12:-0.055654991 13:0.032350551 14:-0.029878257 15:0.025630208 16:0.045993496 17:-0.019442452 18:-0.00099718245 19:0.0041094953 20:-0.023306679 21:-0.044263795 22:-0.0032027862 23:-0.027212616 24:0.011326666 25:-0.013849287 26:0.021591509 27:0.02222997 28:-0.038012829 29:-0.003585042 30:0.028055245 31:-0.0070097218 32:0.0044678962 33:-0.0032229542 34:0.013318504 35:-0.010937025 36:-0.015033465 37:0.0065863058 38:0.0059989491 39:-0.0049935775 40:-0.0012109668 41:0.0042418828 42:0.0050891335 43:-0.008935621 44:0.0036953886 45:0.0047245775 46:0.0097670229 47:0.013395789 48:-0.0093621593 49:-0.003612608 50:0.0017263087 51:0.0028478275 52:-0.00032462957 53:-0.0046752314 54:-0.0097532431 55:0.0030998248 56:-0.0042028525 57:0.0037581492 58:-0.0022434338 59:0.0040297611 60:-0.00054717553 61:0.0054411548 62:0.013033425 63:-0.0031653729 64:0.0013216105 #
8.1318924289973359975647326791659 1:0.2997452 2:0.20770662 3:0.06626752 4:0.070822254 5:-0.073367126 6:0.028708493 7:0.01375377 8:-0.082012631 9:-0.031134527 10:0.0014024382 11:0.011720167 12:0.022737402 13:-0.0040399516 14:0.034831721 15:0.040804874 16:-0.013182322 17:0.0096919639 18:0.018640278 19:-0.012454383 20:0.038968723 21:-0.043847278 22:-0.018559061 23:0.0057933042 24:-0.007611678 25:0.0086851921 26:0.0096075004 27:0.0079930509 28:0.019348646 29:0.010077613 30:0.011166247 31:0.0064731995 32:-0.0018928044 33:-0.001312803 34:0.0081894388 35:0.000470926 36:-0.010238772 37:0.022087935 38:-0.0030762386 39:0.0049417033 40:0.0045131501 41:-0.012130002 42:-0.0020569293 43:0.0028319464 44:0.0041920939 45:0.012845269 46:-0.017758081 47:0.012893874 48:-0.0068993983 49:-0.0079352735 50:0.0030245432 51:-0.015156155 52:0.0066387099 53:0.0046267174 54:0.012091389 55:0.014899817 56:0.0046122568 57:0.0016605076 58:-0.012062005 59:0.010966776 60:5.8122503e-05 61:-0.020333244 62:0.0081265895 63:-0.009626681 64:-0.0068294457 #
7.3069218736416612358652855618857 1:-0.27755255 2:0.091079079 3:0.028445784 4:0.027772576 5:0.070337988 6:0.014573806 7:0.09457282 8:-0.047137987 9:0.063159041 10:0.053615943 11:0.020814681 12:-0.033231795 13:-0.011755995 14:0.068329953 15:-0.027776141 16:0.031509638 17:0.049914062 18:-0.023244886 19:0.017714316 20:0.010928464 21:0.013426219 22:0.019189348 23:-0.021682488 24:0.0061894152 25:-0.0055292882 26:-0.014239405 27:-0.017891113 28:-0.0026950436 29:-0.0023406926 30:-0.0027788363 31:-0.013272453 32:-0.0058125984 33:0.014552692 34:0.0026034175 35:-0.010033952 36:0.022777969 37:0.0095147872 38:-0.019150149 39:-0.011037837 40:0.018863145 41:-0.0084261633 42:-0.0094879055 43:-0.0209735 44:0.00028494067 45:-0.0061867298 46:-0.0061358796 47:-0.00020976097 48:-0.0014261821 49:0.0032958495 50:-0.0021227759 51:0.014942572 52:-0.0065576998 53:0.0052444953 54:-0.0054294802 55:0.016945709 56:-0.0037905516 57:-0.0064919605 58:0.0056181257 59:-0.0024325398 60:-0.011036727 61:-0.0057000532 62:-0.0015165387 63:0.0076121506 64:-0.016739583 #
8.1318924289973359975647326791659 1:-0.28842658 2:0.12979643 3:0.060677987 4:0.063110813 5:0.18738423 6:-0.036118463 7:0.06645412 8:-0.076895408 9:0.021016937 10:-0.019048866 11:-0.0074388096 12:0.010658113 13:-0.0073340763 14:-0.016559081 15:0.0085150208 16:-0.0070290142 17:0.035038907 18:0.0012014803 19:0.015876459 20:0.0083026672 21:0.033103239 22:-0.017992469 23:0.0070988499 24:0.0013242925 25:-0.013657853 26:0.031711344 27:-0.018088602 28:-0.017577834 29:0.024991011 30:-0.0106205 31:-0.012684409 32:-0.0036533405 33:0.018322684 34:0.0031386614 35:-0.0078107649 36:0.0016609788 37:0.0052153403 38:-0.0067863562 39:0.0012986725 40:0.011212194 41:-0.00052417 42:-0.00473186 43:0.0038545886 44:0.002792242 45:-0.0076006008 46:-0.0047669462 47:-0.01271731 48:-0.0095197689 49:-1.6182119e-05 50:-0.015816607 51:-0.0042967307 52:-0.0076790093 53:-0.016751628 54:0.00099382701 55:0.0024470736 56:0.00071957626 57:0.00055578636 58:-0.0022502195 59:0.0015531823 60:0.0075460998 61:0.0042351177 62:-0.0018116517 63:0.00011840466 64:0.0059943874 #
-8.1318924289973359975647326791659 1:-0.28903788 2:0.12372731 3:0.0079363221 4:0.019772192 5:0.042694211 6:-0.036690284 7:-0.053519234 8:0.011732093 9:-0.043257728 10:-0.040991042 11:0.0028990333 12:-0.020298047 13:0.020888137 14:0.011842064 15:0.014536998 16:0.0038306275 17:-0.027353154 18:-0.0016612791 19:-0.016304506 20:-0.033849083 21:-0.01715702 22:0.020292388 23:0.022839585 24:0.023264339 25:0.091168649 26:-0.029116346 27:0.020648355 28:0.005046708 29:-0.013191803 30:0.0049171443 31:-0.0036479749 32:-0.010265532 33:0.005425381 34:-0.014575098 35:-0.016611276 36:-0.0010302981 37:0.019335004 38:-0.01394161 39:0.0037750741 40:-0.0017917013 41:-0.036741238 42:0.0065067802 43:-0.0049202801 44:0.00743302 45:-0.017845774 46:0.00871317 47:0.0027752123 48:0.0057223733 49:0.0040378482 50:0.0047215973 51:0.011426852 52:-0.009046115 53:0.00035908297 54:0.0033630116 55:0.0002871592 56:-0.0028623289 57:-0.0052854051 58:0.00066469202 59:0.0048683998 60:-0.0059918314 61:-0.0076449174 62:0.00071906328 63:-0.0025355206 64:0.0085846996 #
8.1318924289973359975647326791659 1:0.098764136 2:-0.17661934 3:-0.14666514 4:0.14230029 5:0.016965462 6:-0.068999134 7:0.024293523 8:0.032228015 9:-0.061942194 10:0.010491194 11:-0.011173334 12:-0.043953817 13:-0.017549533 14:0.0066915001 15:0.0062316353 16:0.025524504 17:0.0165022 18:0.011786056 19:-0.011543438 20:0.007384921 21:0.0088489829 22:0.0011295404 23:-0.0035163846 24:-0.005182825 25:0.0064979205 26:0.014878373 27:0.012925715 28:0.012851615 29:0.0023499765 30:-0.0070323218 31:0.021611825 32:0.02497186 33:0.015667723 34:0.005995587 35:0.0037680522 36:0.021186553 37:-0.010505056 38:0.0021475838 39:-0.0044741584 40:-0.0064572352 41:-0.0082100341 42:1.9045587e-05 43:-0.00757998 44:8.6129825e-05 45:-0.0057102484 46:0.0018215647 47:0.0065969988 48:-0.0072554536 49:-0.0085566854 50:-0.002744148 51:-0.0024702286 52:0.0033714063 53:0.0059525892 54:0.0050478159 55:0.0015195375 56:-0.0046718945 57:0.0020167127 58:-0.00027561944 59:0.0061184587 60:-0.0044729654 61:0.0047904914 62:0.00057477405 63:0.00040656963 64:0.0020754975 #
-8.0222434395278607865975573076867 1:0.30406737 2:0.08959914 3:-0.10044122 4:0.044004459 5:0.1209453 6:0.17376983 7:-0.087705381 8:0.11377601 9:0.17969467 10:-0.063739657 11:-0.074773215 12:0.039351638 13:-0.040325955 14:0.019297982 15:-0.033501685 16:0.00074562372 17:-0.030855156 18:-0.063533433 19:0.015585819 20:-0.043080341 21:0.011456533 22:-0.010291515 23:0.085929394 24:0.037504073 25:-0.047098987 26:-0.02142881 27:0.060796961 28:-0.056084462 29:-0.01234273 30:-0.020140624 31:-0.012014953 32:-0.005027825 33:-0.012724719 34:-0.037698954 35:0.0074463459 36:0.057156954 37:-0.041477501 38:0.018115422 39:-0.021758242 40:-0.023199402 41:-0.035518441 42:-0.043530446 43:0.01239963 44:0.0083550001 45:0.0094952742 46:-0.002794944 47:0.011489123 48:-0.01929877 49:-0.0080389054 50:-0.0022591962 51:0.025129963 52:0.01463765 53:-0.0099452455 54:0.030648302 55:0.010781365 56:0.0054664365 57:0.035606835 58:0.010692287 59:0.00072489114 60:0.0060454737 61:-0.0088056754 62:0.030468734 63:0.014541248 64:-0.0025218017 #
3.8133086282516490683747178991325 1:-0.060089793 2:-0.10401955 3:0.047249053 4:-0.043733317 5:0.011113414 6:-0.013147734 7:-0.062099759 8:-0.033981286 9:0.016702252 10:0.0081246449 11:0.016612552 12:0.013901537 13:0.011296779 14:-0.016996918 15:0.011710728 16:-0.004528455 17:0.017128877 18:-0.020067178 19:0.014338176 20:0.005533854 21:-0.022340767 22:0.0011077727 23:-0.011993047 24:0.019734735 25:-0.0032426468 26:-0.013478193 27:-0.0086348159 28:0.0037038305 29:-0.019992992 30:-0.030216567 31:0.0042079068 32:0.010712743 33:0.0057590301 34:0.0039731157 35:0.0022296247 36:-0.012396914 37:-0.012807109 38:0.0030148965 39:0.0026626212 40:0.0034725859 41:-0.00015808034 42:-0.0015939476 43:0.012705991 44:0.0016014397 45:0.0040470394 46:-0.0023107384 47:0.0034446572 48:0.0020539693 49:0.0048818244 50:0.011922067 51:0.00052660127 52:-0.0068974039 53:0.0069231289 54:-0.0039040383 55:-0.0050405213 56:0.0031210599 57:-0.00064476021 58:-0.0011086043 59:-0.0024779458 60:0.012046976 61:-0.00030292853 62:0.006973356 63:-0.0038115131 64:0.0036063658 #
-8.1318924289973359975647326791659 1:0.36581463 2:0.21479475 3:0.056370236 4:-0.037242547 5:-0.0069810022 6:0.15733762 7:-0.0080148662 8:-0.12378088 9:-0.054192379 10:0.027228452 11:-0.03929073 12:-0.00047154722 13:0.011892871 14:0.027077571 15:0.032728016 16:-0.0028078919 17:-0.0062084482 18:0.0064184535 19:-0.025693307 20:0.047888629 21:-0.037953109 22:-0.022983501 23:0.0022128797 24:-0.054717187 25:0.017783336 26:-0.011436264 27:-0.020003175 28:-0.02236844 29:-0.0059895338 30:0.011337467 31:-0.017244818 32:0.02120902 33:-0.0042743436 34:-0.020424495 35:0.012965627 36:-0.0031058209 37:0.0095007373 38:0.0032833526 39:0.0056015374 40:-0.0089166621 41:-0.019051975 42:-0.032118563 43:0.011885366 44:0.0095685013 45:0.0097393785 46:0.00066552177 47:0.0041839923 48:-0.008700788 49:-0.010978484 50:0.001686778 51:0.0058475151 52:0.0093030324 53:-0.0069036675 54:0.0096965749 55:0.0031443271 56:0.0073201433 57:-0.008820584 58:0.011170048 59:-0.0050926544 60:0.0030417647 61:0.0084175533 62:-0.0011849304 63:0.0062165838 64:0.0025979872 #
-8.1318924289973359975647326791659 1:-0.28807363 2:0.15149237 3:-0.045714334 4:0.090742663 5:0.12057592 6:-0.065119423 7:0.10695539 8:-0.11856474 9:0.10220169 10:0.072846241 11:0.0084444201 12:-0.058473714 13:-0.049617082 14:0.047423318 15:-0.02854044 16:-0.0058677648 17:0.0085806437 18:-0.012384777 19:-0.024778895 20:0.0040938053 21:0.016631765 22:0.043390673 23:-0.029649328 24:-0.027024189 25:-0.044605855 26:0.0075319302 27:-0.032540396 28:-0.016529046 29:0.020320002 30:-0.013145019 31:0.0082839122 32:-0.0020987408 33:-0.03958907 34:0.020947559 35:0.015549833 36:-0.01051308 37:-0.011304333 38:0.0058873277 39:0.0023002985 40:-0.012041537 41:0.0065650735 42:-0.0073051928 43:-0.013541605 44:-0.0031538454 45:0.0017141561 46:0.0067240531 47:0.020538444 48:0.026207086 49:0.0012821152 50:0.024029862 51:0.012518538 52:0.0046290173 53:0.02130764 54:0.0070930263 55:0.0076585906 56:-0.0024884623 57:-0.00698093 58:0.0014840579 59:-0.0042965761 60:-0.015834987 61:-0.010669125 62:0.0013844781 63:0.00038331628 64:-0.0047833119 #
8.1318924289973359975647326791659 1:-0.29508525 2:0.13404782 3:-0.058740485 4:0.018399166 5:0.029450625 6:-0.059979897 7:-0.032724936 8:-0.048089251 9:0.023879252 10:0.0090755643 11:0.0089520421 12:-0.035123054 13:-0.011863028 14:0.025439814 15:0.0036083111 16:0.0010098137 17:-0.013297183 18:-0.0017402129 19:-0.035443239 20:-0.011876178 21:0.010818719 22:0.027209407 23:0.010689654 24:-0.0058106673 25:0.02708682 26:-0.0024987694 27:0.0086402204 28:-0.0023074255 29:0.0077155591 30:0.021694256 31:0.00094613578 32:-0.0061857412 33:0.011197221 34:-0.015574407 35:-0.012329439 36:-0.01325202 37:-0.006051688 38:-0.0046039438 39:-0.0036228267 40:0.0053182943 41:-0.024554554 42:-0.0043684994 43:-0.030970408 44:0.0035156652 45:0.0010172444 46:0.0039521446 47:-0.004013686 48:0.015700044 49:0.0069252644 50:-0.0059629502 51:-0.0065687364 52:0.0074846935 53:-0.0095018856 54:-0.0082537439 55:0.0027136642 56:-0.0057825078 57:-0.0006703643 58:-0.00048653912 59:0.0075816466 60:0.011281809 61:0.0055699605 62:0.014183914 63:-0.0023661975 64:0.014662449 #
8.1318924289973359975647326791659 1:0.24106722 2:-0.067166239 3:-0.17814846 4:0.021344118 5:0.14978176 6:0.044505585 7:-0.0074660326 8:0.12614439 9:-0.012622894 10:0.033805218 11:-0.01853865 12:-0.070088357 13:-0.050452452 14:-0.050532341 15:-0.001029487 16:0.07145565 17:0.00021647134 18:-0.012930577 19:0.0048569776 20:0.050446626 21:-0.011726015 22:-0.0056062862 23:0.0080818469 24:-0.015217857 25:0.026619956 26:0.03030053 27:-0.019736886 28:0.052143183 29:-0.0044387546 30:0.020326572 31:-0.00090767269 32:0.030982066 33:0.012317291 34:0.036321722 35:-0.016515234 36:-0.010571641 37:0.010769182 38:0.028723443 39:-0.0064187865 40:0.0009224012 41:-0.013756371 42:0.017694248 43:-0.0067693111 44:-0.00030117863 45:-0.0015267357 46:0.01999234 47:0.0010842216 48:-0.012858836 49:-0.0047549396 50:-0.018812142 51:0.0028281142 52:0.0054348707 53:0.02757448 54:0.0095116366 55:0.011348709 56:0.044532467 57:0.020468624 58:0.00010951866 59:-0.00095762522 60:0.018233195 61:0.002847024 62:0.0025982584 63:-0.01118525 64:-0.0039205891 #
-8.1318924289973359975647326791659 1:0.20543966 2:-0.055684716 3:-0.21221939 4:-0.089645341 5:0.12121651 6:-0.026811952 7:-0.14283538 8:0.12655644 9:-0.040528838 10:0.020834174 11:0.019054869 12:-0.036686011 13:-0.027135909 14:-0.053454455 15:0.0071320054 16:0.033023596 17:0.022148229 18:0.052770842 19:0.07200478 20:0.029768962 21:0.016543763 22:0.050102755 23:0.028518816 24:0.0059267068 25:0.0012643263 26:-0.0027318415 27:-0.01870162 28:-0.017162766 29:-0.02745912 30:0.0073317485 31:-0.0034944399 32:-0.017093239 33:-0.013393128 34:0.0052105319 35:-0.0049704234 36:-0.0042618513 37:0.0057870923 38:-0.0049261227 39:0.039665889 40:-0.0013560458 41:-0.027308248 42:-0.0058366144 43:0.016282948 44:-0.014652357 45:-0.0022364203 46:-0.0042274198 47:-0.014491199 48:-0.0061545414 49:-0.0086770356 50:-0.0024312674 51:0.0066950624 52:0.023669111 53:0.004249909 54:0.0029321634 55:0.0037627881 56:0.011506086 57:0.022649651 58:-0.016607761 59:0.012996318 60:-0.0079033291 61:-0.0094912685 62:0.0016757338 63:-0.0082686013 64:0.01251387 #
0.7627849197858194152388477959903 1:-0.32329646 2:0.17292735 3:-0.11450528 4:-0.0045928769 5:-0.0012869643 6:-0.009693386 7:0.089087188 8:-0.043764323 9:0.069646783 10:0.046280857 11:0.013292521 12:-0.06181417 13:-0.021017794 14:0.04201157 15:-0.01054519 16:-0.015721144 17:-0.020028701 18:-0.0013379961 19:-0.026712328 20:-0.0053731715 21:0.0096993521 22:0.050664082 23:-0.017412284 24:-0.0034443964 25:0.017430233 26:-0.0024883589 27:-0.0011480126 28:-0.013091296 29:0.010182856 30:0.010150718 31:-0.0077064917 32:-0.0075704446 33:-0.0046846806 34:0.006670713 35:0.013917543 36:-0.0071663456 37:-0.016187781 38:0.012307963 39:0.0066740992 40:-0.0025226218 41:0.016239671 42:0.0015621468 43:0.01817238 44:0.018129053 45:-0.0011781695 46:-0.014776609 47:-0.010882678 48:-0.014901088 49:-0.0023709973 50:0.014337405 51:-0.017458731 52:-0.0052828044 53:0.0055586132 54:0.005003205 55:-0.024265395 56:0.015637051 57:0.012043158 58:-0.0058892495 59:-5.8632639e-05 60:-0.017034752 61:0.010290132 62:0.0064450759 63:-0.0017456842 64:-0.010069498 #
8.1318924289973359975647326791659 1:0.16289927 2:-0.13299407 3:-0.18343078 4:-0.098192662 5:0.076662019 6:-0.057854529 7:-0.096077017 8:0.039165422 9:-0.090017617 10:0.001385505 11:0.02632677 12:-0.021060558 13:-0.011922175 14:-0.0022729659 15:0.0060657505 16:0.00041371988 17:0.018107712 18:0.073837839 19:0.020862032 20:0.0097133117 21:0.0080694333 22:0.044917051 23:-0.0090653664 24:0.0017863694 25:-0.004608938 26:0.00070295518 27:-0.0036819356 28:-0.00063496537 29:0.0025043169 30:-0.0074056871 31:0.018716037 32:0.0032056605 33:0.0037791629 34:0.0040639872 35:0.010915989 36:0.0014357415 37:-0.006710785 38:-0.011932234 39:0.004396745 40:0.013695096 41:-0.016682116 42:0.0086078187 43:0.02035079 44:0.003367899 45:-0.017407231 46:0.020091666 47:-0.0085005555 48:-0.00018606998 49:-0.004149572 50:0.001105583 51:-0.0023350574 52:0.0087978086 53:-0.0064672441 54:-0.0069501717 55:0.0046031452 56:-0.0043536718 57:0.00047360174 58:0.00022897315 59:0.012261743 60:-0.011863167 61:-0.0048663323 62:0.00050856429 63:0.0028674721 64:0.010713245 #
8.1318924289973359975647326791659 1:0.16371925 2:-0.15063158 3:-0.15792255 4:-0.056499928 5:0.080737136 6:-0.040339753 7:-0.033279743 8:0.03675925 9:-0.071264215 10:0.005170037 11:0.013426629 12:-0.025028609 13:-0.019460395 14:0.0032224793 15:0.0039660782 16:0.023366986 17:0.014820001 18:0.03029732 19:-0.01223403 20:0.006575041 21:0.0055195661 22:0.024528177 23:-0.0051338263 24:-0.0040186811 25:0.0022433393 26:0.0077233119 27:-0.0016545062 28:0.0063455426 29:0.0044086752 30:-0.0079594981 31:0.019482916 32:0.018659271 33:0.015565133 34:0.010504012 35:0.0044712927 36:0.013200642 37:-0.010776081 38:-0.0061257095 39:-0.0086575244 40:0.0012255587 41:-0.0046136784 42:0.0044279597 43:-0.0024288711 44:0.0041530812 45:-0.0053614089 46:0.0079284618 47:0.0090358146 48:-0.0075065442 49:-0.0096640689 50:0.005714701 51:-0.0063234135 52:0.0053474754 53:0.002144157 54:-0.0020984858 55:0.0020826468 56:-0.0082229171 57:0.0054050405 58:-0.0064572627 59:-0.004766643 60:-0.0034716662 61:0.004317713 62:0.0088092042 63:0.0035993254 64:0.0068479134 #
-8.1318924289973359975647326791659 1:0.26670352 2:-0.13493179 3:-0.15477683 4:-0.024046626 5:0.18321379 6:0.053019233 7:0.14527828 8:0.13577992 9:-0.047859162 10:0.066108182 11:-0.013999133 12:-0.051006012 13:-0.073926799 14:-0.030459784 15:-0.0048759817 16:0.041834559 17:0.023583658 18:0.043688796 19:0.040071856 20:0.040368814 21:0.011488375 22:0.030856783 23:0.025164375 24:0.002032869 25:0.0083342325 26:-0.0027396979 27:-0.02240772 28:-0.0029193542 29:-0.031365562 30:0.01871172 31:0.0085882107 32:0.0088109905 33:1.3061775e-05 34:0.019022146 35:-0.010460765 36:-0.026936069 37:0.0091811419 38:0.01903861 39:0.040838696 40:-0.0028484871 41:-0.010757555 42:-0.0075528305 43:0.0021979292 44:-0.026698396 45:-0.0084794667 46:0.0045902934 47:-0.0081322407 48:-0.01117728 49:0.0055825314 50:-0.01352727 51:0.0065259477 52:0.007474923 53:0.006550259 54:-0.010129035 55:0.0037394024 56:0.0048562032 57:0.022492291 58:-0.018879574 59:0.024047351 60:-0.012166526 61:-0.0091186026 62:-0.011300939 63:-0.012582546 64:0.013933714 #
-8.1318924289973359975647326791659 1:-0.25848767 2:0.1702697 3:-0.10681029 4:-0.046361204 5:0.060783401 6:-0.092376158 7:-0.058289833 8:-0.095480949 9:0.070753574 10:0.04035743 11:0.025694089 12:-0.067561403 13:-0.045586906 14:0.051312566 15:-0.014754535 16:-0.029869337 17:0.025019554 18:-0.015521725 19:0.012962922 20:0.025316112 21:0.0018110048 22:0.024913562 23:-0.02294042 24:-0.020319989 25:-0.046020173 26:-0.01539145 27:0.0071272487 28:0.012605836 29:0.0076370654 30:0.030973671 31:0.02665798 32:0.0051431702 33:-0.036946639 34:-0.024024654 35:-0.026215021 36:-0.024041528 37:-0.0074868323 38:-9.0591035e-05 39:-0.0053412369 40:-0.01387638 41:-0.018762274 42:-0.00020932603 43:-0.023170134 44:-0.0058809216 45:0.0058720815 46:0.016422566 47:0.02129801 48:0.031606719 49:0.0044160555 50:0.023807617 51:0.0090984041 52:0.0034248244 53:0.017180404 54:0.0061675878 55:-0.013141669 56:0.0070738317 57:0.0014514097 58:0.0014059708 59:-0.0042381724 60:-0.006244991 61:-0.0069734859 62:-2.4056764e-05 63:-0.002790032 64:0.00044008106 #
-8.1318924289973359975647326791659 1:-0.25092682 2:0.16138832 3:-0.048495311 4:-0.022229811 5:0.1479706 6:-0.060434379 7:0.034126163 8:-0.11082731 9:0.080444247 10:0.041170385 11:0.018530605 12:-0.051520903 13:-0.043981142 14:0.039982148 15:-0.0060492288 16:-0.026923385 17:0.040349014 18:-0.044433903 19:0.0044783279 20:0.027199605 21:0.0041492279 22:0.046662811 23:-0.038262729 24:-0.016206946 25:-0.05064648 26:-0.017699264 27:-0.0087234862 28:0.0099660717 29:-0.0028688889 30:0.025644649 31:0.010129197 32:-0.0051859687 33:-0.028868368 34:-0.017470876 35:-0.011051028 36:-0.0041390606 37:-0.018405871 38:-0.0041849082 39:0.0063721659 40:-0.0097578932 41:0.00055468647 42:0.015418356 43:-0.0041345963 44:-0.00091255078 45:0.018964028 46:0.0084504653 47:0.01623863 48:0.01307649 49:-0.0020789846 50:0.027317485 51:0.011893 52:0.005074135 53:0.028920585 54:0.0062404978 55:0.01051659 56:-0.0058994242 57:-0.010993468 58:0.002830382 59:-0.0098563619 60:-0.008522504 61:-0.0043823863 62:0.0043049217 63:0.0017322059 64:-0.0038198051 #
8.1318924289973359975647326791659 1:0.23157045 2:-0.11265103 3:-0.18247092 4:-0.10133361 5:0.15915966 6:0.01419937 7:0.0082894899 8:0.094265439 9:-0.082933635 10:0.055642907 11:0.016248425 12:-0.041569147 13:-0.047081392 14:-0.028273588 15:0.017745048 16:0.065832242 17:0.020846648 18:0.03573633 19:-0.037384525 20:0.022597117 21:-0.02110135 22:0.032896429 23:-0.03117238 24:-0.019443102 25:0.023655897 26:0.036920536 27:-0.014820874 28:0.038847353 29:0.01262263 30:-0.013243938 31:0.037419491 32:0.0013893214 33:0.024756867 34:0.0061069378 35:0.010986505 36:-0.0065725781 37:-0.0007050428 38:-0.013768289 39:-0.055248883 40:0.0044683227 41:0.005168316 42:-0.0013482686 43:0.017376676 44:0.034873206 45:0.0020870694 46:0.033242773 47:0.0035339703 48:0.0070974967 49:-0.0026730828 50:0.010182862 51:-0.012984248 52:-0.002073671 53:-0.00081552734 54:0.00012491657 55:0.013578573 56:0.0035059692 57:0.023079904 58:0.0019774931 59:-0.013359637 60:-0.010248582 61:-0.004039309 62:0.003500575 63:0.02558573 64:0.017156465 #
-8.1318924289973359975647326791659 1:0.32034144 2:0.16424718 3:-0.017647199 4:0.060142182 5:0.031185381 6:0.16475703 7:-0.053409193 8:-0.010369404 9:0.087683454 10:-0.04116175 11:-0.060253132 12:0.076219372 13:-0.005442413 14:0.095373139 15:0.037863597 16:-0.070704639 17:0.021884421 18:0.04694492 19:-0.05368387 20:-0.045550093 21:-0.047068659 22:-0.023981949 23:-0.043895081 24:-0.0046223179 25:-0.0050790138 26:0.015913343 27:0.029704571 28:0.046703849 29:0.027934715 30:-0.013043242 31:0.01666699 32:-0.0035483812 33:0.012629847 34:0.017076138 35:0.0024426074 36:-0.002564284 37:0.0080634831 38:-0.016382199 39:-0.011718011 40:0.0087590395 41:0.007581606 42:0.040799659 43:-0.0090924315 44:0.0012719308 45:-0.023060605 46:0.0010941995 47:0.00091358222 48:0.0049644238 49:0.0092760166 50:-0.012728251 51:-0.019170586 52:-0.0041464632 53:0.027245028 54:-0.012403139 55:0.00037785224 56:-0.0042822417 57:-0.0050607142 58:-0.017423503 59:-0.0024420989 60:0.0025633045 61:0.0041648946 62:-0.0040546823 63:-0.01263466 64:0.00042742796 #
-8.1318924289973359975647326791659 1:0.26360002 2:-0.0307869 3:-0.15314069 4:-0.013275702 5:0.16560464 6:0.074140102 7:-0.010242682 8:0.15005 9:0.042719737 10:0.019367037 11:-0.018938629 12:-0.036326341 13:-0.05145929 14:-0.052378893 15:-0.0051378049 16:0.074087851 17:0.0082752975 18:-0.027849922 19:0.017270193 20:0.011406625 21:-0.0038488319 22:0.024831785 23:0.019057427 24:-0.0042966502 25:0.0091305198 26:0.013128077 27:-0.0063779228 28:-0.0044711358 29:-0.0083523178 30:-0.0047264965 31:0.0054521193 32:-0.0095687127 33:-0.0011821206 34:-0.0063067325 35:0.0044199061 36:-0.011880936 37:-0.0030422714 38:-0.0076597836 39:0.0034640678 40:-0.0045755412 41:0.0034083386 42:-0.0065156389 43:0.0016718077 44:-0.0034515287 45:-0.0092857806 46:0.0086691957 47:-0.010442844 48:-0.0004885344 49:-0.0082713049 50:0.01309717 51:-0.00057922438 52:0.013024061 53:-0.011684445 54:0.020123821 55:0.0097847125 56:0.011957889 57:-0.01225218 58:0.0088477079 59:-0.0052780486 60:0.013229324 61:0.0078038042 62:0.018105054 63:-0.0071608163 64:-0.012589756 #
8.1318924289973359975647326791659 1:-0.28774512 2:0.090072796 3:0.0060174125 4:0.058145061 5:0.032469444 6:-0.022820266 7:0.04342908 8:-0.047054742 9:0.053035997 10:0.051389184 11:0.011464773 12:-0.026255338 13:-0.022405338 14:0.05985336 15:-0.033748202 16:0.041142765 17:0.023313111 18:-0.013728022 19:-0.025299892 20:0.0032772664 21:0.014592661 22:0.022206686 23:-0.013534898 24:-0.011713561 25:-0.010892178 26:-0.013268728 27:-0.013236831 28:-0.00045205405 29:0.0016078523 30:-0.0040059877 31:-0.0052229734 32:-0.0043421448 33:0.012733079 34:0.0047328146 35:-0.0076437877 36:0.013227243 37:0.016607672 38:-0.01558785 39:-0.0079832105 40:0.011772157 41:-0.010243265 42:-0.014035147 43:-0.013491339 44:0.00067300507 45:-0.019858161 46:-0.0011922781 47:-0.0069667324 48:0.0036848346 49:0.0040714783 50:0.0016815952 51:0.015234222 52:-0.0059122862 53:0.0025261992 54:-0.0038280694 55:0.01628105 56:-0.0040682014 57:-0.0035735173 58:0.0063166544 59:0.0070017893 60:-0.012833602 61:-0.0046782969 62:-0.0031638073 63:0.0056922236 64:-0.0093184114 #
-8.1318924289973359975647326791659 1:-0.31427258 2:0.073666871 3:0.050113767 4:0.067628577 5:-0.043474294 6:0.064890765 7:0.10218363 8:0.058689412 9:-0.02426015 10:-0.033559687 11:-0.014323629 12:-0.037954632 13:0.016703693 14:0.018797696 15:-0.0055241007 16:0.057136044 17:-0.023239179 18:0.031542882 19:-0.044629693 20:-0.049923599 21:-0.0054875142 22:0.029698372 23:0.010153808 24:-0.0011027363 25:0.022604756 26:-0.035074927 27:-0.017662771 28:0.0056397612 29:0.010599974 30:-0.0070809037 31:-0.014481439 32:-0.012856949 33:0.020621784 34:-0.0085054245 35:-0.00093126256 36:0.0073289154 37:0.012479343 38:0.0071562696 39:0.002499013 40:0.0070996992 41:-0.0050745588 42:-0.004198249 43:0.0010946799 44:0.0078471024 45:-0.015132071 46:0.00010215832 47:0.013262428 48:-0.0076837428 49:-0.00079119491 50:0.0098226611 51:0.0014314924 52:-0.018487729 53:0.0016101104 54:0.011004956 55:-0.015432303 56:0.0028286264 57:0.00053117878 58:-0.0087477472 59:-0.0050635389 60:-0.003839178 61:-0.0067783887 62:-0.0051177386 63:0.00099137565 64:-0.0022259804 #
-1.9662796657358203589183176518418 1:-0.35943609 2:0.10802452 3:-0.099559188 4:-0.096512124 5:-0.15712543 6:0.098769113 7:0.063606657 8:0.083297595 9:-0.043846294 10:-0.051978875 11:-0.016250378 12:0.012731189 13:0.0061366875 14:-0.018203646 15:-0.0016324333 16:0.02019985 17:-0.012849255 18:0.0017995727 19:-0.036393035 20:-0.00018090638 21:0.0097465543 22:-0.010818403 23:-0.0059496895 24:-0.018985564 25:-0.041109327 26:0.028556017 27:-0.015918957 28:-0.0071837958 29:-0.001730219 30:-0.021674439 31:0.0024987019 32:0.0060015563 33:-0.0038963566 34:0.011527617 35:0.0080111157 36:0.0020082588 37:-0.0098451953 38:-0.015038112 39:0.0080146082 40:0.02572329 41:-0.013689094 42:0.011832085 43:0.017297747 44:0.0016461849 45:0.018244622 46:-0.013456943 47:0.01604392 48:-0.0028962176 49:-0.0015414727 50:0.0064079431 51:0.00964138 52:0.0075716842 53:0.0053734574 54:-0.019695099 55:-0.0012412597 56:0.0095486315 57:-0.00027523938 58:-0.0049039423 59:-0.020556031 60:0.0034167978 61:-0.0012560014 62:0.010456843 63:-0.004125033 64:-0.0011282325 #
8.1318924289973359975647326791659 1:0.31024376 2:0.053505719 3:-0.08084818 4:0.049116012 5:0.11569982 6:0.15157875 7:0.0053197974 8:0.086365595 9:0.082877785 10:-0.026504224 11:-0.0471377 12:-0.035137288 13:-0.042348735 14:-0.019694699 15:-0.051857546 16:0.006309587 17:-0.04984599 18:0.0096298205 19:0.0079659037 20:0.050045613 21:0.0096633509 22:0.014926556 23:0.051397644 24:0.007318228 25:-0.020359421 26:-0.026793137 27:-0.0055187638 28:-0.0098282453 29:0.0058319867 30:0.0054185041 31:-0.0088422764 32:0.014538358 33:-0.0051448075 34:-0.0003240635 35:0.012412895 36:-0.026983188 37:0.019371172 38:-0.0068149031 39:0.032668214 40:0.01034645 41:-0.010624076 42:0.017313875 43:0.0049088174 44:-0.021950856 45:-0.019435627 46:-0.0096053053 47:-0.016967347 48:0.0013634728 49:-0.011101083 50:-0.004976992 51:0.015474526 52:0.013091396 53:-0.0085617211 54:0.0092029404 55:-0.012842705 56:0.00030634383 57:-0.028956916 58:0.0069137113 59:0.012033127 60:0.0031422286 61:0.0019147937 62:0.00051944144 63:-0.0084443418 64:-0.0032663618 #
