SVM-light Version V6.02
0 # kernel type
3 # kernel parameter -d 
1 # kernel parameter -g 
1 # kernel parameter -s 
1 # kernel parameter -r 
empty# kernel parameter -u 
25 # highest feature index 
1684 # number of training documents 
649 # number of support vectors plus 1 
-0.22421541 # threshold b, each following line is a SV (starting with alpha*y)
-8.4952990418420188944992332835682 1:0.13759539 2:-0.091504455 3:-0.21398105 4:0.09213876 5:0.067458674 6:-0.085162409 7:-0.096727163 8:0.10762618 9:-0.063145317 10:0.029009538 11:-0.0043743984 12:-0.040175989 13:-0.020480506 14:-0.034210432 15:0.013562134 16:0.058231469 17:0.034580942 18:-0.00082804414 19:0.021978986 20:0.026163423 21:0.012801622 22:0.030477235 23:0.026572913 24:0.0057812645 25:0.0089474441 #
-8.4952990418420188944992332835682 1:-0.32319838 2:0.18926534 3:-0.1521865 4:0.001544574 5:-0.011101715 6:-0.082202576 7:-0.024392363 8:-0.07914187 9:0.069478415 10:0.05409921 11:0.025852576 12:-0.053981885 13:-0.033474602 14:0.035971306 15:-0.018886156 16:-0.0027566387 17:-0.020036211 18:-0.0096138436 19:-0.059770785 20:0.0091452738 21:0.0068620173 22:0.037818246 23:-0.023748815 24:-0.043676943 25:-0.053199716 #
-8.4952990418420188944992332835682 1:0.059273656 2:-0.23231474 3:-0.046307165 4:-0.099698536 5:-0.039410148 6:-0.058347479 7:-0.077666707 8:-0.079185158 9:0.013879467 10:-0.098557852 11:0.0054131364 12:-0.033314392 13:0.023249051 14:-0.0049743215 15:0.010469318 16:0.009844766 17:0.0017145848 18:0.049668211 19:0.014619903 20:-0.0073512448 21:0.0021574835 22:0.029627694 23:0.0010389031 24:0.00052584842 25:-0.012764322 #
-8.4952990418420188944992332835682 1:-0.20130073 2:-0.07765121 3:0.23675646 4:0.15445629 5:-0.03949092 6:0.058935992 7:-0.070729807 8:0.15493961 9:-0.076977223 10:0.093841054 11:0.036675014 12:0.004365697 13:0.045080751 14:0.081348032 15:-0.049540348 16:0.027764941 17:-0.065412194 18:-0.020513261 19:-0.0031187567 20:-0.010938913 21:-0.03134476 22:0.00023609641 23:-0.020831279 24:-5.1327279e-06 25:-0.01381471 #
-8.4952990418420188944992332835682 1:0.10254516 2:-0.19762713 3:-0.069848962 4:-0.034436043 5:-0.0022995884 6:-0.033090867 7:-0.027485255 8:-0.025813343 9:0.001090147 10:0.062040433 11:-0.022476008 12:0.046174183 13:-0.032543931 14:-0.040045217 15:0.017250918 16:-0.018561635 17:-0.010620262 18:-0.028205549 19:-0.0065556183 20:-0.016764762 21:-0.012117019 22:-0.0022239154 23:0.0034292368 24:0.016970297 25:0.011684359 #
8.4952990418420188944992332835682 1:-0.21948037 2:0.006605729 3:-0.040408902 4:0.043411631 5:-0.039033841 6:-0.015264094 7:-0.032368191 8:-0.03238748 9:0.047885925 10:0.062432408 11:-0.0061297705 12:0.010927352 13:0.00074142631 14:-0.019578548 15:-0.002997549 16:0.015711432 17:-0.043148391 18:-0.026701702 19:-0.01465918 20:-0.010966405 21:-0.036507815 22:0.0059319427 23:-0.010274378 24:-0.00046660632 25:-0.017823951 #
8.4952990418420188944992332835682 1:0.35283989 2:0.20656002 3:0.073985189 4:-0.069603972 5:-0.0056026299 6:0.083673619 7:0.038217582 8:-0.049487822 9:-0.00069501682 10:0.0027580112 11:0.015259138 12:0.036469717 13:-0.02748438 14:0.031349115 15:0.030911315 16:-0.0098042572 17:-0.015009862 18:0.029722564 19:-0.041622162 20:0.022776151 21:-0.049447153 22:-0.013928407 23:0.010932232 24:-0.023294339 25:-0.0021551356 #
8.4952990418420188944992332835682 1:-0.26800436 2:0.086228535 3:0.017687242 4:-0.012610424 5:0.051488653 6:-0.0017398172 7:0.01482132 8:-0.036122072 9:0.04003875 10:0.038394388 11:0.026225198 12:-0.016894577 13:-0.0039433227 14:0.057422232 15:-0.020700442 16:0.028979052 17:0.04980509 18:-0.0285383 19:0.016024871 20:0.013979365 21:0.0093705449 22:0.0076615764 23:-0.014056618 24:0.0082850726 25:0.0022671446 #
8.4952990418420188944992332835682 1:0.091327935 2:-0.17739862 3:-0.047059923 4:-0.017128397 5:0.081651881 6:0.034527507 7:0.039843701 8:-0.0044886107 9:-4.3050979e-05 10:0.029252009 11:-0.031224022 12:-0.010949314 13:0.0090883542 14:-0.0047389348 15:0.0092896055 16:-0.030016776 17:-0.031954817 18:-0.022962077 19:0.0065777609 20:-0.0092816288 21:-0.025657829 22:-0.028608095 23:-0.023180379 24:0.0048819175 25:0.00057004078 #
8.4952990418420188944992332835682 1:0.11067668 2:-0.18338433 3:-0.067050569 4:0.078065783 5:0.069206752 6:0.03375984 7:0.058649238 8:0.025148682 9:-0.016793482 10:0.026023138 11:-0.03585365 12:-0.049768858 13:0.014585938 14:-0.006519685 15:0.0013946116 16:-0.037269589 17:-0.047863152 18:0.0031204615 19:0.033928249 20:0.0012267689 21:-0.016140675 22:-0.025060348 23:-0.024297029 24:0.0040881531 25:-0.0069840169 #
-8.4952990418420188944992332835682 1:0.4795773 2:0.4901261 3:-0.064975783 4:0.35376936 5:-0.18528073 6:0.62905258 7:0.53473222 8:-0.074396364 9:0.27737635 10:0.13919559 11:0.60105133 12:0.423722 13:0.77796078 14:-0.077533036 15:0.16697626 16:0.11712821 17:0.27087608 18:0.053684 19:0.050903078 20:0.094967626 21:0.084109604 22:0.35880053 23:0.13003904 24:0.22206856 25:0.0021758706 #
-8.4952990418420188944992332835682 1:-0.061259512 2:-0.089919195 3:0.27476978 4:-0.12908277 5:0.061437368 6:0.14323287 7:-0.090578981 8:0.16029772 9:-0.054521449 10:0.10882954 11:0.070549153 12:-0.0024436342 13:0.019990256 14:0.074938819 15:-0.035490856 16:-0.020679932 17:-0.045809828 18:-0.03984715 19:0.018154273 20:0.016104272 21:-0.018991234 22:0.029100571 23:-0.033658329 24:0.00083517318 25:0.0033649423 #
-8.4952990418420188944992332835682 1:-0.11001765 2:-0.079670586 3:0.2859509 4:-0.023049207 5:0.059779879 6:0.12894607 7:-0.048562624 8:0.16382767 9:-0.073795751 10:0.089760132 11:0.050094921 12:0.0019006727 13:0.032803219 14:0.088784769 15:-0.044417456 16:0.004634202 17:-0.046016857 18:-0.031037984 19:0.042519938 20:0.0027315768 21:-0.045053869 22:0.0010129743 23:-0.02969202 24:0.017418217 25:-0.0074891429 #
-8.4952990418420188944992332835682 1:-0.21622093 2:0.16800256 3:-0.049367543 4:-0.11413573 5:0.17898646 6:-0.050739903 7:-0.00020107323 8:-0.11672528 9:0.091409586 10:0.05184824 11:0.040074453 12:-0.051290095 13:-0.033690553 14:0.05027616 15:-0.0083522722 16:-0.019914346 17:0.050678622 18:-0.03998664 19:0.022831945 20:0.02173996 21:0.00082800555 22:0.0083302958 23:-0.020945854 24:-0.0063484586 25:-0.026945537 #
8.4952990418420188944992332835682 1:0.052835073 2:-0.12954094 3:-0.14038219 4:0.11884239 5:-0.01173406 6:-0.10018242 7:-0.11094421 8:0.026669875 9:-0.061237905 10:-0.02139706 11:-0.010788694 12:-0.029640654 13:0.014920102 14:0.0023895446 15:-0.018976696 16:0.0011816667 17:-0.0098851416 18:0.034290839 19:-0.017032731 20:0.0054906891 21:0.016704815 22:0.037084173 23:-0.0055845724 24:-0.0045646504 25:-0.005871776 #
8.4952990418420188944992332835682 1:0.16845304 2:-0.071173131 3:-0.20809402 4:0.097157784 5:0.079584591 6:-0.041998807 7:-0.10568699 8:0.1075392 9:-0.046763148 10:0.017160164 11:-0.014210206 12:-0.069731206 13:-0.0330268 14:-0.050849233 15:-0.00045572832 16:0.049995761 17:0.0021872763 18:0.027669003 19:0.025756132 20:0.045204286 21:0.0069246506 22:0.039419051 23:-0.001500746 24:-0.011454822 25:0.022440394 #
-8.4952990418420188944992332835682 1:0.18850066 2:-0.17604424 3:-0.24136041 4:-0.092277087 5:0.15432957 6:-0.060238406 7:-0.005898762 8:0.083753012 9:-0.18922094 10:0.11087127 11:0.038336538 12:-0.030680984 13:-0.037633073 14:-0.0047806953 15:0.089351006 16:0.034856111 17:0.094161153 18:0.085733294 19:-0.026973234 20:-0.013638718 21:-0.050129764 22:0.037105069 23:-0.052337177 24:0.021015909 25:-0.0060460581 #
8.4952990418420188944992332835682 1:-0.08141382 2:-0.12531947 3:0.1238184 4:0.047210861 5:0.0040156823 6:0.037785184 7:0.040143497 8:-0.0050428961 9:0.032214608 10:0.019082433 11:-0.0025684603 12:-0.0023932168 13:-0.0090509038 14:-0.030001683 15:0.015312441 16:-0.0028281459 17:0.018798372 18:-0.003322114 19:-0.0016720388 20:0.0035689282 21:-0.00020479021 22:-0.0017315877 23:-0.0027274382 24:0.0077850441 25:-0.0022068731 #
-8.4952990418420188944992332835682 1:-0.24378996 2:0.14417776 3:-0.016206849 4:0.042500444 5:0.16886202 6:-0.037319276 7:0.13651921 8:-0.12009082 9:0.10800173 10:0.06925571 11:0.0075826356 12:-0.06738288 13:-0.059560105 14:0.057813402 15:-0.024966799 16:-0.027609905 17:0.03462743 18:-0.016889697 19:0.026822705 20:0.019881308 21:0.010498132 22:0.028190849 23:-0.031993229 24:-0.0085426038 25:-0.046528593 #
-8.4952990418420188944992332835682 1:-0.29202956 2:0.15107235 3:-0.051774677 4:0.069474764 5:0.11391129 6:-0.093618214 7:0.016262686 8:-0.11066284 9:0.071317285 10:0.045055408 11:0.011116718 12:-0.034049626 13:-0.03096416 14:0.027689343 15:-0.014045779 16:-0.0061900117 17:0.017718414 18:-0.025773181 19:-0.024517762 20:0.013419637 21:0.011175144 22:0.02795855 23:-0.025278486 24:-0.027296798 25:-0.059437592 #
-8.4952990418420188944992332835682 1:-0.27527621 2:0.14335942 3:0.0054075378 4:0.04359274 5:0.17545411 6:-0.042372268 7:0.075715341 8:-0.089940041 9:0.04660533 10:0.018050507 11:0.0033823377 12:-0.014347849 13:-0.021422084 14:0.008389187 15:0.0014286571 16:-0.021537738 17:0.032619286 18:-0.047150217 19:0.00019100768 20:0.025160642 21:0.003193175 22:0.039886888 23:-0.040119417 24:-0.013293785 25:-0.058137786 #
8.4952990418420188944992332835682 1:0.19184305 2:-0.10979263 3:-0.19372092 4:0.0079142796 5:0.11772367 6:-0.031971872 7:-0.038809042 8:0.092314012 9:-0.084447004 10:0.039975472 11:0.0035682376 12:-0.054929063 13:-0.040112652 14:-0.029576086 15:0.018438084 16:0.052534815 17:0.031421263 18:0.027237387 19:0.0010646195 20:0.034762368 21:-0.01567146 22:0.03067892 23:-0.026313119 24:-0.0067266268 25:0.027278041 #
8.4952990418420188944992332835682 1:0.18475723 2:-0.15182513 3:-0.17842853 4:0.010514951 5:0.10753967 6:-0.031426035 7:0.039844893 8:0.060839195 9:-0.093122393 10:0.040239021 11:0.0054478599 12:-0.034575593 13:-0.034552097 14:0.0076395557 15:0.024553712 16:0.037467096 17:0.046556778 18:0.017413698 19:-0.013022598 20:0.016327953 21:-0.02670151 22:-0.0092737926 23:-0.026009567 24:0.0067052236 25:0.01374085 #
-8.4952990418420188944992332835682 1:0.0059938817 2:-0.20095906 3:0.15582851 4:-0.033071809 5:-0.033221211 6:0.071690924 7:-0.0067647509 8:0.016551847 9:0.054975849 10:0.016811626 11:0.027496487 12:-0.057802845 13:0.0062298216 14:-0.0067293914 15:0.038214978 16:-0.017716646 17:0.012540235 18:-0.027285766 19:-0.0055946424 20:-0.0036500394 21:-0.0053413804 22:-0.0032647592 23:-0.0054023899 24:0.0057840124 25:0.008868834 #
-8.4952990418420188944992332835682 1:0.096912958 2:-0.23868129 3:-0.044976149 4:-0.032291342 5:-0.010864562 6:-0.0090281256 7:0.048435964 8:-0.10110836 9:0.02805941 10:-0.11310893 11:-0.018408297 12:-0.019901536 13:0.039899457 14:0.025885319 15:-0.025450461 16:0.042590082 17:-0.029517986 18:-0.0080021601 19:0.032559961 20:0.015984189 21:-0.02912271 22:0.013216525 23:-0.036772303 24:-0.0016149429 25:0.0017389093 #
-8.4952990418420188944992332835682 1:0.15546444 2:-0.22005121 3:-0.13083419 4:-0.10170742 5:0.059799772 6:-0.048868079 7:0.07223291 8:-0.054246396 9:-0.089785784 10:-0.026246348 11:0.0016921511 12:0.082041875 13:0.014529391 14:0.11129939 15:-0.073675677 16:-0.027813369 17:-0.030905813 18:-0.050073195 19:-0.012225246 20:0.0022713691 21:0.054914888 22:0.0069794646 23:0.069394514 24:-0.025847748 25:0.0074017318 #
8.4952990418420188944992332835682 1:0.0018662015 2:-0.16787849 3:0.10102006 4:-0.030663719 5:0.023502117 6:0.049500909 7:0.038157184 8:-0.0015187671 9:0.023647282 10:0.019496184 11:0.0055288882 12:0.00049706869 13:0.0043196213 14:-0.0094607631 15:0.011237917 16:-0.0098050693 17:-0.014940437 18:-0.022584904 19:0.023638016 20:0.0021547186 21:-0.045210831 22:-0.010257656 23:-0.015755417 24:0.020376196 25:0.0019199394 #
-8.4952990418420188944992332835682 1:0.22880511 2:-0.16819322 3:-0.14479049 4:-0.05720241 5:0.14803152 6:0.0069842809 7:0.12719788 8:0.074769743 9:-0.084973335 10:0.04821495 11:0.0023748889 12:-0.03125165 13:-0.042573676 14:0.0042699627 15:0.0049042515 16:0.042507771 17:0.041130036 18:0.022599259 19:0.024375457 20:0.038961817 21:6.539499e-05 22:0.012819129 23:0.0013636447 24:-0.0088014584 25:0.026313921 #
-8.4952990418420188944992332835682 1:0.22271168 2:-0.06103022 3:-0.16600659 4:0.087434947 5:0.13204597 6:0.027584257 7:0.0071880175 8:0.14509404 9:0.018582778 10:0.024591932 11:-0.029236708 12:-0.050975926 13:-0.054158948 14:-0.046127986 15:-0.001747411 16:0.064252362 17:0.019447405 18:-0.02220702 19:0.042996984 20:0.023006955 21:-0.00072648766 22:0.01576772 23:0.021517616 24:0.003485315 25:0.010503983 #
-8.4952990418420188944992332835682 1:0.2514621 2:0.0092956778 3:-0.12840423 4:0.23636259 5:0.067871675 6:0.11070665 7:0.060461182 8:0.10989246 9:0.074594587 10:0.0071575902 11:-0.062573612 12:-0.028076271 13:-0.051074632 14:-0.021553772 15:-0.025607932 16:-0.0048774509 17:-0.011035093 18:0.074097872 19:0.054884244 20:0.02992468 21:0.0050644167 22:0.036587391 23:0.010318056 24:0.0072914031 25:-0.00032269987 #
8.4952990418420188944992332835682 1:-0.30698225 2:0.056829266 3:0.039707169 4:0.028557673 5:-0.020324385 6:0.042076189 7:0.056696683 8:0.0089389887 9:0.021712324 10:0.033180661 11:0.014396057 12:0.0016307101 13:0.0060193441 14:0.036743879 15:-0.031354927 16:0.066920348 17:0.015981397 18:0.015062335 19:-0.036533698 20:-0.006146607 21:0.015038895 22:0.020983169 23:-0.015409376 24:-0.0087247845 25:-0.0038242808 #
-8.4952990418420188944992332835682 1:0.030044464 2:-0.19098012 3:0.114273 4:-0.07349202 5:0.0031631221 6:0.056859385 7:-0.026632871 8:0.038449965 9:0.0095673995 10:0.012532558 11:0.028175222 12:-0.044413392 13:0.00098062539 14:0.019531269 15:0.012078163 16:-0.0051628286 17:0.00093762332 18:-0.017584881 19:-0.00020641208 20:0.0037784723 21:-0.0044711027 22:0.00018851837 23:0.00047193017 24:0.0011715406 25:0.011193694 #
-8.4952990418420188944992332835682 1:-0.29033047 2:0.14494029 3:-0.018520368 4:0.020296771 5:0.1095469 6:-0.088024132 7:-0.079501845 8:-0.040912028 9:-0.039473906 10:-0.049032699 11:-0.0042829164 12:0.028596438 13:0.013478793 14:-0.041969005 15:0.019419016 16:-0.030137338 17:-0.027145693 18:-0.0063959477 19:-0.025050327 20:0.0011697741 21:0.00014444276 22:0.033796817 23:0.0038675673 24:0.0029491377 25:0.055277247 #
8.4952990418420188944992332835682 1:-0.070141368 2:-0.094946995 3:0.057081889 4:-0.037235659 5:0.011047256 6:-0.014307752 7:-0.082658164 8:-0.019594999 9:0.013000779 10:0.011778622 11:0.021569269 12:0.013651067 13:0.015823141 14:-0.01909049 15:0.013723166 16:-0.0093380846 17:0.01319481 18:-0.014793552 19:0.01567843 20:0.0040034601 21:-0.01654893 22:-0.0062143323 23:-0.0035558096 24:0.015410506 25:-0.0058379304 #
-8.4952990418420188944992332835682 1:-0.27336526 2:0.16171637 3:-0.056777585 4:0.01448069 5:0.13935819 6:-0.073768757 7:0.034011595 8:-0.12349901 9:0.09761411 10:0.065595746 11:0.03004821 12:-0.046710834 13:-0.025599137 14:0.048553191 15:-0.01242355 16:-0.0025553966 17:0.046004742 18:-0.050772812 19:-0.0012074811 20:0.018035654 21:0.0053135492 22:-0.0047036158 23:-0.022832353 24:-0.016331743 25:-0.046520256 #
8.4952990418420188944992332835682 1:0.31024376 2:0.053505719 3:-0.08084818 4:0.049116012 5:0.11569982 6:0.15157875 7:0.0053197974 8:0.086365595 9:0.082877785 10:-0.026504224 11:-0.0471377 12:-0.035137288 13:-0.042348735 14:-0.019694699 15:-0.051857546 16:0.006309587 17:-0.04984599 18:0.0096298205 19:0.0079659037 20:0.050045613 21:0.0096633509 22:0.014926556 23:0.051397644 24:0.007318228 25:-0.020359421 #
-8.4952990418420188944992332835682 1:0.26670352 2:-0.13493179 3:-0.15477683 4:-0.024046626 5:0.18321379 6:0.053019233 7:0.14527828 8:0.13577992 9:-0.047859162 10:0.066108182 11:-0.013999133 12:-0.051006012 13:-0.073926799 14:-0.030459784 15:-0.0048759817 16:0.041834559 17:0.023583658 18:0.043688796 19:0.040071856 20:0.040368814 21:0.011488375 22:0.030856783 23:0.025164375 24:0.002032869 25:0.0083342325 #
8.4952990418420188944992332835682 1:-0.27655375 2:0.014266506 3:-0.016327636 4:0.0026947386 5:-0.078323275 6:-0.011991857 7:-0.051535785 8:-0.010385583 9:0.018294003 10:0.059587628 11:0.0085564572 12:0.033542015 13:-0.023251025 14:-0.0022949129 15:-0.013566311 16:0.041519135 17:0.018645983 18:0.014979311 19:-0.046171814 20:0.0029893834 21:0.0033853787 22:0.0025085832 23:-0.0010798139 24:-0.0043970598 25:-0.0027666725 #
-8.4952990418420188944992332835682 1:-0.24462986 2:0.11093248 3:0.01292827 4:0.0016509135 5:0.14792152 6:-0.069580764 7:-0.049279485 8:-0.068364426 9:0.013080629 10:0.001064367 11:0.012586924 12:0.0006554444 13:-0.0086218175 14:0.0031865397 15:-0.00018880828 16:-0.017452372 17:0.036144897 18:-0.024066027 19:0.015572492 20:0.025577877 21:0.0040725111 22:0.0048452881 23:-0.020188274 24:-0.015276697 25:-0.065083288 #
8.4952990418420188944992332835682 1:0.1287882 2:-0.19316696 3:-0.07738027 4:-0.0057437392 5:0.083123952 6:-0.032082114 7:0.097112209 8:0.014434945 9:-0.10368591 10:0.029411612 11:0.011614827 12:-0.022267558 13:-0.02809999 14:0.033646408 15:0.01262184 16:-0.017048601 17:-0.0056866594 18:0.013958236 19:-0.0081589539 20:-0.017560927 21:-0.023413891 22:-0.010285337 23:-0.0114841 24:0.002652053 25:-0.014139755 #
-8.4952990418420188944992332835682 1:-0.26349375 2:0.15875788 3:-0.021657787 4:0.036871072 5:0.1754925 6:-0.022060165 7:0.1606041 8:-0.12243251 9:0.10920659 10:0.064005628 11:0.010569557 12:-0.069173008 13:-0.054468971 14:0.050315574 15:-0.012797183 16:-0.041326664 17:0.053749923 18:-0.036336739 19:0.03799504 20:0.033531375 21:0.014734937 22:0.05425607 23:-0.050659269 24:-0.008487625 25:-0.069688603 #
-8.4952990418420188944992332835682 1:0.078412525 2:-0.25689352 3:-0.012706315 4:-0.064115897 5:-0.019904215 6:-0.010142937 7:0.044877551 8:-0.093098938 9:0.03864846 10:-0.10521483 11:-0.0056548445 12:-0.029587228 13:0.036316779 14:0.017582998 15:0.00068240438 16:0.034379311 17:-0.0089347987 18:-0.0086360266 19:-0.0021666067 20:-0.0042985552 21:-0.011933233 22:-0.0026355432 23:-0.0042728498 24:-0.0066328421 25:-0.0024015368 #
-8.4952990418420188944992332835682 1:0.33424208 2:0.075460114 3:-0.093487769 4:-0.051729959 5:0.15451482 6:0.19206312 7:-0.039933477 8:0.10735042 9:0.12804613 10:-0.022234872 11:-0.059067111 12:0.018608725 13:-0.049650799 14:-0.0039378991 15:-0.022083232 16:0.025126655 17:-0.029942777 18:-0.02156988 19:-0.0077570323 20:-0.0024409571 21:-0.0067018014 22:0.0019681542 23:0.053697273 24:0.0057246196 25:-0.013461116 #
8.4952990418420188944992332835682 1:-0.28275269 2:0.040820904 3:0.015872682 4:-0.020754874 5:-0.040817697 6:0.012572535 7:-0.029453039 8:-0.0015388109 9:0.014598894 10:0.036993347 11:0.018560998 12:0.022275336 13:-0.0055488162 14:0.023162425 15:-0.025536526 16:0.044699784 17:0.0359261 18:0.0080125453 19:-0.02714278 20:0.010416715 21:0.023823371 22:0.01022823 23:-0.0044331066 24:-0.0062244562 25:0.0063408436 #
-8.4952990418420188944992332835682 1:-0.27852535 2:0.16766727 3:-0.10703485 4:-0.00011076776 5:0.059352405 6:-0.10948149 7:-0.056665119 8:-0.10913425 9:0.081981331 10:0.057116408 11:0.031188019 12:-0.063668139 13:-0.037398778 14:0.053349532 15:-0.022801351 16:-0.013255463 17:0.01984537 18:-0.0091918167 19:-0.0094789732 20:0.017672628 21:0.010577157 22:0.034061614 23:-0.025251789 24:-0.026408592 25:-0.05469498 #
8.4952990418420188944992332835682 1:-0.014277219 2:-0.1135151 3:-0.0136039 4:0.022591988 5:0.028440172 6:-0.040935598 7:-0.009034018 8:-0.034049563 9:-0.010970013 10:0.0048070005 11:0.0032967518 12:0.011811841 13:0.024561681 14:0.006236231 15:0.005574516 16:-0.0060109003 17:-0.015304711 18:-0.030604014 19:0.010147772 20:-0.005007965 21:-0.031260088 22:-0.004025708 23:-0.0062856302 24:0.0069595124 25:-0.013237595 #
8.4952990418420188944992332835682 1:-0.041198865 2:-0.18568924 3:0.10586528 4:0.074385405 5:-0.011064508 6:0.036388803 7:0.092774816 8:-0.01199438 9:0.0208364 10:0.01298559 11:-0.012554117 12:0.0086383168 13:-0.0007716426 14:-0.022104038 15:-0.0032183928 16:-0.022816861 17:-0.026139276 18:0.023594435 19:0.036437191 20:0.001644149 21:-0.028399065 22:0.011039671 23:-0.01908211 24:0.020590384 25:-0.016131192 #
8.4952990418420188944992332835682 1:-0.012401101 2:-0.1474122 3:0.10626661 4:-0.00082868832 5:0.025289407 6:0.048796169 7:0.064612716 8:-0.01696231 9:0.040183775 10:0.010267999 11:0.0039692977 12:-0.022273107 13:-0.0020594967 14:-0.0093646292 15:0.0088272234 16:-0.02322421 17:-0.0048822029 18:0.0067876186 19:0.034722108 20:-0.0013067763 21:-0.020777725 22:0.014861836 23:-0.01189481 24:0.02039632 25:-0.0010341125 #
8.4952990418420188944992332835682 1:-0.0035624872 2:-0.14479746 3:0.088779494 4:-0.064726718 5:0.018594244 6:0.030443117 7:-0.021154774 8:-0.013109078 9:0.030972624 10:0.0043046041 11:0.01334495 12:-0.0051170639 13:0.009316165 14:-0.014435397 15:0.0184472 16:-0.0041693845 17:-0.0010790477 18:-0.022141768 19:0.012999407 20:7.0439623e-06 21:-0.039401162 22:-0.0050447853 23:-0.014992869 24:0.021079512 25:0.00031796173 #
8.4952990418420188944992332835682 1:0.0036642484 2:-0.10001801 3:0.12866287 4:-0.19619219 5:0.095488884 6:0.0885024 7:-0.0024211123 8:0.011153151 9:0.020623254 10:0.017332084 11:0.024873832 12:0.012610953 13:-0.0065755593 14:-0.039403498 15:0.024238694 16:0.0026272102 17:0.017212281 18:0.0027045908 19:-0.0199952 20:-0.0022391879 21:-0.012532342 22:-0.01224851 23:0.0041757165 24:0.00014960091 25:-0.0054662973 #
-8.4952990418420188944992332835682 1:0.11638008 2:-0.29057691 3:0.11283367 4:-0.029451014 5:0.0039432701 6:0.10462872 7:0.21034884 8:0.011354728 9:0.052888438 10:0.0091028074 11:-0.008446686 12:-0.088693976 13:-0.058112513 14:-0.003357518 15:-0.0019921262 16:-0.077648811 17:-0.017520597 18:0.10674826 19:0.063751109 20:0.017479347 21:0.045358527 22:0.0094371689 23:0.022467718 24:-0.0033790658 25:0.0030184446 #
-8.4952990418420188944992332835682 1:0.10345746 2:-0.24100018 3:0.13569963 4:-0.1350984 5:0.015976654 6:0.11947248 7:0.074528679 8:-0.0053802719 9:0.096631147 10:-0.0089671668 11:0.030409412 12:-0.1152826 13:-0.0057242201 14:-0.043967433 15:0.08936768 16:-0.03989844 17:0.0184021 18:0.017039638 19:-0.039826959 20:-0.039042421 21:0.01997395 22:-0.013468429 23:0.069682859 24:7.4338299e-05 25:-0.0080823451 #
-7.7282047427887281543235076242127 1:-0.27645519 2:-0.0070021409 3:-0.11851158 4:-0.083053522 5:-0.14152719 6:0.060132973 7:0.025929147 8:0.048172753 9:-0.038630847 10:0.057527207 11:-0.017882181 12:0.087959453 13:-0.013539789 14:-0.027685046 15:-0.0053954842 16:0.024212502 17:0.013821224 18:0.0083737448 19:-0.016955106 20:-0.0076497109 21:0.012528259 22:-0.032846246 23:0.018369863 24:-0.0074768257 25:-0.013258366 #
8.4952990418420188944992332835682 1:0.31883109 2:0.16306943 3:0.033335593 4:-0.19036795 5:0.035636075 6:0.041014548 7:-0.019486165 8:-0.0017238656 9:-0.0027205686 10:0.032686334 11:-0.038473703 12:-0.0031817658 13:-0.0010487728 14:-0.017777115 15:0.003258358 16:0.022553241 17:-0.023524046 18:-0.0036579547 19:0.031177623 20:-0.063077353 21:0.057606746 22:0.023132218 23:-0.02487863 24:0.0052201231 25:-0.009841295 #
-5.8876712838778306746689850115217 1:0.1155847 2:-0.24500117 3:-0.010971768 4:-0.060624663 5:-0.0045753764 6:0.0014867868 7:0.072936021 8:-0.057822186 9:0.015202051 10:0.025410771 11:-0.033828951 12:0.039307952 13:-0.053961765 14:-0.0044625453 15:-0.0045061675 16:-0.02770506 17:-0.0104483 18:-0.01198125 19:-0.004676294 20:-0.0028499633 21:-0.01379557 22:-0.020127898 23:0.015245778 24:0.016729817 25:0.013330007 #
8.4952990418420188944992332835682 1:-0.30108666 2:0.14106306 3:0.068625674 4:0.059551772 5:0.20758396 6:-0.040275592 7:0.041118424 8:-0.066078916 9:-0.01298501 10:-0.052095868 11:-0.010544038 12:0.046698052 13:0.019976584 14:-0.065895289 15:0.032156788 16:-0.016994327 17:0.026522638 18:0.0010529836 19:0.0084743835 20:0.0067983279 21:0.045089722 22:-0.037992354 23:0.023635484 24:0.0015453892 25:0.0045218533 #
-8.4952990418420188944992332835682 1:-0.2809687 2:0.16102712 3:-0.085323691 4:0.033446975 5:0.084623195 6:-0.10507783 7:-0.01931111 8:-0.11786114 9:0.08933533 10:0.061248831 11:0.024202637 12:-0.061494045 13:-0.040007487 14:0.054930631 15:-0.019812461 16:-0.0057588592 17:0.030411711 18:-0.032640938 19:-0.015814714 20:0.018089879 21:0.0071774111 22:0.026017927 23:-0.0287377 24:-0.031403892 25:-0.06387347 #
8.4952990418420188944992332835682 1:0.3049334 2:0.076733373 3:-0.085601754 4:0.0048389053 5:0.10903376 6:0.14343336 7:-0.042825617 8:0.073006645 9:0.080454998 10:-0.03055713 11:-0.024961159 12:-0.015181093 13:-0.020975618 14:-0.013091778 15:-0.03822808 16:0.026404461 17:-0.037788965 18:-0.028772915 19:-0.024361733 20:0.039467048 21:0.0064602508 22:-0.0021278078 23:0.053831168 24:0.0038136658 25:-0.015775342 #
8.4952990418420188944992332835682 1:-0.30390698 2:0.13789433 3:0.050541531 4:0.06354209 5:0.17554106 6:-0.067201309 7:-0.012787309 8:-0.063546918 9:-0.021191783 10:-0.054930165 11:-0.012532341 12:0.045634247 13:0.015285851 14:-0.063144445 15:0.024759967 16:-0.008934157 17:0.009074064 18:0.011143577 19:-0.0081633655 20:0.00025612331 21:0.038719557 22:-0.027857738 23:0.02303453 24:-0.0043044211 25:0.0072098197 #
-8.4952990418420188944992332835682 1:0.28915092 2:0.060910311 3:-0.12851344 4:-0.083898231 5:0.13180649 6:0.11536264 7:-0.1181201 8:0.097013094 9:0.061932646 10:-0.007157471 11:-0.018272409 12:-0.0025271969 13:-0.031193394 14:-0.039759062 15:-0.011374231 16:0.061049629 17:-0.021805307 18:-0.020790255 19:-0.0054465109 20:0.014723815 21:0.0018866702 22:0.033364132 23:0.035322592 24:-0.018593587 25:0.008169895 #
-8.4952990418420188944992332835682 1:0.21001877 2:0.048348431 3:-0.16230066 4:0.077560268 5:0.051913522 6:0.028679153 7:-0.2051643 8:0.09145014 9:0.054933872 10:-0.048976626 11:-0.029865036 12:0.0033566072 13:-0.010551489 14:-0.0067705377 15:-0.012131301 16:-0.017118214 17:0.0073451316 18:0.054513756 19:0.032479022 20:-0.0055051968 21:0.017142966 22:0.061665472 23:-8.6438558e-05 24:0.013702239 25:-0.0058745337 #
8.4952990418420188944992332835682 1:-0.27755255 2:0.091079079 3:0.028445784 4:0.027772576 5:0.070337988 6:0.014573806 7:0.09457282 8:-0.047137987 9:0.063159041 10:0.053615943 11:0.020814681 12:-0.033231795 13:-0.011755995 14:0.068329953 15:-0.027776141 16:0.031509638 17:0.049914062 18:-0.023244886 19:0.017714316 20:0.010928464 21:0.013426219 22:0.019189348 23:-0.021682488 24:0.0061894152 25:-0.0055292882 #
-8.4952990418420188944992332835682 1:-0.28807363 2:0.15149237 3:-0.045714334 4:0.090742663 5:0.12057592 6:-0.065119423 7:0.10695539 8:-0.11856474 9:0.10220169 10:0.072846241 11:0.0084444201 12:-0.058473714 13:-0.049617082 14:0.047423318 15:-0.02854044 16:-0.0058677648 17:0.0085806437 18:-0.012384777 19:-0.024778895 20:0.0040938053 21:0.016631765 22:0.043390673 23:-0.029649328 24:-0.027024189 25:-0.044605855 #
8.4952990418420188944992332835682 1:-0.30586791 2:0.084414653 3:0.029232042 4:0.022610003 5:0.020824153 6:0.024010791 7:0.048882704 8:-0.0060344976 9:0.02229345 10:0.030287746 11:0.021752706 12:-0.0077677667 13:0.014203466 14:0.037892796 15:-0.019170823 16:0.04717366 17:0.012755075 18:0.0015070305 19:-0.018679647 20:-0.0099261403 21:0.0099187903 22:0.015752716 23:-0.0061932392 24:0.0017200065 25:0.010049851 #
8.4952990418420188944992332835682 1:0.30551055 2:0.1502924 3:-0.054081973 4:-0.067645118 5:0.040295277 6:0.10566796 7:-0.12468871 8:0.01208125 9:0.039004326 10:-0.051379073 11:0.037927166 12:0.028035253 13:0.0011185887 14:0.0045752283 15:-0.024815349 16:-0.01949071 17:-0.015435479 18:0.036578849 19:-0.023724416 20:0.0024849575 21:0.015736762 22:0.041680004 23:0.016817428 24:0.0033780874 25:-0.021660022 #
8.4952990418420188944992332835682 1:0.25199458 2:0.020859197 3:-0.15406306 4:0.0098857377 5:0.11065561 6:0.070833735 7:-0.11537147 8:0.10307119 9:0.040797371 10:-0.01622238 11:-0.027938448 12:-0.048863143 13:-0.019025648 14:-0.042662915 15:-0.03283222 16:0.036305882 17:-0.024299493 18:0.0038387156 19:0.0088272337 20:0.049613591 21:0.012608847 22:0.019459696 23:0.029733278 24:-0.0025889627 25:0.0046537411 #
-8.4952990418420188944992332835682 1:0.33847851 2:0.2058586 3:0.035845321 4:0.0057844142 5:-0.01607197 6:0.13945617 7:-0.045849103 8:-0.11098249 9:-0.034743648 10:0.0081850924 11:-0.045971069 12:0.022768252 13:0.027752753 14:0.059341546 15:0.049025744 16:-0.027587775 17:0.019222358 18:0.034081589 19:-0.053247798 20:0.050424315 21:-0.054667406 22:-0.025254771 23:-0.029388608 24:-0.043860439 25:0.029212581 #
8.4952990418420188944992332835682 1:0.27009219 2:0.10871539 3:-0.081442282 4:0.065537229 5:0.039993972 6:0.094965518 7:-0.10200551 8:0.038585633 9:0.062434383 10:-0.052048817 11:-0.0043874411 12:0.0035471888 13:-0.0013713023 14:0.002611049 15:-0.032958083 16:3.2860589e-05 17:-0.021507896 18:-0.0070712804 19:-0.016070124 20:0.018642776 21:0.021238264 22:0.020098198 23:0.040459651 24:0.015906136 25:-0.023425667 #
-8.4952990418420188944992332835682 1:0.26360002 2:-0.0307869 3:-0.15314069 4:-0.013275702 5:0.16560464 6:0.074140102 7:-0.010242682 8:0.15005 9:0.042719737 10:0.019367037 11:-0.018938629 12:-0.036326341 13:-0.05145929 14:-0.052378893 15:-0.0051378049 16:0.074087851 17:0.0082752975 18:-0.027849922 19:0.017270193 20:0.011406625 21:-0.0038488319 22:0.024831785 23:0.019057427 24:-0.0042966502 25:0.0091305198 #
-8.4952990418420188944992332835682 1:-0.26989213 2:0.092340484 3:0.067897722 4:0.082592018 5:0.13472848 6:-0.036936294 7:0.0040824171 8:-0.012035791 9:-0.038095161 10:-0.02202419 11:-0.0067388695 12:0.02994048 13:0.026865719 14:-0.014693668 15:0.0020551358 16:0.014583458 17:-0.032912754 18:0.0027940208 19:-0.023520656 20:-0.027097644 21:-0.010719729 22:-0.0074537578 23:0.01839743 24:0.013105062 25:0.056304768 #
-8.4952990418420188944992332835682 1:-0.26460809 2:0.096450523 3:0.057965774 4:0.084427111 5:0.13860476 6:-0.041434783 7:0.020040885 8:-0.02592943 9:-0.025529258 10:-0.016707333 11:-0.009313589 12:0.020234089 13:0.013958482 14:-0.010294516 15:-0.0023882063 16:0.0058707544 17:-0.031907659 18:0.010293418 19:-0.012850316 20:-0.027328681 21:-0.010944025 22:0.0051782266 23:0.012401744 24:0.020308334 25:0.068699993 #
-8.4952990418420188944992332835682 1:-0.26555991 2:0.089067586 3:0.07533212 4:0.089097962 5:0.14569619 6:-0.034375947 7:0.018415855 8:-0.017602148 9:-0.033467803 10:-0.023570593 11:-0.0098890923 12:0.021318581 13:0.018477261 14:-0.0090586189 15:0.0022459992 16:0.0047115306 17:-0.022348799 18:0.0016728346 19:-0.0014433408 20:-0.022232743 21:-0.013565736 22:-0.0030391365 23:0.010992718 24:0.018857777 25:0.049279243 #
8.4952990418420188944992332835682 1:0.32161394 2:0.14503992 3:0.0015390092 4:0.05860113 5:0.021003231 6:0.118869 7:0.025582876 8:-0.0048619695 9:0.035494462 10:-0.030672712 11:0.019215176 12:0.017725049 13:-0.029676134 14:0.016651461 15:-0.012945496 16:-0.015461606 17:-0.012804924 18:0.0099439863 19:-0.018343937 20:0.021561731 21:-0.015445032 22:-0.0023890347 23:0.026980588 24:-0.0074100918 25:-0.015219551 #
-8.4952990418420188944992332835682 1:0.36581463 2:0.21479475 3:0.056370236 4:-0.037242547 5:-0.0069810022 6:0.15733762 7:-0.0080148662 8:-0.12378088 9:-0.054192379 10:0.027228452 11:-0.03929073 12:-0.00047154722 13:0.011892871 14:0.027077571 15:0.032728016 16:-0.0028078919 17:-0.0062084482 18:0.0064184535 19:-0.025693307 20:0.047888629 21:-0.037953109 22:-0.022983501 23:0.0022128797 24:-0.054717187 25:0.017783336 #
-8.4952990418420188944992332835682 1:0.27263561 2:0.1529396 3:0.078116752 4:0.14212522 5:-0.071703911 6:-0.044910617 7:0.17844285 8:0.055883579 9:0.057513356 10:-0.072060689 11:0.18603326 12:0.058950368 13:-0.15181679 14:0.0095771747 15:0.010880604 16:-0.026779836 17:-0.046336118 18:0.084576659 19:0.080852412 20:-0.013131125 21:0.0046645212 22:0.053737253 23:0.025977693 24:0.0345525 25:-0.035087019 #
8.4952990418420188944992332835682 1:-0.3101916 2:0.14182417 3:0.059342671 4:0.068281993 5:0.19065979 6:-0.04680695 7:0.031135391 8:-0.064073272 9:-0.013570129 10:-0.047477771 11:-0.010364057 12:0.05047312 13:0.020960456 14:-0.067203306 15:0.028294008 16:-0.0053006937 17:0.011733569 18:0.0050377375 19:-0.012932357 20:-8.0281628e-05 21:0.040707182 22:-0.034106042 23:0.023284672 24:-0.0037634922 25:0.00827982 #
8.4952990418420188944992332835682 1:0.36282915 2:0.21521436 3:0.10607859 4:-0.012357722 5:-0.035540741 6:0.090141185 7:0.092052571 8:-0.091371328 9:-0.041642368 10:0.024652131 11:0.0022532241 12:0.0073484425 13:-0.020635303 14:0.019256543 15:0.028977755 16:-0.01821365 17:-0.016963273 18:0.051490936 19:-0.0007042127 20:0.049326144 21:-0.04159594 22:0.0030873611 23:0.0095222527 24:-0.019895231 25:0.0011005558 #
-8.4952990418420188944992332835682 1:-0.22292484 2:0.092311159 3:0.077428736 4:-0.011048527 5:0.17133662 6:-0.02538697 7:-0.033333808 8:-0.011086746 9:-0.041417409 10:-0.029435646 11:0.0028118712 12:0.026591204 13:0.019805696 14:-0.0077505298 15:0.005170159 16:-0.00040077939 17:-0.018301519 18:-0.00091872178 19:0.010347047 20:-0.015838515 21:-0.018411746 22:-0.017623959 23:0.016997287 24:0.023383481 25:0.056144372 #
-8.4952990418420188944992332835682 1:-0.2549659 2:0.078490198 3:0.102328 4:0.11257838 5:0.15617736 6:-0.011794502 7:0.076942094 8:-0.0059462395 9:-0.035247497 10:-0.020178733 11:-0.023655916 12:0.019041048 13:0.0038158144 14:-0.011354147 15:-0.0044727037 16:-0.0032957098 17:-0.044488341 18:0.022246046 19:0.00087425334 20:-0.023963166 21:-0.01320991 22:-0.0080628283 23:0.01868703 24:0.020874742 25:0.061435398 #
-8.4952990418420188944992332835682 1:0.051582411 2:-0.25199813 3:-0.066389851 4:-0.028511003 5:-0.058521066 6:-0.085774004 7:0.0088979807 8:-0.12302081 9:0.0005207053 10:-0.12076973 11:-0.013601025 12:0.059128392 13:0.055257604 14:0.078705743 15:-0.081167266 16:0.019216003 17:-0.033395443 18:-0.057955064 19:0.029933309 20:0.029355232 21:0.029417563 22:0.012049365 23:0.0079736887 24:-0.02180497 25:0.040913943 #
8.4952990418420188944992332835682 1:0.060706478 2:-0.18221766 3:-0.10785838 4:0.06558346 5:0.015136165 6:-0.10480978 7:-0.0036374058 8:-0.014200905 9:-0.11214264 10:0.0061389962 11:0.014927866 12:-0.0034673489 13:0.0036501654 14:0.040494721 15:0.014741709 16:-0.024022082 17:0.0039122887 18:-0.0012902509 19:-0.0084169228 20:-0.026020119 21:-0.013664623 22:-0.0043512192 23:-0.00038309023 24:0.011286894 25:-0.017768953 #
8.4952990418420188944992332835682 1:0.087068714 2:-0.15496773 3:-0.12417312 4:0.00074978464 5:0.048687313 6:-0.079920001 7:-0.072656579 8:0.039341148 9:-0.095788397 10:0.016372001 11:0.024542557 12:-0.04476342 13:-0.0068434281 14:-0.0061450377 15:0.0081232628 16:0.0048127184 17:-0.0077128722 18:0.033190817 19:0.0081938831 20:-0.0053897668 21:-0.0011269702 22:0.042977169 23:-0.023679452 24:-0.0097396076 25:-0.004027816 #
8.4952990418420188944992332835682 1:-0.2488372 2:-0.009873637 3:-0.043988012 4:0.051003978 5:-0.061562479 6:-0.021299116 7:-0.010501897 8:-0.027702413 9:0.03291614 10:0.074845739 11:-0.012469991 12:0.039268497 13:-0.024628581 14:-0.02831261 15:-0.010321986 16:0.036984362 17:-0.031682868 18:-0.0021213293 19:-0.04990463 20:-0.015494926 21:-0.028195765 22:0.017947379 23:-0.0061347755 24:-0.00062058639 25:-0.0068940306 #
-8.4952990418420188944992332835682 1:0.044607699 2:-0.19992346 3:-0.13451761 4:0.015988782 5:-0.068026513 6:-0.13416706 7:-0.14022186 8:-0.058759145 9:-0.044772148 10:0.040208764 11:-0.020116368 12:0.053955652 13:-0.021529023 14:-0.037555907 15:0.026337652 16:-0.064724535 17:-0.017696433 18:0.029743936 19:0.042049807 20:-0.02920473 21:-0.030382397 22:0.010507943 23:0.0058230581 24:0.048239172 25:-0.0038799832 #
-8.4952990418420188944992332835682 1:0.079059571 2:-0.15525158 3:-0.19680347 4:0.1631574 5:0.0090193516 6:-0.12869354 7:-0.0060714115 8:0.045489494 9:-0.10556493 10:0.031382889 11:-0.007131807 12:-0.021960387 13:-0.0023101284 14:0.0076154312 15:0.017014576 16:0.062365338 17:0.039453808 18:-0.013959079 19:-0.022320893 20:0.019804675 21:0.0048721912 22:-0.00089882937 23:0.0031425338 24:-0.01112973 25:0.022499736 #
8.4952990418420188944992332835682 1:-0.24955519 2:0.14247397 3:0.071487047 4:-0.052708454 5:0.23320441 6:-0.035165407 7:-0.019692095 8:-0.062119585 9:-0.018113064 10:-0.06014955 11:-3.228533e-05 12:0.036706418 13:0.0086058071 14:-0.048970606 15:0.032845721 16:-0.023557985 17:0.04484814 18:-0.0022440029 19:0.039206531 20:0.015667384 21:0.029675096 22:-0.057129607 23:0.027326724 24:0.010588735 25:0.000912613 #
8.4952990418420188944992332835682 1:0.14067449 2:-0.15743072 3:-0.18413293 4:0.086393841 5:0.063858442 6:-0.06652794 7:0.017405441 8:0.048716053 9:-0.095994875 10:0.029202072 11:-0.0011450553 12:-0.032201651 13:-0.024267094 14:0.0097939288 15:0.019629395 16:0.034905873 17:0.038774151 18:0.021807402 19:-0.017964087 20:0.0082715359 21:-0.013190649 22:0.01094103 23:-0.024872502 24:0.0054351077 25:0.0073587205 #
8.4952990418420188944992332835682 1:0.10791606 2:-0.1571994 3:-0.1628114 4:0.070010759 5:0.021157714 6:-0.088931687 7:-0.063698865 8:0.030932058 9:-0.073900983 10:-0.0064430856 11:3.2135911e-05 12:-0.039782353 13:-0.014956823 14:0.00076197705 15:0.0028529377 16:0.0074961931 17:0.017226119 18:0.044894304 19:0.015872724 20:0.012410704 21:0.015669761 22:0.033003468 23:-0.0053033032 24:0.0022928687 25:0.002532983 #
8.4952990418420188944992332835682 1:0.053015377 2:-0.1048861 3:-0.036496431 4:-0.072640993 5:0.07052999 6:0.0069696144 7:0.019729765 8:-0.0010538717 9:-0.015193356 10:0.023124391 11:0.018933408 12:0.00059285702 13:0.028572395 14:0.011353557 15:0.005894714 16:-0.010506829 17:-0.020596841 18:-0.024063818 19:0.0092740841 20:0.00076871034 21:-0.012833458 22:-0.0043631117 23:0.011235427 24:-0.0125689 25:-0.0075893058 #
-8.4952990418420188944992332835682 1:0.047550671 2:-0.23855051 3:0.024102893 4:-0.036007348 5:-0.060144976 6:-0.02197464 7:-0.03054085 8:-0.090894155 9:0.079207167 10:-0.12097155 11:-0.0079113981 12:-0.091318436 13:0.030011967 14:-0.03807053 15:0.059632614 16:0.037635297 17:0.0024742677 18:0.01791447 19:-0.004039709 20:-0.032442663 21:-0.042984024 22:-0.017753098 23:-0.0023732509 24:0.01349384 25:-0.031338178 #
8.4952990418420188944992332835682 1:0.30790117 2:0.15910581 3:0.039066009 4:0.084998868 5:-0.0263715 6:0.036747415 7:0.069102786 8:-0.010644516 9:0.0051437574 10:-0.015804972 11:0.050928373 12:0.012719055 13:-0.059476495 14:-0.0044841142 15:-0.0036211913 16:-0.0057644378 17:0.00084874738 18:-0.0040327804 19:0.03690841 20:-0.0166339 21:-0.022443281 22:0.0011431866 23:0.029184589 24:-0.020420799 25:-0.013829839 #
-8.4952990418420188944992332835682 1:0.29236534 2:0.024298916 3:-0.11251771 4:0.10772187 5:0.1182808 6:0.12824325 7:0.017387796 8:0.11214594 9:0.076399378 10:0.0024317706 11:-0.055055182 12:-0.033081729 13:-0.066349737 14:-0.034648467 15:-0.015586307 16:0.033475161 17:-0.011253743 18:-0.00039839037 19:0.063729294 20:0.039112512 21:-0.0058110529 22:0.0099654561 23:0.03026234 24:-0.00077197835 25:0.015646439 #
8.4952990418420188944992332835682 1:-0.29389375 2:0.088912919 3:-0.0028560252 4:0.025521785 5:0.015994133 6:-0.018557087 7:0.0074264933 8:-0.036824845 9:0.042922474 10:0.047913704 11:0.023639351 12:-0.015765013 13:-0.0043602353 14:0.051746905 15:-0.027850298 16:0.041978028 17:0.025939738 18:-0.013665996 19:-0.02436701 20:0.0036068289 21:0.016391778 22:0.018604364 23:-0.011401268 24:-0.010263822 25:-0.0079642879 #
8.4952990418420188944992332835682 1:-0.285052 2:0.13339427 3:-0.054287124 4:0.0053575463 5:0.049889427 6:-0.046161309 7:-0.001417924 8:-0.056945544 9:0.035835288 10:0.016054882 11:0.0088764969 12:-0.033699758 13:-0.016154898 14:0.029420616 15:0.0042197756 16:0.0036185957 17:0.0066565149 18:-0.029673606 19:-0.027177934 20:-0.00030407391 21:0.0022754641 22:0.035344437 23:-0.0082605435 24:-0.0015252316 25:0.0099631967 #
-8.4952990418420188944992332835682 1:-0.31395856 2:0.096953139 3:0.033634249 4:0.11762953 5:0.087704487 6:-0.067330509 7:-0.040478863 8:-0.015404941 9:-0.040818736 10:-0.011699851 11:-0.00553881 12:0.053071868 13:0.024733791 14:-0.051023722 15:0.0033965032 16:0.016612133 17:-0.050169934 18:-0.0022183023 19:-0.093594484 20:-0.012029906 21:0.014446899 22:0.02718346 23:-0.0013881313 24:-0.040584575 25:-0.024403527 #
8.4952990418420188944992332835682 1:0.35656476 2:0.16692595 3:0.069589086 4:0.027885221 5:0.010584046 6:0.096744038 7:0.11942033 8:0.0069283335 9:0.046106432 10:-0.013222706 11:0.0060461434 12:0.027272981 13:-0.052632596 14:0.016382517 15:-0.0084831724 16:-0.049206268 17:-0.015567805 18:0.070972309 19:0.026729014 20:-0.0083235558 21:-0.027417403 22:0.029897207 23:0.0084418245 24:-0.015106343 25:-0.017680055 #
-8.4952990418420188944992332835682 1:-0.22612873 2:0.0013048126 3:0.12862629 4:0.08405517 5:0.041185103 6:-0.0054487349 7:-0.060727417 8:0.044812445 9:-0.040873807 10:0.016177081 11:0.016994288 12:-0.0048715379 13:0.032807797 14:0.048290238 15:-0.031459916 16:0.04612992 17:-0.017622769 18:0.033163216 19:0.01836337 20:-0.038029015 21:-0.02573245 22:-0.023792828 23:0.016444985 24:0.013496144 25:0.002431205 #
8.4952990418420188944992332835682 1:0.30856183 2:0.05239046 3:-0.10209703 4:-0.0063200602 5:0.13255794 6:0.14583176 7:-0.030128457 8:0.092539363 9:0.077646621 10:-0.018238705 11:-0.036004487 12:-0.032634798 13:-0.027381808 14:-0.026241375 15:-0.04073618 16:0.035660427 17:-0.036509901 18:-0.027774956 19:-0.017363219 20:0.054661904 21:0.0013144873 22:-0.011615749 23:0.054034136 24:0.0026302887 25:-0.0062978803 #
-8.4952990418420188944992332835682 1:0.19160773 2:-0.14429916 3:-0.17163305 4:0.048651073 5:0.1147565 6:-0.026166495 7:0.072555996 8:0.091543682 9:-0.07228259 10:0.044802547 11:-0.010599234 12:-0.031443898 13:-0.039707296 14:0.0023627637 15:-0.0031564133 16:0.042919341 17:0.034521297 18:-0.010910448 19:0.023083184 20:0.043473091 21:0.017130168 22:-0.003047128 23:0.03560555 24:-0.0050095827 25:0.023707788 #
-8.4952990418420188944992332835682 1:0.16671982 2:-0.24289721 3:-0.094809726 4:-0.089563482 5:0.080559805 6:-0.025625724 7:0.16037367 8:-0.023996631 9:-0.11037616 10:0.01278421 11:0.0082645351 12:0.044788033 13:-0.0066725062 14:0.12351526 15:-0.0078895576 16:-0.060831614 17:0.027550288 18:0.013052761 19:-0.037726764 20:-0.028810164 21:0.039000478 22:-0.015047474 23:0.077509828 24:0.019951878 25:-0.04462833 #
-8.4952990418420188944992332835682 1:0.1368095 2:-0.24787559 3:-0.01030211 4:-0.22766057 5:0.027573565 6:0.019208211 7:0.047310919 8:-0.091120161 9:0.044120315 10:-0.10262043 11:0.0076675951 12:0.011662515 13:0.025466964 14:0.021271009 15:-0.030417068 16:0.040824164 17:-0.017285924 18:-0.0095957424 19:0.00095920212 20:0.0012186881 21:-0.0013804267 22:0.019808006 23:-0.0033974089 24:-0.013353946 25:0.011691191 #
-8.4952990418420188944992332835682 1:0.24883957 2:-0.08026585 3:-0.175401 4:-0.10064881 5:0.17491058 6:0.030179569 7:-0.0064644725 8:0.13507971 9:-0.029303063 10:0.046883631 11:0.004504133 12:-0.033341501 13:-0.049451206 14:-0.043506309 15:0.0078475913 16:0.075809017 17:0.020076379 18:-0.0049937824 19:-0.0041990103 20:0.024030449 21:-0.00041280291 22:0.025898788 23:0.028925886 24:-0.0049716732 25:0.0083530508 #
8.4952990418420188944992332835682 1:-0.25563443 2:0.091510221 3:0.026487526 4:-0.0096273888 5:0.074683182 6:0.00074678421 7:0.03760517 8:-0.043074947 9:0.04918636 10:0.042103704 11:0.023671051 12:-0.033753447 13:-0.013209203 14:0.074265026 15:-0.02266323 16:0.028408909 17:0.054849133 18:-0.035016857 19:0.022890553 20:0.011964021 21:0.004121263 22:0.011224351 23:-0.018313285 24:0.0089156711 25:-0.0051899315 #
-8.4952990418420188944992332835682 1:-0.29569459 2:0.095299214 3:0.070908017 4:0.14341383 5:0.13372508 6:-0.015735779 7:0.10414572 8:-0.020828551 9:-0.01357088 10:0.0044247545 11:-0.014087047 12:0.02378064 13:0.013219257 14:-0.016273361 15:-0.014903103 16:0.01909323 17:-0.057852495 18:0.027341207 19:-0.041438319 20:-0.037363444 21:-0.00368175 22:0.014735119 23:0.0075591886 24:0.0062021865 25:0.052559234 #
-3.9838617511328919817970017902553 1:-0.25731111 2:0.12082268 3:0.029649477 4:0.038343355 5:0.15035519 6:-0.045289516 7:0.014687969 8:-0.036548819 9:-0.030354062 10:-0.043586317 11:-0.018049167 12:0.025574699 13:0.0035272562 14:-0.031435311 15:0.022207698 16:-0.022913434 17:-0.017592799 18:-0.035118762 19:-0.022955889 20:-0.0026033674 21:-0.013238282 22:0.037899915 23:-0.006592629 24:0.02131094 25:0.078123309 #
-8.4952990418420188944992332835682 1:-0.30038133 2:0.16138376 3:-0.077766232 4:0.065519057 5:0.087260976 6:-0.098013125 7:0.011462341 8:-0.11279977 9:0.079909615 10:0.053073991 11:0.016624937 12:-0.046288915 13:-0.030811155 14:0.037766259 15:-0.015146177 16:0.00095580658 17:0.015069413 18:-0.037544109 19:-0.043155845 20:0.0077022733 21:0.0092885289 22:0.045672495 23:-0.030876476 24:-0.028408216 25:-0.040653374 #
8.4952990418420188944992332835682 1:0.16371925 2:-0.15063158 3:-0.15792255 4:-0.056499928 5:0.080737136 6:-0.040339753 7:-0.033279743 8:0.03675925 9:-0.071264215 10:0.005170037 11:0.013426629 12:-0.025028609 13:-0.019460395 14:0.0032224793 15:0.0039660782 16:0.023366986 17:0.014820001 18:0.03029732 19:-0.01223403 20:0.006575041 21:0.0055195661 22:0.024528177 23:-0.0051338263 24:-0.0040186811 25:0.0022433393 #
8.4952990418420188944992332835682 1:-0.30101091 2:0.13418913 3:0.056196228 4:0.075084157 5:0.18386349 6:-0.037944056 7:0.068521924 8:-0.078904927 9:0.024441421 10:-0.014293217 11:-0.0043050954 12:0.011464558 13:-0.0016704655 14:-0.018722093 15:0.012040675 16:-0.0023301521 17:0.035687439 18:-0.0036264847 19:0.0080296313 20:0.0072794277 21:0.0375898 22:-0.028715972 23:0.011090283 24:-0.0060371766 25:-0.019361997 #
8.4952990418420188944992332835682 1:-0.33317107 2:0.15594175 3:-0.065568589 4:0.049354035 5:0.033479147 6:-0.021897616 7:0.076961242 8:-0.040492497 9:0.043080106 10:0.029636776 11:0.000802144 12:-0.04115013 13:-0.022743078 14:0.010576867 15:0.00076291704 16:0.0037749684 17:-0.053373884 18:0.024576996 19:-0.081284478 20:-0.026054353 21:0.025584497 22:0.040602844 23:0.0097836852 24:-0.025771106 25:0.016240429 #
-8.4952990418420188944992332835682 1:-0.28781438 2:0.18873253 3:-0.13794336 4:-0.053434014 5:0.002328573 6:-0.087273881 7:-0.08181335 8:-0.054246839 9:0.014917265 10:-0.020699229 11:0.00050626014 12:-0.054842886 13:-0.048367262 14:0.015647981 15:0.011563846 16:-0.07346154 17:0.0041409209 18:-0.020420907 19:0.023391826 20:0.04151611 21:-0.0040842942 22:0.029212538 23:-0.018275928 24:-0.014891638 25:-0.027071703 #
-8.4952990418420188944992332835682 1:-0.31917658 2:0.089821108 3:-0.11113759 4:-0.13083465 5:-0.15718158 6:0.058588911 7:-0.018854376 8:0.068232432 9:-0.052188851 10:-0.068011932 11:-0.022454945 12:0.010513323 13:-0.010359696 14:-0.018223265 15:0.0017331816 16:-0.028172273 17:0.027732052 18:0.011451209 19:0.05184168 20:0.030973634 21:0.014539216 22:-0.046310291 23:0.00095570291 24:-0.0028478918 25:-0.039441966 #
8.4952990418420188944992332835682 1:0.23157045 2:-0.11265103 3:-0.18247092 4:-0.10133361 5:0.15915966 6:0.01419937 7:0.0082894899 8:0.094265439 9:-0.082933635 10:0.055642907 11:0.016248425 12:-0.041569147 13:-0.047081392 14:-0.028273588 15:0.017745048 16:0.065832242 17:0.020846648 18:0.03573633 19:-0.037384525 20:0.022597117 21:-0.02110135 22:0.032896429 23:-0.03117238 24:-0.019443102 25:0.023655897 #
-8.4952990418420188944992332835682 1:0.13003743 2:-0.22017597 3:-0.042914368 4:-0.012200357 5:0.016650844 6:0.00078927632 7:0.067688502 8:-0.022676874 9:0.0098799979 10:0.076467074 11:-0.038652595 12:0.041063715 13:-0.054733697 14:-0.033198234 15:0.012214764 16:-0.042224921 17:-0.018115293 18:-0.0087133879 19:0.018535763 20:-0.016614038 21:-0.021520026 22:-0.0086059701 23:0.0034362229 24:0.024484988 25:0.0070586521 #
8.4952990418420188944992332835682 1:-0.29454067 2:0.067228623 3:0.025351381 4:-0.023761813 5:-0.01300908 6:0.025171939 7:-0.010540595 8:0.0067158998 9:0.01220013 10:0.022147363 11:0.026676623 12:0.0017983186 13:0.015809391 14:0.040549528 15:-0.022927256 16:0.056591619 17:0.031007336 18:0.0024490145 19:-0.010699593 20:0.0023552352 21:0.0088762091 22:-0.0019908955 23:-0.0077764075 24:-0.0025277089 25:0.00074053649 #
8.4952990418420188944992332835682 1:0.24358031 2:-0.14530328 3:-0.16164672 4:-0.025247822 5:0.15859421 6:0.021353053 7:0.099950559 8:0.092726357 9:-0.085309617 10:0.057135686 11:-0.0078937775 12:-0.058107734 13:-0.074748993 14:-0.013093845 15:0.014118585 16:0.033376254 17:0.026907813 18:0.057533301 19:0.0070366566 20:0.035542842 21:-0.026999926 22:0.0088105099 23:-0.030467393 24:-0.0033481864 25:0.018962987 #
-8.4952990418420188944992332835682 1:-0.37215668 2:0.12326582 3:-0.10352184 4:-0.12596153 5:-0.14819758 6:0.10962988 7:0.074425399 8:0.093102254 9:-0.048638355 10:-0.068337291 11:-0.019554816 12:0.0019889865 13:0.011131515 14:-0.02390833 15:0.012800866 16:0.00035473035 17:0.0090612909 18:-0.0031204806 19:-0.0036459463 20:0.0081256498 21:0.014768074 22:-0.029273642 23:-0.0075205448 24:-0.0099164257 25:-0.048357714 #
8.4952990418420188944992332835682 1:-0.29508525 2:0.13404782 3:-0.058740485 4:0.018399166 5:0.029450625 6:-0.059979897 7:-0.032724936 8:-0.048089251 9:0.023879252 10:0.0090755643 11:0.0089520421 12:-0.035123054 13:-0.011863028 14:0.025439814 15:0.0036083111 16:0.0010098137 17:-0.013297183 18:-0.0017402129 19:-0.035443239 20:-0.011876178 21:0.010818719 22:0.027209407 23:0.010689654 24:-0.0058106673 25:0.02708682 #
-8.4952990418420188944992332835682 1:0.25934255 2:0.024728745 3:-0.1252958 4:0.15129982 5:0.093048774 6:0.10228767 7:-0.0045701591 8:0.10699545 9:0.071070194 10:0.0022463668 11:-0.051193535 12:-0.032850698 13:-0.050748169 14:-0.035249975 15:-0.012016688 16:0.042171337 17:-0.0062821 18:-0.0093969312 19:0.05394898 20:0.0386585 21:-0.0065189856 22:0.011663483 23:0.026757665 24:-0.0048202993 25:0.018419594 #
-8.4952990418420188944992332835682 1:0.29087421 2:0.21910274 3:0.064386934 4:0.024635321 5:-0.085123546 6:0.023552628 7:-0.019112265 8:-0.12413708 9:-0.09461391 10:0.025268363 11:0.022359734 12:-0.021077637 13:-0.017163763 14:-0.012584393 15:0.022638289 16:0.047091626 17:-0.024017276 18:-0.047053102 19:0.0061184359 20:0.0063268086 21:0.02048498 22:-0.016890466 23:0.0074399142 24:-0.0071880165 25:0.0010409396 #
-8.4952990418420188944992332835682 1:0.011669178 2:-0.24200077 3:-0.03907067 4:0.045270398 5:-0.088838398 6:-0.078549184 7:-0.036295764 8:-0.1021647 9:0.031845827 10:-0.11868478 11:-0.013965407 12:-0.039219901 13:0.045382362 14:0.0043053511 15:0.0098981084 16:0.036734268 17:-0.0086492551 18:0.0045248014 19:0.00046766485 20:-0.010181362 21:-0.015160378 22:0.0025185598 23:-0.012174868 24:-0.0014657897 25:-0.0095717218 #
8.4952990418420188944992332835682 1:0.11644166 2:-0.18590011 3:-0.090109386 4:-0.0048520598 5:0.078836665 6:-0.043735452 7:0.057717007 8:0.017422706 9:-0.10633185 10:0.03038829 11:0.021194179 12:-0.024125772 13:-0.013232072 14:0.027435154 15:0.022780387 16:-0.0033934994 17:0.010725321 18:-0.0020112966 19:-0.0054263822 20:-0.015365216 21:-0.026069136 22:-0.0068201046 23:-0.018849216 24:0.0050529744 25:-0.0074221287 #
-8.4952990418420188944992332835682 1:0.30175617 2:0.22227643 3:0.059153825 4:-0.065928943 5:-0.067845881 6:0.016222814 7:-0.061796095 8:-0.11371091 9:-0.095821477 10:0.018350204 11:0.032703981 12:-0.021420714 13:-0.01925181 14:-0.022522494 15:0.010223384 16:0.031488404 17:-0.031363297 18:-0.005006921 19:0.022125851 20:-0.0010074492 21:0.033543292 22:0.020236045 23:-0.00028813074 24:6.2143125e-05 25:-0.0061998116 #
8.4952990418420188944992332835682 1:-0.28735211 2:0.089848533 3:0.02519929 4:0.031771138 5:0.057119418 6:0.025103936 7:0.11322026 8:-0.045108061 9:0.069519877 10:0.063326366 11:0.021133682 12:-0.029881984 13:-0.016337411 14:0.062334199 15:-0.033800744 16:0.029312089 17:0.037767511 18:-0.0032133006 19:0.010047066 20:0.0078735799 21:0.021870144 22:0.026557339 23:-0.019958207 24:0.003057583 25:-0.0027110134 #
-8.4952990418420188944992332835682 1:-0.25848767 2:0.1702697 3:-0.10681029 4:-0.046361204 5:0.060783401 6:-0.092376158 7:-0.058289833 8:-0.095480949 9:0.070753574 10:0.04035743 11:0.025694089 12:-0.067561403 13:-0.045586906 14:0.051312566 15:-0.014754535 16:-0.029869337 17:0.025019554 18:-0.015521725 19:0.012962922 20:0.025316112 21:0.0018110048 22:0.024913562 23:-0.02294042 24:-0.020319989 25:-0.046020173 #
-8.4952990418420188944992332835682 1:0.034155216 2:-0.26469931 3:-0.041083392 4:0.10600516 5:-0.07972414 6:-0.057167895 7:0.092943892 8:-0.089119516 9:0.040013418 10:-0.075554453 11:-0.028686689 12:-0.026532928 13:0.01768963 14:-0.0091571882 15:0.0037972808 16:0.04269569 17:-0.0041317646 18:0.015317224 19:0.0029038703 20:-0.020827064 21:-0.020448977 22:0.0016579408 23:-0.01384655 24:0.0081130937 25:-0.011154006 #
8.4952990418420188944992332835682 1:0.32305852 2:0.17456792 3:0.016712783 4:-0.052254584 5:0.0066364282 6:0.064076655 7:-0.013863669 8:-0.016923623 9:0.0012834755 10:-0.022249093 11:0.075097479 12:0.03147975 13:-0.044671152 14:-0.0037458215 15:0.00072117295 16:0.019352604 17:-0.0085632298 18:-0.019591132 19:-0.025387138 20:-0.015872627 21:-0.018099081 22:0.0015245809 23:0.024041101 24:-0.028962696 25:-0.0081195412 #
8.4952990418420188944992332835682 1:0.32900095 2:0.1720902 3:0.056709841 4:0.055676889 5:-0.011474109 6:0.065307565 7:0.079015635 8:-0.0025221335 9:0.040247969 10:-0.017705403 11:0.0092813289 12:0.030100791 13:-0.040102787 14:0.025943501 15:0.0052425973 16:-0.04055367 17:0.0019967628 18:0.037760329 19:0.02091991 20:0.0011980662 21:-0.038287096 22:-0.0062684407 23:0.014701472 24:-0.0094854999 25:-0.0099281985 #
8.4952990418420188944992332835682 1:0.28210407 2:0.15161166 3:-0.050868101 4:-0.0067634531 5:0.0068600615 6:0.070168532 7:-0.1324902 8:-0.00026613611 9:0.024822144 10:-0.055590361 11:0.039259952 12:0.025466992 13:-0.0014590969 14:0.00935583 15:-0.019215401 16:-0.026293846 17:-0.0057537253 18:0.035424747 19:-0.012854191 20:0.0059692282 21:0.011685119 22:0.032813959 23:0.012775365 24:0.0044330689 25:-0.016691841 #
-8.4952990418420188944992332835682 1:0.30144495 2:0.18493257 3:0.00017477728 4:0.11215233 5:-0.025733192 6:0.12712282 7:-0.061625555 8:-0.070476562 9:0.022812191 10:-0.022640103 11:-0.054473381 12:0.056558017 13:0.026983889 14:0.093744121 15:0.058522571 16:-0.0632952 17:0.04649362 18:0.044610653 19:-0.048395369 20:0.00481667 21:-0.059991647 22:-0.039073218 23:-0.056914419 24:-0.024170291 25:0.027132783 #
-8.4952990418420188944992332835682 1:0.11462301 2:-0.22956178 3:-0.027429679 4:-0.07860592 5:0.0048343199 6:0.0036571261 7:0.047903571 8:-0.098580234 9:0.031578157 10:-0.11111525 11:-0.017605286 12:-0.021412002 13:0.027938399 14:0.0213861 15:-0.019676147 16:0.042090066 17:-0.035482816 18:-0.010759364 19:0.01616184 20:0.0048164879 21:-0.034931682 22:0.010072936 23:-0.031775884 24:-0.0025201449 25:-0.0080000497 #
-8.4952990418420188944992332835682 1:-0.23894337 2:0.11196059 3:-0.0047417651 4:-0.012936893 5:0.12797573 6:-0.092050433 7:-0.10180094 8:-0.068408035 9:0.0064848065 10:-0.007790626 11:0.013224396 12:-0.0039983378 13:-0.011906738 14:0.0040615099 15:1.9268666e-05 16:-0.028916942 17:0.033202987 18:-0.0075519541 19:0.030092513 20:0.027911976 21:0.0031724572 22:0.00087479647 23:-0.012391241 24:-0.012238531 25:-0.053613126 #
-8.4952990418420188944992332835682 1:-0.27514863 2:0.09980461 3:0.00067829341 4:-0.0092713693 5:-0.022534169 6:-0.037868429 7:-0.10529912 8:0.029468941 9:-0.044670127 10:-0.050580896 11:0.001547071 12:-0.039569747 13:0.009969891 14:0.024767941 15:0.0021369383 16:0.021986922 17:-0.015557578 18:0.036669489 19:-0.004634067 20:-0.033924703 21:-0.015374863 22:-0.0067791827 23:0.035441756 24:0.0074573122 25:0.049958088 #
-8.4952990418420188944992332835682 1:0.10692549 2:-0.23187082 3:0.012444115 4:-0.13473701 5:0.006795574 6:0.01893355 7:0.031970918 8:-0.042394307 9:0.045863774 10:-0.040414538 11:0.0096706115 12:-0.042722575 13:-0.0057500526 14:-0.021302961 15:0.038140781 16:0.01867659 17:0.02316419 18:0.0083093941 19:-0.034498405 20:-0.022391478 21:0.0016381528 22:-0.013620229 23:0.034316603 24:-0.0025015322 25:-0.0048840921 #
8.4952990418420188944992332835682 1:0.23481093 2:0.12020692 3:-0.075349078 4:0.14940916 5:-0.021220883 6:0.035754446 7:-0.13876235 8:0.012170902 9:0.036402408 10:-0.068369232 11:0.0056489739 12:0.0048828321 13:0.00053926109 14:0.014133716 15:-0.026178312 16:-0.032056734 17:-0.00044232933 18:0.018025465 19:0.017719138 20:0.01750977 21:0.022902416 22:0.027347367 23:0.024231689 24:0.025759542 25:-0.020729078 #
8.4952990418420188944992332835682 1:-0.22350398 2:-0.0041140192 3:-0.037548263 4:-0.022090852 5:-0.020144809 6:0.0074587986 7:-0.015392954 8:-0.030414883 9:0.040305559 10:0.070816569 11:0.0051649925 12:0.03793975 13:0.0019500854 14:-0.018157125 15:0.0069201407 16:0.0010456517 17:0.01479439 18:-0.037671819 19:0.033440109 20:0.0023501511 21:-0.036618572 22:-0.014901944 23:0.00015066216 24:0.031516768 25:0.00023653086 #
8.4952990418420188944992332835682 1:-0.23806003 2:-0.015617811 3:-0.020505857 4:0.013040142 5:-0.040473886 6:0.00076489052 7:0.0048623555 8:-0.027028594 9:0.030182855 10:0.075176716 11:1.8332456e-05 12:0.043030191 13:-0.018925581 14:-0.014862657 15:-0.0042506019 16:0.028504068 17:0.015251888 18:-0.014382637 19:-0.010198436 20:-0.00063635857 21:-0.024882585 22:0.0055707181 23:-0.011319647 24:0.020111315 25:0.0053838068 #
-8.4952990418420188944992332835682 1:-0.30503854 2:0.16905925 3:-0.078024715 4:0.057210818 5:0.099073581 6:-0.075713016 7:0.055813737 8:-0.12095729 9:0.10239484 10:0.07579188 11:0.026275886 12:-0.053994101 13:-0.033119954 14:0.045105912 15:-0.021184262 16:0.0023032119 17:0.02374132 18:-0.031396151 19:-0.035185162 20:0.013601569 21:0.018080987 22:0.046334837 23:-0.038631018 24:-0.036327936 25:-0.076712623 #
8.4952990418420188944992332835682 1:0.16486351 2:-0.15192783 3:-0.029292939 4:-0.23194186 5:0.089636423 6:0.027551545 7:0.024441741 8:-0.025112741 9:-0.038474716 10:-0.014914445 11:0.047433458 12:0.018820405 13:0.0085330503 14:0.029186038 15:-0.023049705 16:-0.022504844 17:-0.037726205 18:0.008464139 19:-0.027374018 20:-0.021962589 21:-0.00035061088 22:0.013969379 23:0.010271228 24:-0.013033845 25:-0.018475462 #
-8.4952990418420188944992332835682 1:0.3418622 2:0.22457458 3:0.084540486 4:-0.14533156 5:-0.026597697 6:0.056927361 7:0.0064374185 8:-0.10231378 9:-0.084072731 10:0.038117275 11:0.040068876 12:-0.017204238 13:-0.032487083 14:-0.033240974 15:0.014062806 16:0.065499194 17:-0.050642807 18:-0.036870964 19:-0.0020552992 20:-0.0076143271 21:0.024128489 22:0.017863963 23:0.021726742 24:-0.016165948 25:-0.013864788 #
8.4952990418420188944992332835682 1:-0.29875553 2:0.09763746 3:0.0068067568 4:0.053441111 5:0.033344127 6:-0.0083533796 7:0.056635186 8:-0.038391452 9:0.052522667 10:0.05794232 11:0.023091897 12:-0.027392695 13:-0.0062498664 14:0.063624159 15:-0.035853889 16:0.048331264 17:0.015935855 18:-0.005062806 19:-0.028626589 20:-0.0051283366 21:0.01747047 22:0.035846248 23:-0.016987165 24:-0.0098795705 25:-0.014441835 #
-8.4952990418420188944992332835682 1:-0.35061264 2:0.089516789 3:-0.11200675 4:-0.11015429 5:-0.17122486 6:0.098066688 7:0.061049495 8:0.072430886 9:-0.035383072 10:-0.040647138 11:-0.015331297 12:0.030365404 13:0.0061445381 14:-0.019507412 15:-0.0079729399 16:0.017035889 17:0.0099772252 18:-0.0026135882 19:-0.015683373 20:0.01275505 21:0.018187938 22:-0.027902305 23:-0.0061101117 24:-0.01583018 25:-0.035820268 #
-8.4952990418420188944992332835682 1:0.21912014 2:-0.014742754 3:-0.17414992 4:0.040776141 5:0.11585285 6:0.026736423 7:-0.088537082 8:0.13811935 9:0.035997972 10:0.0045839185 11:-0.018381085 12:-0.034982752 13:-0.034112528 14:-0.052955911 15:-0.0041933414 16:0.070404276 17:0.0083813295 18:-0.025413236 19:0.018454188 20:0.01028124 21:0.0032347082 22:0.026571257 23:0.017715106 24:-0.0037080992 25:0.011000564 #
8.4952990418420188944992332835682 1:-0.32021698 2:0.14233662 3:0.054138768 4:0.091146365 5:0.1826099 6:-0.052745081 7:0.037561316 8:-0.065808363 9:-0.010992413 10:-0.044167038 11:-0.012607159 12:0.048967395 13:0.020446431 14:-0.065724246 15:0.02840017 16:-0.0012221148 17:0.012991102 18:-0.00077226385 19:-0.023726355 20:-0.00061394076 21:0.045002878 22:-0.037663579 23:0.026225124 24:-0.010607171 25:-0.0016306259 #
8.4952990418420188944992332835682 1:-0.31761745 2:0.13361363 3:0.034148972 4:0.10772966 5:0.14234422 6:-0.063354492 7:0.0410809 8:-0.074558176 9:0.017106405 10:-0.011766859 11:-0.011596043 12:0.016339732 13:-0.0059786518 14:-0.021938654 15:0.0020485208 16:0.014995479 17:0.007622146 18:0.0041029812 19:-0.037846364 20:-0.0027750356 21:0.03533224 22:-0.018402856 23:0.012601811 24:-0.019793482 25:-0.022233823 #
-8.4952990418420188944992332835682 1:0.064226553 2:-0.2369066 3:-0.053487312 4:0.03598256 5:-0.044018958 6:-0.038641822 7:0.032327641 8:-0.10496107 9:0.023875304 10:-0.1146796 11:-0.024734944 12:-0.021872703 13:0.042146798 14:0.024592003 15:-0.025091689 16:0.042780031 17:-0.033151586 18:-0.0082373591 19:0.029671229 20:0.010256778 21:-0.02655055 22:0.015612507 23:-0.037995521 24:-0.00076650537 25:-0.0016047074 #
-8.4952990418420188944992332835682 1:0.31268701 2:0.1793377 3:-0.010662314 4:0.048559435 5:0.0061599384 6:0.14321877 7:-0.081637301 8:-0.045777373 9:0.046746191 10:-0.032222953 11:-0.050136384 12:0.070269205 13:0.018405771 14:0.094519243 15:0.052134171 16:-0.067038536 17:0.038305927 18:0.053926654 19:-0.056347109 20:-0.02171118 21:-0.054042265 22:-0.020260926 23:-0.060454831 24:-0.020339318 25:0.016219413 #
-8.4952990418420188944992332835682 1:-0.28309718 2:0.095696762 3:0.038438987 4:0.093244225 5:0.10824828 6:-0.072491057 7:-0.052637063 8:-0.024468675 9:-0.033843074 10:-0.015011716 11:-0.0026251937 12:0.028802481 13:0.021621784 14:-0.016147386 15:-0.0045323423 16:0.012728208 17:-0.029240806 18:0.0064140679 19:-0.035080735 20:-0.014755525 21:-0.0014099621 22:0.0045585288 23:0.0060052983 24:-0.011172845 25:-0.0070408746 #
-8.4952990418420188944992332835682 1:0.26345754 2:0.16826659 3:0.0312583 4:-0.11934783 5:-0.013185211 6:-0.060710706 7:-0.013201375 8:0.056183815 9:0.044663604 10:-0.074211903 11:0.19571789 12:0.07679446 13:-0.11034723 14:0.0078191869 15:0.0099747702 16:0.023484083 17:-0.025245976 18:0.026212426 19:-0.040824011 20:-0.012893371 21:-0.03006202 22:0.040894631 23:0.031250808 24:0.043693405 25:-0.020672072 #
-8.4952990418420188944992332835682 1:0.15890105 2:-0.23484266 3:-0.092904642 4:-0.11660778 5:0.053847831 6:-0.021394599 7:0.1052784 8:-0.073984355 9:-0.040828653 10:-0.058250505 11:-0.008845441 12:0.069601521 13:0.016878281 14:0.088606469 15:-0.084189475 16:0.00590037 17:-0.038696259 18:-0.046107918 19:0.010635576 20:0.01891649 21:0.028449887 22:0.017521227 23:0.019574692 24:-0.031004598 25:0.027653607 #
8.4952990418420188944992332835682 1:-0.25914812 2:-0.011441418 3:0.0085746134 4:0.015818793 5:-0.054811683 6:0.026921932 7:0.044680987 8:-0.018449495 9:0.034255777 10:0.06609603 11:-0.0039632777 12:0.04074714 13:-0.029513972 14:-0.0046854988 15:-0.016393408 16:0.036558513 17:0.025337907 18:0.0049118432 19:-0.032686893 20:0.0040580691 21:-0.0015373809 22:0.017111782 23:-0.013743017 24:0.011032801 25:0.0068557574 #
-8.4952990418420188944992332835682 1:-0.2677561 2:0.1024427 3:-0.0042703883 4:0.084646411 5:0.097767547 6:-0.093594916 7:-0.042661931 8:-0.067268118 9:0.014465859 10:0.007698324 11:-0.0009840522 12:-0.0021871827 13:-0.010412659 14:0.0075109415 15:-0.0049527944 16:0.0015279955 17:0.015685316 18:-0.027714171 19:-0.022502936 20:0.012106981 21:0.001851031 22:0.0053024362 23:-0.014613356 24:-0.018727958 25:-0.043062162 #
8.4952990418420188944992332835682 1:-0.28556025 2:0.085176028 3:0.01963431 4:0.0085494323 5:0.038513429 6:0.002751047 7:0.02493291 8:-0.027656065 9:0.03194933 10:0.030276822 11:0.021729829 12:-0.01150548 13:0.0045997272 14:0.044852257 15:-0.015994454 16:0.036957473 17:0.037569843 18:-0.022059875 19:-0.0029775945 20:0.0042514009 21:0.0099192681 22:0.015740205 23:-0.013428071 24:0.0048998077 25:0.003544854 #
8.4952990418420188944992332835682 1:0.31727886 2:0.16228403 3:0.0063153389 4:0.019339914 5:0.0054433146 6:0.081216827 7:-0.010956005 8:-0.017100027 9:0.015440508 10:-0.031420734 11:0.045019139 12:0.023110559 13:-0.036494233 14:0.013930354 15:-0.00035483288 16:-0.0041023106 17:-0.00081806129 18:-0.013460937 19:-0.014515044 20:0.014964893 21:-0.023919728 22:-0.025030106 23:0.02878987 24:-0.014056571 25:-0.0061799726 #
8.4952990418420188944992332835682 1:0.2838358 2:0.16250783 3:0.0029478371 4:0.060417898 5:-0.027040746 6:0.034250244 7:-0.031595159 8:-0.02369483 9:-0.00073906343 10:-0.0351942 11:0.066943146 12:0.027235461 13:-0.031949963 14:0.0079777651 15:0.0080604972 16:0.0063484651 17:0.011172394 18:-0.030483454 19:0.00319729 20:-0.0016140019 21:-0.016370988 22:-0.010467176 23:0.022454478 24:-0.015009979 25:-0.0035779029 #
8.4952990418420188944992332835682 1:0.23826616 2:0.036651883 3:-0.14114082 4:0.085156552 5:0.07940729 6:0.06722784 7:-0.11405054 8:0.086688213 9:0.050415725 10:-0.028725129 11:-0.033580966 12:-0.045551986 13:-0.0033387779 14:-0.033579018 15:-0.038901735 16:0.029270342 17:-0.021868693 18:-0.012125913 19:0.01176967 20:0.054725543 21:0.0201548 22:0.020463565 23:0.039085571 24:0.0070172204 25:0.00056798762 #
8.4952990418420188944992332835682 1:-0.30770847 2:0.13787074 3:0.053344432 4:0.078091815 5:0.17674294 6:-0.054213718 7:0.029089596 8:-0.06943009 9:0.0016572868 10:-0.031765819 11:-0.0079642637 12:0.026446478 13:0.0065542813 14:-0.038713288 15:0.016423807 16:-0.0031452284 17:0.022155307 18:0.0067653093 19:-0.0025066433 20:0.0035689585 21:0.040473752 22:-0.034576546 23:0.020122368 24:-0.0088416673 25:-0.015023338 #
-8.4952990418420188944992332835682 1:0.23693296 2:0.018664705 3:-0.1654347 4:-0.0069955532 5:0.1171924 6:0.051031817 7:-0.13929179 8:0.13093798 9:0.058627114 10:-0.017615506 11:-0.015918709 12:-0.021796692 13:-0.025980894 14:-0.049203359 15:-0.015458805 16:0.05150485 17:-0.0069439984 18:-0.0087031806 19:0.026460633 20:0.0068348171 21:0.014595945 22:0.04731052 23:0.020263692 24:-0.0059873741 25:0.0060263798 #
-8.4952990418420188944992332835682 1:-0.27322975 2:0.10732141 3:-8.09427e-05 4:0.058266338 5:0.10669629 6:-0.095830247 7:-0.077002667 8:-0.061196502 9:0.00067511137 10:0.00040582597 11:0.0070838979 12:0.0058319722 13:-0.0015021866 14:-0.00054443651 15:-0.0070425603 16:-0.0055410345 17:0.013646532 18:-0.010210161 19:-0.0080018751 20:0.015911637 21:0.0048615411 22:0.0047845407 23:-0.014169534 24:-0.025609864 25:-0.069193959 #
8.4952990418420188944992332835682 1:0.2914747 2:0.17257094 3:0.039226331 4:0.089825422 5:-0.03650485 6:0.03375626 7:0.032400407 8:-0.011041021 9:0.031863656 10:-0.022439571 11:0.012394613 12:0.035535865 13:-0.023796279 14:0.030134417 15:0.013431464 16:-0.02573381 17:0.0086323125 18:0.017643733 19:0.00051856792 20:-0.00037192329 21:-0.035831589 22:-0.0033033653 23:0.012100903 24:-0.0092456145 25:-0.0057912404 #
8.4952990418420188944992332835682 1:0.2929703 2:0.15763736 3:0.0037375335 4:0.071001314 5:-0.015159676 6:0.055601209 7:-0.018861501 8:-0.023068072 9:0.0074346089 10:-0.035401229 11:0.049573064 12:0.022512527 13:-0.03052198 14:0.015042793 15:0.0055787442 16:0.0023501765 17:0.010469782 18:-0.03370069 19:-0.0066925995 20:0.0097551793 21:-0.020399215 22:-0.024909887 23:0.024091989 24:-0.010998142 25:-0.0021472564 #
-8.4952990418420188944992332835682 1:0.34062284 2:0.16433585 3:-0.019312158 4:-0.013281086 5:0.061166171 6:0.18212792 7:-0.066251993 8:0.0045822593 9:0.10033493 10:-0.045564119 11:-0.054762986 12:0.080754645 13:-0.013592525 14:0.089886554 15:0.030711267 16:-0.068140112 17:0.010166975 18:0.047103301 19:-0.056540508 20:-0.059607543 21:-0.040561333 22:-0.011590285 23:-0.036208015 24:-0.0027591335 25:-0.015952833 #
8.4952990418420188944992332835682 1:0.0066489801 2:-0.1086358 3:-0.075409628 4:-0.040405463 5:0.006376652 6:-0.052251596 7:-0.057967704 8:-0.023082554 9:-0.026549725 10:0.0024048649 11:0.024225511 12:0.01527632 13:0.043162569 14:0.0085600819 15:-0.0028064686 16:-0.020312047 17:-0.028469812 18:-0.0050501372 19:0.023986256 20:-0.00077626947 21:-0.0051946025 22:0.0061104028 23:0.0066152792 24:-0.0086265728 25:-0.011037506 #
8.4952990418420188944992332835682 1:-0.32516828 2:0.087328739 3:0.011375704 4:0.044193521 5:-0.016096771 6:0.01419222 7:0.03946688 8:0.0042223944 9:0.015969774 10:0.038115561 11:0.015783438 12:-0.0039172708 13:0.0056913448 14:0.032602925 15:-0.032728873 16:0.073349707 17:-0.035114292 18:0.026784049 19:-0.076811612 20:-0.027131865 21:0.0059586992 22:0.02560273 23:-0.0047751437 24:-0.020181889 25:-0.00057106523 #
-8.4952990418420188944992332835682 1:0.3346467 2:0.21460983 3:0.094325557 4:-0.082732596 5:-0.037870076 6:0.050800506 7:0.044448365 8:-0.10076387 9:-0.080067635 10:0.038024478 11:0.02973064 12:-0.019250244 13:-0.044433873 14:-0.024518155 15:0.022261022 16:0.059581406 17:-0.051220179 18:-0.037464045 19:0.015941406 20:0.00056815508 21:0.013473427 22:0.011908887 23:0.032110602 24:-0.01813478 25:-0.01542306 #
8.4952990418420188944992332835682 1:-0.25954592 2:0.060409851 3:0.068619214 4:-0.029729808 5:0.046674829 6:0.04846064 7:0.037687633 8:0.0047268555 9:0.011847459 10:0.010679549 11:0.022341004 12:-0.016027698 13:0.014601552 14:0.052686021 15:-0.013648219 16:0.029196028 17:0.060619414 18:-0.0076836995 19:0.05102412 20:0.0075710821 21:0.0036810385 22:0.0045526549 23:-0.01003791 24:0.026146628 25:0.011752838 #
-8.4952990418420188944992332835682 1:0.10740676 2:-0.22994937 3:-0.013250165 4:-0.095142975 5:-0.0030566303 6:0.0068044183 7:0.034685452 8:-0.10391933 9:0.043082178 10:-0.11429793 11:-0.0064501786 12:-0.027004078 13:0.038336158 14:0.0097690756 15:-0.0067309677 16:0.041278001 17:-0.028170755 18:-0.014810744 19:0.022635274 20:-0.0029301171 21:-0.036263373 22:0.0087402891 23:-0.028680203 24:0.0008991072 25:-0.0087338667 #
8.4952990418420188944992332835682 1:0.30928254 2:0.034105793 3:-0.12911023 4:-0.095594361 5:0.16674013 6:0.14621571 7:-0.05454503 8:0.1098899 9:0.062588312 10:-0.00044861791 11:-0.020078465 12:-0.034986399 13:-0.016395088 14:-0.046080191 15:-0.035141766 16:0.062225603 17:-0.032238923 18:-0.023590641 19:-0.037085604 20:0.045784324 21:0.0021997627 22:0.013203741 23:0.036808144 24:-0.012954112 25:0.0052620168 #
-8.4952990418420188944992332835682 1:-0.26175106 2:0.14392366 3:-0.013838402 4:0.022398911 5:0.16002816 6:-0.065484263 7:0.02476421 8:-0.094514713 9:0.048092578 10:0.01869336 11:0.0048521487 12:-0.019561453 13:-0.0280574 14:0.015963135 15:0.0021113784 16:-0.017135089 17:0.033026464 18:-0.052298032 19:-0.0062934328 20:0.024645278 21:-0.0014851602 22:0.020549629 23:-0.029671622 24:-0.017748086 25:-0.055213913 #
8.4952990418420188944992332835682 1:0.034230351 2:-0.17056662 3:-0.049177535 4:0.051850617 5:0.039336506 6:-0.0056786076 7:0.14794442 8:-0.033223607 9:-0.022296179 10:0.03560945 11:-0.0034353642 12:0.018523308 13:0.025771707 14:0.032118753 15:-0.015914747 16:-0.043615833 17:-0.032753583 18:0.0081905732 19:0.049394649 20:-0.0064413403 21:-0.014119075 22:0.012331787 23:0.012497766 24:0.011750696 25:-0.017476339 #
-8.4952990418420188944992332835682 1:0.13886976 2:-0.23042439 3:-0.13384269 4:0.072398901 5:0.05293344 6:-0.068917096 7:0.15878944 8:0.016925979 9:-0.12534088 10:0.037583821 11:-0.0097526927 12:-0.018113947 13:-0.03472985 14:0.064560682 15:0.028483616 16:-0.02694004 17:0.05323657 18:0.081715964 19:0.0032718997 20:-0.0098130219 21:-0.0015127115 22:0.0034242386 23:0.00040240565 24:0.026049569 25:-0.029679479 #
-8.4952990418420188944992332835682 1:-0.17980096 2:0.016468795 3:0.12319542 4:-0.021203248 5:0.098730445 6:0.0011928218 7:-0.076759234 8:0.027068736 9:-0.041714054 10:-0.015250119 11:0.012094934 12:0.010045278 13:0.020870356 14:0.019743433 15:-0.011053315 16:0.024857482 17:-0.00082724454 18:0.021058094 19:0.037007097 20:-0.021886485 21:-0.031870101 22:-0.034922875 23:0.016376192 24:0.028729649 25:0.039171994 #
-8.4952990418420188944992332835682 1:-0.21416974 2:-0.012128131 3:0.13884461 4:0.092052475 5:0.032054231 6:-0.010339246 7:-0.070163585 8:0.049626794 9:-0.046825372 10:0.0037292344 11:0.0067817834 12:-0.011411062 13:0.024606789 14:0.046770945 15:-0.021372057 16:0.045514394 17:-0.0088162972 18:0.02733608 19:0.010472847 20:-0.035790041 21:-0.024935422 22:-0.029946668 23:0.022424288 24:0.010456498 25:-0.0047413758 #
8.4952990418420188944992332835682 1:0.069084257 2:-0.16163532 3:-0.065035515 4:-0.023415463 5:0.045631811 6:0.033249144 7:0.14918166 8:-0.0095268805 9:-0.024158437 10:0.036024 11:0.0089058513 12:0.015385133 13:0.039612699 14:0.02079499 15:-0.010666597 16:-0.040791966 17:-0.037421308 18:0.003543443 19:0.045555152 20:-0.00063560746 21:-0.0082994979 22:0.0010344419 23:0.01297642 24:-0.0018059867 25:-0.01330739 #
8.4952990418420188944992332835682 1:0.0025171235 2:-0.15794635 3:0.055298403 4:-0.0047974698 5:0.021085143 6:0.028396649 7:0.074654534 8:-0.042326946 9:0.036455192 10:-0.00096106617 11:0.0054416833 12:-0.0088859843 13:0.016152143 14:-0.0020852939 15:0.0084699923 16:-0.012094077 17:-0.00079259364 18:-0.013234599 19:0.033273302 20:-0.0042898227 21:-0.027731773 22:0.0092588449 23:-0.012296183 24:0.020890346 25:-0.0049441853 #
8.4952990418420188944992332835682 1:-0.26333895 2:0.081383243 3:0.015882654 4:-0.065792166 5:0.0093793506 6:-0.010141517 7:-0.083632112 8:0.0036280442 9:-0.0059508197 10:0.0011512971 11:0.022707526 12:-0.014049017 13:-0.0015946907 14:0.041860871 15:-0.021335969 16:0.027122915 17:0.018515373 18:0.024973787 19:0.024704507 20:0.0043332228 21:-0.00041446651 22:-0.0083025089 23:0.0044915983 24:0.0019166841 25:0.0043412177 #
8.4952990418420188944992332835682 1:-0.31635144 2:0.089453205 3:-0.0049484498 4:0.014891718 5:-0.02451081 6:-0.017668515 7:-0.044092767 8:-0.00014564619 9:0.0053651333 10:0.023971858 11:0.022978162 12:-0.0028584271 13:0.013267951 14:0.03309375 15:-0.026331849 16:0.068511017 17:-0.01531757 18:0.016741717 19:-0.055948112 20:-0.020480635 21:0.0029719104 22:0.0077397437 23:0.0016348124 24:-0.016921546 25:-0.00028494484 #
-8.4952990418420188944992332835682 1:-0.2168458 2:-0.046321642 3:-0.13466868 4:-0.027472373 5:-0.091910347 6:0.053960029 7:-0.011036313 8:0.029164255 9:-0.0010602267 10:0.12260418 11:-0.015453093 12:0.096466273 13:0.015238744 14:-0.072027571 15:0.0073605161 16:0.045095012 17:-0.032725539 18:0.031482283 19:-0.032431334 20:-0.036875825 21:0.0054953797 22:-0.024101276 23:0.021210941 24:-0.023517007 25:-0.0035024302 #
-8.4952990418420188944992332835682 1:-0.21046686 2:0.014672121 3:0.11075627 4:0.058032252 5:0.073796913 6:-0.011079533 7:-0.038367122 8:0.014535946 9:-0.026426433 10:-0.0056507862 11:0.0045316741 12:0.0024366837 13:0.018659852 14:0.017377649 15:-0.0061259554 16:0.023568742 17:0.0058513517 18:0.0099787517 19:0.019025521 20:-0.01943736 21:-0.017208172 22:-0.022901772 23:0.012728989 24:0.019905262 25:0.029739825 #
8.4952990418420188944992332835682 1:-0.13447651 2:-0.1000073 3:0.073804349 4:0.079441451 5:-0.040699396 6:-0.025666192 7:-0.068196587 8:-0.0021666866 9:0.0041044806 10:0.013441332 11:0.0074601835 12:0.013104031 13:0.019208765 14:-0.033815581 15:0.017866785 16:0.015960278 17:0.011381868 18:-0.005853272 19:-0.037690468 20:-0.0094084386 21:0.0052809045 22:-0.0011445439 23:0.0029511582 24:-0.0054048593 25:-0.0046857148 #
8.4952990418420188944992332835682 1:-0.25705004 2:-0.0012276565 3:-0.053041171 4:0.023831343 5:-0.057025481 6:0.0085579371 7:0.017821413 8:-0.021954516 9:0.04171453 10:0.091309324 11:-0.0015256398 12:0.046582296 13:-0.0087893233 14:-0.027306736 15:-0.0077207098 16:0.027435211 17:-0.035190642 18:-0.012536265 19:-0.038205549 20:-0.015232435 21:-0.030996833 22:0.0043889917 23:0.00051035971 24:0.0052288058 25:-0.0085658971 #
-8.4952990418420188944992332835682 1:-0.29566696 2:0.10645632 3:0.043409836 4:0.13696557 5:0.12165501 6:-0.038189262 7:0.078935936 8:-0.02983278 9:-0.018801145 10:-0.014160619 11:-0.023601193 12:0.025059197 13:0.0052354517 14:-0.028306516 15:-0.00087162195 16:0.010292397 17:-0.058949169 18:0.0049358495 19:-0.059688471 20:-0.033129681 21:-0.0055850777 22:0.030003376 23:0.0045235241 24:0.0098658223 25:0.084745236 #
-8.4952990418420188944992332835682 1:-0.25092682 2:0.16138832 3:-0.048495311 4:-0.022229811 5:0.1479706 6:-0.060434379 7:0.034126163 8:-0.11082731 9:0.080444247 10:0.041170385 11:0.018530605 12:-0.051520903 13:-0.043981142 14:0.039982148 15:-0.0060492288 16:-0.026923385 17:0.040349014 18:-0.044433903 19:0.0044783279 20:0.027199605 21:0.0041492279 22:0.046662811 23:-0.038262729 24:-0.016206946 25:-0.05064648 #
-8.4952990418420188944992332835682 1:0.35382792 2:0.20489627 3:0.037629128 4:-0.11680649 5:0.0083340593 6:0.12766883 7:-0.024733461 8:-0.093138292 9:-0.058679845 10:0.035279822 11:-0.00084324816 12:-0.0086264303 13:-0.013542728 14:-0.015852394 15:0.013456015 16:0.046283722 17:-0.03115014 18:-0.024962543 19:-0.011498854 20:0.0010032385 21:0.01577355 22:0.0068622939 23:0.013647072 24:-0.02059518 25:-0.0028273696 #
-8.4952990418420188944992332835682 1:0.033760123 2:-0.16684911 3:0.12490771 4:-0.12963532 5:0.017999263 6:0.07006149 7:-0.066269532 8:0.050984163 9:0.0030755657 10:0.023431174 11:0.047576722 12:-0.034540791 13:0.013932485 14:0.022966657 15:0.009810837 16:-0.015701946 17:-0.0062253745 18:-0.027199073 19:-0.0045857471 20:0.0024181374 21:0.0047618602 22:0.021573253 23:0.00040228537 24:-0.0037678166 25:0.015168737 #
-8.4952990418420188944992332835682 1:0.070535377 2:-0.21823457 3:0.077933572 4:-0.10293433 5:-0.024632122 6:0.050204273 7:0.0073748385 8:-0.046726208 9:0.086867042 10:-0.0379107 11:0.018103437 12:-0.081151523 13:0.0058719115 14:-0.059093699 15:0.086472452 16:0.01298122 17:0.031946626 18:-0.0065638437 19:-0.058134127 20:-0.0439009 21:-0.0067322617 22:-0.029961865 23:0.042428736 24:0.0044870349 25:-0.013052209 #
8.4952990418420188944992332835682 1:0.32453406 2:0.15290929 3:0.053404536 4:-0.13135761 5:0.037846621 6:0.047258034 7:0.036111414 8:-0.0027190282 9:0.001477875 10:0.037603512 11:-0.059118297 12:-0.006140274 13:-0.016837388 14:-0.0070679765 15:0.014284636 16:0.037584662 17:-0.024679897 18:-0.041024037 19:0.010448226 20:-0.050621733 21:0.039482381 22:-0.0089150649 23:-0.01282492 24:-0.0030559001 25:-0.0055158003 #
-8.4952990418420188944992332835682 1:0.24876463 2:0.01592157 3:-0.14287151 4:0.12778723 5:0.11029352 6:0.096197344 7:-0.034112222 8:0.1283446 9:0.092934363 10:-0.01394374 11:-0.048213623 12:-0.019829078 13:-0.029339943 14:-0.022677176 15:-0.015018236 16:0.038347028 17:0.010755248 18:-0.037086353 19:0.028110601 20:0.008238106 21:-0.0012000321 22:-0.001596834 23:0.021085566 24:0.011517355 25:0.0071207243 #
8.4952990418420188944992332835682 1:-0.29365373 2:0.13522714 3:0.067054041 4:0.0686469 5:0.19697022 6:-0.051753096 7:0.029496767 8:-0.066051058 9:-0.012867878 10:-0.051338263 11:-0.017375166 12:0.037512317 13:0.0060370662 14:-0.054657247 15:0.028680973 16:-0.013520159 17:0.026659513 18:-0.0023891446 19:0.0048898417 20:0.0083361072 21:0.039036591 22:-0.04845307 23:0.026698912 24:-0.00047317913 25:-0.0017457819 #
8.4952990418420188944992332835682 1:-0.27675354 2:0.12393219 3:-0.028448833 4:0.012880135 5:0.064214386 6:-0.023228267 7:0.041925009 8:-0.049695138 9:0.034598421 10:0.011305138 11:0.0021824352 12:-0.039519172 13:-0.020253917 14:0.028625004 15:0.0039486708 16:-0.0058280411 17:0.0068206349 18:-0.0074200616 19:-0.0069932267 20:-0.003703096 21:0.0072522094 22:0.041121967 23:-0.0041379035 24:0.0088328794 25:0.02532291 #
-8.4952990418420188944992332835682 1:-0.29399601 2:0.17789675 3:-0.1086051 4:0.0055368189 5:0.037336476 6:-0.035686754 7:0.07245063 8:-0.074792713 9:0.07170812 10:0.03804896 11:0.0085087223 12:-0.067214683 13:-0.043548673 14:0.045214269 15:-0.0038236585 16:-0.031274911 17:0.023830418 18:-0.051609181 19:-0.0070254412 20:0.025371252 21:-0.00011772184 22:0.050580826 23:-0.040937781 24:-0.01345257 25:-0.046425588 #
8.4952990418420188944992332835682 1:0.21989132 2:-0.046607934 3:-0.18633035 4:0.027528854 5:0.12629952 6:0.027984377 7:-0.069035061 8:0.11964584 9:-0.0061559454 10:0.019542024 11:-0.015524295 12:-0.060764819 13:-0.034270827 14:-0.051781591 15:-0.0039787684 16:0.070664108 17:-0.0056500691 18:-0.010434484 19:-0.00029444927 20:0.04365389 21:-0.0025857037 22:0.01315821 23:0.0092986897 24:-0.016450386 25:0.021374144 #
-8.4952990418420188944992332835682 1:0.1626161 2:-0.079951569 3:-0.19567287 4:0.16219603 5:0.083694212 6:-0.033517476 7:-0.016812878 8:0.13342951 9:-0.014862837 10:0.034074411 11:-0.025151057 12:-0.052581009 13:-0.037682418 14:-0.046238862 15:0.0053806379 16:0.074604295 17:0.025645079 18:-0.022889569 19:0.02412363 20:0.021989889 21:0.004731474 22:0.01507401 23:0.024269583 24:0.0028918695 25:0.010823811 #
-8.4952990418420188944992332835682 1:-0.21503285 2:-0.015729355 3:0.16313528 4:0.14111052 5:0.082663931 6:0.027826121 7:0.074793339 8:0.033540644 9:-0.030136276 10:0.0032786238 11:-0.019410055 12:0.0074492665 13:0.0032227023 14:0.010831431 15:-0.023341414 16:0.022475988 17:-0.026566593 18:0.037187185 19:0.015447829 20:-0.023388624 21:-0.018785188 22:-0.022316627 23:0.0092400955 24:0.013117519 25:0.0049252543 #
8.4952990418420188944992332835682 1:0.15054229 2:-0.085366815 3:-0.2116539 4:0.1292319 5:0.069034748 6:-0.059145439 7:-0.089434907 8:0.10233378 9:-0.060000215 10:0.024951428 11:-0.014035169 12:-0.069045126 13:-0.031265795 14:-0.046579566 15:0.005613944 16:0.056999523 17:0.010443567 18:0.01970724 19:0.013570682 20:0.041574027 21:0.0022758103 22:0.034531955 23:-0.008420459 24:-0.013377626 25:0.025914859 #
8.4952990418420188944992332835682 1:0.11960902 2:-0.14781801 3:-0.2069167 4:0.16603976 5:0.047905512 6:-0.086145736 7:0.0070414599 8:0.064774714 9:-0.10262003 10:0.042685188 11:-0.0046928371 12:-0.044239651 13:-0.019871684 14:-0.0033649672 15:0.028031643 16:0.048704937 17:0.050316583 18:0.016283005 19:-0.013285168 20:0.017771998 21:-0.017515048 22:0.0069967303 23:-0.032662619 24:0.0033411763 25:0.021310523 #
8.4952990418420188944992332835682 1:0.24106722 2:-0.067166239 3:-0.17814846 4:0.021344118 5:0.14978176 6:0.044505585 7:-0.0074660326 8:0.12614439 9:-0.012622894 10:0.033805218 11:-0.01853865 12:-0.070088357 13:-0.050452452 14:-0.050532341 15:-0.001029487 16:0.07145565 17:0.00021647134 18:-0.012930577 19:0.0048569776 20:0.050446626 21:-0.011726015 22:-0.0056062862 23:0.0080818469 24:-0.015217857 25:0.026619956 #
8.4952990418420188944992332835682 1:-0.32810777 2:0.13842373 3:0.085563108 4:0.13337515 5:0.20074978 6:-0.013191013 7:0.15135352 8:-0.062832788 9:0.0046239612 10:-0.028905045 11:-0.026483558 12:0.037552964 13:-0.0021625878 14:-0.070080876 15:0.0098020369 16:-0.014129081 17:-0.013549436 18:0.053670388 19:-0.014591971 20:-0.0057745618 21:0.060754314 22:-0.0068246489 23:0.019431863 24:-0.014902424 25:-0.015759856 #
-8.4952990418420188944992332835682 1:-0.31014499 2:0.15098958 3:-0.036192391 4:0.05588286 5:0.096600071 6:-0.10293316 7:-0.064686634 8:-0.062863827 9:-0.0080306064 10:-0.023080789 11:-0.0030389635 12:0.011423678 13:-0.0025700897 14:-0.028161824 15:0.007927455 16:-0.016914885 17:-0.016617429 18:-0.015077159 19:-0.046471775 20:0.0087437881 21:0.0059231948 22:0.050996158 23:-0.017293006 24:-0.021926556 25:-0.018408179 #
8.4952990418420188944992332835682 1:0.098785728 2:-0.19536144 3:-0.089121327 4:0.037398558 5:0.053421319 6:-0.055687532 7:0.083901174 8:0.0013382318 9:-0.10522435 10:0.026441505 11:0.014772562 12:-0.012080728 13:-0.01086881 14:0.036870901 15:0.014521114 16:-0.016807096 17:-0.00010666495 18:0.0028714167 19:-0.011647704 20:-0.023137495 21:-0.019646391 22:-0.017233852 23:-0.0037893299 24:0.0068897824 25:-0.015528884 #
8.4952990418420188944992332835682 1:0.36051098 2:0.10486125 3:-0.065737568 4:-0.1297894 5:0.14721234 6:0.20368698 7:-0.022913018 8:0.071340464 9:0.092578486 10:-0.023767877 11:-0.0062588574 12:0.0030206933 13:-0.02241873 14:-0.015300885 15:-0.04381571 16:0.025417328 17:-0.050466646 18:-0.010702257 19:-0.043887593 20:0.021752868 21:0.010843992 22:0.0083321407 23:0.051807597 24:-0.0040503796 25:-0.023941018 #
-8.4952990418420188944992332835682 1:0.21522729 2:0.011738382 3:-0.14844859 4:0.27851108 5:0.046823468 6:0.083450265 7:0.033304852 8:0.11437444 9:0.072152048 10:0.015316712 11:-0.056835786 12:-0.03791989 13:-0.041967928 14:-0.04761241 15:-0.021982258 16:0.044082545 17:-0.019701106 18:0.027492605 19:0.046384327 20:0.035609808 21:0.0082099196 22:0.032763202 23:0.017996958 24:-0.012665455 25:0.016723359 #
8.4952990418420188944992332835682 1:-0.28054357 2:0.076100744 3:0.044633199 4:0.0038546466 5:0.036241479 6:0.025483962 7:0.036353126 8:-0.002315616 9:0.01524753 10:0.021086933 11:0.019565055 12:-0.015002855 13:0.010440127 14:0.046369616 15:-0.015706072 16:0.037980042 17:0.028663673 18:-0.007529113 19:0.0093518123 20:-0.0043703225 21:0.0010106012 22:0.0078513706 23:-0.0058490848 24:0.013683323 25:0.012384566 #
8.4952990418420188944992332835682 1:0.23362024 2:0.099198341 3:-0.070497744 4:0.24974789 5:-0.012999817 6:0.078326002 7:-0.024947884 8:0.029426819 9:0.067660242 10:-0.048061442 11:-0.02139733 12:-0.0035152319 13:-0.0016011848 14:0.013386064 15:-0.033053219 16:-0.016538031 17:-0.012514411 18:-0.002624175 19:0.0072058192 20:0.027055709 21:0.012990138 22:0.0066204672 23:0.042486154 24:0.022392789 25:-0.02665085 #
-8.4952990418420188944992332835682 1:0.13956255 2:0.15540519 3:-0.011188757 4:0.13988212 5:-0.13732539 6:-0.17672735 7:-0.11087228 8:0.021348888 9:0.0062036244 10:-0.091422416 11:0.16493426 12:0.061711356 13:-0.090969063 14:0.014433487 15:0.018317327 16:0.010117432 17:-0.014013307 18:0.028649069 19:-0.0075789187 20:-0.013143345 21:-0.0096975556 22:0.0484352 23:0.024445405 24:0.050667312 25:-0.018526252 #
-8.4952990418420188944992332835682 1:0.28065875 2:0.19991012 3:0.037090648 4:0.10331354 5:-0.079436749 6:0.04815384 7:-0.024432125 8:-0.11263398 9:-0.068295993 10:0.017385462 11:-0.0058593322 12:-0.012625302 13:-0.0057652802 14:0.0064314241 15:0.031626999 16:0.029853469 17:-0.0023266 18:-0.041177742 19:0.019875698 20:0.0087886732 21:0.007782178 22:-0.018025935 23:0.0066958214 24:-0.0086981487 25:0.0063205729 #
-8.4952990418420188944992332835682 1:0.041198451 2:-0.28399014 3:0.037728924 4:0.073734358 5:-0.07922896 6:0.0056837434 7:0.11783564 8:-0.097339757 9:0.095295385 10:-0.11393496 11:-0.029491389 12:-0.098845884 13:0.018303934 14:-0.035508394 15:0.033103626 16:0.027152764 17:-0.026826484 18:0.061533239 19:0.019437822 20:-0.029701546 21:-0.036819234 22:-0.007457986 23:-0.016258987 24:0.0087441476 25:-0.033621266 #
8.4952990418420188944992332835682 1:-0.066602103 2:-0.17173934 3:0.093049407 4:0.12177125 5:-0.045378905 6:0.016307311 7:0.063268229 8:-0.01167959 9:0.037567466 10:0.021008736 11:-0.01148053 12:-0.01191761 13:0.00078267069 14:-0.020633725 15:0.0019517748 16:-0.0055128043 17:-0.030907918 18:0.014621301 19:0.0029118997 20:-0.011237479 21:-0.026266443 22:0.018314442 23:-0.017925534 24:0.012697225 25:-0.0090806885 #
8.4952990418420188944992332835682 1:-0.044149261 2:-0.16455655 3:0.10289654 4:0.092667848 5:-0.018096695 6:0.028291363 7:0.080941819 8:-0.015891414 9:0.039717235 10:0.014206959 11:-0.011989607 12:-0.018377054 13:-0.0073923827 14:-0.013309047 15:0.00088755437 16:-0.02335052 17:-0.021788115 18:0.016537659 19:0.026723139 20:-0.0011394258 21:-0.020957896 22:0.013067715 23:-0.014332347 24:0.018656885 25:-0.0038818286 #
8.4952990418420188944992332835682 1:0.13246153 2:-0.069595195 3:0.00084759813 4:-0.075277336 5:0.010225378 6:0.0020395089 7:-0.063524596 8:-0.013053589 9:0.013528538 10:-0.056749869 11:0.05590592 12:-0.022183435 13:0.00013122024 14:-0.011896299 15:-0.019352317 16:-0.02902527 17:-0.01859339 18:0.033062454 19:0.0082333023 20:0.013923043 21:-0.0081986422 22:0.021601643 23:-0.0063416166 24:0.0044113128 25:-0.012682707 #
-8.4952990418420188944992332835682 1:0.093671769 2:-0.23593216 3:-0.025974836 4:-0.079797916 5:-0.013151092 6:-0.025894813 7:0.021574251 8:-0.073620953 9:0.036448784 10:-0.073380306 11:-0.0052891881 12:-0.0255627 13:0.011746901 14:-0.010785491 15:0.027250789 16:0.041723013 17:0.022701645 18:-0.013816892 19:-0.011451967 20:-0.015863927 21:-0.029544668 22:-0.02645226 23:0.0032076533 24:0.01204616 25:-0.0061514443 #
8.4952990418420188944992332835682 1:-0.27746612 2:0.13996392 3:0.056137405 4:0.0049126605 5:0.2001745 6:-0.043041993 7:0.0070619602 8:-0.071533732 9:0.0050933929 10:-0.033800624 11:0.0020403229 12:0.023872243 13:0.0059329444 14:-0.030816521 15:0.019911099 16:-0.0055271829 17:0.040825143 18:-0.0070437728 19:0.014561993 20:0.010925831 21:0.033670362 22:-0.039898645 23:0.016958648 24:-0.00076081633 25:-0.013268644 #
-8.4952990418420188944992332835682 1:-0.096591815 2:-0.12735087 3:0.21444097 4:0.037430599 5:-0.039748583 6:0.058605444 7:-0.11637717 8:0.11342656 9:-0.027541472 10:0.081564613 11:0.046336602 12:-0.031690996 13:0.016607732 14:0.045847975 15:0.00099744485 16:-0.026910987 17:-0.012038126 18:-0.048353892 19:0.0065457472 20:0.0085426206 21:-0.0065614176 22:0.0089650424 23:-0.013301019 24:0.0055148131 25:0.019306991 #
8.4952990418420188944992332835682 1:-0.26874754 2:0.13238677 3:0.090109542 4:0.037206963 5:0.23177916 6:-0.0042163683 7:0.11686946 8:-0.074192442 9:0.025312923 10:-0.01988042 11:-0.011190888 12:0.0072497195 13:-0.016155303 14:-0.024129337 15:0.010356656 16:-0.021389168 17:0.035227831 18:0.020573497 19:0.038303778 20:0.01181601 21:0.039146423 22:-0.027147938 23:0.011715953 24:0.0022655625 25:-0.021492545 #
-8.4952990418420188944992332835682 1:-0.22748727 2:0.10247223 3:0.077080406 4:0.039737079 5:0.19241136 6:-0.0050769444 7:0.092446074 8:-0.031077804 9:-0.021214616 10:-0.03595265 11:-0.026198529 12:0.01703237 13:-0.0094336877 14:-0.02089791 15:0.015228901 16:-0.029033788 17:-0.017397404 18:-0.01755669 19:0.011912424 20:-0.0069730827 21:-0.019824723 22:0.021885019 23:-0.0025596996 24:0.036985718 25:0.096757069 #
8.4952990418420188944992332835682 1:0.058704652 2:-0.15506907 3:-0.13630456 4:0.039913714 5:0.020131795 6:-0.10626677 7:-0.088508531 8:0.029038046 9:-0.10637289 10:0.014893067 11:0.025136918 12:-0.037976168 13:0.0025940526 14:-0.0013461141 15:0.011975165 16:0.0014769429 17:-0.0062446571 18:0.036706317 19:0.0057382779 20:-0.010025043 21:-0.002132542 22:0.039027635 23:-0.021709714 24:-0.0068056406 25:-0.0072120749 #
8.4952990418420188944992332835682 1:0.045067981 2:-0.16723748 3:-0.10589119 4:0.024944618 5:-0.019259023 6:-0.12148431 7:-0.070708014 8:-0.037827943 9:-0.0978572 10:-0.021667622 11:0.021280907 12:0.015311479 13:0.012956056 14:0.037569918 15:-0.0046172552 16:-0.043241546 17:-0.018292567 18:0.025195587 19:-0.0063769314 20:-0.02657393 21:0.010889797 22:0.023378594 23:0.011342059 24:0.0039657429 25:-0.02355971 #
-8.4952990418420188944992332835682 1:0.1283043 2:-0.13271248 3:-0.19109167 4:0.083562687 5:0.058014784 6:-0.090711609 7:-0.027959451 8:0.067270108 9:-0.089961909 10:0.028402204 11:-0.0045801322 12:-0.021570923 13:-0.013678799 14:0.0010350194 15:0.0042369016 16:0.055296708 17:0.032144681 18:-0.016961001 19:-0.0046589766 20:0.033346198 21:0.01532874 22:0.014144718 23:0.020458102 24:-0.01380953 25:0.02594845 #
-8.4952990418420188944992332835682 1:-0.26484981 2:0.083923064 3:0.078261003 4:0.10933904 5:0.14326018 6:-0.030365877 7:0.040153041 8:-0.017432135 9:-0.027135534 10:-0.0076850331 11:-0.012698101 12:0.023476612 13:0.010514203 14:-0.0093566673 15:-0.0076515046 16:0.0077173361 17:-0.034347117 18:0.0081877867 19:-0.020366699 20:-0.01859365 21:-0.0072416062 22:0.0023268638 23:0.0062651685 24:0.001496233 25:0.014664225 #
8.4952990418420188944992332835682 1:-0.29812095 2:0.060811453 3:0.029336883 4:-0.0045925607 5:-0.016939957 6:0.026913483 7:0.006355884 8:0.0029742098 9:0.016923616 10:0.02417491 11:0.021219062 12:0.0047673997 13:0.011998901 14:0.040873449 15:-0.027155591 16:0.060069446 17:0.037481777 18:-0.0011185259 19:-0.0072023678 20:0.0076702568 21:0.0095904702 22:-6.1432351e-05 23:-0.01510025 24:-0.0017630762 25:0.0022575548 #
-8.4952990418420188944992332835682 1:-0.29482272 2:0.097055763 3:0.025960261 4:0.12805891 5:0.1107309 6:-0.066196375 7:0.016371517 8:-0.052964181 9:0.0051308917 10:0.012651231 11:-0.0042442111 12:0.011771771 13:-0.00024599646 14:-0.0046562981 15:-0.010806626 16:0.011487151 17:-0.0041697659 18:-0.015971117 19:-0.039967388 20:0.0013691252 21:0.0065847849 22:0.017311329 23:-0.01982698 24:-0.029192876 25:-0.06305775 #
8.4952990418420188944992332835682 1:0.30368927 2:0.15705761 3:0.035536673 4:0.08201851 5:-0.024815833 6:0.035809997 7:0.051036946 8:-0.014801634 9:0.0026199629 10:-0.021931641 11:0.049051009 12:0.014239738 13:-0.06456168 14:0.0023187422 15:-0.00024577379 16:-0.0039693168 17:-0.0027302371 18:-0.011647956 19:0.025375763 20:-0.010803254 21:-0.026156195 22:-0.0080405548 23:0.031013716 24:-0.023653816 25:-0.012085624 #
-8.4952990418420188944992332835682 1:0.28260383 2:0.05332914 3:-0.13456878 4:-0.035600889 5:0.12141255 6:0.11499851 7:-0.10334918 8:0.09572345 9:0.065140918 10:-0.012635892 11:-0.019961443 12:0.01088104 13:-0.01660265 14:-0.0094868988 15:-0.00093550223 16:0.019841028 17:0.012563544 18:0.019429071 19:-0.010565941 20:0.0020777276 21:-0.0092789633 22:0.031287555 23:0.00014174639 24:0.0017315815 25:0.0056448295 #
-8.4952990418420188944992332835682 1:0.13834801 2:-0.21737981 3:-0.051780261 4:-0.21593125 5:0.026477871 6:-0.0083922725 7:-0.00460767 8:-0.078392252 9:0.024140187 10:-0.087596223 11:0.0071878438 12:0.0046608755 13:0.015836576 14:-0.004472597 15:-0.015546186 16:0.04625342 17:-0.018035762 18:0.019647665 19:-0.0018849415 20:-0.0079845292 21:-0.0253643 22:0.029359289 23:-0.024845123 24:-0.002433558 25:-0.010324319 #
-8.4952990418420188944992332835682 1:0.1460007 2:-0.21363077 3:-0.049016189 4:-0.21005523 5:0.041389931 6:0.027439207 7:0.0049569425 8:-0.090802632 9:0.025370866 10:-0.10978109 11:0.007255998 12:-0.0057975533 13:0.042624559 14:0.019361928 15:-0.031697478 16:0.045458104 17:-0.037342045 18:0.0066762753 19:0.017109409 20:0.012463787 21:-0.020354364 22:0.03258587 23:-0.03468233 24:-0.014024143 25:-0.001425157 #
8.4952990418420188944992332835682 1:-0.083553299 2:-0.18002011 3:0.068087831 4:0.15292229 5:-0.059829552 6:-0.0017718264 7:0.062211797 8:-0.0081209717 9:0.012399054 10:0.023630911 11:-0.013223346 12:0.018905809 13:0.018325228 14:-0.017256778 15:-0.012450021 16:0.0012475759 17:-0.05206389 18:0.005481441 19:-0.0095371744 20:-0.013317387 21:-0.027906803 22:0.023165239 23:-0.019551987 24:0.00569255 25:-0.0082043242 #
8.4952990418420188944992332835682 1:-0.09270896 2:-0.1014162 3:0.088598408 4:0.012467052 5:-0.010405922 6:-0.0089000082 7:-0.068755955 8:-0.006855919 9:0.012347654 10:0.0031285873 11:0.0042986404 12:0.006005378 13:0.00019473887 14:-0.031058559 15:0.019682189 16:0.0091332402 17:0.018179467 18:-0.011631087 19:-0.024271138 20:0.00055914512 21:-0.0021497912 22:-0.0027135999 23:0.0014585474 24:0.0010178847 25:-0.0022201028 #
8.4952990418420188944992332835682 1:-0.063678958 2:-0.15297918 3:0.04551008 4:0.066040054 5:-0.045467641 6:-0.036076788 7:-0.060637672 8:-0.010101782 9:-0.0029854947 10:0.0058429008 11:-0.00060295564 12:0.012899382 13:0.019568259 14:-0.011619856 15:0.0034800365 16:-0.00080359937 17:-0.028733825 18:-0.015761014 19:0.00059346325 20:-0.0052400399 21:-0.033221979 22:0.012114248 23:-0.015875388 24:0.012006809 25:-0.0013913263 #
-8.4952990418420188944992332835682 1:-0.23770116 2:0.012610591 3:0.11792151 4:0.12928537 5:0.059880964 6:-0.017499406 7:-0.0093073519 8:0.020910375 9:-0.032963462 10:-0.00026106657 11:-0.0086831367 12:0.005762076 13:0.015998131 14:0.016456487 15:-0.013246034 16:0.037089068 17:-0.015030175 18:0.006384721 19:-0.0151288 20:-0.028530587 21:-0.018507756 22:-0.017370479 23:0.010828812 24:0.006165402 25:0.01058225 #
-8.4952990418420188944992332835682 1:0.19494151 2:0.011993049 3:-0.14695373 4:0.27778456 5:0.034120187 6:0.054718927 7:-0.0053197774 8:0.098215349 9:0.057034511 10:0.0048426259 11:-0.056961745 12:-0.025237745 13:-0.030521113 14:-0.024471559 15:-0.0093756933 16:0.039217327 17:-0.0014921987 18:0.012197406 19:0.011444467 20:0.026127389 21:-0.0024434768 22:0.024808208 23:0.010214292 24:-0.0053892117 25:0.013772251 #
-8.4952990418420188944992332835682 1:0.29499614 2:0.17494418 3:0.074437 4:-0.061007198 5:-0.019709505 6:-0.021894827 7:0.075805426 8:0.02436102 9:0.028132971 10:-0.060610361 11:0.1933776 12:0.081447914 13:-0.14134553 14:0.021132153 15:0.04788474 16:0.031823508 17:-0.035289489 18:0.0065063545 19:-0.014356111 20:-0.024816824 21:-0.029910181 22:0.018075518 23:0.012616804 24:0.011928301 25:-0.012723763 #
8.4952990418420188944992332835682 1:0.31427744 2:0.15164167 3:0.055952296 4:-0.13510267 5:0.029474569 6:0.027347878 7:0.030639322 8:0.0012221879 9:-0.0012360619 10:0.034050509 11:-0.056140628 12:-0.0081548756 13:-0.031075049 14:-0.010724058 15:0.0076851584 16:0.031137392 17:-0.041503273 18:-0.02212853 19:0.011650834 20:-0.047970746 21:0.040288419 22:-0.0013702678 23:-0.0067096078 24:-0.0048427787 25:-0.01429135 #
-8.4952990418420188944992332835682 1:0.15679732 2:-0.24506834 3:-0.019797094 4:-0.24059723 5:0.063884564 6:0.069081776 7:0.063838333 8:-0.071235463 9:0.061944682 10:-0.091694608 11:0.0041835699 12:-0.011039015 13:0.020926718 14:-0.0059903297 15:-0.0073922286 16:0.054807078 17:-0.019293359 18:0.0069902339 19:-0.024769703 20:-0.01211364 21:-0.026458915 22:0.01436565 23:-0.019422852 24:-0.0048801135 25:-0.0083510065 #
8.4952990418420188944992332835682 1:-0.059043311 2:-0.15023759 3:0.015280785 4:0.16065124 5:-0.019677093 6:-0.019395767 7:0.11471502 8:-0.031062925 9:0.0064418348 10:0.017600492 11:-0.018913351 12:0.016403385 13:0.016690506 14:-0.018756464 15:-0.015402535 16:-0.013275279 17:-0.061215371 18:0.029181346 19:-0.009071311 20:-0.018191762 21:-0.010145502 22:0.024418322 23:-0.0067277844 24:-0.0093130935 25:-0.032846883 #
8.4952990418420188944992332835682 1:-0.28761387 2:0.12016982 3:-0.045625564 4:0.041638151 5:0.02894564 6:-0.044985197 7:0.018657189 8:-0.05173992 9:0.040101159 10:0.022061184 11:0.0029667122 12:-0.040556964 13:-0.015396803 14:0.043162774 15:-0.012139692 16:0.033662189 17:-0.012654062 18:-0.0072928397 19:-0.037339665 20:-0.019903112 21:-0.01103851 22:0.029093465 23:-0.005440047 24:0.0017132272 25:0.031038906 #
-8.4952990418420188944992332835682 1:0.29183516 2:0.15683663 3:-0.054558013 4:0.045062918 5:0.029345183 6:0.13237849 7:-0.13821712 8:0.01387407 9:0.10345426 10:-0.064570516 11:-0.048236039 12:0.078549109 13:0.011207257 14:0.0830727 15:0.022925369 16:-0.071818762 17:0.023863435 18:0.038765393 19:-0.028722391 20:-0.065043822 21:-0.017201027 22:0.006301939 23:-0.028269004 24:0.017840596 25:-0.020639258 #
8.4952990418420188944992332835682 1:0.18009941 2:-0.12788793 3:-0.10279636 4:-0.13945594 5:0.11030474 6:0.020369049 7:-0.030701999 8:0.048843909 9:-0.042720489 10:0.0012690858 11:0.015557677 12:-0.022700427 13:-0.0069059134 14:0.0022224444 15:-0.019991955 16:0.0038967645 17:-0.013123707 18:0.037537418 19:-0.01917823 20:0.012349575 21:0.0054251789 22:0.025758393 23:-0.0024920981 24:-0.010980876 25:-0.0019980248 #
8.4952990418420188944992332835682 1:0.29865909 2:0.14666907 3:0.049723074 4:-0.073746219 5:0.013702082 6:0.015856445 7:0.022417892 8:-0.005730838 9:-0.0036122832 10:0.028669924 11:-0.063528642 12:-0.010476222 13:-0.026244568 14:-0.0025439996 15:0.015298928 16:0.031060154 17:-0.025976161 18:-0.039681636 19:0.020703394 20:-0.046948738 21:0.038756717 22:-0.013356165 23:-0.010442728 24:0.0019465139 25:-0.0080588944 #
-8.4952990418420188944992332835682 1:0.16523777 2:-0.19387414 3:-0.20616518 4:-0.077156082 5:0.11590594 6:-0.054567385 7:0.00034881488 8:0.046062164 9:-0.11980923 10:0.042204734 11:0.015377956 12:0.0026493836 13:-0.023435853 14:0.019678418 15:0.0098560862 16:0.031669967 17:0.03116581 18:0.012478821 19:-0.006134694 20:0.0088713793 21:-0.0021889007 22:0.024717858 23:0.012118043 24:0.00041448505 25:0.007523634 #
-8.4952990418420188944992332835682 1:0.16392417 2:-0.11576585 3:-0.19007286 4:0.088144653 5:0.092408285 6:-0.051617339 7:0.0077634556 8:0.1041424 9:-0.064133815 10:0.044794977 11:-0.015587138 12:-0.036817096 13:-0.039975867 14:-0.014083195 15:0.0088550271 16:0.057018302 17:0.029781835 18:-0.014490336 19:0.0025647432 20:0.031393811 21:0.0076084086 22:-0.0025730552 23:0.0393827 24:0.00041990317 25:0.0076999199 #
8.4952990418420188944992332835682 1:0.0031510987 2:-0.11645228 3:-0.09290722 4:0.0032039748 5:0.0050627957 6:-0.05737143 7:-0.029827274 8:-0.013021854 9:-0.043222874 10:0.020307422 11:0.018843517 12:0.019193325 13:0.048940476 14:0.018975003 15:0.000970633 16:-0.016527729 17:-0.032991562 18:-0.024251919 19:0.0043067811 20:-0.0071463361 21:-0.011083373 22:-0.0042233574 23:0.017287942 24:-0.012155901 25:-0.010780075 #
