SVM-light Version V6.02
0 # kernel type
3 # kernel parameter -d 
1 # kernel parameter -g 
1 # kernel parameter -s 
1 # kernel parameter -r 
empty# kernel parameter -u 
7 # highest feature index 
1684 # number of training documents 
1153 # number of support vectors plus 1 
-0.0455913 # threshold b, each following line is a SV (starting with alpha*y)
-10.195361402202358647173241479322 1:0.062443607 2:-0.22157398 3:-0.011943981 4:0.022151029 5:-0.035600018 6:-0.031000856 7:-0.0073284404 #
10.195361402202358647173241479322 1:-0.31518823 2:0.15662377 3:-0.057457976 4:-0.07483869 5:0.022844367 6:-0.0089235641 7:-0.019020602 #
-10.195361402202358647173241479322 1:-0.32851252 2:0.19678959 3:-0.12250698 4:-0.0050826068 5:0.0074493983 6:-0.0027579416 7:0.097267091 #
-10.195361402202358647173241479322 1:-0.32319838 2:0.18926534 3:-0.1521865 4:0.001544574 5:-0.011101715 6:-0.082202576 7:-0.024392363 #
10.195361402202358647173241479322 1:-0.066602103 2:-0.17173934 3:0.093049407 4:0.12177125 5:-0.045378905 6:0.016307311 7:0.063268229 #
10.195361402202358647173241479322 1:-0.083553299 2:-0.18002011 3:0.068087831 4:0.15292229 5:-0.059829552 6:-0.0017718264 7:0.062211797 #
10.195361402202358647173241479322 1:-0.24375363 2:0.10030751 3:-0.0054497519 4:-0.068450019 5:0.05928994 6:-0.031087099 7:-0.054523107 #
10.195361402202358647173241479322 1:-0.23311777 2:0.0069708051 3:-0.072716795 4:-0.026184712 5:-0.062045872 6:-0.038438134 7:-0.099142209 #
-10.195361402202358647173241479322 1:-0.0080369944 2:-0.27013457 3:-0.041014019 4:0.1268637 5:-0.10037207 6:-0.063823976 7:0.060805313 #
-10.195361402202358647173241479322 1:-0.30503854 2:0.16905925 3:-0.078024715 4:0.057210818 5:0.099073581 6:-0.075713016 7:0.055813737 #
10.195361402202358647173241479322 1:0.16486351 2:-0.15192783 3:-0.029292939 4:-0.23194186 5:0.089636423 6:0.027551545 7:0.024441741 #
10.195361402202358647173241479322 1:0.18920337 2:-0.1444945 3:-0.077873498 4:-0.11812115 5:0.13794276 6:0.051773164 7:0.047788396 #
-10.195361402202358647173241479322 1:0.33424208 2:0.075460114 3:-0.093487769 4:-0.051729959 5:0.15451482 6:0.19206312 7:-0.039933477 #
-10.195361402202358647173241479322 1:-0.30678341 2:0.032510679 3:-0.085366048 4:-0.051021308 5:-0.16772434 6:0.064075954 7:0.03620775 #
-10.195361402202358647173241479322 1:-0.37215668 2:0.12326582 3:-0.10352184 4:-0.12596153 5:-0.14819758 6:0.10962988 7:0.074425399 #
10.195361402202358647173241479322 1:-0.32516828 2:0.087328739 3:0.011375704 4:0.044193521 5:-0.016096771 6:0.01419222 7:0.03946688 #
10.195361402202358647173241479322 1:0.32161394 2:0.14503992 3:0.0015390092 4:0.05860113 5:0.021003231 6:0.118869 7:0.025582876 #
-10.195361402202358647173241479322 1:0.083780944 2:-0.22432649 3:-0.05427191 4:-0.15596792 5:-0.028569652 6:-0.056196615 7:-0.076259434 #
10.195361402202358647173241479322 1:0.24009261 2:0.21106921 3:0.043237455 4:0.11229213 5:-0.13547873 6:-0.055481896 7:-0.094633095 #
-10.195361402202358647173241479322 1:0.32738453 2:0.13372377 3:-0.075251587 4:-0.067384325 5:0.11364388 6:0.19259064 7:-0.10981478 #
-10.195361402202358647173241479322 1:0.086588144 2:-0.19018899 3:-0.23855308 4:0.085161462 5:0.042086873 6:-0.13065636 7:-0.057992272 #
10.195361402202358647173241479322 1:0.36282915 2:0.21521436 3:0.10607859 4:-0.012357722 5:-0.035540741 6:0.090141185 7:0.092052571 #
-10.195361402202358647173241479322 1:0.2909357 2:0.093950696 3:-0.057469066 4:0.043124173 5:0.055765033 6:0.16785017 7:-0.066347577 #
10.195361402202358647173241479322 1:-0.25873786 2:0.027593812 3:-0.094350226 4:-0.0064962464 5:-0.10125998 6:0.0065005757 7:-0.024694977 #
-10.195361402202358647173241479322 1:-0.31014499 2:0.15098958 3:-0.036192391 4:0.05588286 5:0.096600071 6:-0.10293316 7:-0.064686634 #
-10.195361402202358647173241479322 1:-0.29482272 2:0.097055763 3:0.025960261 4:0.12805891 5:0.1107309 6:-0.066196375 7:0.016371517 #
10.195361402202358647173241479322 1:0.36051098 2:0.10486125 3:-0.065737568 4:-0.1297894 5:0.14721234 6:0.20368698 7:-0.022913018 #
10.195361402202358647173241479322 1:0.35972577 2:0.17260976 3:0.025552208 4:-0.092609391 5:0.04266851 6:0.12115138 7:0.023594346 #
10.195361402202358647173241479322 1:0.34843054 2:0.21249932 3:0.11592087 4:-0.082010418 5:-0.032098852 6:0.037527252 7:0.067438662 #
-10.195361402202358647173241479322 1:0.3346467 2:0.21460983 3:0.094325557 4:-0.082732596 5:-0.037870076 6:0.050800506 7:0.044448365 #
10.195361402202358647173241479322 1:-0.27692896 2:0.10535672 3:-0.0944134 4:-0.075487986 5:-0.027550591 6:-0.024025181 7:-0.084777072 #
-10.195361402202358647173241479322 1:-0.37294573 2:0.17635708 3:-0.088997275 4:-0.027621258 5:-0.080576353 6:0.069003202 7:0.093401477 #
-10.195361402202358647173241479322 1:-0.19447045 2:0.07938379 3:0.12220233 4:-0.059716344 5:0.22948241 6:0.011240304 7:-3.1697014e-05 #
-10.195361402202358647173241479322 1:-0.24378996 2:0.14417776 3:-0.016206849 4:0.042500444 5:0.16886202 6:-0.037319276 7:0.13651921 #
10.195361402202358647173241479322 1:-0.016657716 2:-0.15466419 3:-0.092116587 4:0.092284672 5:-0.024363834 6:-0.060403399 7:-0.09256959 #
10.195361402202358647173241479322 1:0.064979888 2:-0.15720385 3:-0.10539724 4:0.13602403 5:0.021757105 6:-0.016245328 7:-0.028887995 #
-10.195361402202358647173241479322 1:0.044607699 2:-0.19992346 3:-0.13451761 4:0.015988782 5:-0.068026513 6:-0.13416706 7:-0.14022186 #
-10.195361402202358647173241479322 1:0.048288431 2:-0.26283878 3:-0.094791196 4:0.10435461 5:-0.071310461 6:-0.088891089 7:0.046967678 #
10.195361402202358647173241479322 1:-0.26875195 2:0.13798445 3:0.092093602 4:0.015711106 5:0.24503018 6:-0.012830873 7:0.074459471 #
10.195361402202358647173241479322 1:-0.26874754 2:0.13238677 3:0.090109542 4:0.037206963 5:0.23177916 6:-0.0042163683 7:0.11686946 #
-10.195361402202358647173241479322 1:-0.27349865 2:0.049641285 3:0.14731014 4:0.19220887 5:0.1419479 6:0.026613237 7:0.17925258 #
-10.195361402202358647173241479322 1:-0.26349375 2:0.15875788 3:-0.021657787 4:0.036871072 5:0.1754925 6:-0.022060165 7:0.1606041 #
-10.195361402202358647173241479322 1:-0.27527621 2:0.14335942 3:0.0054075378 4:0.04359274 5:0.17545411 6:-0.042372268 7:0.075715341 #
10.195361402202358647173241479322 1:0.10791606 2:-0.1571994 3:-0.1628114 4:0.070010759 5:0.021157714 6:-0.088931687 7:-0.063698865 #
10.195361402202358647173241479322 1:0.18243235 2:0.066768214 3:-0.080358915 4:-0.016468797 5:-0.0017840951 6:0.017239792 7:-0.075598054 #
-10.195361402202358647173241479322 1:0.20543966 2:-0.055684716 3:-0.21221939 4:-0.089645341 5:0.12121651 6:-0.026811952 7:-0.14283538 #
-10.195361402202358647173241479322 1:0.0021481034 2:-0.24649894 3:-0.0037596801 4:0.1142673 5:-0.096441738 6:-0.050079782 7:0.036649112 #
-10.195361402202358647173241479322 1:-0.31838223 2:0.054632209 3:-0.075807489 4:-0.041239198 5:-0.15994972 6:0.067565128 7:0.057326838 #
10.195361402202358647173241479322 1:0.30928254 2:0.034105793 3:-0.12911023 4:-0.095594361 5:0.16674013 6:0.14621571 7:-0.05454503 #
-10.195361402202358647173241479322 1:-0.25054839 2:-0.00086303131 3:-0.089263938 4:-0.079902671 5:-0.13509421 6:0.067430697 7:0.042065561 #
10.195361402202358647173241479322 1:0.33032539 2:0.15572348 3:-0.016837221 4:-0.05969907 5:0.046926741 6:0.12067086 7:-0.054286998 #
-10.195361402202358647173241479322 1:0.28915092 2:0.060910311 3:-0.12851344 4:-0.083898231 5:0.13180649 6:0.11536264 7:-0.1181201 #
10.195361402202358647173241479322 1:0.25882182 2:0.22102186 3:0.052799542 4:0.059859864 5:-0.12370692 6:-0.034032587 7:-0.079338253 #
10.195361402202358647173241479322 1:0.30856183 2:0.05239046 3:-0.10209703 4:-0.0063200602 5:0.13255794 6:0.14583176 7:-0.030128457 #
10.195361402202358647173241479322 1:-0.292546 2:0.13076752 3:-0.053289443 4:-0.0093906438 5:0.026191959 6:-0.024668228 7:0.0013173238 #
10.195361402202358647173241479322 1:0.032047387 2:-0.092207856 3:-0.0836372 4:-0.049141593 5:0.050365515 6:-0.0506946 7:-0.048993107 #
-10.195361402202358647173241479322 1:0.34332669 2:0.22314772 3:0.025928296 4:-0.065366037 5:-0.018226361 6:0.13142091 7:-0.08936137 #
10.195361402202358647173241479322 1:-0.31761745 2:0.13361363 3:0.034148972 4:0.10772966 5:0.14234422 6:-0.063354492 7:0.0410809 #
-10.195361402202358647173241479322 1:-0.30038133 2:0.16138376 3:-0.077766232 4:0.065519057 5:0.087260976 6:-0.098013125 7:0.011462341 #
-10.195361402202358647173241479322 1:-0.33807707 2:0.18417391 3:-0.097280122 4:0.013227446 5:-0.0041608554 6:-0.039385371 7:-0.0045934711 #
-10.195361402202358647173241479322 1:0.31835207 2:0.21637851 3:0.08773493 4:-0.15173414 5:-0.035730772 6:-0.0033089058 7:0.03022312 #
-10.195361402202358647173241479322 1:-0.36557499 2:0.16481154 3:-0.091998518 4:-0.089156568 5:-0.11286912 6:0.093370616 7:0.058842964 #
-10.195361402202358647173241479322 1:0.30529591 2:0.20862274 3:0.10119487 4:0.13562976 5:-0.10963745 6:0.033563662 7:0.11261678 #
10.195361402202358647173241479322 1:-0.35758635 2:0.14202014 3:-0.096577562 4:-0.089739077 5:-0.027326895 6:0.040965371 7:0.056382794 #
10.195361402202358647173241479322 1:0.36515212 2:0.21511759 3:0.062955193 4:-0.14619063 5:0.016000452 6:0.097999536 7:0.0066323951 #
-10.195361402202358647173241479322 1:0.059034474 2:-0.2583524 3:0.0006435567 4:0.029140243 5:-0.051455613 6:-0.017083479 7:0.055870619 #
-10.195361402202358647173241479322 1:-0.28532556 2:0.071925983 3:-0.042835969 4:-0.023126321 5:-0.10319055 6:0.073282212 7:0.10644738 #
-10.195361402202358647173241479322 1:0.33984613 2:0.21789055 3:0.09328527 4:-0.12493087 5:-0.027702678 6:0.050585158 7:0.027764102 #
10.195361402202358647173241479322 1:-0.32810777 2:0.13842373 3:0.085563108 4:0.13337515 5:0.20074978 6:-0.013191013 7:0.15135352 #
10.195361402202358647173241479322 1:-0.33317107 2:0.15594175 3:-0.065568589 4:0.049354035 5:0.033479147 6:-0.021897616 7:0.076961242 #
10.195361402202358647173241479322 1:0.35047489 2:0.22558087 3:0.10913685 4:-0.045368239 5:-0.048297238 6:0.057837218 7:0.053637948 #
10.195361402202358647173241479322 1:0.054952577 2:-0.11097769 3:-0.13744475 4:0.098169968 5:0.0397483 6:0.0084679145 7:0.078437574 #
-10.195361402202358647173241479322 1:0.1368095 2:-0.24787559 3:-0.01030211 4:-0.22766057 5:0.027573565 6:0.019208211 7:0.047310919 #
10.195361402202358647173241479322 1:0.16889952 2:0.024878262 3:-0.043138087 4:0.18684112 5:-0.010025449 6:0.094483748 7:0.15311126 #
10.195361402202358647173241479322 1:0.13769272 2:0.011413671 3:-0.095993854 4:0.19988959 5:-0.038213149 6:0.054572798 7:0.067208797 #
10.195361402202358647173241479322 1:-0.033112638 2:-0.088736258 3:0.093462348 4:-0.1497298 5:0.040981267 6:0.020743443 7:-0.11201237 #
-10.195361402202358647173241479322 1:-0.2832278 2:0.090045772 3:0.047194004 4:0.12298186 5:0.12146426 6:-0.066486642 7:-0.0046698926 #
-10.195361402202358647173241479322 1:0.28867099 2:0.20971763 3:0.071403973 4:-0.13881406 5:-0.057095516 6:-0.042492703 7:-0.028808955 #
-10.195361402202358647173241479322 1:0.2994588 2:0.19773138 3:0.066965349 4:-0.11774958 5:-0.028717369 6:-0.022614777 7:0.02850721 #
10.195361402202358647173241479322 1:-0.3397266 2:0.12764606 3:-0.089422807 4:-0.048334226 5:0.002474485 6:0.060481753 7:0.1080868 #
-10.195361402202358647173241479322 1:-0.26195496 2:0.079973817 3:0.091908537 4:0.10332847 5:0.16677777 6:-0.034520119 7:0.032614548 #
10.195361402202358647173241479322 1:-0.30159694 2:0.024417274 3:-0.00049432844 4:0.023963265 5:-0.076080866 6:0.016756449 7:0.012282197 #
-10.195361402202358647173241479322 1:-0.14262417 2:0.024030842 3:0.14182356 4:-0.065214626 5:0.17837162 6:0.029140469 7:-0.0083127748 #
-10.195361402202358647173241479322 1:0.27528083 2:0.20118815 3:0.10710347 4:0.1742516 5:-0.13665721 6:-0.027018813 7:0.14474966 #
10.195361402202358647173241479322 1:-0.34020859 2:0.13204785 3:-0.071733817 4:-0.078327671 5:0.0034760498 6:0.053693242 7:0.08678484 #
-10.195361402202358647173241479322 1:-0.27076247 2:0.14096572 3:0.017052805 4:0.020666778 5:0.16666093 6:-0.052684098 7:0.0071037994 #
-10.195361402202358647173241479322 1:-0.30565947 2:0.20324203 3:-0.14105478 4:-0.080872744 5:-0.0045696744 6:-0.047355302 7:-0.045829885 #
-10.195361402202358647173241479322 1:0.19636329 2:-0.18716574 3:-0.21651143 4:-0.10300732 5:0.15846908 6:-0.032615419 7:0.026261015 #
10.195361402202358647173241479322 1:0.13840197 2:-0.048198789 3:-0.06503664 4:0.079628073 5:0.023102118 6:0.017438328 7:-0.069615446 #
-10.195361402202358647173241479322 1:0.15040615 2:-0.18364707 3:-0.23527473 4:-0.023743231 5:0.10385936 6:-0.092918746 7:-0.0022775012 #
10.195361402202358647173241479322 1:0.25845197 2:0.047700264 3:-0.0073480424 4:0.041585412 5:0.03135765 6:0.14793214 7:0.1733786 #
10.195361402202358647173241479322 1:0.019993143 2:-0.15962142 3:-0.072054274 4:0.01477524 5:0.019795435 6:-0.020260315 7:-0.067367494 #
10.195361402202358647173241479322 1:0.041261695 2:-0.14277409 3:-0.12343442 4:0.10027691 5:-0.003005669 6:-0.057272803 7:-0.11924826 #
10.195361402202358647173241479322 1:0.29099989 2:0.14444885 3:0.059085958 4:-0.026714023 5:-0.00031478447 6:0.0015723814 7:0.045837227 #
-10.195361402202358647173241479322 1:0.3418622 2:0.22457458 3:0.084540486 4:-0.14533156 5:-0.026597697 6:0.056927361 7:0.0064374185 #
10.195361402202358647173241479322 1:0.37634879 2:0.23910484 3:0.098492295 4:-0.19055074 5:-0.010021651 6:0.087714314 7:0.015247663 #
-10.195361402202358647173241479322 1:-0.18530893 2:0.075416774 3:0.10830498 4:-0.039396349 5:0.20806625 6:0.012375605 7:0.028175781 #
10.195361402202358647173241479322 1:0.12731896 2:0.015176313 3:-0.078913108 4:0.19851293 5:-0.057936992 6:0.037444815 7:0.027735904 #
10.195361402202358647173241479322 1:0.10312996 2:-0.035953075 3:-0.035666283 4:0.23369928 5:-0.028454624 6:0.0031046378 7:0.040186767 #
-10.195361402202358647173241479322 1:0.21522729 2:0.011738382 3:-0.14844859 4:0.27851108 5:0.046823468 6:0.083450265 7:0.033304852 #
-10.195361402202358647173241479322 1:0.19494151 2:0.011993049 3:-0.14695373 4:0.27778456 5:0.034120187 6:0.054718927 7:-0.0053197774 #
10.195361402202358647173241479322 1:-0.26134887 2:0.12806974 3:-0.018005142 4:-0.030207751 5:0.085364908 6:-0.013732704 7:0.017195424 #
10.195361402202358647173241479322 1:0.17816949 2:0.068060324 3:-0.06904842 4:-0.019250117 5:-0.0021209097 6:0.041946825 7:-0.050105475 #
-10.195361402202358647173241479322 1:-0.37332872 2:0.16749626 3:-0.080363616 4:-0.03219511 5:-0.096134469 6:0.074645124 7:0.072122872 #
10.195361402202358647173241479322 1:0.23362024 2:0.099198341 3:-0.070497744 4:0.24974789 5:-0.012999817 6:0.078326002 7:-0.024947884 #
10.195361402202358647173241479322 1:0.23826616 2:0.036651883 3:-0.14114082 4:0.085156552 5:0.07940729 6:0.06722784 7:-0.11405054 #
-10.195361402202358647173241479322 1:0.31869662 2:0.19612405 3:0.11207784 4:-0.011831589 5:-0.054872967 6:-0.0055353888 7:0.12585451 #
10.195361402202358647173241479322 1:-0.36242348 2:0.15051402 3:-0.094142102 4:-0.086325057 5:-0.0044757621 6:0.081095271 7:0.13689536 #
10.195361402202358647173241479322 1:-0.34697244 2:0.13863476 3:-0.09368901 4:-0.067413189 5:-0.018295482 6:0.037665177 7:0.072381988 #
-10.195361402202358647173241479322 1:0.24883957 2:-0.08026585 3:-0.175401 4:-0.10064881 5:0.17491058 6:0.030179569 7:-0.0064644725 #
-10.195361402202358647173241479322 1:0.11447755 2:-0.24741229 3:-0.056122955 4:-0.067542955 5:0.021820201 6:-0.014384307 7:0.057614461 #
-10.195361402202358647173241479322 1:0.1711292 2:0.17904973 3:0.030676436 4:0.16485386 5:-0.15767056 6:-0.15296826 7:-0.052008443 #
10.195361402202358647173241479322 1:0.039596204 2:-0.085627064 3:-0.066860959 4:-0.099501491 5:0.057221383 6:-0.024379278 7:-0.065082915 #
-10.195361402202358647173241479322 1:0.16979241 2:-0.18883593 3:-0.20414428 4:-0.13624793 5:0.11577162 6:-0.046978761 7:-0.026047358 #
10.195361402202358647173241479322 1:0.24860877 2:0.17747389 3:0.045430455 4:0.18562372 5:-0.095515765 6:-0.025845315 7:0.054433759 #
10.195361402202358647173241479322 1:0.25306353 2:0.19987918 3:0.039849769 4:0.11276312 5:-0.10360118 6:-0.024813222 7:-0.061602164 #
10.195361402202358647173241479322 1:0.073825635 2:-0.10171803 3:-0.1199352 4:-0.11516069 5:0.054934304 6:0.017511638 7:0.0050087948 #
-10.195361402202358647173241479322 1:0.24801433 2:0.21349038 3:0.033784501 4:0.0052982341 5:-0.11029971 6:-0.04155435 7:-0.12022057 #
-10.195361402202358647173241479322 1:-0.20148821 2:0.0087995548 3:0.10304567 4:0.013720392 5:0.029990572 6:-0.042578664 7:-0.16975318 #
10.195361402202358647173241479322 1:0.07676962 2:-0.14558175 3:-0.094600819 4:0.0067019453 5:0.057347916 6:0.058308844 7:0.16367669 #
10.195361402202358647173241479322 1:0.063439019 2:-0.14354955 3:-0.10161124 4:0.023188682 5:0.042529579 6:0.038405918 7:0.13607264 #
-10.195361402202358647173241479322 1:0.20079435 2:-0.22010779 3:-0.21035689 4:0.0082937544 5:0.15545182 6:-0.037885234 7:0.14623019 #
-10.195361402202358647173241479322 1:0.21275681 2:-0.20956098 3:-0.21572642 4:-0.03064956 5:0.17502156 6:-0.022313012 7:0.12557393 #
10.195361402202358647173241479322 1:0.3049334 2:0.076733373 3:-0.085601754 4:0.0048389053 5:0.10903376 6:0.14343336 7:-0.042825617 #
10.195361402202358647173241479322 1:-0.26690641 2:0.10208165 3:-0.011203849 4:-0.02125046 5:0.039676763 6:-0.042122114 7:-0.050584562 #
10.195361402202358647173241479322 1:-0.26624721 2:0.10994997 3:-0.0010728341 4:-0.017391967 5:0.062660858 6:-0.038040303 7:-0.035539407 #
-10.195361402202358647173241479322 1:0.1795827 2:0.19941333 3:0.045334592 4:0.20860822 5:-0.1777835 6:-0.10393896 7:-0.013906267 #
-10.195361402202358647173241479322 1:0.23324396 2:0.20880273 3:0.032529019 4:0.093112171 5:-0.12961203 6:-0.042860184 7:-0.1129205 #
-10.195361402202358647173241479322 1:-0.28781438 2:0.18873253 3:-0.13794336 4:-0.053434014 5:0.002328573 6:-0.087273881 7:-0.08181335 #
-10.195361402202358647173241479322 1:-0.070332937 2:-0.14462638 3:0.10207957 4:-0.08604937 5:-0.011884073 6:-0.0081351371 7:-0.10253497 #
10.195361402202358647173241479322 1:0.24106722 2:-0.067166239 3:-0.17814846 4:0.021344118 5:0.14978176 6:0.044505585 7:-0.0074660326 #
-10.195361402202358647173241479322 1:0.29499614 2:0.17494418 3:0.074437 4:-0.061007198 5:-0.019709505 6:-0.021894827 7:0.075805426 #
10.195361402202358647173241479322 1:0.2950995 2:0.22071643 3:0.056219731 4:-0.017964063 5:-0.077141337 6:0.0056154411 7:-0.070350222 #
10.195361402202358647173241479322 1:0.31063977 2:0.22170955 3:0.054330342 4:-0.073745005 5:-0.055501595 6:0.027619071 7:-0.061567325 #
-10.195361402202358647173241479322 1:0.26570225 2:0.21726516 3:0.047302201 4:0.033580028 5:-0.1035337 6:-0.013854707 7:-0.071955934 #
10.195361402202358647173241479322 1:-0.25914812 2:-0.011441418 3:0.0085746134 4:0.015818793 5:-0.054811683 6:0.026921932 7:0.044680987 #
-10.195361402202358647173241479322 1:-0.33866143 2:0.175326 3:-0.056022115 4:0.031219106 5:0.021682797 6:0.01649035 7:0.098408207 #
-10.195361402202358647173241479322 1:-0.29793492 2:0.075516239 3:0.044380825 4:0.039732751 5:-0.031211913 6:0.042098876 7:0.043153945 #
10.195361402202358647173241479322 1:-0.30347982 2:0.12360352 3:0.012162106 4:0.11017666 5:0.1044891 6:-0.046237994 7:0.090634823 #
-10.195361402202358647173241479322 1:-0.28807363 2:0.15149237 3:-0.045714334 4:0.090742663 5:0.12057592 6:-0.065119423 7:0.10695539 #
-10.195361402202358647173241479322 1:-0.29202956 2:0.15107235 3:-0.051774677 4:0.069474764 5:0.11391129 6:-0.093618214 7:0.016262686 #
-10.195361402202358647173241479322 1:-0.36190453 2:0.17358519 3:-0.1178309 4:-0.0428553 5:-0.10605516 6:0.026737247 7:0.016342172 #
-10.195361402202358647173241479322 1:-0.37175718 2:0.16974548 3:-0.080879867 4:-0.061047483 5:-0.094679877 6:0.089728206 7:0.075800531 #
10.195361402202358647173241479322 1:0.3654027 2:0.19445242 3:0.080879956 4:-0.12806359 5:0.029327823 6:0.08042939 7:0.089288525 #
10.195361402202358647173241479322 1:0.35376486 2:0.22712383 3:0.11215736 4:-0.14335418 5:-0.02846759 6:0.041401636 7:0.032400869 #
10.195361402202358647173241479322 1:0.30328509 2:0.22349061 3:0.09025874 4:-0.00022210358 5:-0.087691575 6:-0.0042569446 7:-0.0052943658 #
-10.195361402202358647173241479322 1:0.3051303 2:0.20959835 3:0.094464108 4:-0.074885495 5:-0.057270572 6:-0.016401695 7:0.046168059 #
-10.195361402202358647173241479322 1:0.34867936 2:0.15108655 3:-0.0012648732 4:-0.0001193198 5:0.046944998 6:0.186572 7:-0.0092151826 #
10.195361402202358647173241479322 1:0.30871674 2:0.22336935 3:0.085324556 4:0.0054598036 5:-0.081230082 6:0.011249334 7:0.00031456561 #
-10.195361402202358647173241479322 1:0.33847851 2:0.2058586 3:0.035845321 4:0.0057844142 5:-0.01607197 6:0.13945617 7:-0.045849103 #
10.195361402202358647173241479322 1:0.026542064 2:-0.11033751 3:-0.097394228 4:-0.071875885 5:0.021821406 6:-0.03964385 7:-0.049711611 #
-10.195361402202358647173241479322 1:-0.29569459 2:0.095299214 3:0.070908017 4:0.14341383 5:0.13372508 6:-0.015735779 7:0.10414572 #
-10.195361402202358647173241479322 1:-0.29566696 2:0.10645632 3:0.043409836 4:0.13696557 5:0.12165501 6:-0.038189262 7:0.078935936 #
10.195361402202358647173241479322 1:0.0081366906 2:-0.13530874 3:-0.084798023 4:0.071362175 5:0.013272363 6:-0.029417396 7:0.07640107 #
10.195361402202358647173241479322 1:-0.32021698 2:0.14233662 3:0.054138768 4:0.091146365 5:0.1826099 6:-0.052745081 7:0.037561316 #
10.195361402202358647173241479322 1:0.35085654 2:0.20880008 3:0.072069444 4:-0.079181582 5:-0.0051127826 6:0.082277991 7:0.023739779 #
-10.195361402202358647173241479322 1:0.047550671 2:-0.23855051 3:0.024102893 4:-0.036007348 5:-0.060144976 6:-0.02197464 7:-0.03054085 #
-10.195361402202358647173241479322 1:-0.2809687 2:0.16102712 3:-0.085323691 4:0.033446975 5:0.084623195 6:-0.10507783 7:-0.01931111 #
-10.195361402202358647173241479322 1:0.26670352 2:-0.13493179 3:-0.15477683 4:-0.024046626 5:0.18321379 6:0.053019233 7:0.14527828 #
10.195361402202358647173241479322 1:-0.25868794 2:0.037785128 3:-0.092323206 4:-0.027527319 5:-0.099373363 6:0.0041464395 7:-0.070213705 #
-10.195361402202358647173241479322 1:-0.34782875 2:0.11986441 3:-0.10359999 4:-0.080852106 5:-0.17776278 6:0.064341448 7:-0.0042284387 #
10.195361402202358647173241479322 1:0.31024376 2:0.053505719 3:-0.08084818 4:0.049116012 5:0.11569982 6:0.15157875 7:0.0053197974 #
-10.195361402202358647173241479322 1:0.34062284 2:0.16433585 3:-0.019312158 4:-0.013281086 5:0.061166171 6:0.18212792 7:-0.066251993 #
10.195361402202358647173241479322 1:0.0031510987 2:-0.11645228 3:-0.09290722 4:0.0032039748 5:0.0050627957 6:-0.05737143 7:-0.029827274 #
-10.195361402202358647173241479322 1:0.27702874 2:0.15479292 3:-0.027900625 4:0.15369132 5:-0.037511189 6:0.1237046 7:-0.059554901 #
-10.195361402202358647173241479322 1:-0.29236171 2:0.13436246 3:0.0095210103 4:0.081825741 5:0.13155425 6:-0.068301708 7:0.011367168 #
10.195361402202358647173241479322 1:0.35283989 2:0.20656002 3:0.073985189 4:-0.069603972 5:-0.0056026299 6:0.083673619 7:0.038217582 #
-10.195361402202358647173241479322 1:0.31782764 2:0.21442607 3:0.087579779 4:-0.032086607 5:-0.056585666 6:0.035412651 7:0.030722804 #
10.195361402202358647173241479322 1:-0.2488372 2:-0.009873637 3:-0.043988012 4:0.051003978 5:-0.061562479 6:-0.021299116 7:-0.010501897 #
-10.195361402202358647173241479322 1:-0.35943609 2:0.10802452 3:-0.099559188 4:-0.096512124 5:-0.15712543 6:0.098769113 7:0.063606657 #
10.195361402202358647173241479322 1:0.34491709 2:0.22267132 3:0.11568701 4:-0.06229284 5:-0.051225848 6:0.035263196 7:0.055533756 #
10.195361402202358647173241479322 1:0.32900095 2:0.1720902 3:0.056709841 4:0.055676889 5:-0.011474109 6:0.065307565 7:0.079015635 #
-10.195361402202358647173241479322 1:0.35382792 2:0.20489627 3:0.037629128 4:-0.11680649 5:0.0083340593 6:0.12766883 7:-0.024733461 #
10.195361402202358647173241479322 1:-0.2156315 2:0.019474857 3:-0.060992192 4:-0.061844066 5:-0.027161986 6:-0.027055183 7:-0.093588687 #
10.195361402202358647173241479322 1:-0.29636896 2:0.093534835 3:-0.10311609 4:-0.04334297 5:-0.072537772 6:0.0010496101 7:-0.067385606 #
-10.195361402202358647173241479322 1:-0.1799459 2:0.028751308 3:0.12569886 4:0.00381805 5:0.1575952 6:0.0097138509 7:0.003962771 #
10.195361402202358647173241479322 1:0.03117287 2:-0.17358734 3:-0.073912218 4:0.07737276 5:-0.035861738 6:-0.097718276 7:-0.021481806 #
10.195361402202358647173241479322 1:-0.31259698 2:0.13883838 3:-0.091231771 4:0.018981248 5:-0.0047927643 6:-0.022369318 7:0.058344096 #
10.195361402202358647173241479322 1:-0.099158272 2:-0.14757773 3:0.10645881 4:0.13280457 5:-0.034329541 6:0.021232016 7:0.084870517 #
10.195361402202358647173241479322 1:-0.31792134 2:0.11379656 3:-0.10133568 4:-0.054447096 5:-0.031463865 6:0.01794482 7:0.001985979 #
-10.195361402202358647173241479322 1:0.27042833 2:0.1479512 3:-0.016441677 4:0.1397814 5:-0.033055816 6:0.091749072 7:-0.040405434 #
-10.195361402202358647173241479322 1:-0.34828773 2:0.17977883 3:-0.092053086 4:-0.073858768 5:-0.064966492 6:0.042140793 7:0.009904081 #
10.195361402202358647173241479322 1:-0.041198865 2:-0.18568924 3:0.10586528 4:0.074385405 5:-0.011064508 6:0.036388803 7:0.092774816 #
10.195361402202358647173241479322 1:0.0018662015 2:-0.16787849 3:0.10102006 4:-0.030663719 5:0.023502117 6:0.049500909 7:0.038157184 #
10.195361402202358647173241479322 1:-0.012401101 2:-0.1474122 3:0.10626661 4:-0.00082868832 5:0.025289407 6:0.048796169 7:0.064612716 #
-10.195361402202358647173241479322 1:0.21806878 2:-0.24309105 3:-0.13714693 4:-0.09958598 5:0.14658023 6:0.026448952 7:0.16849385 #
10.195361402202358647173241479322 1:0.10951411 2:-0.057340391 3:-0.1261299 4:-0.035074957 5:0.083327077 6:0.0064877532 7:-0.051877234 #
-10.195361402202358647173241479322 1:-0.29399601 2:0.17789675 3:-0.1086051 4:0.0055368189 5:0.037336476 6:-0.035686754 7:0.07245063 #
10.195361402202358647173241479322 1:0.19138055 2:-0.077426992 3:-0.057114042 4:-0.012457969 5:0.097787827 6:0.096120901 7:-0.00020504165 #
-10.195361402202358647173241479322 1:0.17210573 2:-0.2468446 3:-0.067184299 4:-0.14413692 5:0.076221831 6:-0.014763283 7:0.15011436 #
10.195361402202358647173241479322 1:0.23481093 2:0.12020692 3:-0.075349078 4:0.14940916 5:-0.021220883 6:0.035754446 7:-0.13876235 #
-10.195361402202358647173241479322 1:0.24566622 2:0.19747487 3:0.0093904231 4:0.23395678 5:-0.11169533 6:0.064848229 7:-0.049736511 #
-10.195361402202358647173241479322 1:0.20376398 2:0.13784707 3:-0.080113597 4:0.25016084 5:-0.044518903 6:0.071210697 7:-0.13586165 #
-10.195361402202358647173241479322 1:0.039612286 2:-0.24316487 3:-0.060984217 4:0.061395254 5:-0.061797664 6:-0.07309974 7:-0.0133503 #
-10.195361402202358647173241479322 1:0.16091812 2:-0.2475629 3:-0.050165236 4:-0.20422484 5:0.058755044 6:-0.0058380459 7:0.11013948 #
-10.195361402202358647173241479322 1:-0.29033047 2:0.14494029 3:-0.018520368 4:0.020296771 5:0.1095469 6:-0.088024132 7:-0.079501845 #
10.195361402202358647173241479322 1:0.35656476 2:0.16692595 3:0.069589086 4:0.027885221 5:0.010584046 6:0.096744038 7:0.11942033 #
-10.195361402202358647173241479322 1:0.3337079 2:0.13826609 3:-0.036726262 4:0.027683539 5:0.058819633 6:0.19803807 7:-0.042066149 #
10.195361402202358647173241479322 1:0.26149562 2:0.1584145 3:0.020124236 4:-0.0064036963 5:-0.032194838 6:-0.0064244368 7:-0.048865765 #
-10.195361402202358647173241479322 1:-0.27852535 2:0.16766727 3:-0.10703485 4:-0.00011076776 5:0.059352405 6:-0.10948149 7:-0.056665119 #
-10.195361402202358647173241479322 1:0.30009857 2:0.19859856 3:0.10584689 4:-0.0090658786 5:-0.070392139 6:-0.027507061 7:0.075082682 #
10.195361402202358647173241479322 1:-0.3186174 2:0.1069838 3:-0.045239877 4:0.0059911609 5:-0.036757085 6:-0.059215132 7:-0.098389573 #
-10.195361402202358647173241479322 1:-0.34881675 2:0.16205876 3:-0.088461496 4:-0.084051944 5:-0.10323974 6:0.062998071 7:0.013881053 #
-10.195361402202358647173241479322 1:-0.28309718 2:0.095696762 3:0.038438987 4:0.093244225 5:0.10824828 6:-0.072491057 7:-0.052637063 #
-10.195361402202358647173241479322 1:0.30544573 2:0.21344729 3:0.089195013 4:-0.018676072 5:-0.066192053 6:0.018485328 7:0.036308549 #
10.195361402202358647173241479322 1:0.061774991 2:-0.11384638 3:-0.10769208 4:-0.039263703 5:0.046062175 6:0.0024709511 7:0.042562719 #
10.195361402202358647173241479322 1:0.11049327 2:-0.17074731 3:-0.15957458 4:0.10122027 5:0.030270882 6:-0.072976917 7:-0.0003055408 #
-10.195361402202358647173241479322 1:-0.31395856 2:0.096953139 3:0.033634249 4:0.11762953 5:0.087704487 6:-0.067330509 7:-0.040478863 #
10.195361402202358647173241479322 1:0.3378154 2:0.21752827 3:0.1128124 4:-0.077705257 5:-0.045408789 6:0.028167294 7:0.056694936 #
10.195361402202358647173241479322 1:0.32637912 2:0.21084951 3:0.083852708 4:0.020438744 5:-0.054698847 6:0.04760145 7:0.039289132 #
-10.195361402202358647173241479322 1:-0.24520926 2:0.087805182 3:0.081874274 4:0.082653627 5:0.18423624 6:-0.0043181395 7:0.11543716 #
10.195361402202358647173241479322 1:0.27009219 2:0.10871539 3:-0.081442282 4:0.065537229 5:0.039993972 6:0.094965518 7:-0.10200551 #
-10.195361402202358647173241479322 1:0.3056711 2:0.16337033 3:-0.052448053 4:-0.043114841 5:0.018544652 6:0.13430041 7:-0.15691456 #
10.195361402202358647173241479322 1:-0.28342289 2:0.12080677 3:0.04782787 4:0.085758574 5:0.14596145 6:0.0058397306 7:0.17522651 #
-10.195361402202358647173241479322 1:0.095920414 2:-0.24275011 3:-0.16819802 4:0.12029322 5:0.028228058 6:-0.08062464 7:0.082808152 #
-10.195361402202358647173241479322 1:0.16671982 2:-0.24289721 3:-0.094809726 4:-0.089563482 5:0.080559805 6:-0.025625724 7:0.16037367 #
-10.195361402202358647173241479322 1:0.26345754 2:0.16826659 3:0.0312583 4:-0.11934783 5:-0.013185211 6:-0.060710706 7:-0.013201375 #
10.195361402202358647173241479322 1:0.25199458 2:0.020859197 3:-0.15406306 4:0.0098857377 5:0.11065561 6:0.070833735 7:-0.11537147 #
-10.195361402202358647173241479322 1:0.26391184 2:0.10447904 3:-0.1156425 4:0.058377557 5:0.070740961 6:0.12074859 7:-0.18431883 #
-10.195361402202358647173241479322 1:0.16522613 2:0.035552513 3:-0.16141798 4:0.29985321 5:0.0070911124 6:0.041996486 7:-0.065998375 #
-10.195361402202358647173241479322 1:0.29345024 2:0.15823559 3:-0.00048261631 4:0.10719251 5:-0.026165018 6:0.10642293 7:-0.010965724 #
-10.195361402202358647173241479322 1:0.27685294 2:0.20359041 3:0.072938144 4:-0.061859004 5:-0.070584103 6:-0.053618412 7:0.0021016148 #
10.195361402202358647173241479322 1:-0.036134414 2:-0.12669137 3:-0.097403683 4:0.12539327 5:-0.019700918 6:-0.078866817 7:0.024250152 #
-10.195361402202358647173241479322 1:0.098058157 2:-0.26139361 3:-0.10639565 4:0.076065451 5:0.0025437293 6:-0.072681762 7:0.17586851 #
10.195361402202358647173241479322 1:0.32616651 2:0.22816247 3:0.082809813 4:-0.053938653 5:-0.061020553 6:0.033064846 7:-0.0072339703 #
-10.195361402202358647173241479322 1:0.3279351 2:0.19888274 3:0.0014633758 4:-0.046587277 5:-0.012587885 6:0.1318574 7:-0.11804448 #
-10.195361402202358647173241479322 1:0.30175617 2:0.22227643 3:0.059153825 4:-0.065928943 5:-0.067845881 6:0.016222814 7:-0.061796095 #
10.195361402202358647173241479322 1:-0.0016907707 2:-0.12653317 3:-0.10939333 4:0.081875779 5:-0.011673206 6:-0.015280318 7:0.066119008 #
10.195361402202358647173241479322 1:-0.0077090007 2:-0.14424793 3:-0.086799003 4:0.098332636 5:-0.003792655 6:-0.022833899 7:0.10143539 #
-10.195361402202358647173241479322 1:0.29594773 2:0.099367224 3:-0.057978202 4:0.033020377 5:0.058985494 6:0.17187855 7:-0.075578064 #
10.195361402202358647173241479322 1:0.34315673 2:0.16132377 3:0.055442519 4:-0.045993868 5:0.025900908 6:0.056958128 7:0.073564664 #
-10.195361402202358647173241479322 1:0.30227304 2:0.21566895 3:0.072204828 4:-0.071199767 5:-0.057910319 6:0.017911613 7:-0.015935445 #
-10.195361402202358647173241479322 1:0.37448815 2:0.1862653 3:0.015931778 4:-0.081131808 5:0.040993117 6:0.20070976 7:-0.028923465 #
-10.195361402202358647173241479322 1:0.29278901 2:0.22284524 3:0.043650441 4:-0.028044485 5:-0.080437347 6:0.024890585 7:-0.092446476 #
10.195361402202358647173241479322 1:0.18537176 2:0.073166661 3:-0.028049795 4:0.11896818 5:-0.056342572 6:-0.042774625 7:0.04506129 #
-10.195361402202358647173241479322 1:0.30336022 2:0.063259445 3:-0.1314835 4:-0.10020291 5:0.14120068 6:0.13777359 7:-0.11276197 #
10.195361402202358647173241479322 1:-0.28244078 2:0.069212481 3:-0.088739865 4:-0.020108782 5:-0.077732958 6:0.017705958 7:-0.033170413 #
-10.195361402202358647173241479322 1:-0.37236646 2:0.12921228 3:-0.10670738 4:-0.098340593 5:-0.17874426 6:0.10312285 7:0.046109736 #
10.195361402202358647173241479322 1:0.24655475 2:-0.017518656 3:-0.16705854 4:0.02370714 5:0.13040674 6:0.06233453 7:-0.07374911 #
-10.195361402202358647173241479322 1:0.13215502 2:-0.19028227 3:-0.24576132 4:0.088817634 5:0.096209221 6:-0.11002994 7:0.014798817 #
-10.195361402202358647173241479322 1:-0.26175106 2:0.14392366 3:-0.013838402 4:0.022398911 5:0.16002816 6:-0.065484263 7:0.02476421 #
-10.195361402202358647173241479322 1:-0.27336526 2:0.16171637 3:-0.056777585 4:0.01448069 5:0.13935819 6:-0.073768757 7:0.034011595 #
10.195361402202358647173241479322 1:-0.30698225 2:0.056829266 3:0.039707169 4:0.028557673 5:-0.020324385 6:0.042076189 7:0.056696683 #
10.195361402202358647173241479322 1:0.020548623 2:-0.11151481 3:-0.084554419 4:-0.0042798514 5:0.036016934 6:-0.049678653 7:-0.0064031528 #
-10.195361402202358647173241479322 1:0.29401779 2:0.19948798 3:0.10793661 4:0.049498882 5:-0.08666075 6:-0.019829858 7:0.10015427 #
-10.195361402202358647173241479322 1:-0.25092682 2:0.16138832 3:-0.048495311 4:-0.022229811 5:0.1479706 6:-0.060434379 7:0.034126163 #
10.195361402202358647173241479322 1:0.24480423 2:0.17658068 3:0.074391916 4:0.18139929 5:-0.113628 6:-0.029829703 7:0.078524835 #
10.195361402202358647173241479322 1:0.2997452 2:0.20770662 3:0.06626752 4:0.070822254 5:-0.073367126 6:0.028708493 7:0.01375377 #
-10.195361402202358647173241479322 1:0.30990034 2:0.20920338 3:0.092054188 4:0.049946517 5:-0.078664094 6:0.03534792 7:0.051912159 #
-10.195361402202358647173241479322 1:0.33004031 2:0.19190621 3:0.035941385 4:-0.03421659 5:-0.010783016 6:0.10743739 7:-0.019509662 #
10.195361402202358647173241479322 1:0.3359929 2:0.20140028 3:0.046263132 4:-0.086110637 5:-0.00033868913 6:0.066530637 7:-0.016311262 #
-10.195361402202358647173241479322 1:0.25324044 2:0.18494691 3:0.043994967 4:-0.037965294 5:-0.057966299 6:-0.06706059 7:-0.0054209009 #
10.195361402202358647173241479322 1:-0.2553879 2:0.020283286 3:-0.077465899 4:-0.026927503 5:-0.085725822 6:0.041505545 7:0.0090568336 #
10.195361402202358647173241479322 1:-0.2129212 2:-0.023454566 3:-0.042889051 4:0.029536281 5:-0.047049209 6:0.054630395 7:0.11364338 #
-10.195361402202358647173241479322 1:-0.28525609 2:0.067090653 3:0.06706699 4:0.13475817 5:0.088190213 6:-0.061587423 7:-0.034150574 #
-10.195361402202358647173241479322 1:0.32029548 2:0.11162466 3:-0.063157991 4:-0.083127752 5:0.084652431 6:0.19047116 7:-0.10074899 #
10.195361402202358647173241479322 1:0.30790117 2:0.15910581 3:0.039066009 4:0.084998868 5:-0.0263715 6:0.036747415 7:0.069102786 #
-10.195361402202358647173241479322 1:0.071815968 2:-0.23422906 3:-0.11504743 4:-0.011400873 5:-0.01671192 6:-0.11419054 7:0.012414958 #
-10.195361402202358647173241479322 1:0.095947102 2:-0.23664266 3:-0.075343877 4:-0.1468149 5:-0.014547682 6:-0.066716619 7:-0.010449491 #
10.195361402202358647173241479322 1:0.28210407 2:0.15161166 3:-0.050868101 4:-0.0067634531 5:0.0068600615 6:0.070168532 7:-0.1324902 #
10.195361402202358647173241479322 1:0.2929703 2:0.15763736 3:0.0037375335 4:0.071001314 5:-0.015159676 6:0.055601209 7:-0.018861501 #
-10.195361402202358647173241479322 1:0.29706594 2:0.21143268 3:0.014454087 4:0.056926593 5:-0.061739355 6:0.089907169 7:-0.10181811 #
-10.195361402202358647173241479322 1:0.30694056 2:0.2051183 3:0.036631927 4:0.11049305 5:-0.065836966 6:0.10192893 7:-0.040906221 #
10.195361402202358647173241479322 1:0.1349017 2:-0.037678625 3:-0.062207047 4:0.09506759 5:0.011875095 6:0.013296343 7:-0.060985737 #
-10.195361402202358647173241479322 1:-0.2573874 2:0.06626264 3:0.10629971 4:0.14197265 5:0.14655806 6:-0.0077975201 7:0.10680873 #
-10.195361402202358647173241479322 1:-0.25335571 2:0.078960858 3:0.073429622 4:0.12542199 5:0.15161696 6:-0.032140758 7:0.085558258 #
10.195361402202358647173241479322 1:-0.23891938 2:0.018475812 3:-0.038732212 4:0.02055276 5:-0.02225906 6:0.021268222 7:0.0357325 #
10.195361402202358647173241479322 1:-0.21893902 2:0.0025747912 3:-0.019142846 4:0.052437428 5:-0.010252927 6:0.012158315 7:0.054904178 #
10.195361402202358647173241479322 1:0.35901985 2:0.24069163 3:0.090501539 4:-0.18523298 5:-0.026973644 6:0.061158326 7:-0.010920379 #
-10.195361402202358647173241479322 1:0.18205461 2:-0.2000718 3:-0.19962372 4:-0.055460382 5:0.1220051 6:-0.05953585 7:0.072869807 #
10.195361402202358647173241479322 1:0.3451241 2:0.17486036 3:0.091731861 4:-0.12658934 5:0.022071032 6:0.054676708 7:0.084766723 #
-10.195361402202358647173241479322 1:0.13834801 2:-0.21737981 3:-0.051780261 4:-0.21593125 5:0.026477871 6:-0.0083922725 7:-0.00460767 #
-10.195361402202358647173241479322 1:0.12777999 2:-0.24786456 3:-0.079230927 4:-0.11247713 5:0.036655907 6:-0.045104176 7:0.096299253 #
10.195361402202358647173241479322 1:-0.25365877 2:0.030996228 3:-0.081498854 4:-0.017739346 5:-0.090372078 6:0.010633693 7:-0.052095074 #
10.195361402202358647173241479322 1:-0.01338838 2:-0.14446174 3:0.013059419 4:0.021359233 5:0.0067840428 6:-0.033113096 7:0.035326876 #
10.195361402202358647173241479322 1:-0.26206216 2:0.12291124 3:-0.025033476 4:-0.019386878 5:0.071294487 6:-0.0090784635 7:0.045542352 #
-10.195361402202358647173241479322 1:0.26455247 2:0.20982726 3:0.072023578 4:-0.010558795 5:-0.094508812 6:-0.047219794 7:-0.011880863 #
-10.195361402202358647173241479322 1:-0.25848767 2:0.1702697 3:-0.10681029 4:-0.046361204 5:0.060783401 6:-0.092376158 7:-0.058289833 #
10.195361402202358647173241479322 1:0.1355391 2:-0.055198766 3:-0.051328503 4:0.14923029 5:0.014915672 6:0.025764683 7:-0.0089087347 #
-10.195361402202358647173241479322 1:0.053050194 2:-0.2550253 3:-0.015657704 4:-0.039955765 5:-0.039254643 6:-0.029976862 7:0.0097112665 #
10.195361402202358647173241479322 1:-0.26108781 2:0.044508368 3:-0.093604676 4:-0.041373849 5:-0.090902537 6:0.018154426 7:-0.039600886 #
10.195361402202358647173241479322 1:-0.022577444 2:-0.094611429 3:-0.12037705 4:0.0053883223 5:-0.028794911 6:-0.06618569 7:-0.08287172 #
10.195361402202358647173241479322 1:0.14614435 2:-0.079574727 3:-0.0794781 4:0.05138427 5:0.055190284 6:0.036060549 7:-0.064966373 #
10.195361402202358647173241479322 1:0.14926593 2:-0.063939765 3:-0.069500297 4:0.064405225 5:0.046661895 6:0.0470431 7:-0.038770415 #
-10.195361402202358647173241479322 1:0.29633281 2:0.20479643 3:0.00084177067 4:0.06068033 5:-0.057373539 6:0.10457481 7:-0.11753242 #
10.195361402202358647173241479322 1:-0.039928876 2:-0.11260933 3:0.069463849 4:-0.048851296 5:0.033368614 6:0.024148161 7:0.0053614047 #
-10.195361402202358647173241479322 1:0.045892023 2:-0.25780919 3:-0.02449747 4:0.051528651 5:-0.072772823 6:-0.045206878 7:0.041380975 #
10.195361402202358647173241479322 1:0.33760071 2:0.178817 3:0.10571236 4:-0.043446362 5:-0.014698876 6:0.035361893 7:0.089751631 #
10.195361402202358647173241479322 1:-0.13748707 2:-0.098163649 3:0.034896407 4:0.13229738 5:-0.054706439 6:-0.052511267 7:-0.039606169 #
-10.195361402202358647173241479322 1:0.10324161 2:-0.2479219 3:-0.083323501 4:-0.080512978 5:0.0072926455 6:-0.066810317 7:0.06530007 #
-10.195361402202358647173241479322 1:0.27297056 2:0.21068002 3:0.068205558 4:0.17498042 5:-0.12144028 6:0.030850513 7:0.029480375 #
-10.195361402202358647173241479322 1:0.30690765 2:0.2106667 3:0.089990214 4:0.10277406 5:-0.09197107 6:0.04335539 7:0.061016295 #
10.195361402202358647173241479322 1:0.032568555 2:-0.17161155 3:-0.064313218 4:0.048589732 5:0.02641187 6:-0.01506176 7:-0.027822075 #
-10.195361402202358647173241479322 1:0.089024603 2:-0.20928605 3:-0.12788686 4:-0.070040539 5:-0.019558832 6:-0.10160685 7:-0.055099953 #
-10.195361402202358647173241479322 1:0.059273656 2:-0.23231474 3:-0.046307165 4:-0.099698536 5:-0.039410148 6:-0.058347479 7:-0.077666707 #
10.195361402202358647173241479322 1:0.30963561 2:0.19990079 3:0.10280409 4:0.0041408283 5:-0.060750984 6:0.0085830446 7:0.06238322 #
10.195361402202358647173241479322 1:0.30463836 2:0.21602617 3:0.10016946 4:0.00096888188 5:-0.081812568 6:-0.008032144 7:0.020650893 #
-10.195361402202358647173241479322 1:0.30412942 2:0.18876608 3:0.057938874 4:0.17331955 5:-0.081311934 6:0.086031027 7:0.069275923 #
10.195361402202358647173241479322 1:0.087068714 2:-0.15496773 3:-0.12417312 4:0.00074978464 5:0.048687313 6:-0.079920001 7:-0.072656579 #
10.195361402202358647173241479322 1:0.017326782 2:-0.15440692 3:-0.083457865 4:0.044884343 5:0.0039969156 6:-0.048428055 7:-0.091226108 #
-10.195361402202358647173241479322 1:0.20571662 2:-0.13731985 3:-0.17079516 4:-0.097080186 5:0.1343317 6:-0.019103318 7:0.02215872 #
10.195361402202358647173241479322 1:-0.12861307 2:-0.12589113 3:0.060889162 4:0.13058749 5:-0.048699025 6:-0.0047949697 7:0.05241764 #
-10.195361402202358647173241479322 1:-0.18025695 2:0.0062705916 3:0.12228456 4:0.00060027279 5:0.089268774 6:-0.010024644 7:-0.086255476 #
10.195361402202358647173241479322 1:-0.20650251 2:0.016904976 3:-0.060519956 4:-0.055511396 5:-0.041021109 6:-0.0088528218 7:-0.076904863 #
10.195361402202358647173241479322 1:0.21989132 2:-0.046607934 3:-0.18633035 4:0.027528854 5:0.12629952 6:0.027984377 7:-0.069035061 #
10.195361402202358647173241479322 1:-0.28234163 2:0.087435678 3:0.0028322318 4:0.0017291241 5:0.019671282 6:-0.022896767 7:-0.026969569 #
10.195361402202358647173241479322 1:-0.08141382 2:-0.12531947 3:0.1238184 4:0.047210861 5:0.0040156823 6:0.037785184 7:0.040143497 #
-10.195361402202358647173241479322 1:0.082622819 2:-0.19262615 3:-0.17624196 4:0.127664 5:0.012143775 6:-0.12588154 7:0.037482742 #
-10.195361402202358647173241479322 1:0.11111709 2:-0.18798423 3:-0.25765657 4:0.090849645 5:0.079909228 6:-0.11839188 7:-0.016655207 #
10.195361402202358647173241479322 1:0.21871294 2:-0.0051422026 3:0.028627284 4:-0.10732915 5:0.090200849 6:0.089330763 7:0.030692847 #
10.195361402202358647173241479322 1:-0.0035624872 2:-0.14479746 3:0.088779494 4:-0.064726718 5:0.018594244 6:0.030443117 7:-0.021154774 #
-10.195361402202358647173241479322 1:-0.17041841 2:0.020257566 3:0.11638856 4:-0.050360598 5:0.12346023 6:-0.013268711 7:-0.11594589 #
10.195361402202358647173241479322 1:-0.08692313 2:-0.11949647 3:0.11501873 4:0.047284648 5:0.015325777 6:0.024428641 7:0.011632841 #
-10.195361402202358647173241479322 1:0.27194697 2:0.071239665 3:-0.12281183 4:0.06778118 5:0.097437479 6:0.12940231 7:-0.093435228 #
-10.195361402202358647173241479322 1:0.1460007 2:-0.21363077 3:-0.049016189 4:-0.21005523 5:0.041389931 6:0.027439207 7:0.0049569425 #
10.195361402202358647173241479322 1:-0.089221463 2:-0.14674366 3:0.084128127 4:0.10083883 5:-0.036960918 6:-0.012755674 7:0.0075388742 #
10.195361402202358647173241479322 1:-0.057207409 2:-0.11000854 3:-0.026499014 4:0.059804715 5:-0.024142211 6:-0.086267821 7:-0.088488251 #
10.195361402202358647173241479322 1:0.10528191 2:-0.17085271 3:-0.10146606 4:0.047484141 5:0.068478182 6:-0.035112742 7:0.02988608 #
-10.195361402202358647173241479322 1:0.31455016 2:0.2134563 3:0.086385667 4:0.044127479 5:-0.074696451 6:0.043724585 7:0.028767994 #
10.195361402202358647173241479322 1:-0.24253967 2:-0.012932158 3:-0.039035849 4:0.021790141 5:-0.043897383 6:0.0058834138 7:0.018856784 #
-10.195361402202358647173241479322 1:0.11083562 2:-0.2501561 3:0.017599151 4:-0.1456103 5:0.0058585848 6:0.029402282 7:0.05107088 #
-10.195361402202358647173241479322 1:-0.28284648 2:0.0011065062 3:-0.1262483 4:-0.079262301 5:-0.1482508 6:0.082143441 7:0.068010591 #
-10.195361402202358647173241479322 1:0.073779427 2:-0.23657863 3:-0.024122555 4:-0.059989445 5:-0.039506156 6:-0.03109163 7:-0.013869641 #
-10.195361402202358647173241479322 1:-0.27345198 2:-0.0066781235 3:-0.12457164 4:-0.073112071 5:-0.14963543 6:0.079676174 7:0.046320435 #
10.195361402202358647173241479322 1:-0.09840057 2:-0.097012192 3:0.063015677 4:0.026152816 5:-0.010284233 6:-0.033060443 7:-0.10103916 #
-10.195361402202358647173241479322 1:0.11512768 2:-0.23644345 3:-0.0084582157 4:-0.19664466 5:0.017869033 6:0.020653123 7:0.014718351 #
10.195361402202358647173241479322 1:-0.044149261 2:-0.16455655 3:0.10289654 4:0.092667848 5:-0.018096695 6:0.028291363 7:0.080941819 #
10.195361402202358647173241479322 1:-0.0455736 2:-0.1514976 3:0.085229851 4:0.011395569 5:-0.002366405 6:0.0049566831 7:-0.0084327944 #
-10.195361402202358647173241479322 1:0.26814616 2:0.21139984 3:0.059719846 4:-0.0071908417 5:-0.093542367 6:-0.028091088 7:-0.052883234 #
-10.195361402202358647173241479322 1:0.26559591 2:0.20909664 3:0.064837083 4:0.0031297526 5:-0.096600704 6:-0.03915184 7:-0.04602243 #
10.195361402202358647173241479322 1:-0.092641696 2:-0.10679585 3:0.071896426 4:0.034006841 5:-0.0095986528 6:-0.023295734 7:-0.074120648 #
10.195361402202358647173241479322 1:-0.06904716 2:-0.15264662 3:0.06620872 4:0.058007583 5:-0.031663857 6:-0.018761117 7:-0.024170779 #
-10.195361402202358647173241479322 1:0.24299636 2:0.18823551 3:0.056821868 4:0.032786213 5:-0.090814263 6:-0.075410321 7:0.011147528 #
-10.195361402202358647173241479322 1:0.12276135 2:-0.21085908 3:-0.085277945 4:-0.16457058 5:0.011257784 6:-0.050587066 7:-0.033629164 #
-10.195361402202358647173241479322 1:0.30263057 2:0.19737861 3:0.036300536 4:0.15199818 5:-0.06996239 6:0.11887375 7:-0.010441009 #
10.195361402202358647173241479322 1:-0.043233037 2:-0.13567664 3:0.046767242 4:-0.028914891 5:-0.028306274 6:-0.026821926 7:-0.11605152 #
10.195361402202358647173241479322 1:0.0052972049 2:-0.13342436 3:0.0086284047 4:0.038962904 5:0.043443024 6:-0.0082142968 7:0.071410634 #
10.195361402202358647173241479322 1:0.0033932028 2:-0.14056154 3:0.073557198 4:-0.058337506 5:0.02556783 6:0.037272952 7:0.032904278 #
-10.195361402202358647173241479322 1:0.19951968 2:0.17235713 3:0.033410806 4:0.10752159 5:-0.11445069 6:-0.121323 7:-0.020459561 #
-10.195361402202358647173241479322 1:0.19999319 2:0.14548001 3:-0.054846883 4:0.23149829 5:-0.089883775 6:0.028785672 7:-0.11811449 #
10.195361402202358647173241479322 1:-0.014478794 2:-0.14101556 3:0.09453728 4:-0.013407726 5:0.019854454 6:0.042289946 7:0.053983156 #
-10.195361402202358647173241479322 1:0.15679732 2:-0.24506834 3:-0.019797094 4:-0.24059723 5:0.063884564 6:0.069081776 7:0.063838333 #
10.195361402202358647173241479322 1:0.14823888 2:-0.012382562 3:0.0047707777 4:0.021813737 5:0.025169395 6:0.016076958 7:-0.030210841 #
10.195361402202358647173241479322 1:-0.065710478 2:-0.13387762 3:0.12202574 4:0.025711019 5:0.015781332 6:0.05420424 7:0.069231942 #
10.195361402202358647173241479322 1:0.13641088 2:0.024403796 3:-0.091954373 4:0.11300793 5:-0.040731858 6:0.014705473 7:-0.061720945 #
-10.195361402202358647173241479322 1:0.22880511 2:-0.16819322 3:-0.14479049 4:-0.05720241 5:0.14803152 6:0.0069842809 7:0.12719788 #
10.195361402202358647173241479322 1:-0.076458588 2:-0.11373032 3:0.10209309 4:0.022183307 5:0.023265937 6:0.018939959 7:-0.0069999499 #
10.195361402202358647173241479322 1:0.031832021 2:-0.13299794 3:-0.098584034 4:0.015522189 5:0.025842832 6:-0.003624802 7:0.074688308 #
10.195361402202358647173241479322 1:0.01075342 2:-0.12736368 3:-0.070737511 4:0.078017697 5:0.033674855 6:-0.02987214 7:0.085502096 #
10.195361402202358647173241479322 1:-0.27675354 2:0.12393219 3:-0.028448833 4:0.012880135 5:0.064214386 6:-0.023228267 7:0.041925009 #
10.195361402202358647173241479322 1:-0.010515652 2:-0.1310132 3:0.0232845 4:0.028763799 5:0.034618918 6:-0.011888495 7:0.040175624 #
10.195361402202358647173241479322 1:-0.007821383 2:-0.13863713 3:0.015801076 4:0.043562576 5:0.0137473 6:-0.013307623 7:0.040630147 #
10.195361402202358647173241479322 1:0.0091481423 2:-0.12253219 3:-0.081082202 4:0.0095123472 5:0.014192178 6:-0.059991807 7:-0.017668117 #
10.195361402202358647173241479322 1:0.0024941775 2:-0.11697376 3:-0.14989096 4:0.052083429 5:-0.014154978 6:-0.034180827 7:0.011511936 #
10.195361402202358647173241479322 1:-0.045805316 2:-0.11615951 3:0.047043305 4:-0.020469645 5:-0.014656751 6:-0.030246928 7:-0.10026569 #
-10.195361402202358647173241479322 1:0.1440275 2:-0.26879719 3:-0.0091683986 4:-0.12990355 5:0.042317022 6:0.059378996 7:0.11923442 #
-10.195361402202358647173241479322 1:0.12055463 2:-0.23515847 3:-0.012611841 4:-0.11554828 5:0.012394707 6:0.029600956 7:0.063440219 #
10.195361402202358647173241479322 1:-0.043740328 2:-0.12574303 3:0.088025942 4:-0.052011047 5:0.016113527 6:0.014531491 7:-0.040758755 #
10.195361402202358647173241479322 1:-0.00039394433 2:-0.13165472 3:-0.049306732 4:0.058291633 5:0.0091645708 6:-0.018021828 7:0.064013213 #
-10.195361402202358647173241479322 1:-0.27867663 2:0.066555172 3:0.096243665 4:0.1734546 5:0.12306056 6:-0.018863644 7:0.10043965 #
10.195361402202358647173241479322 1:0.19681318 2:0.042753413 3:-0.07507427 4:0.00092788268 5:0.0095134676 6:0.037774697 7:-0.056258269 #
10.195361402202358647173241479322 1:-0.038502019 2:-0.16512276 3:0.036597893 4:0.10657987 5:-0.024215937 6:0.013238452 7:0.12399666 #
-10.195361402202358647173241479322 1:0.052399315 2:-0.15498143 3:-0.042602699 4:-0.06416253 5:-0.058856718 6:-0.061429102 7:-0.15746026 #
10.195361402202358647173241479322 1:0.2593815 2:0.14439335 3:0.033455122 4:0.024922004 5:-0.028673396 6:-0.017513795 7:0.0038609887 #
-10.195361402202358647173241479322 1:-0.23662472 2:0.063913397 3:0.13150948 4:0.093964435 5:0.1923698 6:0.0024588695 7:0.089274675 #
10.195361402202358647173241479322 1:-0.25019047 2:0.029447211 3:-0.08947853 4:-0.0051725702 5:-0.087430961 6:-0.03215526 7:-0.089744546 #
10.195361402202358647173241479322 1:0.12910108 2:-0.11512458 3:-0.10461223 4:-0.038802415 5:0.073657483 6:0.015104772 7:-0.10031825 #
-10.195361402202358647173241479322 1:0.048727963 2:-0.15919803 3:-0.051029343 4:-0.043746993 5:-0.066280961 6:-0.065930486 7:-0.14505364 #
10.195361402202358647173241479322 1:0.0036642484 2:-0.10001801 3:0.12866287 4:-0.19619219 5:0.095488884 6:0.0885024 7:-0.0024211123 #
-10.195361402202358647173241479322 1:-0.28226182 2:0.027857594 3:-0.089293972 4:-0.12763435 5:-0.15246536 6:0.085242815 7:0.017603613 #
-10.195361402202358647173241479322 1:-0.25398877 2:0.010319195 3:-0.1272655 4:-0.10721365 5:-0.1504463 6:0.038384505 7:-0.042074509 #
10.195361402202358647173241479322 1:-0.081121445 2:-0.12196759 3:0.066901654 4:0.069795132 5:-0.0046036071 6:-0.0023181455 7:0.027661432 #
10.195361402202358647173241479322 1:0.14308512 2:0.0036330579 3:-0.073967956 4:0.14368781 5:0.012893806 6:0.065280519 7:0.063808769 #
10.195361402202358647173241479322 1:-0.23899773 2:0.026229009 3:-0.062238604 4:0.00096138817 5:-0.031569347 6:-0.015790312 7:-0.035598032 #
10.195361402202358647173241479322 1:0.10432458 2:-0.050496683 3:-0.1276404 4:-0.0011552852 5:0.068084642 6:0.00017685106 7:-0.075651117 #
10.195361402202358647173241479322 1:-0.089563832 2:-0.09289556 3:0.046407353 4:-0.04150955 5:-0.020223452 6:-0.018375296 7:-0.10544868 #
-10.195361402202358647173241479322 1:0.092187159 2:-0.25579658 3:-0.011696153 4:-0.088525221 5:-0.0023831537 6:-0.0061623743 7:0.043437816 #
-10.195361402202358647173241479322 1:-0.13012667 2:-0.013006624 3:0.15970504 4:-0.11008958 5:0.12638797 6:0.036051534 7:-0.09898483 #
10.195361402202358647173241479322 1:0.32453406 2:0.15290929 3:0.053404536 4:-0.13135761 5:0.037846621 6:0.047258034 7:0.036111414 #
10.195361402202358647173241479322 1:-0.062021136 2:-0.11209996 3:0.080291115 4:0.020994021 5:0.02191326 6:0.016059214 7:0.029257305 #
10.195361402202358647173241479322 1:0.18865155 2:-0.0019100711 3:-0.045903202 4:0.083682403 5:0.03623816 6:0.1324947 7:0.10559237 #
-10.195361402202358647173241479322 1:0.18851444 2:-0.02825702 3:-0.17420453 4:0.24160513 5:0.07276123 6:0.031787157 7:0.0041601937 #
-10.195361402202358647173241479322 1:0.20311494 2:0.035831902 3:-0.14935133 4:0.23022786 5:0.044897951 6:0.063801013 7:-0.074536033 #
-10.195361402202358647173241479322 1:0.1626161 2:-0.079951569 3:-0.19567287 4:0.16219603 5:0.083694212 6:-0.033517476 7:-0.016812878 #
10.195361402202358647173241479322 1:-0.090878755 2:-0.10455617 3:0.096085705 4:0.0064885942 5:0.0099332035 6:0.0077008195 7:-0.047396731 #
10.195361402202358647173241479322 1:-0.082826495 2:-0.11919596 3:0.071437106 4:0.036327314 5:-0.0071160207 6:-0.0023141303 7:-0.0017884301 #
-10.195361402202358647173241479322 1:-0.21300162 2:-0.048472136 3:-0.12738207 4:-0.050663147 5:-0.099093258 6:0.028853826 7:-0.056199871 #
10.195361402202358647173241479322 1:0.0066489801 2:-0.1086358 3:-0.075409628 4:-0.040405463 5:0.006376652 6:-0.052251596 7:-0.057967704 #
10.195361402202358647173241479322 1:0.17009147 2:-0.00020204841 3:-0.10762676 4:0.10314235 5:0.016034443 6:0.090045184 7:0.051845249 #
-10.195361402202358647173241479322 1:0.13265447 2:-0.19928783 3:-0.24911584 4:0.088101819 5:0.1027929 6:-0.099030003 7:0.03821715 #
-10.195361402202358647173241479322 1:0.079059571 2:-0.15525158 3:-0.19680347 4:0.1631574 5:0.0090193516 6:-0.12869354 7:-0.0060714115 #
-10.195361402202358647173241479322 1:0.014141649 2:-0.2369872 3:-0.058937643 4:0.045204375 5:-0.087128781 6:-0.10007258 7:-0.047818009 #
10.195361402202358647173241479322 1:0.20442258 2:0.028316399 3:-0.058602266 4:-0.025965806 5:0.061569288 6:0.12074824 7:0.047803454 #
10.195361402202358647173241479322 1:0.21508737 2:0.02622208 3:-0.045221444 4:0.043963943 5:0.028801762 6:0.10082331 7:0.065411106 #
10.195361402202358647173241479322 1:-0.015733441 2:-0.11819001 3:-0.093789354 4:0.037487857 5:-0.014470796 6:-0.082498357 7:-0.04916843 #
-10.195361402202358647173241479322 1:-0.17587902 2:-0.033070374 3:0.1420228 4:0.026362756 5:0.058252536 6:-0.0043795528 7:-0.090113655 #
10.195361402202358647173241479322 1:0.25313008 2:0.068018049 3:-0.018396165 4:-0.01573747 5:0.012816437 6:0.050846245 7:0.042361304 #
10.195361402202358647173241479322 1:-0.039410472 2:-0.12754986 3:0.047277633 4:0.0053094178 5:-0.018660635 6:-0.017036952 7:-0.033748735 #
10.195361402202358647173241479322 1:0.016301379 2:-0.11377397 3:0.077250183 4:-0.15542451 5:0.050442126 6:0.045607671 7:-0.028432542 #
10.195361402202358647173241479322 1:-0.049595159 2:-0.12858556 3:0.051000725 4:-0.0025881117 5:-0.031192353 6:-0.030831294 7:-0.097135849 #
-10.195361402202358647173241479322 1:-0.042958215 2:-0.11647073 3:0.11970695 4:-0.19922823 5:0.053989865 6:0.045866411 7:-0.079804026 #
10.195361402202358647173241479322 1:-0.049574662 2:-0.1455998 3:0.043380734 4:0.0069454848 5:-0.027502593 6:-0.024292858 7:-0.068255261 #
10.195361402202358647173241479322 1:-0.28774512 2:0.090072796 3:0.0060174125 4:0.058145061 5:0.032469444 6:-0.022820266 7:0.04342908 #
-10.195361402202358647173241479322 1:0.086132795 2:-0.2460835 3:-0.00050207652 4:-0.012972707 5:-0.030003445 6:-0.0024500713 7:0.069296025 #
-10.195361402202358647173241479322 1:-0.078459956 2:-0.10347197 3:0.11909948 4:-0.13314432 5:0.035460882 6:0.019476829 7:-0.10867253 #
10.195361402202358647173241479322 1:0.29537341 2:0.1406734 3:0.057148382 4:0.011896697 5:-0.0048723109 6:0.026621632 7:0.060671471 #
-10.195361402202358647173241479322 1:0.10692549 2:-0.23187082 3:0.012444115 4:-0.13473701 5:0.006795574 6:0.01893355 7:0.031970918 #
10.195361402202358647173241479322 1:-0.045409955 2:-0.10303823 3:0.075401828 4:-0.039091922 5:0.039345842 6:0.015895884 7:-0.0075749308 #
10.195361402202358647173241479322 1:-0.30515906 2:0.12619089 3:-0.05707315 4:-0.038460765 5:0.0059260461 6:-0.014222931 7:-0.0090884911 #
10.195361402202358647173241479322 1:0.0056175496 2:-0.14406151 3:0.068645582 4:-0.10463995 5:0.024664477 6:0.022737661 7:-0.056713644 #
-10.195361402202358647173241479322 1:0.018598283 2:-0.25002241 3:-0.027957909 4:0.037156399 5:-0.071498461 6:-0.045118354 7:-0.016001858 #
10.195361402202358647173241479322 1:-0.062194012 2:-0.11742916 3:0.06644097 4:-0.0084538292 5:0.013321198 6:0.0092185335 7:0.0032420766 #
10.195361402202358647173241479322 1:-0.060089793 2:-0.10401955 3:0.047249053 4:-0.043733317 5:0.011113414 6:-0.013147734 7:-0.062099759 #
10.195361402202358647173241479322 1:0.31789896 2:0.16513556 3:0.082497545 4:-0.032158982 5:-0.0086339377 6:0.027544586 7:0.076726869 #
-10.195361402202358647173241479322 1:0.046350047 2:-0.22843371 3:0.020474136 4:-0.023614207 5:-0.037929054 6:-0.015715465 7:-0.010304449 #
10.195361402202358647173241479322 1:0.012493086 2:-0.11945928 3:0.04033171 4:-0.13353947 5:0.024157133 6:0.010112897 7:-0.058005821 #
10.195361402202358647173241479322 1:0.042994145 2:-0.13971286 3:0.025623813 4:-0.035010446 5:0.064882755 6:0.025429547 7:0.095355481 #
-10.195361402202358647173241479322 1:0.024159497 2:-0.22733773 3:-0.14124577 4:0.11452673 5:-0.057903077 6:-0.14802039 7:0.023580339 #
10.195361402202358647173241479322 1:-0.25698817 2:0.13949637 3:0.07981503 4:-0.015542749 5:0.23649286 6:-0.018282397 7:0.04558485 #
-10.195361402202358647173241479322 1:-0.26554728 2:0.17523551 3:-0.096957043 4:-0.042824093 5:0.059556637 6:-0.034556482 7:0.038868271 #
10.195361402202358647173241479322 1:-0.052878894 2:-0.12065286 3:0.041049037 4:0.016824238 5:-0.029084384 6:-0.030771209 7:-0.058320861 #
-10.195361402202358647173241479322 1:0.15902886 2:-0.2091741 3:-0.17223048 4:-0.062202089 5:0.080990545 6:-0.070772693 7:0.058756962 #
-10.195361402202358647173241479322 1:0.12853478 2:-0.25369254 3:-0.071531378 4:-0.10129789 5:0.032168299 6:-0.043782935 7:0.10817171 #
-10.195361402202358647173241479322 1:-0.27418369 2:0.1221446 3:0.028317595 4:0.074784085 5:0.14156741 6:-0.050898135 7:0.029363016 #
-10.195361402202358647173241479322 1:-0.30755976 2:0.16248088 3:-0.03215282 4:-0.0046284092 5:0.045118049 6:0.010030766 7:0.047851361 #
10.195361402202358647173241479322 1:0.15783539 2:-0.17324461 3:-0.14938501 4:0.04565246 5:0.074466541 6:-0.034605846 7:0.059145365 #
-10.195361402202358647173241479322 1:0.18087864 2:-0.20599315 3:-0.19995385 4:-0.022603912 5:0.12714484 6:-0.055394504 7:0.096763805 #
10.195361402202358647173241479322 1:-0.3101916 2:0.14182417 3:0.059342671 4:0.068281993 5:0.19065979 6:-0.04680695 7:0.031135391 #
10.195361402202358647173241479322 1:-0.29365373 2:0.13522714 3:0.067054041 4:0.0686469 5:0.19697022 6:-0.051753096 7:0.029496767 #
-10.195361402202358647173241479322 1:-0.27774516 2:0.10236683 3:0.028936448 4:0.078718521 5:0.13409629 6:-0.074530646 7:-0.028516363 #
-10.195361402202358647173241479322 1:0.24489675 2:0.18511876 3:0.078185454 4:0.12068768 5:-0.11007321 6:-0.07575313 7:0.07973554 #
-10.195361402202358647173241479322 1:0.24376372 2:0.18750241 3:0.079218194 4:0.13070349 5:-0.11655872 6:-0.074782193 7:0.07826829 #
-10.195361402202358647173241479322 1:-0.23894337 2:0.11196059 3:-0.0047417651 4:-0.012936893 5:0.12797573 6:-0.092050433 7:-0.10180094 #
-10.195361402202358647173241479322 1:0.13532887 2:-0.29634741 3:0.022563735 4:-0.082324699 5:0.0051020393 6:0.024646198 7:0.17341514 #
10.195361402202358647173241479322 1:-0.30460212 2:0.1370464 3:0.0023239006 4:0.064896561 5:0.11974747 6:-0.047787968 7:0.059492476 #
-10.195361402202358647173241479322 1:0.26528507 2:0.14006156 3:-0.091270596 4:0.030157654 5:0.033911396 6:0.1051534 7:-0.20572789 #
-10.195361402202358647173241479322 1:-0.26003128 2:0.090810589 3:0.068895593 4:0.074759908 5:0.16538721 6:-0.048126869 7:0.0053791646 #
-10.195361402202358647173241479322 1:0.2287828 2:0.1087311 3:-0.097597763 4:0.087791838 5:-0.019186987 6:0.057208661 7:-0.196421 #
10.195361402202358647173241479322 1:-0.025046157 2:-0.1406256 3:0.0075378749 4:0.027896162 5:-0.0063886018 6:-0.043937955 7:0.01081374 #
-10.195361402202358647173241479322 1:-0.24369712 2:0.068941385 3:0.099496163 4:0.090391241 5:0.16314234 6:-0.030182194 7:0.029661888 #
-10.195361402202358647173241479322 1:0.16525732 2:-0.24105154 3:-0.059524536 4:-0.15396042 5:0.043194249 6:0.0059873522 7:0.072632454 #
-10.195361402202358647173241479322 1:-0.32822764 2:0.10125782 3:-0.065607727 4:-0.054658342 5:-0.14919595 6:0.090828389 7:0.064943783 #
-10.195361402202358647173241479322 1:-0.23775895 2:0.1210332 3:0.035680525 4:-0.0090354839 5:0.16794099 6:-0.038568422 7:-0.004090135 #
-10.195361402202358647173241479322 1:0.068178758 2:-0.25282302 3:-0.079920128 4:0.12062041 5:-0.050263505 6:-0.055236936 7:0.09120623 #
-10.195361402202358647173241479322 1:0.27263561 2:0.1529396 3:0.078116752 4:0.14212522 5:-0.071703911 6:-0.044910617 7:0.17844285 #
10.195361402202358647173241479322 1:-0.047756068 2:-0.13039941 3:-0.007507835 4:0.096351638 5:-0.027705617 6:-0.04761456 7:0.0066459682 #
10.195361402202358647173241479322 1:-0.038638499 2:-0.13148507 3:-0.004291472 4:0.068524592 5:-0.020031728 6:-0.040127262 7:0.0033175845 #
-10.195361402202358647173241479322 1:-0.22806941 2:-0.024490088 3:0.12679644 4:0.12515795 5:0.0081112962 6:-0.037114978 7:-0.10668856 #
-10.195361402202358647173241479322 1:-0.27322975 2:0.10732141 3:-8.09427e-05 4:0.058266338 5:0.10669629 6:-0.095830247 7:-0.077002667 #
-10.195361402202358647173241479322 1:-0.20498881 2:-0.029728075 3:0.12879835 4:0.072706796 5:0.025362073 6:-0.026488272 7:-0.11487678 #
10.195361402202358647173241479322 1:0.23145708 2:0.1498574 3:0.0061332625 4:0.13993621 5:-0.068969019 6:-0.04658135 7:-0.028304521 #
10.195361402202358647173241479322 1:0.03583324 2:-0.11561223 3:0.015881497 4:-0.11907022 5:0.068781778 6:0.009239777 7:-0.021156855 #
2.3106060003211599251926600118168 1:0.363437 2:0.22341882 3:0.11586259 4:-0.17356502 5:-0.011185102 6:0.052797168 7:0.048845962 #
-10.195361402202358647173241479322 1:0.1555907 2:-0.22962549 3:-0.10025933 4:-0.13073233 5:0.078466393 6:-0.0041253297 7:0.058465745 #
-10.195361402202358647173241479322 1:0.013621224 2:-0.20429172 3:0.039574105 4:-0.08349406 5:-0.072922997 6:-0.028098831 7:-0.10537569 #
-10.195361402202358647173241479322 1:-0.34469265 2:0.16553123 3:-0.075469628 4:-0.028924944 5:-0.06364508 6:0.033191584 7:0.027461821 #
-10.195361402202358647173241479322 1:0.24961261 2:0.20963326 3:0.056177139 4:0.03232453 5:-0.11078335 6:-0.045967627 7:-0.052726917 #
-10.195361402202358647173241479322 1:-0.22292484 2:0.092311159 3:0.077428736 4:-0.011048527 5:0.17133662 6:-0.02538697 7:-0.033333808 #
-10.195361402202358647173241479322 1:-0.23037902 2:0.092232436 3:0.072296016 4:0.01738322 5:0.18879347 6:-0.023216804 7:0.022129424 #
10.195361402202358647173241479322 1:-0.040456347 2:-0.1332538 3:-0.0062290379 4:0.089739576 5:-0.01699616 6:-0.036938272 7:0.023914712 #
10.195361402202358647173241479322 1:-0.031643711 2:-0.13140768 3:0.0047163838 4:0.064431272 5:0.0058081541 6:-0.039592288 7:0.0023493501 #
10.195361402202358647173241479322 1:-0.30108666 2:0.14106306 3:0.068625674 4:0.059551772 5:0.20758396 6:-0.040275592 7:0.041118424 #
-10.195361402202358647173241479322 1:0.2480015 2:0.20444794 3:0.077560037 4:0.13672198 5:-0.13157883 6:-0.040392701 7:0.044603985 #
10.195361402202358647173241479322 1:0.29590818 2:0.15108331 3:0.041163139 4:-0.053251807 5:0.0065085101 6:0.030213531 7:0.019089408 #
-10.195361402202358647173241479322 1:0.19160773 2:-0.14429916 3:-0.17163305 4:0.048651073 5:0.1147565 6:-0.026166495 7:0.072555996 #
-10.195361402202358647173241479322 1:0.2105619 2:0.1484682 3:0.030828536 4:0.086382717 5:-0.070314921 6:-0.1073636 7:0.023640504 #
10.195361402202358647173241479322 1:-0.21581537 2:-0.0187109 3:-0.027644474 4:0.04830585 5:-0.051336505 6:0.036698513 7:0.08106418 #
-10.195361402202358647173241479322 1:-0.28015694 2:0.021393962 3:-0.053317077 4:0.0080245947 5:-0.14992085 6:0.046722669 7:0.062490754 #
10.195361402202358647173241479322 1:0.31213683 2:0.21360679 3:0.074439585 4:0.01140953 5:-0.063437596 6:0.026553813 7:-0.0057319175 #
10.195361402202358647173241479322 1:-0.33819818 2:0.15322821 3:-0.11494766 4:-0.077174641 5:-0.019939713 6:0.028084375 7:0.03148656 #
10.195361402202358647173241479322 1:0.2838358 2:0.16250783 3:0.0029478371 4:0.060417898 5:-0.027040746 6:0.034250244 7:-0.031595159 #
-10.195361402202358647173241479322 1:0.24877314 2:0.19641262 3:0.087032564 4:0.13231145 5:-0.12722746 6:-0.055886772 7:0.089510478 #
-10.195361402202358647173241479322 1:0.2607255 2:0.20544426 3:0.064307816 4:0.068806559 5:-0.10327241 6:-0.014911019 7:-0.010499908 #
10.195361402202358647173241479322 1:-0.3315818 2:0.1446377 3:-0.073646553 4:-0.017035339 5:-0.013794294 6:-0.026124084 7:-0.03435852 #
-10.195361402202358647173241479322 1:-0.22748727 2:0.10247223 3:0.077080406 4:0.039737079 5:0.19241136 6:-0.0050769444 7:0.092446074 #
7.0084468547426013174117542803288 1:0.29498529 2:0.22123885 3:0.086980484 4:-0.0070915208 5:-0.089548767 6:-0.01320365 7:-0.020079223 #
10.195361402202358647173241479322 1:-0.30101091 2:0.13418913 3:0.056196228 4:0.075084157 5:0.18386349 6:-0.037944056 7:0.068521924 #
-0.27223627470174771580957440164639 1:-0.30020872 2:0.068879776 3:0.014165265 4:0.034569211 5:-0.066904105 6:0.062783718 7:0.10340091 #
-10.195361402202358647173241479322 1:-0.25731111 2:0.12082268 3:0.029649477 4:0.038343355 5:0.15035519 6:-0.045289516 7:0.014687969 #
10.195361402202358647173241479322 1:0.25704184 2:0.16107723 3:0.061847765 4:0.1412061 5:-0.080436796 6:-0.015769018 7:0.076469228 #
-8.6467306191700288309220923110843 1:0.095224239 2:-0.24493843 3:0.01319183 4:-0.058822099 5:-0.020693129 6:0.021175399 7:0.075979404 #
10.195361402202358647173241479322 1:-0.33526993 2:0.1392698 3:-0.11272154 4:-0.076634072 5:-0.052420005 6:-0.029499495 7:-0.056986984 #
10.195361402202358647173241479322 1:-0.27621639 2:0.096049674 3:-0.025928097 4:-0.033943515 5:0.010345629 6:-0.047867473 7:-0.081881113 #
-10.195361402202358647173241479322 1:-0.30065647 2:0.16236877 3:-0.050907224 4:-0.11856434 5:-0.026207983 6:0.060652111 7:0.0065065171 #
10.195361402202358647173241479322 1:0.26145232 2:0.17114414 3:0.064276211 4:0.12631658 5:-0.078433454 6:-0.033236645 7:0.07581228 #
-10.195361402202358647173241479322 1:0.21716297 2:0.15619971 3:0.032830078 4:0.080042489 5:-0.071224011 6:-0.093451843 7:0.031610198 #
10.195361402202358647173241479322 1:-0.33377448 2:0.15428135 3:-0.12592414 4:-0.076505579 5:-0.041156083 6:-0.0016705109 7:-0.015245278 #
-10.195361402202358647173241479322 1:-0.32528451 2:0.16544831 3:-0.084532224 4:-0.070130825 5:-0.062385835 6:0.024736451 7:-0.0083961366 #
10.195361402202358647173241479322 1:0.28841349 2:0.19676024 3:0.091001302 4:0.036002584 5:-0.074788004 6:-0.014449514 7:0.036935654 #
10.195361402202358647173241479322 1:0.29323956 2:0.1571634 3:0.037262052 4:-0.061535917 5:0.0013300017 6:0.024753029 7:-0.013326738 #
-10.195361402202358647173241479322 1:0.17080511 2:-0.19564763 3:-0.2299719 4:-0.0082896575 5:0.13710065 6:-0.060067263 7:0.044346862 #
10.195361402202358647173241479322 1:-0.10112683 2:-0.11021139 3:0.088390209 4:0.044995558 5:-0.021675413 6:-0.00275697 7:-0.037409715 #
10.195361402202358647173241479322 1:-0.09270896 2:-0.1014162 3:0.088598408 4:0.012467052 5:-0.010405922 6:-0.0089000082 7:-0.068755955 #
-10.195361402202358647173241479322 1:-0.32434601 2:0.097913206 3:0.0020016353 4:0.029854687 5:-0.055301555 6:0.022257295 7:0.0079498142 #
-10.195361402202358647173241479322 1:-0.18202308 2:-0.024287272 3:0.14484841 4:0.033193924 5:0.065826379 6:-0.0045649544 7:-0.08448457 #
-10.195361402202358647173241479322 1:0.16523777 2:-0.19387414 3:-0.20616518 4:-0.077156082 5:0.11590594 6:-0.054567385 7:0.00034881488 #
-10.195361402202358647173241479322 1:0.16689935 2:-0.19856822 3:-0.1383781 4:-0.049985986 5:0.092692152 6:-0.052233152 7:0.092791446 #
10.195361402202358647173241479322 1:-0.32894561 2:0.14714402 3:-0.098127604 4:-0.06987305 5:0.00048358971 6:0.022164712 7:0.041111529 #
-10.195361402202358647173241479322 1:-0.34626448 2:0.15612817 3:-0.0932936 4:-0.021138374 5:-0.090546228 6:0.043081161 7:0.064552531 #
10.195361402202358647173241479322 1:0.16975054 2:-0.15918353 3:-0.079097889 4:-0.040919699 5:0.1183005 6:0.029353552 7:0.059451386 #
-10.195361402202358647173241479322 1:0.18145654 2:-0.20230973 3:-0.20884936 4:-0.049739745 5:0.14223064 6:-0.039623473 7:0.053096406 #
-10.195361402202358647173241479322 1:0.27554691 2:0.19546206 3:-0.01569839 4:0.083052896 5:-0.061957292 6:0.092586622 7:-0.13882022 #
-10.195361402202358647173241479322 1:-0.33566415 2:0.091014765 3:-0.044121131 4:-0.068364993 5:-0.11320981 6:0.096540146 7:0.061344583 #
-10.195361402202358647173241479322 1:-0.32843417 2:0.15272933 3:-0.01240774 4:0.052948177 5:0.033499166 6:0.024029646 7:0.09782134 #
10.195361402202358647173241479322 1:0.32305852 2:0.17456792 3:0.016712783 4:-0.052254584 5:0.0066364282 6:0.064076655 7:-0.013863669 #
-10.195361402202358647173241479322 1:0.21443491 2:0.1787532 3:0.046648037 4:0.094059475 5:-0.11200173 6:-0.11037614 7:-0.010645662 #
10.195361402202358647173241479322 1:-0.31730261 2:0.10827611 3:-0.096510477 4:-0.044505894 5:-0.045479462 6:0.038717251 7:0.0084715998 #
10.195361402202358647173241479322 1:-0.20102488 2:-0.007917366 3:-0.05611822 4:-0.035019644 5:-0.055648219 6:0.0042329463 7:-0.035279792 #
-10.195361402202358647173241479322 1:-0.35061264 2:0.089516789 3:-0.11200675 4:-0.11015429 5:-0.17122486 6:0.098066688 7:0.061049495 #
10.195361402202358647173241479322 1:-0.23985833 2:0.016609484 3:-0.062009536 4:-0.015639799 5:-0.074981749 6:0.032456271 7:-0.0037332021 #
-10.195361402202358647173241479322 1:-0.28903788 2:0.12372731 3:0.0079363221 4:0.019772192 5:0.042694211 6:-0.036690284 7:-0.053519234 #
-10.195361402202358647173241479322 1:-0.32685536 2:0.16470909 3:-0.066429377 4:-0.058205925 5:-0.043611623 6:0.03950195 7:0.021774514 #
-10.195361402202358647173241479322 1:0.032054406 2:-0.22001599 3:0.027453262 4:-0.063682228 5:-0.039763179 6:-0.007456372 7:-0.080683269 #
-10.195361402202358647173241479322 1:0.16996223 2:-0.080008134 3:-0.19296657 4:0.12379093 5:0.092981875 6:-0.036443431 7:-0.033512585 #
10.195361402202358647173241479322 1:-0.25954592 2:0.060409851 3:0.068619214 4:-0.029729808 5:0.046674829 6:0.04846064 7:0.037687633 #
10.195361402202358647173241479322 1:-0.2849713 2:0.093051709 3:-0.066324122 4:-0.063910484 5:-0.0040577115 6:0.039991014 7:0.02056108 #
-10.195361402202358647173241479322 1:-0.36576861 2:0.12650953 3:-0.094777182 4:-0.1076194 5:-0.16841812 6:0.11503859 7:0.057529818 #
10.195361402202358647173241479322 1:0.24358031 2:-0.14530328 3:-0.16164672 4:-0.025247822 5:0.15859421 6:0.021353053 7:0.099950559 #
-10.195361402202358647173241479322 1:0.16428189 2:-0.2103339 3:-0.12735985 4:-0.064789727 5:0.088808767 6:-0.0499276 7:0.10376501 #
10.195361402202358647173241479322 1:-0.31966528 2:0.11119384 3:-0.1034985 4:-0.052097563 5:-0.049173869 6:0.017044501 7:-0.013278349 #
10.195361402202358647173241479322 1:-0.29762709 2:0.11969183 3:0.0080866888 4:0.072882175 5:0.084230125 6:-0.033658493 7:0.062570415 #
-10.195361402202358647173241479322 1:0.14067802 2:-0.20374244 3:-0.13290244 4:-0.11182857 5:0.06563478 6:-0.075570084 7:0.021148784 #
-10.195361402202358647173241479322 1:-0.25444168 2:0.10695048 3:0.016718095 4:0.032487184 5:0.13964868 6:-0.072730914 7:-0.043239992 #
-10.195361402202358647173241479322 1:-0.24934897 2:0.10396928 3:0.019985212 4:0.032971781 5:0.14225103 6:-0.071945108 7:-0.036677603 #
10.195361402202358647173241479322 1:-0.21407804 2:-0.0015089415 3:-0.06062353 4:-0.0318745 5:-0.064623438 6:0.003533361 7:-0.040039893 #
10.195361402202358647173241479322 1:0.098764136 2:-0.17661934 3:-0.14666514 4:0.14230029 5:0.016965462 6:-0.068999134 7:0.024293523 #
-10.195361402202358647173241479322 1:0.16392417 2:-0.11576585 3:-0.19007286 4:0.088144653 5:0.092408285 6:-0.051617339 7:0.0077634556 #
10.195361402202358647173241479322 1:-0.32139939 2:0.1360504 3:-0.11937826 4:-0.047392242 5:-0.035998743 6:-0.02028228 7:-0.032476887 #
-10.195361402202358647173241479322 1:0.068617143 2:-0.2383282 3:-0.013991266 4:-0.019058304 5:-0.026294945 6:-0.023357522 7:0.028866624 #
-10.195361402202358647173241479322 1:-0.25477007 2:0.09349823 3:0.061977386 4:0.05106613 5:0.15372035 6:-0.043268707 7:-0.019137196 #
-10.195361402202358647173241479322 1:-0.24462986 2:0.11093248 3:0.01292827 4:0.0016509135 5:0.14792152 6:-0.069580764 7:-0.049279485 #
10.195361402202358647173241479322 1:0.029339436 2:-0.11808495 3:-0.1459749 4:0.12719992 5:0.0077756806 6:0.0097043924 7:0.10291809 #
-10.195361402202358647173241479322 1:0.13886976 2:-0.23042439 3:-0.13384269 4:0.072398901 5:0.05293344 6:-0.068917096 7:0.15878944 #
-10.195361402202358647173241479322 1:0.068355702 2:-0.23726498 3:-0.0096848607 4:-0.11217004 5:-0.016573539 6:0.00095725688 7:-0.031752385 #
-10.195361402202358647173241479322 1:-0.33974031 2:0.16610165 3:-0.071883872 4:-0.042158727 5:-0.058525834 6:0.054484803 7:0.058645342 #
10.195361402202358647173241479322 1:0.065149806 2:-0.10986599 3:-0.098457567 4:-0.11054733 5:0.051856425 6:0.028768258 7:0.034196328 #
10.195361402202358647173241479322 1:0.098785728 2:-0.19536144 3:-0.089121327 4:0.037398558 5:0.053421319 6:-0.055687532 7:0.083901174 #
-10.195361402202358647173241479322 1:0.15057738 2:-0.20451003 3:-0.18239589 4:-0.02294901 5:0.083749585 6:-0.080087833 7:0.057978783 #
10.195361402202358647173241479322 1:0.051968034 2:0.049647164 3:-0.12656698 4:0.14800999 5:-0.081051707 6:-0.032779831 7:-0.10274507 #
10.195361402202358647173241479322 1:0.13650602 2:-0.19827431 3:-0.052240878 4:-0.058069512 5:0.07611227 6:-0.015448423 7:0.11314019 #
-10.195361402202358647173241479322 1:0.21912014 2:-0.014742754 3:-0.17414992 4:0.040776141 5:0.11585285 6:0.026736423 7:-0.088537082 #
-10.195361402202358647173241479322 1:-0.26555991 2:0.089067586 3:0.07533212 4:0.089097962 5:0.14569619 6:-0.034375947 7:0.018415855 #
-10.195361402202358647173241479322 1:-0.26989213 2:0.092340484 3:0.067897722 4:0.082592018 5:0.13472848 6:-0.036936294 7:0.0040824171 #
10.195361402202358647173241479322 1:0.020040996 2:-0.098697774 3:-0.13982463 4:-0.011600907 5:0.0012055362 6:-0.045402758 7:-0.041342683 #
-10.195361402202358647173241479322 1:0.16591506 2:-0.1544428 3:-0.16937424 4:-0.049764693 5:0.093467265 6:-0.058435272 7:0.013296596 #
10.195361402202358647173241479322 1:-0.28842658 2:0.12979643 3:0.060677987 4:0.063110813 5:0.18738423 6:-0.036118463 7:0.06645412 #
10.195361402202358647173241479322 1:-0.2930848 2:0.14520772 3:0.037980426 4:0.021987574 5:0.18772735 6:-0.031484488 7:0.056922007 #
-10.195361402202358647173241479322 1:0.15546444 2:-0.22005121 3:-0.13083419 4:-0.10170742 5:0.059799772 6:-0.048868079 7:0.07223291 #
10.195361402202358647173241479322 1:-0.29812095 2:0.060811453 3:0.029336883 4:-0.0045925607 5:-0.016939957 6:0.026913483 7:0.006355884 #
10.195361402202358647173241479322 1:0.18813284 2:-0.13616855 3:-0.088176042 4:-0.12286314 5:0.12762325 6:0.042626966 7:0.026445901 #
10.195361402202358647173241479322 1:-0.32383376 2:0.16336936 3:-0.10268886 4:-0.008309654 5:0.0031561519 6:-0.0096048322 7:0.067368358 #
10.195361402202358647173241479322 1:-0.31157815 2:0.094318815 3:-0.076410592 4:-0.022047142 5:-0.026362171 6:0.049480487 7:0.064164706 #
-10.195361402202358647173241479322 1:-0.31448752 2:0.15977961 3:-0.08930736 4:-0.081113197 5:-0.064340942 6:0.03038165 7:0.0062620789 #
-10.195361402202358647173241479322 1:-0.2677561 2:0.1024427 3:-0.0042703883 4:0.084646411 5:0.097767547 6:-0.093594916 7:-0.042661931 #
10.195361402202358647173241479322 1:0.12725356 2:-0.17511007 3:-0.04809754 4:-0.11995636 5:0.057574648 6:-0.016983353 7:0.034729309 #
10.195361402202358647173241479322 1:0.1287882 2:-0.19316696 3:-0.07738027 4:-0.0057437392 5:0.083123952 6:-0.032082114 7:0.097112209 #
10.195361402202358647173241479322 1:-0.30770847 2:0.13787074 3:0.053344432 4:0.078091815 5:0.17674294 6:-0.054213718 7:0.029089596 #
-10.195361402202358647173241479322 1:-0.25065276 2:0.1029126 3:0.028406627 4:0.03584449 5:0.14994247 6:-0.054298662 7:-0.0057862103 #
10.195361402202358647173241479322 1:0.11630069 2:-0.16499844 3:-0.12702067 4:0.054269269 5:0.042856853 6:-0.043834109 7:0.0022913832 #
10.195361402202358647173241479322 1:0.11067668 2:-0.18338433 3:-0.067050569 4:0.078065783 5:0.069206752 6:0.03375984 7:0.058649238 #
-10.195361402202358647173241479322 1:-0.33575323 2:0.14615358 3:-0.071632273 4:-0.032157227 5:-0.078384675 6:0.083375975 7:0.125003 #
-10.195361402202358647173241479322 1:0.17009339 2:-0.012747344 3:-0.18770121 4:0.15671588 5:0.061509524 6:-0.021360982 7:-0.12769747 #
10.195361402202358647173241479322 1:0.10555782 2:-0.026226396 3:-0.13190264 4:0.030949777 5:0.031553153 6:-0.020989411 7:-0.12260357 #
10.195361402202358647173241479322 1:-0.3210848 2:0.13502471 3:-0.11070919 4:-0.064294405 5:-0.015234861 6:-0.00041684145 7:-0.0084766224 #
-10.195361402202358647173241479322 1:-0.24267219 2:0.095182665 3:0.040571358 4:0.03174483 5:0.1453912 6:-0.06510292 7:-0.04766044 #
10.195361402202358647173241479322 1:-0.27954122 2:0.0060116514 3:-0.010090478 4:0.0039935629 5:-0.073192067 6:0.015205733 7:0.0029315152 #
10.195361402202358647173241479322 1:-0.2806091 2:0.031961344 3:0.02491596 4:-0.01600394 5:-0.039210383 6:0.02685515 7:-0.0040822541 #
10.195361402202358647173241479322 1:0.32399631 2:0.15626468 3:0.053422198 4:-0.042431127 5:0.015938891 6:0.023013238 7:0.091102563 #
-10.195361402202358647173241479322 1:-0.19220322 2:-0.036551364 3:0.13832602 4:0.074833706 5:0.032008149 6:-0.020653958 7:-0.094016969 #
10.195361402202358647173241479322 1:-0.32288641 2:0.11349946 3:-0.10220502 4:-0.053434569 5:-0.039101008 6:0.023683237 7:0.0058771111 #
-10.195361402202358647173241479322 1:0.087506026 2:-0.2053473 3:0.023528947 4:-0.1438228 5:-0.0079149613 6:0.0059341784 7:-0.044470608 #
10.195361402202358647173241479322 1:-0.23321389 2:0.001459332 3:-0.085397847 4:0.019891605 5:-0.083388045 6:-0.0032141521 7:-0.0062692664 #
-10.195361402202358647173241479322 1:-0.33655176 2:0.13105674 3:-0.074944064 4:-0.037200361 5:-0.1253801 6:0.044950716 7:0.013620812 #
10.195361402202358647173241479322 1:0.12731735 2:-0.16881494 3:-0.057970889 4:-0.083364502 5:0.11000535 6:0.050535541 7:0.02302062 #
10.195361402202358647173241479322 1:-0.30586791 2:0.084414653 3:0.029232042 4:0.022610003 5:0.020824153 6:0.024010791 7:0.048882704 #
-10.195361402202358647173241479322 1:0.12758556 2:-0.21700269 3:-0.13297056 4:-0.089497954 5:0.050768897 6:-0.047562767 7:-0.0063798968 #
10.195361402202358647173241479322 1:0.054947544 2:-0.1472325 3:-0.033370964 4:-0.11710394 5:0.054579832 6:-0.0099066887 7:0.023324288 #
-10.195361402202358647173241479322 1:-0.32447106 2:0.12993458 3:-0.076066583 4:-0.019506471 5:-0.10029934 6:0.047682177 7:0.07438419 #
10.195361402202358647173241479322 1:-0.11938178 2:-0.10253191 3:0.044098437 4:0.05786138 5:-0.045398403 6:-0.037747677 7:-0.072429389 #
-10.195361402202358647173241479322 1:0.14748794 2:-0.20362823 3:-0.053176723 4:-0.081737742 5:0.033576772 6:0.0032843004 7:0.043909147 #
-10.195361402202358647173241479322 1:0.096890762 2:-0.21025103 3:-0.07099884 4:-0.10492871 5:-0.025030538 6:-0.048092339 7:-0.074223869 #
10.195361402202358647173241479322 1:-0.32569242 2:0.12861511 3:-0.077978276 4:-0.064234421 5:-0.010320725 6:0.0074232044 7:0.011459704 #
-10.195361402202358647173241479322 1:-0.30678844 2:0.13788353 3:-0.08221177 4:-0.065797694 5:-0.083131857 6:0.03409189 7:0.015313645 #
10.195361402202358647173241479322 1:0.15339807 2:-0.1610027 3:-0.09272705 4:-0.09457776 5:0.11965358 6:-0.0033571823 7:0.013746166 #
-10.195361402202358647173241479322 1:-0.25217205 2:0.096241131 3:0.034644444 4:0.058534648 5:0.14407261 6:-0.067526773 7:-0.020936258 #
-10.195361402202358647173241479322 1:-0.24086678 2:0.10512941 3:0.025169108 4:0.024285782 5:0.15779027 6:-0.049342748 7:0.0090020476 #
10.195361402202358647173241479322 1:-0.25161532 2:-0.0025549075 3:-0.012712531 4:-0.024576966 5:-0.050365377 6:0.0049645328 7:-0.025835369 #
-10.195361402202358647173241479322 1:-0.14529762 2:-0.054272454 3:-0.1146116 4:-0.074258365 5:-0.057348471 6:0.052761752 7:-0.073425524 #
-10.195361402202358647173241479322 1:-0.26862484 2:0.061255433 3:-0.080575272 4:-0.13440426 5:-0.14083154 6:0.033743411 7:-0.064506821 #
-10.195361402202358647173241479322 1:-0.2829189 2:0.0280724 3:-0.11757858 4:-0.058467112 5:-0.16555001 6:0.031351555 7:-0.0216615 #
10.195361402202358647173241479322 1:-0.26899686 2:0.12647887 3:0.034409612 4:0.038683373 5:0.16188747 6:-0.021401208 7:0.096547484 #
-10.195361402202358647173241479322 1:-0.26484981 2:0.083923064 3:0.078261003 4:0.10933904 5:0.14326018 6:-0.030365877 7:0.040153041 #
10.195361402202358647173241479322 1:0.045067981 2:-0.16723748 3:-0.10589119 4:0.024944618 5:-0.019259023 6:-0.12148431 7:-0.070708014 #
10.195361402202358647173241479322 1:0.13916726 2:-0.11301333 3:-0.016308846 4:-0.16248648 5:0.048372518 6:0.014942613 7:-0.034521949 #
10.195361402202358647173241479322 1:0.075443581 2:-0.15274596 3:-0.090437882 4:-0.042026188 5:0.054961253 6:-0.021364873 7:-0.097196288 #
-10.195361402202358647173241479322 1:0.0428022 2:-0.2630167 3:-0.029480698 4:0.096466571 5:-0.089338452 6:-0.044877887 7:0.068352222 #
-10.195361402202358647173241479322 1:0.13437212 2:-0.22412948 3:-0.1086195 4:-0.10923662 5:0.051944796 6:-0.062705204 7:0.05830783 #
10.195361402202358647173241479322 1:-0.2174082 2:-0.0088540083 3:-0.0020373783 4:-0.061664846 5:-0.020292334 6:0.0099621164 7:-0.029515779 #
-10.195361402202358647173241479322 1:0.14454983 2:-0.19557047 3:-0.071921378 4:-0.063513555 5:0.037904304 6:-0.006545464 7:0.021859912 #
-10.195361402202358647173241479322 1:-0.34054503 2:0.13168058 3:-0.066799343 4:-0.050968226 5:-0.11865581 6:0.075706221 7:0.057630222 #
10.195361402202358647173241479322 1:0.17325708 2:-0.14475305 3:-0.087246239 4:-0.066249721 5:0.11334033 6:0.031311523 7:0.040681563 #
-10.195361402202358647173241479322 1:0.16051905 2:-0.20502129 3:-0.07080517 4:-0.085674211 5:0.047101811 6:0.00828146 7:0.052583545 #
10.195361402202358647173241479322 1:-0.32151037 2:0.12669004 3:-0.10885802 4:-0.06608583 5:-0.026633356 6:0.0074755163 7:-0.0057269516 #
-10.195361402202358647173241479322 1:-0.25485867 2:0.084003076 3:0.049752254 4:0.06138907 5:0.11775922 6:-0.074454151 7:-0.080692694 #
10.195361402202358647173241479322 1:0.085061125 2:-0.18294768 3:-0.073637001 4:-0.0013745163 5:0.019131221 6:-0.072922796 7:0.016355818 #
10.195361402202358647173241479322 1:-0.29767701 2:0.079046249 3:0.030123362 4:0.054923046 5:0.019223889 6:0.0095920516 7:0.060430735 #
-10.195361402202358647173241479322 1:-0.30762362 2:0.15415797 3:-0.074952751 4:-0.098368764 5:-0.049587026 6:0.069103777 7:0.059168719 #
10.195361402202358647173241479322 1:0.046832029 2:-0.16529688 3:-0.040723894 4:0.0059460597 5:0.047222488 6:-0.0083189467 7:0.11587656 #
-10.195361402202358647173241479322 1:0.13227329 2:-0.21237558 3:-0.065212175 4:-0.03394004 5:0.0237082 6:-0.012558188 7:0.050362583 #
10.195361402202358647173241479322 1:-0.32239473 2:0.14320436 3:-0.11327309 4:-0.062468022 5:-0.027895886 6:-0.0026056278 7:-0.011903632 #
-10.195361402202358647173241479322 1:-0.3305572 2:0.12806351 3:-0.079442561 4:-0.035908218 5:-0.10568529 6:0.059182569 7:0.075369969 #
10.195361402202358647173241479322 1:0.15629719 2:-0.1518348 3:-0.083353721 4:-0.026407804 5:0.10522859 6:0.020214697 7:0.045047984 #
-10.195361402202358647173241479322 1:0.12627007 2:-0.21572004 3:-0.090238534 4:-0.12767041 5:0.011075876 6:-0.039600529 7:-0.02730868 #
10.195361402202358647173241479322 1:-0.29801428 2:0.050168514 3:0.0094110295 4:-0.01171454 5:-0.045454714 6:0.015233752 7:-0.018871004 #
-10.195361402202358647173241479322 1:-0.25783548 2:0.078621991 3:0.072690673 4:0.073085286 5:0.14270547 6:-0.056076642 7:-0.042399943 #
-10.195361402202358647173241479322 1:-0.25782272 2:0.082277037 3:0.070379369 4:0.065768301 5:0.13887407 6:-0.052758459 7:-0.041545533 #
10.195361402202358647173241479322 1:0.11941714 2:-0.17692566 3:-0.10260188 4:-0.047226507 5:0.087064594 6:-0.038543634 7:0.027664952 #
-10.195361402202358647173241479322 1:0.14497064 2:-0.21207753 3:-0.066625834 4:-0.12286633 5:0.030589564 6:-0.010355998 7:0.0030282384 #
10.195361402202358647173241479322 1:-0.31635144 2:0.089453205 3:-0.0049484498 4:0.014891718 5:-0.02451081 6:-0.017668515 7:-0.044092767 #
-10.195361402202358647173241479322 1:-0.26700765 2:0.09471269 3:0.02497939 4:0.10949036 5:0.12279985 6:-0.058543082 7:0.04480467 #
-10.195361402202358647173241479322 1:-0.31411225 2:0.10982218 3:-0.067797936 4:-0.019536996 5:-0.099556409 6:0.019569958 7:0.012171383 #
10.195361402202358647173241479322 1:0.086796246 2:-0.18577485 3:-0.045815412 4:0.019670449 5:0.075099587 6:0.028086985 7:0.048821319 #
-10.195361402202358647173241479322 1:0.13828714 2:-0.250337 3:-0.024812043 4:-0.098687865 5:0.033168305 6:0.04123022 7:0.090533398 #
-10.195361402202358647173241479322 1:-0.31451812 2:0.10257577 3:-0.071439184 4:-0.051624544 5:-0.14975537 6:0.025985554 7:-0.041398812 #
10.195361402202358647173241479322 1:0.10913218 2:-0.13228081 3:-0.014054341 4:-0.054985464 5:0.024308082 6:-0.0076823644 7:0.0031356546 #
10.195361402202358647173241479322 1:-0.29454067 2:0.067228623 3:0.025351381 4:-0.023761813 5:-0.01300908 6:0.025171939 7:-0.010540595 #
-10.195361402202358647173241479322 1:-0.24466306 2:0.083819486 3:0.065960467 4:0.047712795 5:0.13994586 6:-0.060594033 7:-0.062714852 #
10.195361402202358647173241479322 1:0.060109492 2:-0.18173076 3:-0.071129464 4:0.046805404 5:-0.0067285257 6:-0.085302807 7:0.010152103 #
-10.195361402202358647173241479322 1:0.10483715 2:-0.23168646 3:-0.10252158 4:-0.097669147 5:-0.011075673 6:-0.06110505 7:-0.03273363 #
10.195361402202358647173241479322 1:-0.22808243 2:-0.0099824602 3:-0.016254872 4:-0.022767646 5:-0.037839763 6:-0.00043871652 7:-0.02810492 #
-10.195361402202358647173241479322 1:0.11462301 2:-0.22956178 3:-0.027429679 4:-0.07860592 5:0.0048343199 6:0.0036571261 7:0.047903571 #
10.195361402202358647173241479322 1:0.091327935 2:-0.17739862 3:-0.047059923 4:-0.017128397 5:0.081651881 6:0.034527507 7:0.039843701 #
10.195361402202358647173241479322 1:0.092878662 2:-0.1684096 3:-0.057880376 4:-0.035903256 5:0.080604158 6:0.023180554 7:0.0041017169 #
10.195361402202358647173241479322 1:-0.28774852 2:0.072184794 3:-0.010265952 4:-0.05013309 5:-0.038260017 6:-0.01867055 7:-0.097092666 #
-10.195361402202358647173241479322 1:0.13034174 2:-0.21003805 3:-0.025017768 4:-0.074133359 5:0.0078416653 6:0.021093184 7:0.044423196 #
10.195361402202358647173241479322 1:0.048712417 2:-0.13061924 3:-0.080510348 4:-0.073293433 5:0.026017739 6:-0.0035412728 7:0.036603197 #
-10.195361402202358647173241479322 1:0.12604553 2:-0.22631192 3:-0.043721229 4:-0.11565471 5:0.020680988 6:0.01392228 7:0.034717012 #
10.195361402202358647173241479322 1:-0.29987592 2:0.068071105 3:0.0096545294 4:-0.0033320503 5:-0.030112719 6:0.0013938567 7:-0.029850865 #
10.195361402202358647173241479322 1:-0.25994289 2:0.031356879 3:0.012623033 4:-0.044066619 5:-0.039992232 6:0.00048991147 7:-0.064558081 #
10.195361402202358647173241479322 1:0.037636839 2:-0.10884411 3:-0.095879324 4:-0.094120026 5:0.049104255 6:0.023329785 7:0.030909788 #
10.195361402202358647173241479322 1:-0.23517236 2:0.01520157 3:0.015123823 4:-0.073341087 5:-0.028480392 6:0.0085418224 7:-0.06575904 #
10.195361402202358647173241479322 1:0.052257381 2:-0.13609314 3:-0.087657206 4:0.014885255 5:0.039244764 6:0.029140836 7:0.12014431 #
-10.195361402202358647173241479322 1:0.10735589 2:-0.23109439 3:-0.0409583 4:-0.10211015 5:-0.01398949 6:-0.023193179 7:0.00058272673 #
10.195361402202358647173241479322 1:-0.2173506 2:-0.012577708 3:-0.0037999763 4:-0.041209348 5:-0.024852602 6:0.0085679488 7:-0.01813663 #
-10.195361402202358647173241479322 1:0.13005818 2:-0.22887383 3:-0.034619424 4:-0.17173593 5:0.00449519 6:-0.0025027874 7:-0.00099905394 #
10.195361402202358647173241479322 1:0.048266076 2:-0.11965459 3:-0.078989603 4:-0.087046184 5:0.054248106 6:-0.033002365 7:-0.011212572 #
-10.195361402202358647173241479322 1:0.14488567 2:-0.24407411 3:0.0052176835 4:-0.12981448 5:0.039923914 6:0.041557897 7:0.079045348 #
10.195361402202358647173241479322 1:0.14183414 2:0.060569175 3:-0.10708819 4:0.037542474 5:-0.0359267 6:-0.033571441 7:-0.1379936 #
10.195361402202358647173241479322 1:0.19471267 2:0.015565847 3:-0.047320675 4:-0.010002544 5:0.034958664 6:0.10510579 7:0.031373076 #
-10.195361402202358647173241479322 1:0.20543437 2:0.063029863 3:-0.14509405 4:0.16308871 5:0.036344547 6:0.065402292 7:-0.15222874 #
-10.195361402202358647173241479322 1:0.13925068 2:-0.04774655 3:-0.19246309 4:0.23415898 5:0.048823953 6:-0.042826802 7:-0.062541053 #
-10.195361402202358647173241479322 1:0.31950295 2:0.13673124 3:-0.053542234 4:-0.034240868 5:0.060246084 6:0.17079097 7:-0.097341791 #
-10.195361402202358647173241479322 1:0.30406737 2:0.08959914 3:-0.10044122 4:0.044004459 5:0.1209453 6:0.17376983 7:-0.087705381 #
10.195361402202358647173241479322 1:0.049862843 2:-0.16295491 3:-0.097444147 4:0.10690574 5:0.018963994 6:-0.036254358 7:-0.055845384 #
10.195361402202358647173241479322 1:0.10549317 2:-0.15525497 3:-0.14812176 4:0.056629896 5:0.024324881 6:-0.079736903 7:-0.065730274 #
-10.195361402202358647173241479322 1:-0.20924625 2:0.074105673 3:0.12019416 4:0.019642331 5:0.21227582 6:-0.00066652574 7:0.046121761 #
-10.195361402202358647173241479322 1:-0.22237599 2:0.081842132 3:0.095706068 4:0.00089859572 5:0.18773276 6:-0.018803541 7:-0.013754442 #
10.195361402202358647173241479322 1:0.33660206 2:0.16676565 3:0.070025422 4:-0.14646049 5:0.032151524 6:0.056110136 7:0.048919983 #
-10.195361402202358647173241479322 1:0.27423328 2:0.047407705 3:-0.13653322 4:-0.040141191 5:0.11798752 6:0.099492863 7:-0.1094976 #
10.195361402202358647173241479322 1:0.19155446 2:-0.020868637 3:-0.042212088 4:-0.060249247 5:0.068984367 6:0.05975521 7:-0.059754077 #
-10.195361402202358647173241479322 1:0.29087421 2:0.21910274 3:0.064386934 4:0.024635321 5:-0.085123546 6:0.023552628 7:-0.019112265 #
-10.195361402202358647173241479322 1:0.3007606 2:0.21090087 3:0.061797019 4:0.067793921 5:-0.075801477 6:0.058500413 7:-0.0076716901 #
10.195361402202358647173241479322 1:0.30834058 2:0.15930223 3:0.042735133 4:-0.10869378 5:0.016630417 6:0.035804313 7:-0.0018616429 #
10.195361402202358647173241479322 1:0.16248946 2:-0.10665102 3:-0.071173243 4:0.057468187 5:0.082914434 6:0.071281642 7:0.0035883943 #
-10.195361402202358647173241479322 1:-0.20933135 2:0.076342352 3:0.098805495 4:-0.006034187 5:0.19018728 6:-0.013128982 7:0.0014281666 #
10.195361402202358647173241479322 1:0.31242362 2:0.18517376 3:0.065871544 4:-0.022622569 5:-0.017096685 6:0.016936498 7:0.039474379 #
-10.195361402202358647173241479322 1:0.28260383 2:0.05332914 3:-0.13456878 4:-0.035600889 5:0.12141255 6:0.11499851 7:-0.10334918 #
-10.195361402202358647173241479322 1:-0.21710853 2:0.076070264 3:0.10861769 4:0.008095758 5:0.19999292 6:0.0011849125 7:0.031573854 #
4.4595130600731067715969402343035 1:0.25222492 2:0.17012458 3:0.038229637 4:0.13569357 5:-0.074892066 6:-0.045831867 7:0.043453373 #
-10.195361402202358647173241479322 1:0.28663531 2:0.039025377 3:-0.12095889 4:0.00069220713 5:0.13050929 6:0.11399271 7:-0.055280477 #
10.195361402202358647173241479322 1:-0.23806003 2:-0.015617811 3:-0.020505857 4:0.013040142 5:-0.040473886 6:0.00076489052 7:0.0048623555 #
-10.195361402202358647173241479322 1:-0.20389861 2:0.076195352 3:0.11283179 4:-0.014731762 5:0.20929155 6:0.0037962582 7:0.020505382 #
10.195361402202358647173241479322 1:0.19424248 2:-0.030134391 3:-0.013507226 4:0.034847226 5:0.06056108 6:0.070400111 7:0.038909733 #
10.195361402202358647173241479322 1:0.17209658 2:-0.020764655 3:-0.0090674823 4:0.055836946 5:0.042396538 6:0.043017052 7:0.020698339 #
-10.195361402202358647173241479322 1:0.27678162 2:0.033909906 3:-0.1217353 4:0.037242424 5:0.11881685 6:0.11282808 7:-0.04418464 #
-10.195361402202358647173241479322 1:0.30983183 2:0.18276279 3:0.0043120775 4:-0.0050987671 5:-0.013548706 6:0.10855306 7:-0.062528946 #
10.195361402202358647173241479322 1:0.18084002 2:-0.013507714 3:-0.030306697 4:-0.02492556 5:0.054042466 6:0.042777259 7:-0.046325643 #
10.195361402202358647173241479322 1:0.15420346 2:-0.011180915 3:-0.05900171 4:0.16708253 5:-0.024013868 6:0.093916528 7:0.11167818 #
-10.195361402202358647173241479322 1:0.12351663 2:-0.21344577 3:-0.04450047 4:-0.022594975 5:0.012080577 6:-0.0010695036 7:0.040707625 #
-10.195361402202358647173241479322 1:-0.35137597 2:0.080841251 3:-0.10306513 4:-0.12077391 5:-0.18024798 6:0.098655477 7:0.056095861 #
4.6668860694110918529986520297825 1:-0.25575545 2:0.1052141 3:-0.022382384 4:-0.056177393 5:0.038040403 6:-0.053292334 7:-0.088319652 #
-10.195361402202358647173241479322 1:0.07337562 2:-0.22984618 3:0.030284841 4:-0.11539765 5:-0.0043134815 6:0.0098970057 7:-0.020529445 #
-10.195361402202358647173241479322 1:0.066575095 2:-0.22427629 3:0.027248118 4:-0.086976074 5:-0.037432596 6:0.0038843728 7:-0.0093044676 #
10.195361402202358647173241479322 1:0.15998176 2:-0.0052244635 3:-0.0058497968 4:-0.017718593 5:0.0378621 6:0.022464393 7:-0.052702837 #
10.195361402202358647173241479322 1:0.034443654 2:-0.12224007 3:-0.079883456 4:-0.043324471 5:0.035419956 6:-0.020044502 7:0.012527914 #
-10.195361402202358647173241479322 1:-0.32356307 2:0.13398452 3:-0.073331989 4:-0.063133702 5:-0.092801586 6:0.084229663 7:0.099055581 #
-10.195361402202358647173241479322 1:0.2588082 2:0.20692544 3:0.069484524 4:0.10676398 5:-0.11510132 6:-0.015611483 7:0.013645868 #
-10.195361402202358647173241479322 1:0.13235341 2:-0.19576158 3:-0.15871595 4:0.066388592 5:0.059314914 6:-0.07771948 7:0.090075135 #
-10.195361402202358647173241479322 1:-0.2531217 2:0.1132435 3:0.038468413 4:-0.034557123 5:0.076189101 6:-0.00089661119 7:-0.027456028 #
-10.195361402202358647173241479322 1:-0.25757575 2:0.1001666 3:-0.027881976 4:-0.10108968 5:-0.041187655 6:0.063525207 7:0.045465857 #
10.195361402202358647173241479322 1:0.21443318 2:0.019493625 3:-0.070477203 4:-0.070386231 5:0.044725522 6:0.10204652 7:-0.0060168267 #
-10.195361402202358647173241479322 1:0.089128293 2:-0.249548 3:-0.068086542 4:-0.082613617 5:-0.015899228 6:-0.0701233 7:0.033964954 #
-10.195361402202358647173241479322 1:0.33041832 2:0.1011292 3:-0.046473101 4:0.045741469 5:0.0737914 6:0.19242926 7:-0.0043996763 #
10.195361402202358647173241479322 1:0.2914747 2:0.17257094 3:0.039226331 4:0.089825422 5:-0.03650485 6:0.03375626 7:0.032400407 #
10.195361402202358647173241479322 1:0.037503831 2:-0.11210153 3:-0.075094193 4:-0.054549638 5:0.045614969 6:0.016020389 7:0.042004168 #
-10.195361402202358647173241479322 1:-0.26710501 2:0.099516414 3:0.062076565 4:0.021945234 5:0.064761244 6:0.032194257 7:0.060856275 #
-10.195361402202358647173241479322 1:-0.24559714 2:0.092222765 3:0.0068732388 4:-0.075018272 5:0.0036979013 6:-0.010070005 7:-0.07984139 #
10.195361402202358647173241479322 1:-0.070141368 2:-0.094946995 3:0.057081889 4:-0.037235659 5:0.011047256 6:-0.014307752 7:-0.082658164 #
-10.195361402202358647173241479322 1:0.105414 2:-0.25300962 3:-0.050149396 4:-0.11522545 5:-0.0060334713 6:-0.046359267 7:0.051076885 #
-10.195361402202358647173241479322 1:0.057785347 2:-0.21816856 3:-0.022440381 4:-0.015906496 5:-0.031126959 6:-0.035849381 7:-0.039951526 #
10.195361402202358647173241479322 1:0.22983731 2:0.017040689 3:-0.063435666 4:-0.057321168 5:0.052373365 6:0.11658384 7:0.030736037 #
-10.195361402202358647173241479322 1:0.077083476 2:-0.20157439 3:-0.087702714 4:0.074082725 5:-0.028622758 6:-0.060224514 7:-0.0025045653 #
-10.195361402202358647173241479322 1:0.31149828 2:0.06389951 3:-0.10040084 4:0.025687434 5:0.1332341 6:0.16784352 7:-0.037511978 #
10.195361402202358647173241479322 1:-0.095799156 2:-0.10784841 3:0.012057813 4:0.071143016 5:-0.075278617 6:-0.079128511 7:-0.12186825 #
-10.195361402202358647173241479322 1:-0.24627613 2:0.085669227 3:0.065301701 4:0.073762558 5:0.15825886 6:-0.04796502 7:0.0069796303 #
-10.195361402202358647173241479322 1:-0.25041479 2:0.07779076 3:0.065970838 4:0.077146687 5:0.13086136 6:-0.056896634 7:-0.035729311 #
-10.195361402202358647173241479322 1:-0.24933833 2:0.087127358 3:0.077812672 4:0.075271636 5:0.15285668 6:-0.031785883 7:0.023868402 #
10.195361402202358647173241479322 1:-0.042120777 2:-0.11969685 3:0.11424703 4:-0.037502576 5:0.049051337 6:0.040429603 7:0.0044903341 #
10.195361402202358647173241479322 1:-0.047196161 2:-0.10355506 3:0.10870493 4:-0.090088598 5:0.048202585 6:0.039990772 7:-0.039354984 #
10.195361402202358647173241479322 1:-0.06457442 2:-0.1042982 3:0.098350659 4:-0.047513295 5:0.03399916 6:0.027738538 7:-0.039533608 #
-10.195361402202358647173241479322 1:0.12056704 2:-0.21395016 3:-0.1877704 4:0.025925713 5:0.065009154 6:-0.078312971 7:0.026871288 #
-10.195361402202358647173241479322 1:0.12572868 2:-0.19334781 3:-0.16776188 4:0.11047767 5:0.052927289 6:-0.074627928 7:0.10721022 #
10.195361402202358647173241479322 1:-0.30077836 2:0.088482887 3:0.00087111839 4:0.048615761 5:0.021057414 6:-0.0082000606 7:0.054393217 #
10.195361402202358647173241479322 1:-0.29278293 2:0.084651932 3:0.019783942 4:0.025612529 5:0.032156579 6:0.010248924 7:0.053373322 #
10.195361402202358647173241479322 1:0.085626148 2:-0.15013328 3:-0.10249866 4:0.10491315 5:0.041261133 6:-0.00097522547 7:-0.031250656 #
-10.195361402202358647173241479322 1:-0.2084059 2:0.068834014 3:0.10433402 4:-0.025153656 5:0.1739132 6:-0.018545905 7:-0.058269437 #
-10.195361402202358647173241479322 1:-0.17664912 2:0.045857657 3:0.13422847 4:-0.048017032 5:0.1857391 6:0.018025953 7:-0.01829261 #
-10.195361402202358647173241479322 1:-0.20323949 2:0.051804405 3:0.10868303 4:-0.011478841 5:0.15460065 6:-0.017570149 7:-0.064201236 #
10.195361402202358647173241479322 1:0.061800789 2:-0.14833334 3:-0.0052262186 4:0.13608006 5:-0.031992704 6:-0.02377254 7:0.063810766 #
10.195361402202358647173241479322 1:0.083504453 2:-0.15893191 3:-0.1148789 4:0.061543118 5:0.046742935 6:-0.062730648 7:-0.033057507 #
-10.195361402202358647173241479322 1:0.27131918 2:0.21298322 3:0.059330132 4:0.049136668 5:-0.10047479 6:-0.0071786679 7:-0.038383938 #
-10.195361402202358647173241479322 1:0.29185876 2:0.20495731 3:0.053601462 4:0.079498217 5:-0.078599751 6:0.049357552 7:-0.0091062002 #
10.195361402202358647173241479322 1:-0.055742066 2:-0.10733943 3:0.092775859 4:-0.033341512 5:0.036168244 6:0.014952792 7:-0.045888215 #
-10.195361402202358647173241479322 1:0.016087191 2:-0.26250613 3:-0.010853779 4:0.053245656 5:-0.075057559 6:-0.045022234 7:0.022081688 #
-10.195361402202358647173241479322 1:-0.20383029 2:0.035691168 3:0.081274591 4:0.034663972 5:0.09936849 6:-0.057195067 7:-0.10098263 #
10.195361402202358647173241479322 1:0.27720544 2:0.1665476 3:0.029989872 4:0.10984364 5:-0.044777315 6:0.0072590681 7:0.016977223 #
-10.195361402202358647173241479322 1:-0.22290722 2:0.069568478 3:0.10401074 4:0.042380664 5:0.17915738 6:-0.022569831 7:0.011178412 #
10.195361402202358647173241479322 1:0.30882096 2:0.20406754 3:0.061203811 4:0.017989764 5:-0.048768841 6:0.040785626 7:0.0028624372 #
-10.195361402202358647173241479322 1:0.28312415 2:0.20673408 3:0.050781894 4:0.10971802 5:-0.090622775 6:0.043431032 7:-0.016747791 #
10.195361402202358647173241479322 1:-0.032255992 2:-0.12374958 3:-0.025679497 4:-0.0092017511 5:-0.022004129 6:-0.082385249 7:-0.083820879 #
10.195361402202358647173241479322 1:0.11652649 2:-0.065164216 3:-0.11584422 4:0.0092413798 5:0.08854115 6:0.025779402 7:-0.0011442302 #
10.195361402202358647173241479322 1:0.27600753 2:0.16014865 3:0.024756016 4:0.075394325 5:-0.032659456 6:-0.0034725489 7:0.014285864 #
-10.195361402202358647173241479322 1:0.23693296 2:0.018664705 3:-0.1654347 4:-0.0069955532 5:0.1171924 6:0.051031817 7:-0.13929179 #
-10.195361402202358647173241479322 1:0.28822428 2:0.18248424 3:0.01601254 4:0.083937943 5:-0.050487202 6:0.073592082 7:-0.047883607 #
10.195361402202358647173241479322 1:-0.28004488 2:0.075383313 3:0.033307731 4:-0.011756928 5:0.01848379 6:0.0075993217 7:-0.019100742 #
10.195361402202358647173241479322 1:-0.068455674 2:-0.10417226 3:0.088943586 4:-0.045377113 5:0.010303101 6:0.016818212 7:-0.052104987 #
-10.195361402202358647173241479322 1:-0.2549659 2:0.078490198 3:0.102328 4:0.11257838 5:0.15617736 6:-0.011794502 7:0.076942094 #
