SVM-light Version V6.02
0 # kernel type
3 # kernel parameter -d 
1 # kernel parameter -g 
1 # kernel parameter -s 
1 # kernel parameter -r 
empty# kernel parameter -u 
45 # highest feature index 
1684 # number of training documents 
508 # number of support vectors plus 1 
-0.24936648 # threshold b, each following line is a SV (starting with alpha*y)
-8.2595868347480561055817815940827 1:0.022422899 2:-0.20398371 3:-0.092183463 4:0.16024165 5:-0.079791225 6:-0.083556063 7:-0.0018837523 8:-0.033529937 9:-0.0018864041 10:0.074533425 11:-0.042159174 12:0.049378876 13:-0.021722389 14:-0.037699599 15:0.016363004 16:-0.01048674 17:-0.025219679 18:-0.026639253 19:-0.03533319 20:-0.035909325 21:-0.014331938 22:-0.0081345933 23:0.0051273797 24:0.015690602 25:0.0027961945 26:0.0059851552 27:-0.024382731 28:-0.023945827 29:0.01208433 30:0.042370394 31:0.0058507659 32:-0.005190332 33:0.0082391091 34:0.0030015304 35:-0.0044890996 36:0.017420871 37:0.0050336751 38:-0.0051317681 39:-0.0024196487 40:0.01102235 41:0.005037941 42:-0.0055134422 43:0.0062164976 44:-0.0028389252 45:-0.0050528613 #
3.1630254430226809603254878311418 1:-0.045409955 2:-0.10303823 3:0.075401828 4:-0.039091922 5:0.039345842 6:0.015895884 7:-0.0075749308 8:-0.02285965 9:0.027866103 10:0.020078134 11:0.010666911 12:0.0080510834 13:0.00049378845 14:-0.014913157 15:0.013695187 16:-0.0013734694 17:0.011961318 18:-0.02908418 19:0.00091662671 20:0.0040497486 21:-0.026819151 22:-0.016781839 23:-0.0053500282 24:0.013804862 25:-0.0073555899 26:-0.0087433392 27:-0.0050302455 28:0.0048870267 29:-0.013978738 30:-0.019086367 31:0.011449938 32:0.015734684 33:0.0071540559 34:0.0091752531 35:0.0042175232 36:-0.0043850942 37:-0.0022228314 38:0.0017851692 39:0.0051882965 40:0.010765474 41:0.010270383 42:-0.01059677 43:0.010277918 44:-0.0043969736 45:-0.012909601 #
8.2595868347480561055817815940827 1:-0.025487775 2:-0.10719202 3:0.043145332 4:-0.08894033 5:-0.00076587457 6:-0.019890323 7:-0.12154579 8:-0.019805165 9:0.01235324 10:-0.010616931 11:0.025982399 12:-0.0090042837 13:0.014137706 14:-0.014046711 15:0.010577772 16:-0.02767499 17:-0.0061552101 18:0.020006554 19:0.036716741 20:0.0014139768 21:-0.016377816 22:0.013509396 23:-0.0029771426 24:0.01676433 25:-0.0034883907 26:-0.013578687 27:-0.015769027 28:-0.0025081588 29:-0.025253538 30:-0.018483886 31:0.012406087 32:0.0017388561 33:0.0089203762 34:0.0085044978 35:0.0035879223 36:-0.0013751285 37:0.0082564913 38:0.00079472206 39:0.00029398393 40:0.011768379 41:-0.004854132 42:-0.011383609 43:0.012787601 44:-0.012495926 45:-0.0091912877 #
8.2595868347480561055817815940827 1:-0.043291457 2:-0.12137147 3:-0.012022206 4:0.023195911 5:-0.02819703 6:-0.069289342 7:-0.07763917 8:-0.045612585 9:-0.00053552928 10:-0.020669857 11:0.0080049131 12:0.012048062 13:0.031325355 14:-0.0095752431 15:0.0044208034 16:-0.0019795254 17:-0.014901434 18:-0.010656158 19:0.0012128273 20:-0.0055287969 21:-0.014395426 22:0.0055553527 23:-0.0054896176 24:-0.00045920993 25:-0.015489323 26:0.0016326002 27:-0.0089087132 28:0.0038051067 29:-0.0033489051 30:-0.022948824 31:-0.0077747745 32:-0.0069448436 33:0.006439948 34:-0.014046258 35:0.0021851426 36:-0.0083515486 37:0.0052617076 38:0.014732758 39:0.0017590505 40:-0.0016142665 41:-0.0028183742 42:-0.0016975483 43:-0.0002548238 44:-0.0016917698 45:0.0022850721 #
8.2595868347480561055817815940827 1:0.2929703 2:0.15763736 3:0.0037375335 4:0.071001314 5:-0.015159676 6:0.055601209 7:-0.018861501 8:-0.023068072 9:0.0074346089 10:-0.035401229 11:0.049573064 12:0.022512527 13:-0.03052198 14:0.015042793 15:0.0055787442 16:0.0023501765 17:0.010469782 18:-0.03370069 19:-0.0066925995 20:0.0097551793 21:-0.020399215 22:-0.024909887 23:0.024091989 24:-0.010998142 25:-0.0021472564 26:-0.02230759 27:0.033787973 28:-0.02279209 29:0.011269535 30:-0.0010493237 31:0.034126051 32:-0.020871367 33:0.0013914944 34:-0.008192068 35:0.012933481 36:-0.038101248 37:0.028553903 38:-0.012788687 39:0.0034966569 40:0.007076805 41:0.0025985602 42:-0.015730221 43:0.0040299604 44:0.0122545 45:0.026680002 #
8.2595868347480561055817815940827 1:0.13400953 2:-0.15549979 3:-0.10177065 4:0.046800114 5:0.066340879 6:-0.010227824 7:0.029287463 8:0.041732568 9:-0.040147882 10:9.5914285e-05 11:-0.0085427454 12:-0.037719332 13:-0.0039141825 14:0.012651493 15:-0.014068285 16:0.001233487 17:0.0063560344 18:0.0051656342 19:0.0023006862 20:0.016850363 21:-0.0012798144 22:-0.014934775 23:-0.002239773 24:0.0047092503 25:0.0032049688 26:0.006274296 27:0.018855911 28:0.024493389 29:0.0022540584 30:-0.00063538156 31:0.0077237389 32:0.022235975 33:0.010828883 34:0.019240918 35:-0.0070468183 36:0.018096332 37:-0.0037652913 38:0.007491265 39:-0.0043359082 40:-0.0079879696 41:-0.0030380224 42:0.0060308883 43:-0.012731393 44:-0.0016211708 45:0.011395696 #
8.2595868347480561055817815940827 1:0.24267161 2:0.14667845 3:0.012694722 4:-0.02847656 5:-0.033692989 6:-0.039059062 7:-0.079160325 8:-0.016332235 9:-0.024058813 10:0.0085970098 11:-0.055572223 12:-0.012405982 13:-0.0045239311 14:-0.0075194938 15:0.0023862456 16:0.0084383385 17:-0.013803231 18:-0.0059617641 19:0.037922584 20:-0.059207208 21:0.055773146 22:0.027644219 23:-0.02018695 24:0.023314005 25:-0.012600278 26:0.0024641377 27:-0.00067567325 28:0.0081363795 29:0.012964756 30:0.0020085948 31:-0.0035570699 32:0.011840089 33:-0.0078138644 34:-0.0013004057 35:0.0061280136 36:-0.0016558623 37:-0.014757526 38:0.01401028 39:-0.0065825079 40:0.0034079542 41:-0.003236868 42:0.0062758196 43:-0.00017174 44:-0.010365328 45:-0.022737954 #
8.2595868347480561055817815940827 1:0.30834058 2:0.15930223 3:0.042735133 4:-0.10869378 5:0.016630417 6:0.035804313 7:-0.0018616429 8:-0.020933108 9:-0.017609442 10:0.030948227 11:-0.061450999 12:-0.015958983 13:-0.0053317039 14:-0.0075124619 15:-0.0053408225 16:0.011485445 17:-0.0069462322 18:-0.01891336 19:0.011849724 20:-0.066787787 21:0.043809045 22:0.00033852423 23:-0.025913751 24:0.02029223 25:-0.0084879193 26:0.0097549781 27:0.017115984 28:0.01851438 29:0.0057529001 30:0.0031909954 31:0.0024089424 32:0.02410843 33:0.0017951163 34:-0.00073224498 35:0.007659669 36:0.0015866957 37:0.0048155407 38:0.00050157763 39:-0.00096328696 40:-0.0029560241 41:0.0021974847 42:0.0099945189 43:-0.0087505803 44:-0.010256214 45:-0.0076573668 #
7.6680451342490743016355736472178 1:0.21508737 2:0.02622208 3:-0.045221444 4:0.043963943 5:0.028801762 6:0.10082331 7:0.065411106 8:0.0089160735 9:-0.001540282 10:0.00028922837 11:0.057215329 12:0.0091959685 13:0.025753632 14:-0.0095673632 15:0.0074619879 16:0.0012445984 17:0.0019327084 18:-0.01138783 19:0.013153202 20:0.0013967997 21:0.030019151 22:-0.037236385 23:-0.039448924 24:-0.018181913 25:0.01407219 26:-0.019538162 27:-0.010152707 28:-0.010020645 29:-0.015183329 30:0.0061538923 31:0.0059515624 32:-0.0094885854 33:-0.0055040731 34:0.0075830454 35:-0.0089262016 36:0.0068471329 37:-0.01477716 38:0.013218835 39:0.006021562 40:-0.0063819792 41:-0.00023197406 42:-0.00017365042 43:-0.0018752369 44:-0.0046391482 45:-0.012739676 #
-8.2595868347480561055817815940827 1:0.21522729 2:0.011738382 3:-0.14844859 4:0.27851108 5:0.046823468 6:0.083450265 7:0.033304852 8:0.11437444 9:0.072152048 10:0.015316712 11:-0.056835786 12:-0.03791989 13:-0.041967928 14:-0.04761241 15:-0.021982258 16:0.044082545 17:-0.019701106 18:0.027492605 19:0.046384327 20:0.035609808 21:0.0082099196 22:0.032763202 23:0.017996958 24:-0.012665455 25:0.016723359 26:0.022151774 27:-0.053281818 28:0.027246326 29:-0.040517434 30:0.0061290725 31:-0.013559445 32:-0.0072653047 33:0.015341667 34:0.018678935 35:-0.024104614 36:-0.020478062 37:0.030587323 38:0.013776637 39:-0.0073751342 40:-0.01858072 41:0.0099667013 42:0.0059603942 43:-0.0079754423 44:0.0048468942 45:-0.0019273293 #
-8.2595868347480561055817815940827 1:0.26670352 2:-0.13493179 3:-0.15477683 4:-0.024046626 5:0.18321379 6:0.053019233 7:0.14527828 8:0.13577992 9:-0.047859162 10:0.066108182 11:-0.013999133 12:-0.051006012 13:-0.073926799 14:-0.030459784 15:-0.0048759817 16:0.041834559 17:0.023583658 18:0.043688796 19:0.040071856 20:0.040368814 21:0.011488375 22:0.030856783 23:0.025164375 24:0.002032869 25:0.0083342325 26:-0.0027396979 27:-0.02240772 28:-0.0029193542 29:-0.031365562 30:0.01871172 31:0.0085882107 32:0.0088109905 33:1.3061775e-05 34:0.019022146 35:-0.010460765 36:-0.026936069 37:0.0091811419 38:0.01903861 39:0.040838696 40:-0.0028484871 41:-0.010757555 42:-0.0075528305 43:0.0021979292 44:-0.026698396 45:-0.0084794667 #
8.2595868347480561055817815940827 1:0.3049334 2:0.076733373 3:-0.085601754 4:0.0048389053 5:0.10903376 6:0.14343336 7:-0.042825617 8:0.073006645 9:0.080454998 10:-0.03055713 11:-0.024961159 12:-0.015181093 13:-0.020975618 14:-0.013091778 15:-0.03822808 16:0.026404461 17:-0.037788965 18:-0.028772915 19:-0.024361733 20:0.039467048 21:0.0064602508 22:-0.0021278078 23:0.053831168 24:0.0038136658 25:-0.015775342 26:-0.020043202 27:0.012466419 28:-0.017432401 29:0.0072595179 30:0.0060511809 31:-0.0021528252 32:0.023181673 33:-0.002336079 34:-0.0044603636 35:0.014697815 36:-0.022204995 37:0.020830052 38:-0.007964408 39:0.027037425 40:0.0030037819 41:-9.3859649e-05 42:0.018122558 43:-0.008350878 44:-0.025718072 45:-0.013010426 #
8.2595868347480561055817815940827 1:-0.30586791 2:0.084414653 3:0.029232042 4:0.022610003 5:0.020824153 6:0.024010791 7:0.048882704 8:-0.0060344976 9:0.02229345 10:0.030287746 11:0.021752706 12:-0.0077677667 13:0.014203466 14:0.037892796 15:-0.019170823 16:0.04717366 17:0.012755075 18:0.0015070305 19:-0.018679647 20:-0.0099261403 21:0.0099187903 22:0.015752716 23:-0.0061932392 24:0.0017200065 25:0.010049851 26:-0.0156921 27:-0.0074959719 28:8.6515742e-05 29:-0.01407957 30:-0.0044276249 31:-0.0062423595 32:0.00026993552 33:0.014927875 34:-0.0020444482 35:-0.015397503 36:0.025452366 37:0.013760029 38:-0.014920101 39:-0.0050922064 40:-0.00022972534 41:-0.0048935204 42:0.010784652 43:0.015659317 44:-0.015028891 45:0.015088521 #
8.2595868347480561055817815940827 1:-0.021953378 2:-0.10796873 3:0.048786655 4:-0.090496436 5:0.0041097132 6:-0.010898271 7:-0.10325161 8:-0.020035882 9:0.017637759 10:-0.0098228659 11:0.025097908 12:-0.013293284 13:0.011236984 14:-0.013538325 15:0.010359722 16:-0.022552557 17:-0.005174546 18:0.017020389 19:0.03280776 20:-0.00068076671 21:-0.016618153 22:0.010386816 23:-0.0023520687 24:0.014599606 25:-0.0049999794 26:-0.015956167 27:-0.016643055 28:-0.0028693001 29:-0.026101567 30:-0.020720683 31:0.0093452074 32:0.004001217 33:0.012139259 34:0.010326239 35:0.00049702433 36:0.0042319018 37:0.0092198635 38:0.0024010204 39:0.0031596341 40:0.0054204683 41:0.0027128756 42:-0.0090866601 43:0.0050783819 44:-0.0060120667 45:-0.0048615932 #
-8.2595868347480561055817815940827 1:-0.30503854 2:0.16905925 3:-0.078024715 4:0.057210818 5:0.099073581 6:-0.075713016 7:0.055813737 8:-0.12095729 9:0.10239484 10:0.07579188 11:0.026275886 12:-0.053994101 13:-0.033119954 14:0.045105912 15:-0.021184262 16:0.0023032119 17:0.02374132 18:-0.031396151 19:-0.035185162 20:0.013601569 21:0.018080987 22:0.046334837 23:-0.038631018 24:-0.036327936 25:-0.076712623 26:0.0041105021 27:-0.020075567 28:0.001556772 29:0.0065273694 30:0.011795019 31:0.020694327 32:0.0017735244 33:-0.044275951 34:-0.019050574 35:-0.023555007 36:-0.013175441 37:-0.018079486 38:-0.0071781366 39:0.0036106866 40:-0.0032336377 41:-0.0076545747 42:0.0098506743 43:-0.0031831583 44:0.00036797079 45:0.013448543 #
8.2595868347480561055817815940827 1:-0.292546 2:0.13076752 3:-0.053289443 4:-0.0093906438 5:0.026191959 6:-0.024668228 7:0.0013173238 8:-0.03269254 9:0.022764767 10:0.0038833986 11:0.010050799 12:-0.034625918 13:-0.0031015028 14:0.024088442 15:0.006270505 16:0.0059045521 17:-0.0072017526 18:0.0093172416 19:-0.015048169 20:-0.017202929 21:0.0016065248 22:0.0074301814 23:0.014624115 24:0.0077374475 25:0.036327217 26:-0.010366632 27:0.002184968 28:-0.003084827 29:0.012873542 30:0.016951274 31:0.0035602569 32:0.0061123823 33:-0.0011120556 34:-0.019363688 35:-0.025482286 36:-0.012661052 37:-0.0051554441 38:0.00065475336 39:-0.012667241 40:0.0035296963 41:-0.0054449788 42:-0.0090261381 43:-0.019509166 44:-0.0022990278 45:0.0042297025 #
8.2595868347480561055817815940827 1:-0.041198865 2:-0.18568924 3:0.10586528 4:0.074385405 5:-0.011064508 6:0.036388803 7:0.092774816 8:-0.01199438 9:0.0208364 10:0.01298559 11:-0.012554117 12:0.0086383168 13:-0.0007716426 14:-0.022104038 15:-0.0032183928 16:-0.022816861 17:-0.026139276 18:0.023594435 19:0.036437191 20:0.001644149 21:-0.028399065 22:0.011039671 23:-0.01908211 24:0.020590384 25:-0.016131192 26:-0.015863625 27:-0.012628147 28:0.0058848443 29:-0.031332344 30:-0.033415407 31:0.0039046681 32:0.0097124884 33:0.020419698 34:-0.0021230434 35:0.0025504238 36:-0.019114291 37:-0.0087271417 38:0.01344562 39:0.0016071794 40:0.0090905707 41:0.0036164576 42:-0.0037704136 43:0.011928745 44:-0.0095002428 45:0.0072960672 #
8.2595868347480561055817815940827 1:-0.044149261 2:-0.16455655 3:0.10289654 4:0.092667848 5:-0.018096695 6:0.028291363 7:0.080941819 8:-0.015891414 9:0.039717235 10:0.014206959 11:-0.011989607 12:-0.018377054 13:-0.0073923827 14:-0.013309047 15:0.00088755437 16:-0.02335052 17:-0.021788115 18:0.016537659 19:0.026723139 20:-0.0011394258 21:-0.020957896 22:0.013067715 23:-0.014332347 24:0.018656885 25:-0.0038818286 26:-0.010478024 27:-0.012767074 28:-0.0020523036 29:-0.021215456 30:-0.021522397 31:0.015430062 32:0.01041041 33:0.014929771 34:0.0024796773 35:0.00053446315 36:-0.004104157 37:0.0025490199 38:0.0072226855 39:-0.00074304262 40:0.010233602 41:0.0087910313 42:-0.016533507 43:0.0063827666 44:-0.015347545 45:-0.012230765 #
8.2595868347480561055817815940827 1:0.18115604 2:-0.051196329 3:-0.18708296 4:0.22447492 5:0.072386548 6:0.012553221 7:-0.019608634 8:0.11927526 9:0.013504918 10:0.013708768 11:-0.044592664 12:-0.078066275 13:-0.0337842 14:-0.044960551 15:-0.013679693 16:0.049199 17:-0.0035263821 18:-0.008419645 19:0.03803353 20:0.052948669 21:0.001585693 22:-0.01043394 23:0.013751484 24:-0.0049514882 25:0.017052077 26:0.019794775 27:-0.017517513 28:0.044288088 29:-0.017094111 30:0.0044115144 31:-0.01298912 32:0.026089372 33:0.01147608 34:0.029773621 35:-0.01454524 36:-0.00071963744 37:0.011932638 38:0.0050106253 39:0.012853158 40:-0.0032738652 41:-0.016550941 42:0.031846453 43:-0.012763716 44:-0.0050482396 45:-0.0066647017 #
-8.2595868347480561055817815940827 1:0.28065875 2:0.19991012 3:0.037090648 4:0.10331354 5:-0.079436749 6:0.04815384 7:-0.024432125 8:-0.11263398 9:-0.068295993 10:0.017385462 11:-0.0058593322 12:-0.012625302 13:-0.0057652802 14:0.0064314241 15:0.031626999 16:0.029853469 17:-0.0023266 18:-0.041177742 19:0.019875698 20:0.0087886732 21:0.007782178 22:-0.018025935 23:0.0066958214 24:-0.0086981487 25:0.0063205729 26:-0.0033106706 27:0.006027861 28:-0.018229803 29:-0.0095218429 30:-0.0058626179 31:-0.0012246688 32:0.022765415 33:0.0031018967 34:-0.016618196 35:0.01212267 36:0.0017706249 37:-0.002472172 38:-0.0040674992 39:-0.016616592 40:0.0002805246 41:0.012757902 42:0.010569965 43:-0.0090525104 44:0.0045426381 45:0.0039430452 #
-8.2595868347480561055817815940827 1:0.090491839 2:-0.24109729 3:0.0059417365 4:-0.14347546 5:-0.011821439 6:0.0089330394 7:-0.0047482224 8:-0.092913948 9:0.062044658 10:-0.12025846 11:0.010049912 12:-0.053241592 13:0.045578472 14:-0.011611941 15:0.022722168 16:0.041123439 17:-0.0053853653 18:0.012868829 19:0.0074406494 20:-0.014927878 21:-0.027462801 22:0.00873907 23:-0.020087257 24:-0.0024329133 25:-0.014660489 26:0.01899365 27:0.014020863 28:-0.019996453 29:-0.0090353172 30:0.0015057445 31:-0.027341064 32:-0.0071554426 33:-0.007400909 34:0.0058800755 35:-0.013306489 36:-0.0049981084 37:0.0067712427 38:0.0081865601 39:0.0020685063 40:-0.0058301999 41:-0.0048443126 42:0.014655277 43:-0.0062887874 44:0.011367661 45:0.011384996 #
-8.2595868347480561055817815940827 1:-0.096963376 2:-0.11570223 3:0.19135694 4:-0.014808617 5:-0.048452251 6:0.044430502 7:-0.18199734 8:0.11255558 9:-0.033222605 10:0.077394329 11:0.065113179 12:-0.030313993 13:0.027632654 14:0.0425504 15:-0.00011304329 16:-0.037843328 17:-0.011969148 18:-0.021730814 19:0.028070858 20:0.010092625 21:0.0016573643 22:0.01852696 23:-0.012670086 24:0.0070809941 25:0.015794933 26:0.028821174 27:0.016810419 28:-0.020519046 29:-0.019335764 30:-0.0087581333 31:-0.0013482062 32:-0.00081830577 33:-0.0094131911 34:0.012802545 35:-0.016327789 36:0.0072352057 37:0.013985388 38:-0.015277113 39:-0.0034231716 40:0.0025938023 41:-0.0054030204 42:0.003692921 43:0.0051887189 44:0.0012190994 45:8.368562e-05 #
-8.2595868347480561055817815940827 1:-0.015728243 2:-0.18214855 3:0.12462954 4:-0.049909193 5:-0.056162573 6:0.032914665 7:-0.09166804 8:0.0089864414 9:0.043686517 10:0.0027621265 11:0.035902482 12:-0.052847553 13:0.018477701 14:-0.016507016 15:0.040988438 16:-0.013656576 17:0.015286758 18:-0.010307658 19:-0.004333335 20:-0.0074043111 21:-0.0035861079 22:0.0044979183 23:-0.0066267932 24:0.0072617675 25:0.0049746763 26:0.0037795075 27:0.015632708 28:-0.020608904 29:-0.016255999 30:0.0027147243 31:-0.010862276 32:0.00948657 33:-0.013447561 34:0.022568624 35:-0.021788059 36:-0.0039067809 37:-0.00097710628 38:-0.016141487 39:-0.0062336931 40:-0.0053244988 41:0.0036967678 42:0.00094356691 43:0.0041015036 44:0.011390707 45:0.00030893093 #
8.2595868347480561055817815940827 1:-0.30698225 2:0.056829266 3:0.039707169 4:0.028557673 5:-0.020324385 6:0.042076189 7:0.056696683 8:0.0089389887 9:0.021712324 10:0.033180661 11:0.014396057 12:0.0016307101 13:0.0060193441 14:0.036743879 15:-0.031354927 16:0.066920348 17:0.015981397 18:0.015062335 19:-0.036533698 20:-0.006146607 21:0.015038895 22:0.020983169 23:-0.015409376 24:-0.0087247845 25:-0.0038242808 26:-0.024087753 27:0.0017127588 28:0.0046349559 29:-0.02002418 30:0.00064031477 31:-0.012997107 32:0.0026722094 33:0.029946437 34:0.00075542676 35:-0.002475183 36:0.025535254 37:0.0064044395 38:-0.005652423 39:-0.0054447777 40:0.016928455 41:0.0077282996 42:0.00034081499 43:0.015846763 44:-0.011391404 45:0.010677448 #
-8.2595868347480561055817815940827 1:0.15679732 2:-0.24506834 3:-0.019797094 4:-0.24059723 5:0.063884564 6:0.069081776 7:0.063838333 8:-0.071235463 9:0.061944682 10:-0.091694608 11:0.0041835699 12:-0.011039015 13:0.020926718 14:-0.0059903297 15:-0.0073922286 16:0.054807078 17:-0.019293359 18:0.0069902339 19:-0.024769703 20:-0.01211364 21:-0.026458915 22:0.01436565 23:-0.019422852 24:-0.0048801135 25:-0.0083510065 26:0.017465197 27:0.020989846 28:-0.027625034 29:-0.0097373659 30:0.0071208696 31:-0.0069781346 32:0.0053680711 33:-0.00063972588 34:0.0034533618 35:-0.010241373 36:0.0079406053 37:0.0025554725 38:0.00078812812 39:-0.0050904872 40:-0.014448559 41:0.010959486 42:-0.0011216585 43:-0.0071618631 44:0.0077460702 45:-0.011402885 #
-8.2595868347480561055817815940827 1:0.30694056 2:0.2051183 3:0.036631927 4:0.11049305 5:-0.065836966 6:0.10192893 7:-0.040906221 8:-0.13726714 9:-0.067455098 10:0.015827587 11:-0.042173766 12:-0.011568256 13:0.01486325 14:0.027673125 15:0.038203258 16:0.0014898545 17:0.0026022815 18:-0.017453808 19:0.0085175904 20:0.049251225 21:-0.023257554 22:-0.024984363 23:0.012231777 24:-0.040981341 25:0.016082358 26:-0.014070936 27:-0.015589387 28:-0.034675512 29:-0.010309246 30:0.0047153905 31:-0.019593377 32:0.033638705 33:-0.002807175 34:-0.030463988 35:0.020677883 36:0.00035917872 37:0.0069208001 38:-0.0039073094 39:-0.0075122775 40:-0.0094538694 41:-0.0085304063 42:-0.022941791 43:0.00081380288 44:0.015034423 45:0.017491115 #
-8.2595868347480561055817815940827 1:0.077834725 2:-0.20766433 3:-0.02956802 4:-0.045074198 5:-0.022546988 6:-0.03431328 7:-0.049267467 8:-0.028445113 9:-0.0079550724 10:0.0230578 11:-0.0097321803 12:0.018333452 13:-0.026175151 14:-0.0098321214 15:0.0073938901 16:-0.01899649 17:0.0023103082 18:0.00015439268 19:0.0019441246 20:-0.0038507285 21:-0.0015122485 22:0.016948439 23:-0.0024509169 24:0.009840074 25:0.0029221524 26:0.0085706199 27:-0.017885631 28:-0.016719526 29:0.0083449176 30:0.014837311 31:0.0037844616 32:-0.0090609612 33:0.0079491828 34:-0.0018762604 35:0.0037938405 36:-0.0011732901 37:0.0053915614 38:0.0054369913 39:-0.0035488501 40:0.015917769 41:-0.0080677466 42:-0.001841406 43:0.0039781248 44:-0.0052154604 45:0.0044633825 #
8.2595868347480561055817815940827 1:0.11644166 2:-0.18590011 3:-0.090109386 4:-0.0048520598 5:0.078836665 6:-0.043735452 7:0.057717007 8:0.017422706 9:-0.10633185 10:0.03038829 11:0.021194179 12:-0.024125772 13:-0.013232072 14:0.027435154 15:0.022780387 16:-0.0033934994 17:0.010725321 18:-0.0020112966 19:-0.0054263822 20:-0.015365216 21:-0.026069136 22:-0.0068201046 23:-0.018849216 24:0.0050529744 25:-0.0074221287 26:0.001609917 27:0.024416935 28:0.0062652463 29:0.015134464 30:-0.017372634 31:-0.0020514345 32:0.0092383474 33:-0.0028228229 34:-0.0029354393 35:-0.0009498765 36:0.015031668 37:-0.021405131 38:0.017995162 39:-0.020490749 40:0.008349644 41:-0.019742608 42:-0.018992446 43:0.027989024 44:0.013257424 45:0.022551641 #
8.2595868347480561055817815940827 1:0.13317287 2:-0.1604564 3:-0.092994377 4:0.001098876 5:0.091011122 6:-0.0065446678 7:0.026108336 8:0.056158714 9:-0.042547107 10:0.020606998 11:0.004925481 12:-0.058048714 13:-0.022203045 14:-0.011245627 15:0.0046874355 16:0.02151742 17:-0.0066776788 18:-0.014066729 19:-0.0010536207 20:0.0065011182 21:-0.0057464014 22:-0.010892682 23:-0.0060758339 24:-0.012699354 25:0.0040708524 26:0.017173829 27:0.013098266 28:0.032154098 29:0.020950103 30:-0.0064304811 31:-0.0073336656 32:0.026456999 33:0.0032854828 34:0.011018703 35:-0.0078929616 36:0.024083611 37:-0.020636927 38:0.021827791 39:-0.0079399059 40:-0.0047506969 41:-0.02793646 42:0.0039568851 43:0.0030535669 44:0.0077192211 45:0.0065632006 #
-8.2595868347480561055817815940827 1:-0.28324845 2:0.082511179 3:0.0032657755 4:-0.010072826 5:-0.054653466 6:-0.015417169 7:-0.082933016 8:0.037678462 9:-0.041519657 10:-0.059501134 11:-0.0035108177 12:-0.034841076 13:0.011968941 14:0.023082979 15:-0.0020169911 16:0.036394496 17:0.00074471004 18:0.033138689 19:-0.0043863519 20:-0.027277552 21:-0.011528539 22:0.0010100419 23:0.019600738 24:0.0013892689 25:0.022577591 26:-0.040847663 27:0.0045317463 28:0.014323466 29:-0.0018671943 30:0.0035685028 31:-0.0088666417 32:-0.016275747 33:0.018373189 34:-0.0025384973 35:0.011852 36:0.0098021645 37:0.025081156 38:0.0018184275 39:0.0087932134 40:0.005708653 41:-0.015945205 42:-0.0018106085 43:0.0088457447 44:0.010200514 45:-0.019996451 #
8.2595868347480561055817815940827 1:-0.33172286 2:0.16600554 3:-0.083864868 4:0.0047987611 5:0.030128645 6:-0.030228399 7:0.027955458 8:-0.0369174 9:0.030158527 10:0.012040212 11:0.008507492 12:-0.038683869 13:-0.0086253863 14:0.010083983 15:0.011551681 16:-0.022305623 17:-0.023622625 18:0.010486991 19:-0.033915255 20:-0.010825485 21:0.023000844 22:0.015937695 23:0.014205046 24:-0.0094435224 25:0.024495034 26:0.029327502 27:0.0070680883 28:-0.012200319 29:0.01333144 30:0.014050801 31:-2.8573491e-05 32:-0.0014566757 33:0.0094605302 34:-0.01820603 35:-0.01256283 36:-0.029017722 37:-0.026000453 38:0.0096344166 39:-0.0015361749 40:0.023422075 41:-0.005854487 42:-0.015572689 43:-0.03131488 44:0.021712724 45:0.0020508666 #
-8.2595868347480561055817815940827 1:-0.27336526 2:0.16171637 3:-0.056777585 4:0.01448069 5:0.13935819 6:-0.073768757 7:0.034011595 8:-0.12349901 9:0.09761411 10:0.065595746 11:0.03004821 12:-0.046710834 13:-0.025599137 14:0.048553191 15:-0.01242355 16:-0.0025553966 17:0.046004742 18:-0.050772812 19:-0.0012074811 20:0.018035654 21:0.0053135492 22:-0.0047036158 23:-0.022832353 24:-0.016331743 25:-0.046520256 26:0.021102566 27:-0.011273419 28:-0.0074743186 29:0.004157946 30:-0.0091679301 31:0.021451138 32:0.0071194014 33:-0.058798283 34:0.019937752 35:0.0097392099 36:-0.00402488 37:-0.0040371614 38:-0.00034283509 39:-0.00055134133 40:0.016147366 41:-0.006671187 42:-0.012701413 43:-0.031252321 44:0.016991204 45:-0.0002145794 #
8.2595868347480561055817815940827 1:0.1674847 2:-0.13270086 3:-0.19892812 4:0.0016262608 5:0.087880827 6:-0.064520977 7:-0.049989484 8:0.063008726 9:-0.10518598 10:0.029573882 11:0.012291573 12:-0.03768184 13:-0.025950748 14:-0.0058474774 15:0.023238165 16:0.026798902 17:0.044240221 18:0.047621589 19:0.0089846123 20:0.019469814 21:-0.013176952 22:0.025305633 23:-0.031758346 24:0.0070115519 25:0.015956338 26:0.026378563 27:0.0091588339 28:0.019808402 29:0.012586263 30:-0.017023481 31:0.03982646 32:-0.0011167186 33:0.015449098 34:-0.0084874248 35:0.019675737 36:0.0021397178 37:-0.006489425 38:-0.0094808042 39:-0.039796297 40:0.0062108161 41:-0.0030072669 42:-0.0043116747 43:0.0081867073 44:0.012455848 45:0.0086773643 #
6.1791466862275372662338668305892 1:0.03583324 2:-0.11561223 3:0.015881497 4:-0.11907022 5:0.068781778 6:0.009239777 7:-0.021156855 8:-0.018168857 9:-0.0067640021 10:-0.0013296971 11:0.019503141 12:0.024463005 13:0.0282692 14:-0.0064454079 15:0.0028411867 16:-0.0037741724 17:-0.022461077 18:-0.019096723 19:-0.00067835394 20:-0.0034423557 21:-0.029493097 22:0.0070022917 23:-0.0045458642 24:-0.0024355273 25:-0.020781958 26:-0.0043521831 27:-0.013068385 28:0.0085351402 29:0.0032521002 30:-0.026069719 31:-0.018118242 32:-0.001749567 33:0.0054448857 34:-0.0044964831 35:0.00054414128 36:-0.016154092 37:-0.0012903629 38:0.0094454857 39:0.0013131865 40:-0.013869623 41:-8.7132357e-05 42:0.0020631379 43:-0.0039981795 44:0.0044589266 45:0.00045871522 #
-8.2595868347480561055817815940827 1:0.075744361 2:-0.20155792 3:-0.0038470468 4:-0.052261565 5:-0.0021552732 6:-0.0031253304 7:0.002585711 8:-0.015002394 9:-0.011376834 10:0.046668861 11:-0.014290096 12:0.041420646 13:-0.032721445 14:-0.010553773 15:0.0036932358 16:0.0036578013 17:-0.0019458679 18:-0.010797761 19:-0.013956109 20:-0.00792797 21:-0.018787988 22:-0.0091054486 23:-0.0066063046 24:0.011174465 25:0.013127338 26:0.0036445083 27:-0.0015666087 28:-0.01724308 29:0.01248064 30:0.015150978 31:0.0055673714 32:0.0015824737 33:-2.3971817e-05 34:-0.0025159675 35:-0.0083432803 36:0.0038024401 37:0.013291932 38:0.0048574079 39:-0.014875428 40:0.0028995466 41:0.0081539676 42:-0.0025995744 43:0.00050124381 44:0.0011903227 45:0.0094872955 #
-8.2595868347480561055817815940827 1:0.13956255 2:0.15540519 3:-0.011188757 4:0.13988212 5:-0.13732539 6:-0.17672735 7:-0.11087228 8:0.021348888 9:0.0062036244 10:-0.091422416 11:0.16493426 12:0.061711356 13:-0.090969063 14:0.014433487 15:0.018317327 16:0.010117432 17:-0.014013307 18:0.028649069 19:-0.0075789187 20:-0.013143345 21:-0.0096975556 22:0.0484352 23:0.024445405 24:0.050667312 25:-0.018526252 26:0.029590473 27:0.00016177093 28:0.023033969 29:0.018670177 30:0.00040192725 31:-0.011147453 32:-0.018568316 33:-0.0087847291 34:0.0092830118 35:-0.0056796651 36:-0.0022454665 37:-0.0052118357 38:0.0010156833 39:0.0011306022 40:0.0015165904 41:0.017304953 42:-0.012687418 43:-0.0018752364 44:-0.0090837721 45:-0.0014644045 #
8.2595868347480561055817815940827 1:-0.0035624872 2:-0.14479746 3:0.088779494 4:-0.064726718 5:0.018594244 6:0.030443117 7:-0.021154774 8:-0.013109078 9:0.030972624 10:0.0043046041 11:0.01334495 12:-0.0051170639 13:0.009316165 14:-0.014435397 15:0.0184472 16:-0.0041693845 17:-0.0010790477 18:-0.022141768 19:0.012999407 20:7.0439623e-06 21:-0.039401162 22:-0.0050447853 23:-0.014992869 24:0.021079512 25:0.00031796173 26:-0.0040197787 27:-0.0030529478 28:-0.0057053873 29:-0.023951709 30:-0.019338893 31:0.0077506606 32:0.0083296634 33:0.0093249995 34:0.0046820245 35:-0.0026431242 36:-0.0047069392 37:0.0075089429 38:0.012229044 39:0.0049351975 40:0.0095829861 41:0.010597587 42:-0.0062114513 43:0.00051041594 44:-0.010345054 45:0.003769709 #
8.2595868347480561055817815940827 1:-0.08692313 2:-0.11949647 3:0.11501873 4:0.047284648 5:0.015325777 6:0.024428641 7:0.011632841 8:0.0045556636 9:0.0073148701 10:0.021782644 11:0.0068332125 12:-0.00038341008 13:0.0053798174 14:-0.024891432 15:0.030111095 16:-0.012325158 17:0.031924665 18:-0.010430666 19:0.006377107 20:7.6779477e-05 21:0.00068582169 22:-0.014747913 23:0.0056956634 24:0.0074739158 25:-0.0089300824 26:-0.023420706 27:0.0067730621 28:0.020684479 29:-0.0075077661 30:-0.012544459 31:-0.015093536 32:0.005759526 33:-0.0071578762 34:-0.0053911814 35:-0.0018958537 36:0.0044609946 37:-0.0093523329 38:0.00068080961 39:-0.002653633 40:0.015657753 41:0.02008074 42:-0.00087757618 43:0.01121821 44:0.0034168663 45:0.0025251827 #
-8.2595868347480561055817815940827 1:0.26528507 2:0.14006156 3:-0.091270596 4:0.030157654 5:0.033911396 6:0.1051534 7:-0.20572789 8:0.040225409 9:0.1120484 10:-0.081069857 11:-0.038514744 12:0.070067935 13:0.013477115 14:0.061042067 15:0.0053714081 16:-0.069385581 17:0.011636849 18:0.04392834 19:0.011572958 20:-0.065539353 21:0.010458847 22:0.042246561 23:-0.0050846627 24:0.025792398 25:-0.033546075 26:-0.020026548 27:0.026324319 28:-0.016542561 29:0.029581737 30:-0.038687304 31:0.013299445 32:-0.012242782 33:0.007871273 34:-0.0040120254 35:0.011581209 36:0.029412 37:-0.029841399 38:-0.029915528 39:-0.022481112 40:0.014939464 41:0.0061939727 42:0.02528768 43:-0.00091364968 44:0.016765432 45:-0.013330585 #
-8.2595868347480561055817815940827 1:-0.20482567 2:-0.051965956 3:-0.12492503 4:-0.011889497 5:-0.097044565 6:0.071139999 7:0.0026863089 8:0.032725394 9:0.0075394195 10:0.096472539 11:-0.024720287 12:0.07639157 13:0.032826744 14:-0.070296444 15:0.011876382 16:0.045352999 17:-0.019473018 18:0.02186865 19:-0.012980231 20:-0.034604765 21:0.0020936918 22:-0.020045541 23:0.0090552745 24:-0.016204067 25:-0.004873076 26:0.017711511 27:0.0014176867 28:-0.0022963597 29:0.020082504 30:0.036444001 31:-0.011871643 32:-0.019391393 33:-0.023944791 34:0.010010467 35:0.0049458076 36:0.0482492 37:0.0013660387 38:-0.034443699 39:0.027341982 40:0.022797322 41:-0.024579197 42:0.0015239012 43:0.0068776119 44:0.0044010142 45:-0.0021493507 #
8.2595868347480561055817815940827 1:0.24009261 2:0.21106921 3:0.043237455 4:0.11229213 5:-0.13547873 6:-0.055481896 7:-0.094633095 8:-0.11460779 9:-0.08928778 10:-0.00288571 11:0.0080593629 12:-0.0060541318 13:0.0091456613 14:0.011238214 15:0.030044708 16:-0.0050904588 17:0.0058350102 18:0.021164782 19:0.012464779 20:0.042132679 21:-0.0096903415 22:0.01169286 23:0.0032313874 24:-0.0021941226 25:0.010040266 26:0.0026644862 27:-0.026602719 28:-0.0050509055 29:0.0070779617 30:0.012638062 31:-0.013399723 32:0.0075957295 33:-0.0089994939 34:-0.0036713243 35:0.0027966192 36:-0.0024519134 37:-0.0016231845 38:0.01472926 39:-0.0026155396 40:-0.0025708552 41:-0.010178263 42:-0.019519573 43:-0.0047812047 44:0.00064215122 45:0.011215574 #
8.2595868347480561055817815940827 1:0.22622217 2:0.18573478 3:0.014439492 4:0.16890676 5:-0.1101643 6:-0.038890049 7:-0.073057152 8:-0.052651931 9:-0.010455547 10:-0.032211475 11:0.013412689 12:0.035237543 13:0.0056308177 14:0.04090935 15:0.035826609 16:-0.022892602 17:0.021375192 18:0.015467686 19:-0.0061681587 20:0.016559552 21:-0.027377311 22:-0.0040338519 23:0.0028282588 24:-0.00089263864 25:0.0048027663 26:0.0059460113 27:0.008191037 28:0.0066409661 29:0.017540891 30:0.0065919869 31:0.011536394 32:-0.0051045003 33:-0.00084523042 34:0.0046622842 35:0.0035275193 36:-0.012834285 37:0.013385215 38:-9.7163938e-06 39:-0.0076447921 40:0.0024789008 41:0.0013997741 42:-0.0014155735 43:-0.0080271643 44:0.0027110183 45:0.0079859886 #
8.2595868347480561055817815940827 1:0.25882182 2:0.22102186 3:0.052799542 4:0.059859864 5:-0.12370692 6:-0.034032587 7:-0.079338253 8:-0.12344524 9:-0.10012607 10:0.015702948 11:0.0016639362 12:-0.01666492 13:0.019901089 14:-0.0050522438 15:0.015402196 16:0.0055790455 17:-0.0029431921 18:0.023529325 19:-0.003824749 20:0.041086063 21:-0.0052936887 22:0.021134235 23:0.0039050123 24:-0.0084438007 25:0.008247206 26:0.0030378092 27:-0.037872534 28:-0.011103793 29:0.0013436313 30:0.0071572466 31:-0.022160899 32:0.0089977123 33:-0.0063348166 34:-0.0054489565 35:-0.00048462232 36:0.0072279535 37:-0.0080287997 38:0.014057238 39:-4.0882896e-05 40:-0.013134074 41:-0.0058676074 42:-0.027462341 43:-0.0088066114 44:0.004585267 45:0.0071852487 #
8.2595868347480561055817815940827 1:0.24860877 2:0.17747389 3:0.045430455 4:0.18562372 5:-0.095515765 6:-0.025845315 7:0.054433759 8:-0.024723547 9:-0.0089584319 10:-0.030706782 11:0.028574551 12:-0.016114162 13:-0.045254361 14:0.0062719667 15:-0.031375144 16:-0.02129107 17:0.0035461299 18:0.021708725 19:-0.0017490193 20:0.023294464 21:0.019914202 22:-0.042743042 23:-0.020276273 24:0.047663342 25:0.00030954258 26:0.0047344794 27:-0.017846949 28:-0.00111899 29:-0.052293882 30:-0.0055519626 31:-0.0049739145 32:-0.04941497 33:-0.0064728707 34:-0.0011146527 35:-0.020796627 36:0.00027977399 37:-0.00079472421 38:0.0042074248 39:-0.0033189447 40:-0.010964624 41:-0.007547088 42:0.017133402 43:0.0048355013 44:0.00094577024 45:-0.022050688 #
-8.2595868347480561055817815940827 1:0.34184524 2:0.18740568 3:0.024026325 4:0.080891825 5:-0.0010026017 6:0.17244855 7:-0.0016605556 8:-0.072809577 9:0.025940171 10:-0.010466587 11:-0.057358705 12:0.052445743 13:0.020521663 14:0.088977613 15:0.053006172 16:-0.067019768 17:0.036879815 18:0.064496465 19:-0.045170397 20:0.013166932 21:-0.062085047 22:-0.02289637 23:-0.055043653 24:-0.024324622 25:0.02261667 26:0.020002265 27:-0.018130351 28:0.053658023 29:0.014714496 30:0.010032197 31:-0.0015233411 32:-0.0060765692 33:0.0061877882 34:0.030508149 35:-0.014772612 36:-0.018252492 37:0.017849868 38:0.0064010699 39:0.022538854 40:0.0045646792 41:0.00024661905 42:0.00083429116 43:-0.0056031686 44:-0.010319334 45:0.0022225787 #
-8.2595868347480561055817815940827 1:-0.24933833 2:0.087127358 3:0.077812672 4:0.075271636 5:0.15285668 6:-0.031785883 7:0.023868402 8:-0.020003412 9:-0.028787583 10:-0.020421611 11:-0.012688254 12:0.018201962 13:0.010881931 14:-0.0023637959 15:3.1775598e-05 16:0.0070987125 17:-0.020102723 18:-0.0046400847 19:-0.0037240672 20:-0.019150807 21:-0.018537927 22:-0.0087436792 23:0.0098044621 24:0.019733567 25:0.048172094 26:0.0021519135 27:-0.016206501 28:-0.017152406 29:0.012243343 30:-0.044820406 31:0.017402437 32:0.022729056 33:-0.058710348 34:0.010193924 35:-0.037991911 36:-0.01196589 37:0.0087857889 38:-0.027225912 39:-0.011254147 40:-0.0013359131 41:-0.021646257 42:-0.011270264 43:0.002356611 44:-0.027507722 45:-0.0071412111 #
-8.2595868347480561055817815940827 1:0.26918378 2:0.14312154 3:-0.037442703 4:0.24402592 5:-0.015957691 6:0.14369273 7:-0.019694319 8:0.0089508044 9:0.11675187 10:-0.05184048 11:-0.07639274 12:0.073190197 13:-4.1031934e-05 14:0.093138017 15:0.015515001 16:-0.092332587 17:0.015595566 18:0.076178454 19:-0.020315349 20:-0.060423911 21:-0.021922344 22:0.015686924 23:-0.035459649 24:0.016776493 25:-0.026877439 26:-0.000491746 27:0.022249626 28:0.024693824 29:0.023610799 30:-0.040079977 31:0.017200051 32:-0.021477794 33:0.021275287 34:0.0092911553 35:0.0019635046 36:0.0084683141 37:-0.004209294 38:-0.031215822 39:-0.025466405 40:0.00039674705 41:0.022444803 42:0.040777709 43:-0.013369008 44:0.018745987 45:-0.032947421 #
-8.2595868347480561055817815940827 1:0.14265865 2:-0.22031724 3:-0.14359239 4:0.062554367 5:0.065175414 6:-0.069402047 7:0.13023432 8:0.023527907 9:-0.12056931 10:0.036017321 11:-0.00083255628 12:-0.023627445 13:-0.02108093 14:0.048587784 15:0.033390194 16:0.00012709152 17:0.070020169 18:0.052560035 19:0.01503148 20:-0.00024849887 21:-0.0088667441 22:0.0089614736 23:-0.015755346 24:0.023101499 25:-0.007580068 26:-0.0016351015 27:0.035807077 28:-0.027429115 29:-0.017890187 30:-0.036148168 31:0.020958023 32:-0.011071546 33:0.0038678658 34:-0.030340936 35:0.02087706 36:0.0061448854 37:-0.01231515 38:-0.029702025 39:0.012637044 40:-0.0042682588 41:0.002537899 42:-0.0075176395 43:-0.0091835093 44:-0.018026805 45:0.0044849934 #
8.2595868347480561055817815940827 1:-0.28901082 2:0.067398705 3:0.071658418 4:0.061475717 5:0.05110836 6:0.061733115 7:0.16525686 8:-0.0069054435 9:0.038749922 10:0.035040006 11:-0.00043793724 12:-0.02658033 13:-0.015940946 14:0.040930681 15:-0.031310726 16:0.023221979 17:0.0087936195 18:0.028652661 19:0.011206376 20:-0.0028270388 21:0.016842978 22:0.039951671 23:-0.017281197 24:0.0066058547 25:8.9251676e-05 26:-0.024454523 27:-0.021313921 28:-0.0038431697 29:-6.0871619e-09 30:0.0020252967 31:-0.010019089 32:0.00046979071 33:0.016755352 34:0.0033783473 35:-0.0088674678 36:0.020925187 37:0.0088516809 38:0.00064143067 39:-0.014377709 40:-0.0066641308 41:0.0052535976 42:-0.0020768465 43:0.00071547541 44:-0.018755971 45:0.0061313058 #
-8.2595868347480561055817815940827 1:-0.32319838 2:0.18926534 3:-0.1521865 4:0.001544574 5:-0.011101715 6:-0.082202576 7:-0.024392363 8:-0.07914187 9:0.069478415 10:0.05409921 11:0.025852576 12:-0.053981885 13:-0.033474602 14:0.035971306 15:-0.018886156 16:-0.0027566387 17:-0.020036211 18:-0.0096138436 19:-0.059770785 20:0.0091452738 21:0.0068620173 22:0.037818246 23:-0.023748815 24:-0.043676943 25:-0.053199716 26:-0.010490498 27:0.012535074 28:0.014542615 29:-0.0020640797 30:0.024411945 31:0.024231892 32:0.002681901 33:-0.03705851 34:-0.032311302 35:-0.026360517 36:-0.025769221 37:-0.015531772 38:-0.011837358 39:0.0062004789 40:0.0074417046 41:-0.028346017 42:0.013512754 43:0.0068067182 44:-0.005920032 45:0.015067856 #
-8.2595868347480561055817815940827 1:-0.27942887 2:0.081462011 3:0.032709308 4:0.012774514 5:-0.017412301 6:0.02542761 7:0.018415794 8:0.035548996 9:-0.023934199 10:-0.046092447 11:-0.0088015636 12:-0.039905142 13:0.0097114546 14:0.025563139 15:0.0051968121 16:0.049307864 17:0.0056898114 18:0.0090919537 19:-0.020327933 20:-0.034207862 21:-0.016627407 22:-0.0003418893 23:0.016092904 24:0.0064288434 25:0.027096173 26:-0.046777703 27:-0.0002072827 28:0.020908 29:0.0089193964 30:0.0039254474 31:-0.012828999 32:-0.01334454 33:0.010172781 34:-0.014899393 35:0.0076976493 36:0.0027478393 37:0.011176258 38:0.011724634 39:0.007389606 40:0.021822501 41:-0.006004347 42:-0.0074003963 43:0.0018070159 44:0.0083007123 45:-0.0205965 #
-8.2595868347480561055817815940827 1:0.16091812 2:-0.2475629 3:-0.050165236 4:-0.20422484 5:0.058755044 6:-0.0058380459 7:0.11013948 8:-0.089680195 9:-0.041901261 10:-0.07295382 11:4.1564836e-05 12:0.099587649 13:0.024211051 14:0.13929494 15:-0.10366328 16:-0.038510252 17:-0.054155134 18:-0.071906887 19:-0.018563021 20:0.016291298 21:0.071433388 22:-0.0061000446 23:0.090538673 24:-0.039306689 25:0.02045187 26:0.0026879271 27:-0.044383399 28:0.084883049 29:-0.017812688 30:0.011047645 31:0.019402953 32:0.005358153 33:0.0043010907 34:0.009579422 35:0.0099045644 36:-0.0050200443 37:-0.0091492496 38:-0.034900162 39:-0.065998167 40:0.004599236 41:0.018918226 42:-0.019917563 43:0.020549297 44:0.02195443 45:-0.0071555171 #
-8.2595868347480561055817815940827 1:0.10692549 2:-0.23187082 3:0.012444115 4:-0.13473701 5:0.006795574 6:0.01893355 7:0.031970918 8:-0.042394307 9:0.045863774 10:-0.040414538 11:0.0096706115 12:-0.042722575 13:-0.0057500526 14:-0.021302961 15:0.038140781 16:0.01867659 17:0.02316419 18:0.0083093941 19:-0.034498405 20:-0.022391478 21:0.0016381528 22:-0.013620229 23:0.034316603 24:-0.0025015322 25:-0.0048840921 26:-0.012936546 27:-0.024047118 28:0.01107522 29:-0.021093216 30:0.020989977 31:0.012454669 32:-0.0011405107 33:0.0071287425 34:0.013093671 35:0.0093442583 36:-0.0014253266 37:-0.007087972 38:-0.021577319 39:-0.010063053 40:-0.0071847648 41:0.0021672859 42:-0.0059853769 43:-0.0049222079 44:-0.0059697581 45:-0.0037667453 #
-8.2595868347480561055817815940827 1:0.10345746 2:-0.24100018 3:0.13569963 4:-0.1350984 5:0.015976654 6:0.11947248 7:0.074528679 8:-0.0053802719 9:0.096631147 10:-0.0089671668 11:0.030409412 12:-0.1152826 13:-0.0057242201 14:-0.043967433 15:0.08936768 16:-0.03989844 17:0.0184021 18:0.017039638 19:-0.039826959 20:-0.039042421 21:0.01997395 22:-0.013468429 23:0.069682859 24:7.4338299e-05 25:-0.0080823451 26:-0.0097878408 27:-0.05689276 28:0.028831709 29:-0.007053148 30:0.010782403 31:0.030977119 32:-0.010497093 33:0.0078938361 34:-0.02223419 35:0.033888169 36:-0.0045612627 37:-0.022971556 38:-0.00045550993 39:0.010904972 40:-0.01324353 41:-0.026938692 42:-0.0021407264 43:-0.0089322291 44:-0.013914894 45:0.0028659215 #
8.2595868347480561055817815940827 1:-0.2946431 2:0.1386282 3:-0.066449359 4:-0.026645387 5:0.012499092 6:-0.039527088 7:-0.036697377 8:-0.033251502 9:0.024788035 10:-0.0039641229 11:0.013122781 12:-0.044400267 13:-0.0011382767 14:0.03645118 15:-0.004459118 16:0.020203426 17:0.00034691743 18:0.021780722 19:0.009493445 20:-0.0095169572 21:-0.010980185 22:-0.018978281 23:0.0086054038 24:0.0029423675 25:0.018122889 26:-0.012631605 27:0.017723121 28:0.0032937333 29:0.0080930293 30:0.028669592 31:0.011023513 32:0.0094399499 33:-0.025970072 34:-0.023204023 35:-0.020171106 36:-0.0087794829 37:-0.0029361236 38:0.014440313 39:-0.0075640837 40:0.016256118 41:0.0053481492 42:-0.0070823524 43:-0.0221675 44:0.018514836 45:0.0054958919 #
8.2595868347480561055817815940827 1:-0.28420177 2:0.1297446 3:-0.067503169 4:0.01818384 5:0.020859828 6:-0.061228119 7:-0.019115871 8:-0.05203294 9:0.032864776 10:0.015160096 11:0.0045421864 12:-0.041491132 13:-0.021560997 14:0.034251645 15:-0.0031328753 16:0.0041390811 17:-0.009328628 18:-0.0057862415 19:-0.029339762 20:-0.0078792274 21:0.00046931257 22:0.033411443 23:-0.00033828735 24:-0.0050859782 25:0.012411148 26:-0.017152326 27:0.0046601328 28:0.0060999142 29:0.010736834 30:0.030330837 31:0.0096617769 32:-0.0015489364 33:-0.0028313329 34:-0.030296452 35:-0.02465276 36:-0.013197306 37:-0.0040424936 38:0.00046957855 39:-0.0033529527 40:-6.3831729e-05 41:-0.017872538 42:-0.0038425005 43:-0.023834279 44:2.9363731e-05 45:-0.00090196071 #
-8.2595868347480561055817815940827 1:-0.30038133 2:0.16138376 3:-0.077766232 4:0.065519057 5:0.087260976 6:-0.098013125 7:0.011462341 8:-0.11279977 9:0.079909615 10:0.053073991 11:0.016624937 12:-0.046288915 13:-0.030811155 14:0.037766259 15:-0.015146177 16:0.00095580658 17:0.015069413 18:-0.037544109 19:-0.043155845 20:0.0077022733 21:0.0092885289 22:0.045672495 23:-0.030876476 24:-0.028408216 25:-0.040653374 26:-0.0058400123 27:-0.0091398032 28:0.00099888397 29:0.0037168751 30:0.011397321 31:0.0097482884 32:-0.0047631795 33:-0.027184656 34:-0.0060839206 35:-0.0039691399 36:-0.0048650615 37:-0.010299734 38:-0.0044476767 39:0.0075641549 40:-0.028440019 41:-0.0018858863 42:0.018363554 43:0.016030993 44:-0.014983536 45:0.020178089 #
-8.2595868347480561055817815940827 1:-0.27852535 2:0.16766727 3:-0.10703485 4:-0.00011076776 5:0.059352405 6:-0.10948149 7:-0.056665119 8:-0.10913425 9:0.081981331 10:0.057116408 11:0.031188019 12:-0.063668139 13:-0.037398778 14:0.053349532 15:-0.022801351 16:-0.013255463 17:0.01984537 18:-0.0091918167 19:-0.0094789732 20:0.017672628 21:0.010577157 22:0.034061614 23:-0.025251789 24:-0.026408592 25:-0.05469498 26:-0.010586068 27:-0.0018016404 28:0.0084446529 29:0.010234865 30:0.025966665 31:0.026557885 32:0.0025508003 33:-0.045923412 34:-0.022322509 35:-0.023053046 36:-0.025462158 37:-0.0093996013 38:-0.0021650775 39:-0.0022135752 40:-0.0026487603 41:-0.02804522 42:0.0022242535 43:-0.010623331 44:-0.0061452109 45:0.0024267633 #
8.2595868347480561055817815940827 1:0.1287882 2:-0.19316696 3:-0.07738027 4:-0.0057437392 5:0.083123952 6:-0.032082114 7:0.097112209 8:0.014434945 9:-0.10368591 10:0.029411612 11:0.011614827 12:-0.022267558 13:-0.02809999 14:0.033646408 15:0.01262184 16:-0.017048601 17:-0.0056866594 18:0.013958236 19:-0.0081589539 20:-0.017560927 21:-0.023413891 22:-0.010285337 23:-0.0114841 24:0.002652053 25:-0.014139755 26:-0.0034522945 27:0.030519219 28:0.0067231688 29:0.016332446 30:-0.010026316 31:0.0051364857 32:0.010812105 33:-0.00024369662 34:-0.0019990208 35:-0.0007208868 36:0.011775912 37:-0.0096123824 38:0.029062051 39:-0.021293571 40:0.0019236354 41:-0.022094645 42:-0.024485782 43:0.027003223 44:0.0062042978 45:0.017097939 #
8.2595868347480561055817815940827 1:0.18453689 2:-0.15398715 3:-0.16692582 4:-0.051565774 5:0.10199402 6:-0.030283887 7:0.0035676099 8:0.044602357 9:-0.084836408 10:0.019706605 11:0.013883291 12:-0.025155332 13:-0.025469007 14:0.0075266426 15:0.012514316 16:0.023650587 17:0.029005766 18:0.034383394 19:-0.0071598827 20:0.0073504518 21:-0.0063452101 22:0.019057142 23:-0.014056278 24:0.0057479478 25:0.00081070262 26:0.010795973 27:0.013157234 28:0.00054634188 29:0.001495906 30:-0.016433451 31:0.024736036 32:0.011260427 33:0.017283773 34:0.0029951609 35:0.0059561287 36:0.013522245 37:-0.0042419503 38:-0.0059381966 39:-0.0080079129 40:0.0015476773 41:-0.0076273894 42:0.0058037192 43:-0.0015255811 44:0.00022290698 45:0.0012086153 #
-8.2595868347480561055817815940827 1:0.22880511 2:-0.16819322 3:-0.14479049 4:-0.05720241 5:0.14803152 6:0.0069842809 7:0.12719788 8:0.074769743 9:-0.084973335 10:0.04821495 11:0.0023748889 12:-0.03125165 13:-0.042573676 14:0.0042699627 15:0.0049042515 16:0.042507771 17:0.041130036 18:0.022599259 19:0.024375457 20:0.038961817 21:6.539499e-05 22:0.012819129 23:0.0013636447 24:-0.0088014584 25:0.026313921 26:0.018402789 27:-0.013413373 28:0.034996033 29:-0.020542372 30:0.0031994511 31:0.01948634 32:-0.0044964165 33:0.0031290248 34:0.010389087 35:-0.00056524709 36:-0.028123189 37:0.0062320926 38:-0.013977333 39:-0.015305275 40:0.0025580467 41:0.020247666 42:0.0061714589 43:0.0066534285 44:0.022621803 45:-0.0042537884 #
8.2595868347480561055817815940827 1:-0.28779054 2:0.13756311 3:-0.086528711 4:-0.00028450659 5:0.022310017 6:-0.034818523 7:0.037153836 8:-0.058549356 9:0.055577226 10:0.028846966 11:-4.8334714e-06 12:-0.0443152 13:-0.034617323 14:0.03388631 15:-0.0048075514 16:-0.014055949 17:0.0091302404 18:-0.020746995 19:-0.014137366 20:0.013911893 21:0.0013492653 22:0.042773794 23:-0.02491942 24:-0.010601141 25:-0.022690967 26:-0.019744592 27:0.0037759624 28:0.0096759479 29:0.0017309361 30:0.036123212 31:0.010171412 32:0.0029158834 33:-0.013843653 34:-0.028930904 35:-0.02528182 36:-0.0098223258 37:-0.012118809 38:0.0047596865 39:-0.00059593492 40:-0.0017483553 41:0.0014605671 42:-0.0032652677 43:-0.0069660149 44:-0.0037412997 45:0.0041055758 #
-8.2595868347480561055817815940827 1:-0.29569459 2:0.095299214 3:0.070908017 4:0.14341383 5:0.13372508 6:-0.015735779 7:0.10414572 8:-0.020828551 9:-0.01357088 10:0.0044247545 11:-0.014087047 12:0.02378064 13:0.013219257 14:-0.016273361 15:-0.014903103 16:0.01909323 17:-0.057852495 18:0.027341207 19:-0.041438319 20:-0.037363444 21:-0.00368175 22:0.014735119 23:0.0075591886 24:0.0062021865 25:0.052559234 26:0.0077431318 27:-0.021650746 28:-0.023855316 29:0.0028289941 30:-0.063994892 31:0.013457458 32:0.025701666 33:-0.052926697 34:0.023865337 35:-0.033168729 36:-0.0098685632 37:0.0077141859 38:-0.028104162 39:-0.016938129 40:0.0052152751 41:-0.02516496 42:-0.024260808 43:-0.02293862 44:-0.02248588 45:-0.010538974 #
-8.2595868347480561055817815940827 1:0.21912014 2:-0.014742754 3:-0.17414992 4:0.040776141 5:0.11585285 6:0.026736423 7:-0.088537082 8:0.13811935 9:0.035997972 10:0.0045839185 11:-0.018381085 12:-0.034982752 13:-0.034112528 14:-0.052955911 15:-0.0041933414 16:0.070404276 17:0.0083813295 18:-0.025413236 19:0.018454188 20:0.01028124 21:0.0032347082 22:0.026571257 23:0.017715106 24:-0.0037080992 25:0.011000564 26:0.016916674 27:-0.0028367036 28:7.23255e-05 29:-5.4348595e-05 30:-0.0021495605 31:0.010826705 32:-0.0085275108 33:0.00026503528 34:-0.0047061788 35:0.0060193962 36:-0.0097299973 37:-0.0019341172 38:-0.0078578712 39:-0.01111369 40:-0.0074189832 41:0.011705928 42:-0.0035625345 43:-0.0081827873 44:-0.00078113703 45:-0.0062781172 #
8.2595868347480561055817815940827 1:0.034230351 2:-0.17056662 3:-0.049177535 4:0.051850617 5:0.039336506 6:-0.0056786076 7:0.14794442 8:-0.033223607 9:-0.022296179 10:0.03560945 11:-0.0034353642 12:0.018523308 13:0.025771707 14:0.032118753 15:-0.015914747 16:-0.043615833 17:-0.032753583 18:0.0081905732 19:0.049394649 20:-0.0064413403 21:-0.014119075 22:0.012331787 23:0.012497766 24:0.011750696 25:-0.017476339 26:-0.017740766 27:-0.022290766 28:0.028081361 29:0.010106483 30:-0.021353658 31:-0.04507912 32:-0.016965615 33:-0.0079832366 34:-0.00888984 35:-0.0002819213 36:-0.018506754 37:-0.0077102236 38:0.0058710761 39:-0.017178819 40:-0.016548337 41:-0.0013662316 42:0.012633111 43:0.0008297498 44:0.012615442 45:-0.0049514202 #
-8.2595868347480561055817815940827 1:-0.31416884 2:0.19861026 3:-0.1137917 4:-0.047552556 5:0.01944444 6:-0.015933912 7:0.032198373 8:-0.021321112 9:-0.0095279319 10:-0.049109142 11:-0.017327163 12:-0.029614773 13:-0.030290952 14:-0.012517799 15:0.033746887 16:-0.076651253 17:0.012917679 18:-0.067182869 19:0.0086974595 20:0.039371252 21:-0.0075203716 22:0.047182407 23:-0.032527387 24:0.0032643084 25:-0.019585622 26:-0.020724559 27:0.018426752 28:0.014775018 29:-0.0083352458 30:0.042951614 31:0.012040178 32:-0.00016097671 33:0.0082686832 34:-0.01545201 35:-0.0091847796 36:0.011487315 37:-0.00061067316 38:0.0017642616 39:0.00081102643 40:-0.032957405 41:0.021172084 42:0.015308689 43:0.031708989 44:-0.0085243648 45:0.012287211 #
-8.2595868347480561055817815940827 1:0.16979241 2:-0.18883593 3:-0.20414428 4:-0.13624793 5:0.11577162 6:-0.046978761 7:-0.026047358 8:0.037101917 9:-0.11209875 10:0.029843343 11:0.026335001 12:0.0095292535 13:-0.013963321 14:0.015350183 15:0.0013247544 16:0.026000369 17:0.022762656 18:0.031420585 19:0.0077722766 20:0.009185046 21:0.004759633 22:0.041118663 23:0.0094706686 24:-0.0029511442 25:0.0052571646 26:0.014315803 27:-0.018747089 28:0.0072923563 29:-0.020317664 30:-0.016974019 31:0.0068149683 32:-0.014625352 33:0.0042432616 34:-0.0074037705 35:0.000535856 36:-0.0092441896 37:0.0048864093 38:-0.0066232672 39:-0.015095535 40:-0.0051318407 41:0.0041528982 42:-0.00091951696 43:0.010732158 44:0.018979654 45:0.0072032236 #
8.2595868347480561055817815940827 1:-0.28842658 2:0.12979643 3:0.060677987 4:0.063110813 5:0.18738423 6:-0.036118463 7:0.06645412 8:-0.076895408 9:0.021016937 10:-0.019048866 11:-0.0074388096 12:0.010658113 13:-0.0073340763 14:-0.016559081 15:0.0085150208 16:-0.0070290142 17:0.035038907 18:0.0012014803 19:0.015876459 20:0.0083026672 21:0.033103239 22:-0.017992469 23:0.0070988499 24:0.0013242925 25:-0.013657853 26:0.031711344 27:-0.018088602 28:-0.017577834 29:0.024991011 30:-0.0106205 31:-0.012684409 32:-0.0036533405 33:0.018322684 34:0.0031386614 35:-0.0078107649 36:0.0016609788 37:0.0052153403 38:-0.0067863562 39:0.0012986725 40:0.011212194 41:-0.00052417 42:-0.00473186 43:0.0038545886 44:0.002792242 45:-0.0076006008 #
8.2595868347480561055817815940827 1:-0.28556025 2:0.085176028 3:0.01963431 4:0.0085494323 5:0.038513429 6:0.002751047 7:0.02493291 8:-0.027656065 9:0.03194933 10:0.030276822 11:0.021729829 12:-0.01150548 13:0.0045997272 14:0.044852257 15:-0.015994454 16:0.036957473 17:0.037569843 18:-0.022059875 19:-0.0029775945 20:0.0042514009 21:0.0099192681 22:0.015740205 23:-0.013428071 24:0.0048998077 25:0.003544854 26:-0.013602324 27:-0.0053219623 28:-0.0001217061 29:-0.0086900694 30:0.0013869896 31:-0.0076753488 32:-0.0023745848 33:0.0066199834 34:0.00098154333 35:-0.0051485593 36:0.025083492 37:0.011069207 38:-0.0060676243 39:-0.0033009094 40:0.0013014118 41:0.0041985679 42:0.0069386098 43:0.0068356046 44:-0.0081264405 45:0.0065761302 #
-8.2595868347480561055817815940827 1:-0.25918424 2:0.06765911 3:-0.016250549 4:-0.042463496 5:-0.060469761 6:0.0090069873 7:-0.032477822 8:0.019922303 9:-0.021598065 10:-0.045040563 11:-0.0079602031 12:-0.020572765 13:-0.0054497402 14:0.032671455 15:-0.0080630099 16:0.030540606 17:0.02590353 18:-0.0025379371 19:0.01039741 20:-0.0034873309 21:-0.012477604 22:0.0057456843 23:0.0024388584 24:0.010053115 25:0.035296652 26:-0.053111743 27:0.02639926 28:0.021539833 29:-0.0039770971 30:0.017993195 31:-0.017038751 32:-0.014670363 33:0.02692279 34:-0.010705996 35:0.011643638 36:-0.0053995927 37:-0.0023096197 38:0.006901158 39:0.010671423 40:0.0022546612 41:-0.010735432 42:0.0038453655 43:-0.0017222745 44:0.010506074 45:-0.0088931816 #
8.2595868347480561055817815940827 1:0.16289927 2:-0.13299407 3:-0.18343078 4:-0.098192662 5:0.076662019 6:-0.057854529 7:-0.096077017 8:0.039165422 9:-0.090017617 10:0.001385505 11:0.02632677 12:-0.021060558 13:-0.011922175 14:-0.0022729659 15:0.0060657505 16:0.00041371988 17:0.018107712 18:0.073837839 19:0.020862032 20:0.0097133117 21:0.0080694333 22:0.044917051 23:-0.0090653664 24:0.0017863694 25:-0.004608938 26:0.00070295518 27:-0.0036819356 28:-0.00063496537 29:0.0025043169 30:-0.0074056871 31:0.018716037 32:0.0032056605 33:0.0037791629 34:0.0040639872 35:0.010915989 36:0.0014357415 37:-0.006710785 38:-0.011932234 39:0.004396745 40:0.013695096 41:-0.016682116 42:0.0086078187 43:0.02035079 44:0.003367899 45:-0.017407231 #
-8.2595868347480561055817815940827 1:0.16591506 2:-0.1544428 3:-0.16937424 4:-0.049764693 5:0.093467265 6:-0.058435272 7:0.013296596 8:0.051826745 9:-0.1015405 10:0.032499894 11:0.013181919 12:-0.015029203 13:-0.018259771 14:0.007101289 15:0.012356136 16:0.046215184 17:0.035466596 18:0.026909109 19:-0.011985268 20:0.016352518 21:0.0016313043 22:0.032168914 23:-0.0057430426 24:-0.010513423 25:0.01350611 26:0.017718323 27:-0.0094648506 28:0.012491716 29:-0.0063974378 30:-0.010889915 31:0.013724321 32:-0.0099783419 33:0.00046336974 34:-0.0029247017 35:0.0060843788 36:-0.018810783 37:0.00069747731 38:-0.01799766 39:-0.01044366 40:-0.0056421403 41:0.01607901 42:0.00055327633 43:0.0012186696 44:0.014043558 45:-0.005626855 #
-8.2595868347480561055817815940827 1:0.28260383 2:0.05332914 3:-0.13456878 4:-0.035600889 5:0.12141255 6:0.11499851 7:-0.10334918 8:0.09572345 9:0.065140918 10:-0.012635892 11:-0.019961443 12:0.01088104 13:-0.01660265 14:-0.0094868988 15:-0.00093550223 16:0.019841028 17:0.012563544 18:0.019429071 19:-0.010565941 20:0.0020777276 21:-0.0092789633 22:0.031287555 23:0.00014174639 24:0.0017315815 25:0.0056448295 26:0.011238273 27:-0.018119378 28:0.0044628531 29:-0.0054325401 30:-0.01001846 31:0.0052358415 32:-0.014929741 33:0.010370112 34:0.0054000136 35:-0.0043537612 36:-0.013093617 37:0.011843822 38:-0.010904945 39:-0.0066717104 40:-0.0040514213 41:0.021762472 42:0.011119714 43:-0.013601353 44:0.003129632 45:0.0048954859 #
8.2595868347480561055817815940827 1:-0.32417268 2:0.15876681 3:-0.11917776 4:0.0037176351 5:-0.0045369142 6:-0.055367619 7:-0.0070441603 8:-0.051358242 9:0.041362364 10:0.025391376 11:0.0048045516 12:-0.029254301 13:-0.019977769 14:0.0065454566 15:0.00083321694 16:-0.013672346 17:-0.029124148 18:-0.001042967 19:-0.052799594 20:-0.0016156306 21:0.0083142836 22:0.035634182 23:-0.0062914225 24:-0.025636371 25:-0.014384286 26:-0.00028455644 27:0.015393842 28:0.0044176388 29:-0.0069492501 30:0.023901191 31:0.010590996 32:-0.00082608353 33:-0.006300258 34:-0.023551164 35:-0.01955338 36:-0.013339848 37:-0.0088081537 38:-0.0034080392 39:0.0028821121 40:0.0025678673 41:-0.0090172077 42:-0.0056992718 43:-0.012785579 44:0.0041391472 45:-0.0023892547 #
8.2595868347480561055817815940827 1:-0.30783617 2:0.16013628 3:-0.11463851 4:-0.018018434 5:0.0019178609 6:-0.061363198 7:-0.033110406 8:-0.049617611 9:0.036896218 10:0.021259569 11:0.0090099424 12:-0.037170421 13:-0.020699974 14:0.024133468 15:-0.004239779 16:-0.013437212 17:-0.022444334 18:-0.00047109567 19:-0.029012498 20:0.0020068309 21:7.101598e-05 22:0.025659656 23:-0.0073470944 24:-0.017484212 25:-0.012663675 26:-0.003726634 27:0.016349966 28:0.0035080404 29:-0.0016006094 30:0.030567404 31:0.014640382 32:-0.00030690961 33:-0.0095360689 34:-0.020751713 35:-0.013448934 36:-0.0064058853 37:-0.0002101376 38:0.002420129 39:0.0042106402 40:0.0016257223 41:-0.00071402162 42:-0.0063010273 43:-0.0069557792 44:0.011481408 45:-0.010712264 #
-8.2595868347480561055817815940827 1:-0.29309088 2:0.10017277 3:0.02141251 4:0.042770635 5:0.00033269523 6:-0.016267838 7:-0.029072233 8:0.027354442 9:-0.034805041 10:-0.035172403 11:0.00022321282 12:-0.035545386 13:0.020395804 14:0.025489146 15:0.0037012759 16:0.034079406 17:-0.021262299 18:0.018711053 19:-0.026212659 20:-0.046837218 21:-0.01393755 22:0.015522912 23:0.027870186 24:0.013214836 25:0.066857234 26:-0.04050361 27:0.00095454458 28:0.014193339 29:0.0017606337 30:0.0023561043 31:-0.0058148005 32:-0.014776804 33:0.014262034 34:-0.02339022 35:-0.0057772947 36:0.0046707215 37:0.019540206 38:0.0080696885 39:0.0086763892 40:0.0011322193 41:-0.015645972 42:-0.00076952291 43:-0.0075949347 44:0.0086372066 45:-0.020875987 #
8.2595868347480561055817815940827 1:0.24106722 2:-0.067166239 3:-0.17814846 4:0.021344118 5:0.14978176 6:0.044505585 7:-0.0074660326 8:0.12614439 9:-0.012622894 10:0.033805218 11:-0.01853865 12:-0.070088357 13:-0.050452452 14:-0.050532341 15:-0.001029487 16:0.07145565 17:0.00021647134 18:-0.012930577 19:0.0048569776 20:0.050446626 21:-0.011726015 22:-0.0056062862 23:0.0080818469 24:-0.015217857 25:0.026619956 26:0.03030053 27:-0.019736886 28:0.052143183 29:-0.0044387546 30:0.020326572 31:-0.00090767269 32:0.030982066 33:0.012317291 34:0.036321722 35:-0.016515234 36:-0.010571641 37:0.010769182 38:0.028723443 39:-0.0064187865 40:0.0009224012 41:-0.013756371 42:0.017694248 43:-0.0067693111 44:-0.00030117863 45:-0.0015267357 #
8.2595868347480561055817815940827 1:0.31024376 2:0.053505719 3:-0.08084818 4:0.049116012 5:0.11569982 6:0.15157875 7:0.0053197974 8:0.086365595 9:0.082877785 10:-0.026504224 11:-0.0471377 12:-0.035137288 13:-0.042348735 14:-0.019694699 15:-0.051857546 16:0.006309587 17:-0.04984599 18:0.0096298205 19:0.0079659037 20:0.050045613 21:0.0096633509 22:0.014926556 23:0.051397644 24:0.007318228 25:-0.020359421 26:-0.026793137 27:-0.0055187638 28:-0.0098282453 29:0.0058319867 30:0.0054185041 31:-0.0088422764 32:0.014538358 33:-0.0051448075 34:-0.0003240635 35:0.012412895 36:-0.026983188 37:0.019371172 38:-0.0068149031 39:0.032668214 40:0.01034645 41:-0.010624076 42:0.017313875 43:0.0049088174 44:-0.021950856 45:-0.019435627 #
8.2595868347480561055817815940827 1:-0.076094754 2:-0.12364186 3:0.091922186 4:0.026385529 5:0.00029730567 6:0.027560763 7:0.034588855 8:-0.021532724 9:0.034150109 10:0.014911507 11:0.0027388504 12:0.0039159562 13:-0.0010794959 14:-0.025278652 15:0.010050022 16:-0.0064796293 17:0.015115964 18:-0.0016072962 19:0.014267384 20:0.0027472738 21:-0.0068201907 22:-0.0081530334 23:-0.005589088 24:0.01540898 25:-0.0035291649 26:-0.02036844 27:-0.00031295791 28:0.01107954 29:-0.022200029 30:-0.02385975 31:0.0023932878 32:0.014486225 33:0.0078695342 34:0.0039674137 35:0.00052981189 36:-0.0014753292 37:-0.0075953626 38:0.0029695986 39:0.0026360217 40:0.009445834 41:0.0087087033 42:-0.0050749811 43:0.010921761 44:-0.0040259562 45:0.00046916326 #
-8.2122833273997741798666538670659 1:0.27194697 2:0.071239665 3:-0.12281183 4:0.06778118 5:0.097437479 6:0.12940231 7:-0.093435228 8:0.095173828 9:0.10955319 10:-0.029886914 11:-0.050716057 12:0.0056111673 13:-0.019821156 14:-0.012388192 15:-0.019728065 16:0.040049244 17:-0.012696732 18:-0.051613417 19:0.0086845411 20:0.012302928 21:0.007331585 22:0.00054853701 23:0.058991373 24:0.013200639 25:-0.003290857 26:0.0055279601 27:0.0054310118 28:-0.013069801 29:-0.020006655 30:0.0095089795 31:-0.0077235778 32:0.0026663423 33:-0.0048911381 34:-0.0022132304 35:-0.0082919812 36:0.0011452816 37:0.005664648 38:0.01898404 39:-0.0052494486 40:-0.0065315166 41:0.0047821356 42:-0.0095408037 43:-0.00016278308 44:-0.0028259219 45:0.017915497 #
8.2595868347480561055817815940827 1:-0.2174082 2:-0.0088540083 3:-0.0020373783 4:-0.061664846 5:-0.020292334 6:0.0099621164 7:-0.029515779 8:-0.026804699 9:0.024697393 10:0.054240018 11:0.0083424803 12:0.040430821 13:-0.021379011 14:-0.0057036914 15:0.0012650422 16:0.016114706 17:0.052325804 18:-0.018681414 19:0.026944427 20:0.015495191 21:-0.025779661 22:-0.011493365 23:-0.012826188 24:0.035083912 25:0.016311936 26:-0.01406338 27:-0.0060142083 28:-0.00077726989 29:-0.038304158 30:-0.023039255 31:0.011787119 32:0.004752351 33:0.019367253 34:-0.012192271 35:-0.0091086086 36:-0.0048683202 37:0.0053933868 38:-0.0027348544 39:-0.011054333 40:-0.006278961 41:-0.0036646896 42:0.010470325 43:-0.018528989 44:0.0076349815 45:0.01370831 #
8.2595868347480561055817815940827 1:-0.23806003 2:-0.015617811 3:-0.020505857 4:0.013040142 5:-0.040473886 6:0.00076489052 7:0.0048623555 8:-0.027028594 9:0.030182855 10:0.075176716 11:1.8332456e-05 12:0.043030191 13:-0.018925581 14:-0.014862657 15:-0.0042506019 16:0.028504068 17:0.015251888 18:-0.014382637 19:-0.010198436 20:-0.00063635857 21:-0.024882585 22:0.0055707181 23:-0.011319647 24:0.020111315 25:0.0053838068 26:-0.0069293156 27:-0.020607783 28:0.0010554135 29:-0.028897002 30:-0.022371253 31:0.0021010905 32:-0.0027845823 33:0.013694267 34:-0.013107083 35:-0.0084163342 36:-0.01022311 37:0.005977442 38:-0.0017332267 39:-0.0077699893 40:0.0093275961 41:-0.0014834784 42:0.010290914 43:0.00092301081 44:0.012798947 45:0.0046574217 #
8.2595868347480561055817815940827 1:0.27720544 2:0.1665476 3:0.029989872 4:0.10984364 5:-0.044777315 6:0.0072590681 7:0.016977223 8:-0.0038439299 9:0.029941346 10:-0.025368167 11:0.0080110747 12:0.0272674 13:-0.026055509 14:0.023695515 15:0.0058492487 16:-0.02200795 17:0.017566912 18:-0.0026403267 19:0.0043626865 20:-0.0065024234 21:-0.037994083 22:-0.021188511 23:0.01988288 24:-0.0061964849 25:-0.0039219307 26:0.0036763381 27:0.035459731 28:0.014101144 29:0.0094640628 30:0.00049424003 31:0.016843885 32:-0.012855883 33:8.9938476e-05 34:0.0026284805 35:0.0041562263 36:-0.0092015723 37:0.016159717 38:-0.0095183477 39:-0.00088559859 40:-0.0024120675 41:-0.0065253209 42:-0.011251203 43:0.0022238721 44:0.012566788 45:0.010423319 #
8.2595868347480561055817815940827 1:0.10679001 2:-0.16367088 3:-0.12014118 4:0.076891705 5:0.03596459 6:-0.051108364 7:-0.010940887 8:0.033322569 9:-0.062991984 10:0.0050445623 11:0.00025425723 12:-0.037857115 13:-0.0028438529 14:0.016740533 15:0.0047167563 16:0.0062642023 17:0.020583181 18:0.00034033848 19:-0.007299318 20:0.01286872 21:0.0097472826 22:0.00077979558 23:0.0046896492 24:0.0017719032 25:0.0041706515 26:-0.00028174743 27:0.0025927038 28:0.013171367 29:0.0033628216 30:-0.0017084653 31:-0.0021928519 32:0.023676941 33:-0.0015462489 34:0.01814224 35:-0.0042315619 36:0.012103649 37:-0.018779987 38:0.0028616195 39:0.014785247 40:0.010843686 41:-0.011095874 42:0.0071204337 43:0.0025076508 44:0.0010593437 45:0.0028217691 #
8.2595868347480561055817815940827 1:0.32161394 2:0.14503992 3:0.0015390092 4:0.05860113 5:0.021003231 6:0.118869 7:0.025582876 8:-0.0048619695 9:0.035494462 10:-0.030672712 11:0.019215176 12:0.017725049 13:-0.029676134 14:0.016651461 15:-0.012945496 16:-0.015461606 17:-0.012804924 18:0.0099439863 19:-0.018343937 20:0.021561731 21:-0.015445032 22:-0.0023890347 23:0.026980588 24:-0.0074100918 25:-0.015219551 26:-0.032084092 27:0.029305464 28:-0.026200693 29:0.020969607 30:-0.0012738337 31:0.038207926 32:-0.016074559 33:0.0045378339 34:-0.01313603 35:0.024466578 36:-0.052490421 37:0.046203494 38:-0.026262911 39:0.0084928228 40:0.011459131 41:0.0024355515 42:-0.0099673709 43:0.01294307 44:0.0096932733 45:0.014810874 #
-8.2595868347480561055817815940827 1:0.33984613 2:0.21789055 3:0.09328527 4:-0.12493087 5:-0.027702678 6:0.050585158 7:0.027764102 8:-0.10195708 9:-0.08334846 10:0.040525191 11:0.034247871 12:-0.019394038 13:-0.038415272 14:-0.025916258 15:0.026461946 16:0.068419613 17:-0.052455999 18:-0.045281652 19:0.012008804 20:0.012627795 21:0.0094067659 22:0.012460127 23:0.04294141 24:-0.019212391 25:-0.012364591 26:-0.012753096 27:0.019430686 28:-0.023606 29:0.012198303 30:-0.0086016888 31:0.0056284419 32:0.022046538 33:0.0043799398 34:-0.012510448 35:0.016772287 36:0.004564859 37:-0.0051325723 38:-0.015209923 39:-0.0095871054 40:0.0056415489 41:0.018945478 42:0.01832331 43:-0.0040493561 44:-0.0032047799 45:-0.010798795 #
-8.2595868347480561055817815940827 1:0.37017751 2:0.20486775 3:0.063973218 4:0.067980334 5:-0.020037981 6:0.18036164 7:0.057288799 8:-0.11425058 9:-0.026084758 10:0.022564707 11:-0.063417673 12:0.0088837426 13:0.011908919 14:0.055070508 15:0.036599524 16:-0.055848189 17:0.0043801181 18:0.080352135 19:-0.0099658612 20:0.066369951 21:-0.055236142 22:-0.017167671 23:-0.015801778 24:-0.040288743 25:0.018636592 26:-0.0041712839 27:-0.030039541 28:0.012410716 29:-0.0031066767 30:0.015578658 31:-0.013705965 32:0.0001486877 33:-0.0013157356 34:0.0038418188 35:-0.0031867241 36:-0.0023420735 37:0.018407661 38:0.0072383289 39:0.016956199 40:-0.006111918 41:-0.029411526 42:-0.032807305 43:0.013497745 44:0.0040147901 45:0.011068758 #
8.2595868347480561055817815940827 1:0.15629719 2:-0.1518348 3:-0.083353721 4:-0.026407804 5:0.10522859 6:0.020214697 7:0.045047984 8:0.055565987 9:-0.022344472 10:0.0091597661 11:-0.0057998495 12:-0.052319221 13:-0.028454097 14:-0.010722902 15:-0.0057806936 16:0.014770329 17:-0.012964231 18:-0.00076855783 19:-0.0085212132 20:0.0078885127 21:-0.005619321 22:-0.0146618 23:-0.00051263545 24:-0.011831329 25:-0.0011328444 26:0.0077166408 27:0.013938713 28:0.030903256 29:0.017267389 30:-0.0041989563 31:-0.0016809704 32:0.020068295 33:0.0037506078 34:0.0088178935 35:-0.0028761534 36:0.015854958 37:-0.010065531 38:0.0078817792 39:-0.0025204071 40:0.0004390672 41:-0.022520497 42:0.013520285 43:0.009600942 44:0.0086260624 45:0.00080540119 #
-8.2595868347480561055817815940827 1:-0.25223216 2:0.08241003 3:0.00053124374 4:-0.053888664 5:-0.024793711 6:-0.002004399 7:-0.059719097 8:0.014301199 9:-0.011061082 10:-0.04241167 11:0.0092460141 12:-0.043235019 13:0.011451364 14:0.041978654 15:0.0043229545 16:0.041584391 17:0.03467939 18:-0.006170169 19:0.010965791 20:-0.015137186 21:-0.016654681 22:-0.022899102 23:0.019570913 24:0.012806623 25:0.050699715 26:-0.042725701 27:0.02997951 28:0.023767537 29:-0.0014339868 30:0.011526947 31:-0.011342487 32:-0.011722109 33:0.009056814 34:-0.010994162 35:0.0095733618 36:0.0013745427 37:0.013752686 38:0.0086194901 39:0.010810083 40:0.017926347 41:-0.016694102 42:-0.0063965842 43:0.0010280439 44:0.010455349 45:-0.024456074 #
8.2595868347480561055817815940827 1:0.32637912 2:0.21084951 3:0.083852708 4:0.020438744 5:-0.054698847 6:0.04760145 7:0.039289132 8:-0.085627213 9:-0.038256053 10:0.011314272 11:0.0064192642 12:0.013364328 13:-0.018897476 14:0.027806859 15:0.03648537 16:-0.011243133 17:-0.0056490633 18:0.026073929 19:-0.0091278711 20:0.045620572 21:-0.046401866 22:-0.017907212 23:0.013419234 24:-0.014469157 25:0.0038620431 26:0.0051303613 27:0.0097223027 28:0.018388534 29:0.0099625112 30:0.012468902 31:0.0053490018 32:-0.0018622006 33:-0.0012226938 34:0.006956914 35:0.0018082594 36:-0.0067269243 37:0.026692156 38:-0.0067266664 39:0.0081277192 40:0.0001441808 41:-0.019887883 42:-0.0055850795 43:0.0096213631 44:0.0050024535 45:0.0029250449 #
8.2595868347480561055817815940827 1:0.25306353 2:0.19987918 3:0.039849769 4:0.11276312 5:-0.10360118 6:-0.024813222 7:-0.061602164 8:-0.081262685 9:-0.041488335 10:-0.016303729 11:0.01399679 12:0.023191649 13:0.0064733145 14:0.034896117 15:0.040736433 16:-0.016162982 17:0.017228933 18:0.019111689 19:-0.0061118938 20:0.032610081 21:-0.029982099 22:0.0012517886 23:-0.00061343325 24:-0.0027341091 25:0.0095685702 26:0.0057539768 27:-0.0074208565 28:0.0077068685 29:0.016734861 30:0.0098024188 31:0.0039995019 32:-0.0067117773 33:-0.0049699945 34:0.0066660824 35:0.00019106783 36:-0.015879413 37:0.0099773556 38:0.0041790111 39:0.0015702615 40:0.0088575492 41:-0.0041154022 42:-0.0077085844 43:0.00023498453 44:0.0015458554 45:0.013068384 #
8.2595868347480561055817815940827 1:0.31213683 2:0.21360679 3:0.074439585 4:0.01140953 5:-0.063437596 6:0.026553813 7:-0.0057319175 8:-0.093957469 9:-0.052864347 10:0.0075752023 11:0.012408107 12:0.010010049 13:-0.0067821834 14:0.023095068 15:0.03624244 16:-0.0037221604 17:0.0033973174 18:0.012508666 19:-0.010936919 20:0.041583493 21:-0.0375681 22:-0.011470093 23:0.0068327547 24:-0.011082022 25:0.0091702668 26:0.0059251795 27:-0.0034505248 28:0.01030234 29:0.0083235409 30:0.01079452 31:-0.0018087149 32:0.0028345184 33:-0.0029826541 34:0.0038410628 35:0.001144824 36:-0.0072695981 37:0.016009146 38:0.00038829265 39:0.0063704886 40:0.00057358464 41:-0.010478696 42:-0.0090083275 43:0.0011554229 44:0.0027852778 45:0.011190035 #
-8.2595868347480561055817815940827 1:0.34332669 2:0.22314772 3:0.025928296 4:-0.065366037 5:-0.018226361 6:0.13142091 7:-0.08936137 8:-0.11869755 9:-0.053347472 10:0.014014718 11:-0.024201583 12:0.013327501 13:0.034779839 14:0.031570803 15:0.033170849 16:-0.013158876 17:0.0092160376 18:0.023061929 19:-0.03789727 20:0.032510798 21:-0.028966911 22:-0.015852245 23:-0.02030023 24:-0.0558348 25:0.02495594 26:-0.0068223611 27:-0.03561661 28:-0.018252391 29:-0.013614138 30:0.0028944337 31:-0.015528993 32:0.0076412284 33:0.0073182876 34:-0.0055465898 35:-0.0050709951 36:0.0042517427 37:0.0078475783 38:0.0074817445 39:0.0036918384 40:-0.022096351 41:-0.001399126 42:-0.031791449 43:-0.011080731 44:0.0082014492 45:0.023149731 #
-8.2595868347480561055817815940827 1:0.33847851 2:0.2058586 3:0.035845321 4:0.0057844142 5:-0.01607197 6:0.13945617 7:-0.045849103 8:-0.11098249 9:-0.034743648 10:0.0081850924 11:-0.045971069 12:0.022768252 13:0.027752753 14:0.059341546 15:0.049025744 16:-0.027587775 17:0.019222358 18:0.034081589 19:-0.053247798 20:0.050424315 21:-0.054667406 22:-0.025254771 23:-0.029388608 24:-0.043860439 25:0.029212581 26:0.0074432003 27:-0.035750061 28:0.0099950964 29:0.00096358371 30:0.016288688 31:-0.019891167 32:0.0032879871 33:-0.0064102462 34:0.0037312696 35:-0.005167448 36:-0.0074822051 37:0.005480052 38:0.012351006 39:0.022731997 40:-0.00264653 41:-0.012611557 42:-0.032029882 43:0.0066525792 44:-0.0030677421 45:0.012605689 #
8.2595868347480561055817815940827 1:-0.25914812 2:-0.011441418 3:0.0085746134 4:0.015818793 5:-0.054811683 6:0.026921932 7:0.044680987 8:-0.018449495 9:0.034255777 10:0.06609603 11:-0.0039632777 12:0.04074714 13:-0.029513972 14:-0.0046854988 15:-0.016393408 16:0.036558513 17:0.025337907 18:0.0049118432 19:-0.032686893 20:0.0040580691 21:-0.0015373809 22:0.017111782 23:-0.013743017 24:0.011032801 25:0.0068557574 26:-0.021566192 27:-0.013396817 28:0.00033583 29:-0.027330929 30:-0.030905601 31:0.0049170842 32:0.010354889 33:0.022650573 34:-0.011569265 35:-0.0096350452 36:-0.0094974693 37:-0.0030848163 38:0.0026577089 39:-0.0053225313 40:0.0039199162 41:1.6043372e-05 42:0.0019207947 43:-0.0086947931 44:-0.0059487214 45:0.0082865767 #
8.2595868347480561055817815940827 1:-0.29767701 2:0.079046249 3:0.030123362 4:0.054923046 5:0.019223889 6:0.0095920516 7:0.060430735 8:-0.013336405 9:0.027432684 10:0.032513145 11:0.005284972 12:-0.015349977 13:-0.010168871 14:0.039692044 15:-0.024425192 16:0.04654276 17:0.0032294127 18:-0.0010182401 19:-0.038209677 20:-0.0071608303 21:0.0088089239 22:0.025605923 23:-0.010534564 24:-0.0097872335 25:-0.0046524433 26:-0.014111945 27:-0.0082950667 28:-0.0011285489 29:-0.0042423685 30:0.00023767097 31:-0.0057450901 32:-0.0032356863 33:0.016516354 34:0.0020449047 35:-0.002427916 36:0.019009797 37:0.014022171 38:-0.0063077034 39:-0.0024606765 40:-0.00064066926 41:0.00050016551 42:0.00046101672 43:0.013550636 44:-0.015259177 45:0.00026539364 #
-8.2595868347480561055817815940827 1:-0.25848767 2:0.1702697 3:-0.10681029 4:-0.046361204 5:0.060783401 6:-0.092376158 7:-0.058289833 8:-0.095480949 9:0.070753574 10:0.04035743 11:0.025694089 12:-0.067561403 13:-0.045586906 14:0.051312566 15:-0.014754535 16:-0.029869337 17:0.025019554 18:-0.015521725 19:0.012962922 20:0.025316112 21:0.0018110048 22:0.024913562 23:-0.02294042 24:-0.020319989 25:-0.046020173 26:-0.01539145 27:0.0071272487 28:0.012605836 29:0.0076370654 30:0.030973671 31:0.02665798 32:0.0051431702 33:-0.036946639 34:-0.024024654 35:-0.026215021 36:-0.024041528 37:-0.0074868323 38:-9.0591035e-05 39:-0.0053412369 40:-0.01387638 41:-0.018762274 42:-0.00020932603 43:-0.023170134 44:-0.0058809216 45:0.0058720815 #
-8.2595868347480561055817815940827 1:-0.2809687 2:0.16102712 3:-0.085323691 4:0.033446975 5:0.084623195 6:-0.10507783 7:-0.01931111 8:-0.11786114 9:0.08933533 10:0.061248831 11:0.024202637 12:-0.061494045 13:-0.040007487 14:0.054930631 15:-0.019812461 16:-0.0057588592 17:0.030411711 18:-0.032640938 19:-0.015814714 20:0.018089879 21:0.0071774111 22:0.026017927 23:-0.0287377 24:-0.031403892 25:-0.06387347 26:0.00053725298 27:-0.0096489778 28:0.0044811298 29:0.0097951852 30:0.016082631 31:0.024725029 32:0.0025219126 33:-0.050819084 34:-0.016455464 35:-0.020797448 36:-0.022688029 37:-0.013124742 38:-0.0037916396 39:0.0030219411 40:-0.0067110993 41:-0.012390802 42:-0.00049841014 43:-0.01723917 44:4.4641412e-05 45:0.0018899615 #
-8.2595868347480561055817815940827 1:-0.21622093 2:0.16800256 3:-0.049367543 4:-0.11413573 5:0.17898646 6:-0.050739903 7:-0.00020107323 8:-0.11672528 9:0.091409586 10:0.05184824 11:0.040074453 12:-0.051290095 13:-0.033690553 14:0.05027616 15:-0.0083522722 16:-0.019914346 17:0.050678622 18:-0.03998664 19:0.022831945 20:0.02173996 21:0.00082800555 22:0.0083302958 23:-0.020945854 24:-0.0063484586 25:-0.026945537 26:0.0047268532 27:-0.012322747 28:-0.010621555 29:0.0088896332 30:-0.00075405766 31:0.0095733665 32:-0.0018529923 33:-0.042431355 34:0.022144593 35:0.018616544 36:-0.0016505107 37:0.00048070098 38:0.004407349 39:0.00074647961 40:-0.023169659 41:-0.00042429907 42:0.0075647868 43:-0.0044232365 44:-0.00052569434 45:0.0092314743 #
-8.2595868347480561055817815940827 1:0.16996223 2:-0.080008134 3:-0.19296657 4:0.12379093 5:0.092981875 6:-0.036443431 7:-0.033512585 8:0.12977311 9:-0.022135837 10:0.030538341 11:-0.020947747 12:-0.049019191 13:-0.038480889 14:-0.040904377 15:0.01052464 16:0.071415707 17:0.030875273 18:-0.025976274 19:0.022046113 20:0.02329307 21:0.0014911168 22:0.011272264 23:0.02489822 24:0.0052475478 25:0.010912062 26:0.014631696 27:0.0028875896 28:-0.010725655 29:-0.014164482 30:0.0047153933 31:0.0044602798 32:0.0005611736 33:-0.0057956479 34:7.8553989e-05 35:-0.0010869477 36:-0.0058325911 37:-0.0058434624 38:0.0092536816 39:0.020934464 40:-0.011179226 41:-0.0072782212 42:-0.01671773 43:-0.008885541 44:-0.020817153 45:0.0019097425 #
8.2595868347480561055817815940827 1:0.33032539 2:0.15572348 3:-0.016837221 4:-0.05969907 5:0.046926741 6:0.12067086 7:-0.054286998 8:-0.00081462326 9:0.033128615 10:-0.038459156 11:0.039022814 12:0.029966362 13:-0.016585598 14:0.012272349 15:-0.012017125 16:-0.00359187 17:-0.010061721 18:0.0024619114 19:-0.045082845 20:0.0061306464 21:-0.007834686 22:0.010792728 23:0.016375739 24:-0.009073182 25:-0.01217258 26:-0.02863263 27:0.017886946 28:-0.031020988 29:0.025739409 30:-0.0058913045 31:0.035432778 32:-0.0135073 33:0.0098485192 34:-0.0084014479 35:0.018093165 36:-0.045046143 37:0.035255946 38:-0.01574645 39:0.002766914 40:0.0021197998 41:0.019387333 42:-0.011152377 43:-0.0085670538 44:0.0040362235 45:0.019457811 #
-8.2595868347480561055817815940827 1:0.21716297 2:0.15619971 3:0.032830078 4:0.080042489 5:-0.071224011 6:-0.093451843 7:0.031610198 8:0.042866208 9:0.040677678 10:-0.076337129 11:0.18538326 12:0.071318567 13:-0.10673889 14:0.017429231 15:0.026063263 16:0.029907117 17:-0.010894928 18:-0.015991805 19:-0.014167939 20:-0.008269662 21:-0.022423374 22:0.0085585071 23:0.032493629 24:0.050811399 25:-0.015707912 26:0.027860465 27:0.031084197 28:0.027600348 29:0.014873229 30:0.0014769172 31:0.0061285906 32:-0.026659202 33:-0.008310047 34:0.010737088 35:-0.0063799652 36:-0.0080466755 37:0.0029119179 38:-0.0067694117 39:0.0062734126 40:0.0096753538 41:0.0073791686 42:-0.0061288723 43:0.0060787527 44:-0.0069127628 45:0.01035092 #
8.2595868347480561055817815940827 1:-0.27102065 2:0.14797999 3:-0.0844201 4:-0.059174005 5:0.052656576 6:-0.024389919 7:0.019560056 8:-0.05677326 9:0.048580822 10:0.022900835 11:0.01051025 12:-0.035843708 13:-0.025461134 14:0.025797177 15:0.0063007642 16:-0.026743785 17:0.018527735 18:-0.028942514 19:0.0053049535 20:0.019444641 21:-0.00071315299 22:0.030157343 23:-0.019367727 24:3.3158733e-05 25:-0.010767668 26:-0.015310936 27:0.011726896 28:0.011648445 29:-0.0042713787 30:0.037423287 31:0.010433692 32:0.0048885536 33:-0.010611509 34:-0.029381353 35:-0.024346754 36:-0.0092442287 37:-0.012333764 38:0.0038072744 39:-0.0049588676 40:-0.0017911146 41:-0.007222482 42:-0.0036276043 43:-0.016107807 44:-0.0032965937 45:0.0037578759 #
-4.0868912212097558978030065190978 1:-0.18025695 2:0.0062705916 3:0.12228456 4:0.00060027279 5:0.089268774 6:-0.010024644 7:-0.086255476 8:0.027536426 9:-0.048726477 10:-0.020650551 11:0.0028429469 12:0.016187923 13:0.013366068 14:0.0073507084 15:-0.0082666511 16:0.019645648 17:-0.0053721415 18:0.019359894 19:0.017239891 20:-0.012616778 21:-0.021715939 22:-0.023130139 23:0.011111019 24:0.011275695 25:0.0012651596 26:-0.0077133495 27:-0.022616919 28:-0.0027454791 29:0.018840974 30:-0.0097251507 31:0.02424212 32:0.011893737 33:-0.037727758 34:-0.012930841 35:-0.024729343 36:-0.0045836056 37:0.0058155837 38:-0.0029121959 39:0.0056005968 40:0.0081019765 41:-0.0041556028 42:-0.00015590536 43:0.0036681653 44:0.013076201 45:-0.010113221 #
8.2595868347480561055817815940827 1:0.35283989 2:0.20656002 3:0.073985189 4:-0.069603972 5:-0.0056026299 6:0.083673619 7:0.038217582 8:-0.049487822 9:-0.00069501682 10:0.0027580112 11:0.015259138 12:0.036469717 13:-0.02748438 14:0.031349115 15:0.030911315 16:-0.0098042572 17:-0.015009862 18:0.029722564 19:-0.041622162 20:0.022776151 21:-0.049447153 22:-0.013928407 23:0.010932232 24:-0.023294339 25:-0.0021551356 26:0.0052585742 27:0.020843603 28:0.016227016 29:0.019687228 30:0.012047161 31:0.016418012 32:-0.0019976259 33:0.0018836199 34:0.0043941555 35:0.0072369846 36:-0.012676448 37:0.029200803 38:-0.0032603522 39:-0.0028051722 40:-9.746429e-05 41:-0.016165612 42:0.0023845532 43:0.0095588733 44:0.0029491636 45:-0.0098288069 #
-8.2595868347480561055817815940827 1:0.29278901 2:0.22284524 3:0.043650441 4:-0.028044485 5:-0.080437347 6:0.024890585 7:-0.092446476 8:-0.1280784 9:-0.10616091 10:0.015317664 11:0.019281026 12:-0.026820583 13:-0.0043793339 14:-0.015179851 15:0.011123027 16:0.014218447 17:-0.022444321 18:0.0099030444 19:0.028896784 20:0.010370225 21:0.036945879 22:0.015562192 23:-0.013412653 24:-0.0093218638 25:0.00096414197 26:-0.028038003 27:-0.033628959 28:-0.037172563 29:-0.01771689 30:-0.018150998 31:-0.0028614644 32:-0.0069817724 33:0.005480242 34:-0.011751267 35:0.0027497166 36:6.7661502e-05 37:-0.013681229 38:-0.0018180804 39:-0.013112582 40:0.0052589672 41:0.0099989194 42:0.018540716 43:-0.0053833569 44:0.0069745649 45:-0.0015615425 #
-8.2595868347480561055817815940827 1:0.29087421 2:0.21910274 3:0.064386934 4:0.024635321 5:-0.085123546 6:0.023552628 7:-0.019112265 8:-0.12413708 9:-0.09461391 10:0.025268363 11:0.022359734 12:-0.021077637 13:-0.017163763 14:-0.012584393 15:0.022638289 16:0.047091626 17:-0.024017276 18:-0.047053102 19:0.0061184359 20:0.0063268086 21:0.02048498 22:-0.016890466 23:0.0074399142 24:-0.0071880165 25:0.0010409396 26:-0.010276739 27:0.0083557926 28:-0.018113997 29:-0.0043873652 30:-0.0079719545 31:0.010313357 32:0.0020757241 33:0.0030856226 34:-0.005928902 35:0.0035457402 36:0.00039722203 37:-0.011944361 38:0.0044563869 39:-0.015900271 40:0.0018497076 41:0.013447713 42:0.020004887 43:-0.011963051 44:-0.0042406614 45:-0.012222573 #
8.2595868347480561055817815940827 1:-0.06915953 2:-0.10513172 3:0.054885313 4:0.011941592 5:0.0050188694 6:-0.014800161 7:-0.031147989 8:-0.031461611 9:0.028209398 10:0.016446689 11:0.0056984732 12:0.0036052384 13:0.0032841826 14:-0.014861797 15:0.014879511 16:0.00034023693 17:0.016854744 18:-0.031377688 19:0.0023600687 20:0.0041839676 21:-0.025103437 22:-0.018606873 23:-0.0050843894 24:0.016272578 25:-0.0010986107 26:-0.0095305666 27:0.00012582158 28:0.0049614385 29:-0.01147066 30:-0.018864071 31:0.011690634 32:0.014034637 33:-0.0027403233 34:0.01260513 35:0.0085156122 36:-0.011379718 37:-0.0052974951 38:0.0037199762 39:0.004947932 40:0.0068277596 41:-0.00041621859 42:-0.008471325 43:0.014057666 44:-0.0048462353 45:-0.01212888 #
-8.2595868347480561055817815940827 1:-0.33807707 2:0.18417391 3:-0.097280122 4:0.013227446 5:-0.0041608554 6:-0.039385371 7:-0.0045934711 8:-0.0078262463 9:-0.026906116 10:-0.035982504 11:-0.010616517 12:-0.011551629 13:-0.0069626383 14:-0.016122749 15:0.020833926 16:-0.031906765 17:-0.046667892 18:-0.036304116 19:-0.059643846 20:-0.0024476543 21:-0.010001883 22:0.059759166 23:-0.010525148 24:-0.0038861409 25:0.044533987 26:-0.027040241 27:0.038954496 28:0.0090948287 29:-0.029291768 30:0.027777443 31:-0.0021537212 32:-0.013100622 33:0.013039402 34:-0.0021773328 35:0.010719012 36:0.0090334332 37:0.0086568724 38:-0.012290329 39:0.0091494936 40:-0.012295739 41:-0.011794206 42:0.019200759 43:0.024664242 44:0.0053554373 45:0.0025887515 #
-8.2595868347480561055817815940827 1:-0.2549659 2:0.078490198 3:0.102328 4:0.11257838 5:0.15617736 6:-0.011794502 7:0.076942094 8:-0.0059462395 9:-0.035247497 10:-0.020178733 11:-0.023655916 12:0.019041048 13:0.0038158144 14:-0.011354147 15:-0.0044727037 16:-0.0032957098 17:-0.044488341 18:0.022246046 19:0.00087425334 20:-0.023963166 21:-0.01320991 22:-0.0080628283 23:0.01868703 24:0.020874742 25:0.061435398 26:0.009813413 27:-0.0098511679 28:-0.020814599 29:0.0034092385 30:-0.04347185 31:0.010325698 32:0.012943083 33:-0.034280505 34:0.028194057 35:-0.0013734476 36:-0.0025300262 37:0.014875134 38:-0.0059576924 39:-0.0037224484 40:-0.00691078 41:-0.002667868 42:-0.0069370568 43:-0.0020167234 44:0.0016585285 45:-0.014477896 #
8.2595868347480561055817815940827 1:0.34703395 2:0.22363368 3:0.097686723 4:-0.03030665 5:-0.046842616 6:0.062620044 7:0.039828163 8:-0.10978074 9:-0.066687234 10:0.029487375 11:0.0028826622 12:-0.0045798649 13:-0.005405975 14:0.010378329 15:0.029114103 16:0.0084806317 17:-0.0050444952 18:0.0032849393 19:-0.016590744 20:0.051079292 21:-0.037014298 22:-0.021339156 23:0.01207774 24:-0.014758461 25:0.010428631 26:0.0065016095 27:-0.0026931236 28:0.0068721925 29:0.0030979342 30:0.018388826 31:-0.0083885603 32:0.011118295 33:-0.0091253035 34:-0.0067842677 35:0.0064439229 36:-0.0024212534 37:0.0087157125 38:0.007973833 39:0.0037639099 40:-0.0052318955 41:-0.017849077 42:-0.018425537 43:0.0063637714 44:0.0030485522 45:-0.0039247219 #
8.2595868347480561055817815940827 1:-0.28133151 2:0.14375614 3:-0.055047348 4:-0.040546097 5:0.050579634 6:-0.017507682 7:0.012352081 8:-0.036146924 9:0.03164034 10:-0.0016136824 11:0.0094093056 12:-0.049776919 13:-0.0095601669 14:0.031219499 15:0.0086879628 16:-0.010494411 17:0.0091225058 18:0.010262211 19:0.017276069 20:-0.0074118017 21:-9.3464281e-05 22:-0.0025034379 23:0.0094465641 24:0.012637402 25:0.031594448 26:-0.0053767492 27:-0.00055311521 28:-0.0058852588 29:0.019620372 30:0.016506404 31:-0.00061641948 32:0.0035522552 33:-0.017421849 34:-0.017823897 35:-0.016055094 36:-0.024506573 37:-0.023107555 38:0.0098481346 39:-0.00612952 40:0.023529392 41:-0.00017220041 42:-0.018311264 43:-0.032728363 44:0.016191829 45:0.0053018625 #
-8.2595868347480561055817815940827 1:-0.29399601 2:0.17789675 3:-0.1086051 4:0.0055368189 5:0.037336476 6:-0.035686754 7:0.07245063 8:-0.074792713 9:0.07170812 10:0.03804896 11:0.0085087223 12:-0.067214683 13:-0.043548673 14:0.045214269 15:-0.0038236585 16:-0.031274911 17:0.023830418 18:-0.051609181 19:-0.0070254412 20:0.025371252 21:-0.00011772184 22:0.050580826 23:-0.040937781 24:-0.01345257 25:-0.046425588 26:-0.02505186 27:-0.0032918251 28:0.017119184 29:0.01081499 30:0.034370758 31:0.015002946 32:0.0053808801 33:-0.02850353 34:-0.038676705 35:-0.035030402 36:-0.023708295 37:-0.029961424 38:-0.00053085183 39:-0.00078282069 40:-0.00082215737 41:-0.0083777551 42:0.0026969574 43:-0.01724628 44:-0.0092421342 45:0.016650699 #
-8.2595868347480561055817815940827 1:-0.27294204 2:0.055227533 3:-0.032276727 4:0.002770297 5:-0.083334267 6:0.00023697516 7:-0.011871019 8:0.014181641 9:-0.022358958 10:-0.030743776 11:-0.019131241 12:0.0015042529 13:-0.012335193 14:0.023131261 15:-0.015136705 16:0.028730351 17:0.016949767 18:-0.01168587 19:-0.0134587 20:0.00011271418 21:-0.0059817983 22:0.025236715 23:-0.0085814381 24:0.000439936 25:0.020799242 26:-0.040188741 27:0.020314287 28:0.010292877 29:-0.00080273399 30:0.016355215 31:-0.019606076 32:-0.017055007 33:0.028337091 34:-0.0088672657 35:0.0067184386 36:-0.014342878 37:-0.0086403135 38:-0.0021266397 39:0.013001256 40:-0.0045150043 41:-0.015534204 42:0.0073176404 43:0.0021140338 44:0.010772183 45:-0.0067002624 #
-8.2595868347480561055817815940827 1:-0.28781438 2:0.18873253 3:-0.13794336 4:-0.053434014 5:0.002328573 6:-0.087273881 7:-0.08181335 8:-0.054246839 9:0.014917265 10:-0.020699229 11:0.00050626014 12:-0.054842886 13:-0.048367262 14:0.015647981 15:0.011563846 16:-0.07346154 17:0.0041409209 18:-0.020420907 19:0.023391826 20:0.04151611 21:-0.0040842942 22:0.029212538 23:-0.018275928 24:-0.014891638 25:-0.027071703 26:-0.030068077 27:0.050381809 28:0.030786121 29:-0.015165069 30:0.073092505 31:0.024018543 32:-0.002911292 33:0.0038438705 34:-0.039059386 35:-0.018228946 36:-0.012791962 37:-0.00029864153 38:0.0075697792 39:0.0011626033 40:-0.030737149 41:0.0037836004 42:0.0094728703 43:0.011357185 44:-0.0030455822 45:-0.0055967644 #
8.2595868347480561055817815940827 1:0.30368927 2:0.15705761 3:0.035536673 4:0.08201851 5:-0.024815833 6:0.035809997 7:0.051036946 8:-0.014801634 9:0.0026199629 10:-0.021931641 11:0.049051009 12:0.014239738 13:-0.06456168 14:0.0023187422 15:-0.00024577379 16:-0.0039693168 17:-0.0027302371 18:-0.011647956 19:0.025375763 20:-0.010803254 21:-0.026156195 22:-0.0080405548 23:0.031013716 24:-0.023653816 25:-0.012085624 26:-0.022980789 27:0.037815638 28:-0.010009154 29:0.013350928 30:-0.010874959 31:0.036101334 32:-0.037957221 33:0.0057879328 34:0.0078772893 35:-0.00010407788 36:-0.023284078 37:0.017299093 38:-0.013353088 39:0.0068638953 40:0.0052216784 41:-0.00051469763 42:-0.011115423 43:0.0065262481 44:0.012093903 45:0.01657437 #
8.2595868347480561055817815940827 1:0.35656476 2:0.16692595 3:0.069589086 4:0.027885221 5:0.010584046 6:0.096744038 7:0.11942033 8:0.0069283335 9:0.046106432 10:-0.013222706 11:0.0060461434 12:0.027272981 13:-0.052632596 14:0.016382517 15:-0.0084831724 16:-0.049206268 17:-0.015567805 18:0.070972309 19:0.026729014 20:-0.0083235558 21:-0.027417403 22:0.029897207 23:0.0084418245 24:-0.015106343 25:-0.017680055 26:-0.016337382 27:0.0037375879 28:0.0081374766 29:0.018451668 30:-0.0003760785 31:0.010413721 32:-0.018659661 33:-0.0028178394 34:-0.0016697432 35:0.010524664 36:-0.021596802 37:0.014881699 38:-0.0078163305 39:0.0067729312 40:0.0065782564 41:-0.017285617 42:-0.018236179 43:0.024686771 44:0.014903672 45:-0.0084718028 #
-8.2595868347480561055817815940827 1:0.26345754 2:0.16826659 3:0.0312583 4:-0.11934783 5:-0.013185211 6:-0.060710706 7:-0.013201375 8:0.056183815 9:0.044663604 10:-0.074211903 11:0.19571789 12:0.07679446 13:-0.11034723 14:0.0078191869 15:0.0099747702 16:0.023484083 17:-0.025245976 18:0.026212426 19:-0.040824011 20:-0.012893371 21:-0.03006202 22:0.040894631 23:0.031250808 24:0.043693405 25:-0.020672072 26:0.031359181 27:0.0083488943 28:0.02660661 29:0.012097094 30:-0.0053234734 31:-0.014367659 32:-0.012139994 33:-0.00018689343 34:0.0081917606 35:-0.0064582443 36:0.006031367 37:0.006065873 38:-0.012518481 39:0.0080440352 40:-0.0034717368 41:0.017875839 42:-0.010646481 43:-0.0043329792 44:-0.0050465125 45:0.017439844 #
8.2595868347480561055817815940827 1:0.30928254 2:0.034105793 3:-0.12911023 4:-0.095594361 5:0.16674013 6:0.14621571 7:-0.05454503 8:0.1098899 9:0.062588312 10:-0.00044861791 11:-0.020078465 12:-0.034986399 13:-0.016395088 14:-0.046080191 15:-0.035141766 16:0.062225603 17:-0.032238923 18:-0.023590641 19:-0.037085604 20:0.045784324 21:0.0021997627 22:0.013203741 23:0.036808144 24:-0.012954112 25:0.0052620168 26:0.0051512714 27:-0.020943364 28:0.01194533 29:0.00098395045 30:0.013685664 31:-0.011046226 32:0.020321961 33:0.003613272 34:0.019903164 35:-0.0089078117 36:-0.014102074 37:0.011287428 38:0.013884346 39:0.021823978 40:-0.0081424275 41:0.0046645734 42:0.010358448 43:-0.016536476 44:-0.018346572 45:-0.010246649 #
8.2595868347480561055817815940827 1:-0.285052 2:0.13339427 3:-0.054287124 4:0.0053575463 5:0.049889427 6:-0.046161309 7:-0.001417924 8:-0.056945544 9:0.035835288 10:0.016054882 11:0.0088764969 12:-0.033699758 13:-0.016154898 14:0.029420616 15:0.0042197756 16:0.0036185957 17:0.0066565149 18:-0.029673606 19:-0.027177934 20:-0.00030407391 21:0.0022754641 22:0.035344437 23:-0.0082605435 24:-0.0015252316 25:0.0099631967 26:-0.018515788 27:0.0054263887 28:0.0084476341 29:0.0035640453 30:0.028954523 31:0.00073768763 32:-0.0035003817 33:0.013104429 34:-0.028461548 35:-0.032267328 36:-0.00038779347 37:-0.0072021969 38:-0.014373245 39:-0.0028956425 40:-0.0025923697 41:-0.01115652 42:0.0011349275 43:-0.0087842289 44:-0.0080354428 45:0.0051041767 #
8.2595868347480561055817815940827 1:-0.038800992 2:-0.10738589 3:-0.025343847 4:0.060469583 5:0.0030881483 6:-0.060416374 7:-0.032004341 8:-0.030727478 9:-0.015179965 10:0.0089430846 11:0.004058403 12:0.011498239 13:0.030999463 14:0.0045352941 15:0.0055104867 16:-0.0016241026 17:-0.017866259 18:-0.031494521 19:0.0027976742 20:-0.0037927264 21:-0.028775709 22:-0.010896471 23:-0.0027053121 24:0.0035453525 25:-0.012503721 26:0.0073431842 27:0.0058693937 28:0.0070807086 29:0.014076004 30:-0.021453748 31:-0.009568518 32:-0.0051560048 33:-0.00787488 34:-0.0021859377 35:0.0061470694 36:-0.015423348 37:0.0015324622 38:0.0064794919 39:0.0031335985 40:-0.01011467 41:-0.012181435 42:0.00085790001 43:0.0027081536 44:-0.0031076618 45:-0.0073787714 #
-8.2595868347480561055817815940827 1:-0.31427258 2:0.073666871 3:0.050113767 4:0.067628577 5:-0.043474294 6:0.064890765 7:0.10218363 8:0.058689412 9:-0.02426015 10:-0.033559687 11:-0.014323629 12:-0.037954632 13:0.016703693 14:0.018797696 15:-0.0055241007 16:0.057136044 17:-0.023239179 18:0.031542882 19:-0.044629693 20:-0.049923599 21:-0.0054875142 22:0.029698372 23:0.010153808 24:-0.0011027363 25:0.022604756 26:-0.035074927 27:-0.017662771 28:0.0056397612 29:0.010599974 30:-0.0070809037 31:-0.014481439 32:-0.012856949 33:0.020621784 34:-0.0085054245 35:-0.00093126256 36:0.0073289154 37:0.012479343 38:0.0071562696 39:0.002499013 40:0.0070996992 41:-0.0050745588 42:-0.004198249 43:0.0010946799 44:0.0078471024 45:-0.015132071 #
-8.2595868347480561055817815940827 1:0.11928237 2:-0.24879593 3:0.038445275 4:-0.077317275 5:0.02255477 6:0.059448041 7:0.10554942 8:-0.012340763 9:0.018923756 10:0.048912715 11:-0.019096985 12:0.0090012075 13:-0.053795595 14:-0.0079091135 15:0.0020724763 16:-0.018157173 17:0.0054528927 18:0.011848281 19:0.011174919 20:0.0031388067 21:-0.0050050514 22:-0.0074163112 23:-0.0027877155 24:0.0040243203 25:0.0068507334 26:0.0014384076 27:-0.00091274269 28:-0.0051682764 29:-4.378998e-05 30:0.014226511 31:0.003768214 32:-0.001011594 33:0.010274731 34:-0.00066034851 35:0.00030574115 36:0.0057476354 37:0.01031119 38:0.0029554572 39:-0.014862071 40:0.0028505158 41:-0.0017935184 42:-0.0011859493 43:0.0013553987 44:-0.00080453581 45:0.011597376 #
8.2595868347480561055817815940827 1:0.30099633 2:0.17447084 3:0.0064236079 4:-0.058610201 5:-0.010161842 6:0.024485201 7:-0.06802959 8:-0.016739044 9:-0.010228947 10:-0.033321597 11:0.080425672 12:0.028960815 13:-0.040382646 14:-0.0084971525 15:-0.0054512182 16:0.0026605506 17:-0.0011689882 18:0.001873987 19:-0.00078800635 20:-0.023305045 21:-0.010428214 22:0.0250981 23:0.017828224 24:-0.020334849 25:-0.011205969 26:-0.021886507 27:0.011145372 28:-0.022132058 29:0.014863552 30:-0.013306906 31:0.024314931 32:-0.033019688 33:0.005470227 34:0.0037362783 35:-0.0012806512 36:-0.01569931 37:0.0054423679 38:-0.0059348177 39:0.001803818 40:0.0026417442 41:0.0044029923 42:-0.01233166 43:0.0023009926 44:0.012734571 45:0.015995573 #
8.2595868347480561055817815940827 1:0.32305852 2:0.17456792 3:0.016712783 4:-0.052254584 5:0.0066364282 6:0.064076655 7:-0.013863669 8:-0.016923623 9:0.0012834755 10:-0.022249093 11:0.075097479 12:0.03147975 13:-0.044671152 14:-0.0037458215 15:0.00072117295 16:0.019352604 17:-0.0085632298 18:-0.019591132 19:-0.025387138 20:-0.015872627 21:-0.018099081 22:0.0015245809 23:0.024041101 24:-0.028962696 25:-0.0081195412 26:-0.017904054 27:0.026332146 28:-0.021886943 29:0.014172078 30:-0.0084331045 31:0.032394834 32:-0.021304376 33:0.012013635 34:0.0014405042 35:0.0013680747 36:-0.019658539 37:0.020354342 38:-0.0015773205 39:-0.0060381889 40:-0.0096324515 41:0.010322317 42:-0.015972827 43:-0.01050809 44:0.0092685362 45:0.020801932 #
-8.2595868347480561055817815940827 1:0.29183516 2:0.15683663 3:-0.054558013 4:0.045062918 5:0.029345183 6:0.13237849 7:-0.13821712 8:0.01387407 9:0.10345426 10:-0.064570516 11:-0.048236039 12:0.078549109 13:0.011207257 14:0.0830727 15:0.022925369 16:-0.071818762 17:0.023863435 18:0.038765393 19:-0.028722391 20:-0.065043822 21:-0.017201027 22:0.006301939 23:-0.028269004 24:0.017840596 25:-0.020639258 26:-0.000261721 27:0.039406445 28:0.017225111 29:0.037809733 30:-0.029408721 31:0.024491379 32:-0.0044299057 33:0.015662529 34:0.0063799368 35:0.010496049 36:0.013248553 37:-0.012059453 38:-0.023234272 39:-0.031539883 40:0.0097325062 41:0.020114668 42:0.042271394 43:-0.020771334 44:0.0098583624 45:-0.016983919 #
-8.2595868347480561055817815940827 1:0.30336022 2:0.063259445 3:-0.1314835 4:-0.10020291 5:0.14120068 6:0.13777359 7:-0.11276197 8:0.10300928 9:0.079468146 10:-0.018559879 11:-0.014946899 12:0.021795835 13:-0.02116557 14:-0.0074984799 15:-0.0058472096 16:0.0095786089 17:0.001951044 18:0.034906924 19:-0.013711156 20:-0.011940342 21:-0.0057800012 22:0.037578024 23:-8.704963e-05 24:0.00054438366 25:-0.0031815514 26:0.0050560785 27:-0.0095013976 28:-0.0003145794 29:-0.00091379997 30:-0.013133042 31:0.0096679386 32:-0.016358508 33:0.010415639 34:0.001236211 35:0.0010514846 36:-0.010919913 37:0.013847524 38:-0.014269479 39:-0.00716693 40:-0.0029434452 41:0.015097878 42:0.013352351 43:-0.0077422424 44:0.0015637875 45:0.0014578917 #
8.2595868347480561055817815940827 1:-0.28054357 2:0.076100744 3:0.044633199 4:0.0038546466 5:0.036241479 6:0.025483962 7:0.036353126 8:-0.002315616 9:0.01524753 10:0.021086933 11:0.019565055 12:-0.015002855 13:0.010440127 14:0.046369616 15:-0.015706072 16:0.037980042 17:0.028663673 18:-0.007529113 19:0.0093518123 20:-0.0043703225 21:0.0010106012 22:0.0078513706 23:-0.0058490848 24:0.013683323 25:0.012384566 26:-0.020120874 27:-0.0080723735 28:0.00081381417 29:-0.0082104458 30:0.0030918319 31:-0.0047804713 32:-0.00027008523 33:0.010824947 34:-0.003386603 35:-0.016375007 36:0.02455255 37:0.015565183 38:-0.0098407976 39:-0.0085213212 40:-0.0059003718 41:-0.00096439949 42:0.0085509308 43:0.0086332839 44:-0.016207885 45:0.011400999 #
8.2595868347480561055817815940827 1:0.25717902 2:0.14805834 3:0.026220065 4:0.0095919939 5:-0.024797421 6:-0.007635673 7:-0.026376246 8:-0.026989488 9:-0.020427695 10:0.0216024 11:-0.070030212 12:-0.015078398 13:0.0089707384 14:0.0038047284 15:0.0066886642 16:0.014686037 17:0.011614134 18:-0.045394562 19:0.019025093 20:-0.057386 21:0.039411526 22:-0.012332576 23:-0.022738038 24:0.031372502 25:-0.0027445033 26:0.016567631 27:0.018758684 28:0.022771806 29:0.0043927575 30:0.0048079542 31:-0.0016531792 32:0.012852992 33:-0.0077662882 34:0.0029229706 35:0.0015142775 36:0.00099998969 37:-0.0087676859 38:0.0032307301 39:0.005145275 40:0.002831667 41:0.0011277974 42:0.0064946432 43:-0.0041748448 44:-0.0080288686 45:-0.0093555832 #
-8.2595868347480561055817815940827 1:0.30227304 2:0.21566895 3:0.072204828 4:-0.071199767 5:-0.057910319 6:0.017911613 7:-0.015935445 8:-0.10601334 9:-0.08888527 10:0.031171808 11:0.037757818 12:-0.014297595 13:-0.024663085 14:-0.021663491 15:0.033101503 16:0.070021786 17:-0.045065701 18:-0.048646558 19:0.007913596 20:0.016010478 21:0.0148987 22:0.012328793 23:0.037511595 24:-0.017764125 25:-0.0076204892 26:-0.01012804 27:0.011126732 28:-0.029043183 29:0.0097975293 30:-0.0061754938 31:0.0012308098 32:0.022552483 33:1.5825995e-05 34:-0.016458876 35:0.016720956 36:0.0069499896 37:-0.012005739 38:-0.0085974708 39:-0.013745003 40:0.0022523478 41:0.017036134 42:0.014164736 43:-0.0055007096 44:-0.0022899669 45:-0.014839193 #
8.2595868347480561055817815940827 1:-0.2936199 2:0.15164542 3:-0.094258651 4:-0.016760603 5:0.0094146607 6:-0.040589824 7:0.0028895198 8:-0.040022247 9:0.038364876 10:0.016578557 11:0.0047732019 12:-0.05181298 13:-0.021521742 14:0.040054776 15:-0.0028132643 16:-0.022596141 17:-0.013871389 18:-0.0056979968 19:0.00046531655 20:-0.00025089385 21:-0.0055326917 22:0.023506342 23:-0.0050086328 24:0.0043573584 25:0.024386626 26:-0.0059964359 27:0.0077435831 28:-0.0035566236 29:0.010053494 30:0.026874142 31:-0.0018949013 32:-0.010304986 33:-0.0089195753 34:-0.0090639545 35:0.0095216446 36:-0.017626392 37:-0.018284462 38:0.0093139075 39:0.0077974452 40:0.0074732406 41:0.0052158902 42:-0.00088130205 43:0.0034587095 44:0.015475089 45:-0.003783084 #
8.2595868347480561055817815940827 1:-0.27675354 2:0.12393219 3:-0.028448833 4:0.012880135 5:0.064214386 6:-0.023228267 7:0.041925009 8:-0.049695138 9:0.034598421 10:0.011305138 11:0.0021824352 12:-0.039519172 13:-0.020253917 14:0.028625004 15:0.0039486708 16:-0.0058280411 17:0.0068206349 18:-0.0074200616 19:-0.0069932267 20:-0.003703096 21:0.0072522094 22:0.041121967 23:-0.0041379035 24:0.0088328794 25:0.02532291 26:-0.022313777 27:3.1938023e-05 28:0.001868913 29:0.0091212271 30:0.024906095 31:-0.0049123354 32:-0.0048209066 33:0.01721815 34:-0.026285825 35:-0.028249241 36:-0.0022981719 37:-0.0072742179 38:-0.0053578261 39:-0.0077135186 40:-0.0069865314 41:-0.0098758638 42:0.0029951769 43:-0.015967799 44:-0.0089656329 45:0.012221618 #
8.2595868347480561055817815940827 1:0.22481661 2:0.17718488 3:-0.011196676 4:0.042399552 5:-0.086043462 6:-0.068628341 7:-0.17466642 8:-0.027334379 9:-0.01811699 10:-0.05383005 11:0.02211717 12:0.028101636 13:-0.0083054248 14:0.022606874 15:0.012557998 16:-0.049302123 17:0.0056789708 18:0.068515375 19:0.025504651 20:0.0007743818 21:-0.0077831964 22:0.039321549 23:-0.0003811481 24:-0.0061787385 25:-0.0047577238 26:-0.0082017649 27:-0.012112281 28:-0.0022634508 29:0.023479309 30:0.01407181 31:0.007583621 32:-0.012251234 33:-0.015755998 34:-0.0018973878 35:0.013793884 36:-0.028996743 37:0.00064010546 38:0.0044679334 39:0.0015753215 40:0.019342022 41:-0.0065664835 42:-0.0050151167 43:0.02270638 44:-0.0027892194 45:-0.028223259 #
8.2595868347480561055817815940827 1:0.22889797 2:0.18566874 3:0.0034424595 4:0.096919782 5:-0.10140735 6:-0.052118793 7:-0.13196081 8:-0.04642408 9:-0.020875478 10:-0.042657726 11:0.018917607 12:0.031156063 13:0.00084078999 14:0.029942846 15:0.023070967 16:-0.038822211 17:0.0078502633 18:0.059743769 19:0.0069534364 20:0.0096948603 21:-0.011372757 22:0.039470851 23:-0.003969511 24:-0.00315195 25:-0.0014351894 26:-0.0042609735 27:-0.017848669 28:-0.0017474168 29:0.027115183 30:0.0074282354 31:0.0080877952 32:-0.0083633428 33:-0.0022335167 34:0.0061754342 35:0.0041723154 36:-0.019457731 37:0.0055516483 38:0.0093781389 39:-0.0067596403 40:0.0073570521 41:0.0045535113 42:-0.0049566897 43:-0.0042954506 44:-0.0044641048 45:-0.0042973999 #
-8.2595868347480561055817815940827 1:0.30175617 2:0.22227643 3:0.059153825 4:-0.065928943 5:-0.067845881 6:0.016222814 7:-0.061796095 8:-0.11371091 9:-0.095821477 10:0.018350204 11:0.032703981 12:-0.021420714 13:-0.01925181 14:-0.022522494 15:0.010223384 16:0.031488404 17:-0.031363297 18:-0.005006921 19:0.022125851 20:-0.0010074492 21:0.033543292 22:0.020236045 23:-0.00028813074 24:6.2143125e-05 25:-0.0061998116 26:-0.016781164 27:-0.014171978 28:-0.017492579 29:-0.0063245385 30:-0.016290434 31:0.0013805989 32:-0.0045538703 33:0.0059290524 34:-6.5655749e-06 35:-0.0027406202 36:0.0079353033 37:-0.017155059 38:0.0023216188 39:-0.00922387 40:0.0029328617 41:0.010496323 42:0.020660238 43:-0.0082036844 44:-0.0029163919 45:-0.0082358671 #
