SVM-light Version V6.02
0 # kernel type
3 # kernel parameter -d 
1 # kernel parameter -g 
1 # kernel parameter -s 
1 # kernel parameter -r 
empty# kernel parameter -u 
4 # highest feature index 
1684 # number of training documents 
1296 # number of support vectors plus 1 
-0.18802857 # threshold b, each following line is a SV (starting with alpha*y)
-12.133047805206830460633682378102 1:0.15040615 2:-0.18364707 3:-0.23527473 4:-0.023743231 #
-12.133047805206830460633682378102 1:-0.26656249 2:0.057494346 3:-0.040457096 4:0.00046832996 #
12.133047805206830460633682378102 1:0.12543042 2:0.018070692 3:-0.10865018 4:0.044205453 #
-12.133047805206830460633682378102 1:0.4795773 2:0.4901261 3:-0.064975783 4:0.35376936 #
12.133047805206830460633682378102 1:-0.35758635 2:0.14202014 3:-0.096577562 4:-0.089739077 #
-12.133047805206830460633682378102 1:-0.37215668 2:0.12326582 3:-0.10352184 4:-0.12596153 #
12.133047805206830460633682378102 1:0.18115604 2:-0.051196329 3:-0.18708296 4:0.22447492 #
12.133047805206830460633682378102 1:0.27441937 2:0.15269326 3:0.036381666 4:0.2177887 #
-12.133047805206830460633682378102 1:0.2514621 2:0.0092956778 3:-0.12840423 4:0.23636259 #
-12.133047805206830460633682378102 1:0.36446074 2:0.20250167 3:0.070262924 4:0.10023451 #
12.133047805206830460633682378102 1:-0.25019047 2:0.029447211 3:-0.08947853 4:-0.0051725702 #
-12.133047805206830460633682378102 1:-0.3841975 2:0.11482425 3:-0.077291206 4:-0.13752539 #
12.133047805206830460633682378102 1:0.24358031 2:-0.14530328 3:-0.16164672 4:-0.025247822 #
12.133047805206830460633682378102 1:0.17929804 2:-0.0024495418 3:-0.099478319 4:0.07175044 #
-12.133047805206830460633682378102 1:0.26670352 2:-0.13493179 3:-0.15477683 4:-0.024046626 #
-12.133047805206830460633682378102 1:-0.37378904 2:0.18755683 3:-0.095261931 4:-0.071761414 #
12.133047805206830460633682378102 1:0.23147646 2:0.0090040304 3:0.021838283 4:0.11787044 #
12.133047805206830460633682378102 1:-0.27690017 2:0.12824643 3:-0.053081404 4:0.0094345193 #
-12.133047805206830460633682378102 1:-0.37236646 2:0.12921228 3:-0.10670738 4:-0.098340593 #
12.133047805206830460633682378102 1:0.26751691 2:0.12231779 3:0.10020458 4:-0.22664087 #
-12.133047805206830460633682378102 1:0.36581463 2:0.21479475 3:0.056370236 4:-0.037242547 #
12.133047805206830460633682378102 1:-0.32516828 2:0.087328739 3:0.011375704 4:0.044193521 #
-12.133047805206830460633682378102 1:-0.37332872 2:0.16749626 3:-0.080363616 4:-0.03219511 #
-12.133047805206830460633682378102 1:0.33984613 2:0.21789055 3:0.09328527 4:-0.12493087 #
12.133047805206830460633682378102 1:-0.28761387 2:0.12016982 3:-0.045625564 4:0.041638151 #
-12.133047805206830460633682378102 1:0.3418622 2:0.22457458 3:0.084540486 4:-0.14533156 #
12.133047805206830460633682378102 1:0.16760267 2:0.11335102 3:0.055352837 4:-0.083925262 #
-12.133047805206830460633682378102 1:-0.065355361 2:-0.074492775 3:0.16748218 4:-0.15206416 #
-12.133047805206830460633682378102 1:0.28254533 2:0.15681589 3:-0.007904836 4:0.26413152 #
12.133047805206830460633682378102 1:0.0036642484 2:-0.10001801 3:0.12866287 4:-0.19619219 #
12.133047805206830460633682378102 1:-0.25954592 2:0.060409851 3:0.068619214 4:-0.029729808 #
-12.133047805206830460633682378102 1:-0.35137597 2:0.080841251 3:-0.10306513 4:-0.12077391 #
12.133047805206830460633682378102 1:0.24480423 2:0.17658068 3:0.074391916 4:0.18139929 #
12.133047805206830460633682378102 1:-0.23799579 2:0.01994486 3:-0.070650093 4:0.021592543 #
-12.133047805206830460633682378102 1:0.16091812 2:-0.2475629 3:-0.050165236 4:-0.20422484 #
12.133047805206830460633682378102 1:0.27193066 2:0.073377848 3:0.00090527209 4:-0.020972792 #
-12.133047805206830460633682378102 1:0.27297056 2:0.21068002 3:0.068205558 4:0.17498042 #
-12.133047805206830460633682378102 1:0.27528083 2:0.20118815 3:0.10710347 4:0.1742516 #
12.133047805206830460633682378102 1:0.12725356 2:-0.17511007 3:-0.04809754 4:-0.11995636 #
12.133047805206830460633682378102 1:0.064224645 2:-0.13734995 3:-0.0092113232 4:-0.17701556 #
-12.133047805206830460633682378102 1:0.15679732 2:-0.24506834 3:-0.019797094 4:-0.24059723 #
12.133047805206830460633682378102 1:0.25704184 2:0.16107723 3:0.061847765 4:0.1412061 #
-12.133047805206830460633682378102 1:0.1795827 2:0.19941333 3:0.045334592 4:0.20860822 #
-12.133047805206830460633682378102 1:0.2253558 2:0.14356974 3:-0.046763726 4:0.25569674 #
12.133047805206830460633682378102 1:0.1688575 2:-0.13553542 3:-0.098994292 4:-0.1434952 #
-12.133047805206830460633682378102 1:0.13834801 2:-0.21737981 3:-0.051780261 4:-0.21593125 #
12.133047805206830460633682378102 1:0.20573768 2:0.05867077 3:-0.0427185 4:-0.017430615 #
12.133047805206830460633682378102 1:0.13650602 2:-0.19827431 3:-0.052240878 4:-0.058069512 #
-12.133047805206830460633682378102 1:-0.32319838 2:0.18926534 3:-0.1521865 4:0.001544574 #
12.133047805206830460633682378102 1:-0.041198865 2:-0.18568924 3:0.10586528 4:0.074385405 #
12.133047805206830460633682378102 1:0.0018662015 2:-0.16787849 3:0.10102006 4:-0.030663719 #
12.133047805206830460633682378102 1:-0.22781041 2:0.032448705 3:-0.077495098 4:-0.063187487 #
12.133047805206830460633682378102 1:-0.083553299 2:-0.18002011 3:0.068087831 4:0.15292229 #
-12.133047805206830460633682378102 1:0.13886976 2:-0.23042439 3:-0.13384269 4:0.072398901 #
12.133047805206830460633682378102 1:0.11775203 2:0.10801209 3:0.036444478 4:0.049000707 #
-12.133047805206830460633682378102 1:0.35382792 2:0.20489627 3:0.037629128 4:-0.11680649 #
12.133047805206830460633682378102 1:-0.066602103 2:-0.17173934 3:0.093049407 4:0.12177125 #
-12.133047805206830460633682378102 1:-0.31917658 2:0.089821108 3:-0.11113759 4:-0.13083465 #
12.133047805206830460633682378102 1:0.10312996 2:-0.035953075 3:-0.035666283 4:0.23369928 #
-12.133047805206830460633682378102 1:0.068178758 2:-0.25282302 3:-0.079920128 4:0.12062041 #
-12.133047805206830460633682378102 1:-0.17041841 2:0.020257566 3:0.11638856 4:-0.050360598 #
-12.133047805206830460633682378102 1:0.13828714 2:-0.250337 3:-0.024812043 4:-0.098687865 #
12.133047805206830460633682378102 1:-0.18599218 2:0.010474953 3:-0.079995759 4:-0.082269989 #
-12.133047805206830460633682378102 1:-0.30565947 2:0.20324203 3:-0.14105478 4:-0.080872744 #
12.133047805206830460633682378102 1:0.23147646 2:0.0090040304 3:0.021838283 4:0.11787044 #
12.133047805206830460633682378102 1:0.1856581 2:-0.16754407 3:-0.064923689 4:-0.012857414 #
-12.133047805206830460633682378102 1:-0.32851252 2:0.19678959 3:-0.12250698 4:-0.0050826068 #
-12.133047805206830460633682378102 1:0.17210573 2:-0.2468446 3:-0.067184299 4:-0.14413692 #
-12.133047805206830460633682378102 1:0.022422899 2:-0.20398371 3:-0.092183463 4:0.16024165 #
-12.133047805206830460633682378102 1:-0.33877978 2:0.19324718 3:-0.10777065 4:0.0094423667 #
-12.133047805206830460633682378102 1:0.34631792 2:0.10259684 3:-0.061055686 4:0.022437638 #
12.133047805206830460633682378102 1:0.21003628 2:0.081027299 3:0.0022348983 4:0.073012695 #
-12.133047805206830460633682378102 1:-0.36576861 2:0.12650953 3:-0.094777182 4:-0.1076194 #
12.133047805206830460633682378102 1:0.26964536 2:0.12344866 3:0.084432229 4:-0.088117667 #
-12.133047805206830460633682378102 1:-0.37294573 2:0.17635708 3:-0.088997275 4:-0.027621258 #
12.133047805206830460633682378102 1:-0.25705004 2:-0.0012276565 3:-0.053041171 4:0.023831343 #
-12.133047805206830460633682378102 1:-0.37175718 2:0.16974548 3:-0.080879867 4:-0.061047483 #
12.133047805206830460633682378102 1:-0.32147288 2:0.13940263 3:-0.10961439 4:-0.061187934 #
-12.133047805206830460633682378102 1:0.3346467 2:0.21460983 3:0.094325557 4:-0.082732596 #
12.133047805206830460633682378102 1:-0.36242348 2:0.15051402 3:-0.094142102 4:-0.086325057 #
-12.133047805206830460633682378102 1:0.048877679 2:-0.21941982 3:-0.0030237604 4:-0.02414301 #
12.133047805206830460633682378102 1:0.070587702 2:-0.094887696 3:-0.14597653 4:-0.087169044 #
-12.133047805206830460633682378102 1:0.31835207 2:0.21637851 3:0.08773493 4:-0.15173414 #
12.133047805206830460633682378102 1:-0.30347982 2:0.12360352 3:0.012162106 4:0.11017666 #
12.133047805206830460633682378102 1:0.2220259 2:0.11024224 3:0.098329827 4:-0.11155384 #
12.133047805206830460633682378102 1:0.10555782 2:-0.026226396 3:-0.13190264 4:0.030949777 #
12.133047805206830460633682378102 1:0.20951584 2:0.055385385 3:-0.018967459 4:0.18080458 #
-12.133047805206830460633682378102 1:0.35029143 2:0.18607572 3:0.067775831 4:0.052725054 #
-12.133047805206830460633682378102 1:-0.35061264 2:0.089516789 3:-0.11200675 4:-0.11015429 #
-12.133047805206830460633682378102 1:-0.35943609 2:0.10802452 3:-0.099559188 4:-0.096512124 #
-12.133047805206830460633682378102 1:-0.36190453 2:0.17358519 3:-0.1178309 4:-0.0428553 #
-12.133047805206830460633682378102 1:0.049254779 2:-0.22945958 3:0.0450118 4:-0.082626894 #
-12.133047805206830460633682378102 1:-0.36557499 2:0.16481154 3:-0.091998518 4:-0.089156568 #
12.133047805206830460633682378102 1:-0.34697244 2:0.13863476 3:-0.09368901 4:-0.067413189 #
12.133047805206830460633682378102 1:0.2057718 2:0.062104821 3:-0.03746381 4:0.066022798 #
-12.133047805206830460633682378102 1:0.34184524 2:0.18740568 3:0.024026325 4:0.080891825 #
6.5737839133651014833503722911701 1:-0.33819818 2:0.15322821 3:-0.11494766 4:-0.077174641 #
12.133047805206830460633682378102 1:0.15767403 2:0.033070166 3:-0.09120889 4:0.11355771 #
-12.133047805206830460633682378102 1:0.30412942 2:0.18876608 3:0.057938874 4:0.17331955 #
12.133047805206830460633682378102 1:-0.33526993 2:0.1392698 3:-0.11272154 4:-0.076634072 #
-12.133047805206830460633682378102 1:0.091265075 2:-0.25100061 3:-0.042453036 4:-0.028924325 #
-12.133047805206830460633682378102 1:0.34332669 2:0.22314772 3:0.025928296 4:-0.065366037 #
12.133047805206830460633682378102 1:0.19438837 2:0.11898087 3:0.070902042 4:-0.095265649 #
12.133047805206830460633682378102 1:0.13809641 2:0.083817765 3:-0.052779928 4:0.10848804 #
12.133047805206830460633682378102 1:0.17361997 2:0.035369247 3:-0.078209691 4:0.065723032 #
12.133047805206830460633682378102 1:-0.28798732 2:0.13207993 3:-0.059398189 4:-0.00096860662 #
12.133047805206830460633682378102 1:0.11960902 2:-0.14781801 3:-0.2069167 4:0.16603976 #
-12.133047805206830460633682378102 1:0.053515755 2:-0.2090394 3:-0.22883442 4:0.18821062 #
-12.133047805206830460633682378102 1:0.13925068 2:-0.04774655 3:-0.19246309 4:0.23415898 #
12.133047805206830460633682378102 1:0.064979888 2:-0.15720385 3:-0.10539724 4:0.13602403 #
-12.133047805206830460633682378102 1:0.28867099 2:0.20971763 3:0.071403973 4:-0.13881406 #
12.133047805206830460633682378102 1:-0.059043311 2:-0.15023759 3:0.015280785 4:0.16065124 #
12.133047805206830460633682378102 1:0.18515912 2:0.089252062 3:0.023477824 4:0.089581415 #
12.133047805206830460633682378102 1:-0.26108781 2:0.044508368 3:-0.093604676 4:-0.041373849 #
-12.133047805206830460633682378102 1:0.2994588 2:0.19773138 3:0.066965349 4:-0.11774958 #
12.133047805206830460633682378102 1:-0.12861307 2:-0.12589113 3:0.060889162 4:0.13058749 #
12.133047805206830460633682378102 1:-0.13748707 2:-0.098163649 3:0.034896407 4:0.13229738 #
-12.133047805206830460633682378102 1:-0.32308647 2:0.03379358 3:-0.11048691 4:-0.10515127 #
12.133047805206830460633682378102 1:0.10004487 2:-0.0043197349 3:-0.030110477 4:0.041973852 #
-12.133047805206830460633682378102 1:0.31869662 2:0.19612405 3:0.11207784 4:-0.011831589 #
-12.133047805206830460633682378102 1:0.33847851 2:0.2058586 3:0.035845321 4:0.0057844142 #
12.133047805206830460633682378102 1:0.20694238 2:0.12825404 3:0.050582577 4:-0.04572574 #
-12.133047805206830460633682378102 1:-0.34782875 2:0.11986441 3:-0.10359999 4:-0.080852106 #
-12.133047805206830460633682378102 1:0.33516616 2:0.20932272 3:0.02487834 4:-0.029771065 #
12.133047805206830460633682378102 1:-0.3397266 2:0.12764606 3:-0.089422807 4:-0.048334226 #
-12.133047805206830460633682378102 1:-0.35957694 2:0.09804561 3:-0.053811822 4:-0.073732674 #
12.133047805206830460633682378102 1:0.26127341 2:0.11989553 3:0.084713697 4:-0.039635368 #
-12.133047805206830460633682378102 1:0.31782764 2:0.21442607 3:0.087579779 4:-0.032086607 #
-12.133047805206830460633682378102 1:0.30480623 2:0.13042302 3:-0.021256477 4:0.15984565 #
12.133047805206830460633682378102 1:-0.33154824 2:0.16767733 3:-0.087155327 4:-0.06150946 #
12.133047805206830460633682378102 1:0.23360944 2:0.10779815 3:0.06671761 4:0.021266717 #
12.133047805206830460633682378102 1:-0.31761745 2:0.13361363 3:0.034148972 4:0.10772966 #
-12.133047805206830460633682378102 1:-0.31395856 2:0.096953139 3:0.033634249 4:0.11762953 #
-12.133047805206830460633682378102 1:-0.35336328 2:0.16056243 3:-0.073462881 4:-0.0051015629 #
-12.133047805206830460633682378102 1:-0.35879716 2:0.10951117 3:-0.059195258 4:-0.075150676 #
-12.133047805206830460633682378102 1:-0.34963116 2:0.094660468 3:-0.072971135 4:-0.073695183 #
-12.133047805206830460633682378102 1:0.32224324 2:0.12612897 3:-0.042728633 4:0.02573452 #
-12.133047805206830460633682378102 1:-0.1781337 2:-0.024706142 3:0.18449399 4:0.076607786 #
12.133047805206830460633682378102 1:-0.010515652 2:-0.1310132 3:0.0232845 4:0.028763799 #
12.133047805206830460633682378102 1:-0.27672794 2:0.10617763 3:-0.10617037 4:-0.054177605 #
12.133047805206830460633682378102 1:0.23176625 2:0.12219435 3:0.085714802 4:-0.075819232 #
-12.133047805206830460633682378102 1:0.30175617 2:0.22227643 3:0.059153825 4:-0.065928943 #
12.133047805206830460633682378102 1:-0.32810777 2:0.13842373 3:0.085563108 4:0.13337515 #
-12.133047805206830460633682378102 1:-0.34828773 2:0.17977883 3:-0.092053086 4:-0.073858768 #
-12.133047805206830460633682378102 1:0.31394681 2:0.19498897 3:0.071190424 4:0.15889268 #
-12.133047805206830460633682378102 1:0.34867936 2:0.15108655 3:-0.0012648732 4:-0.0001193198 #
-12.133047805206830460633682378102 1:-0.19182125 2:-0.033151999 3:0.12876317 4:0.070316806 #
-12.133047805206830460633682378102 1:-0.34881675 2:0.16205876 3:-0.088461496 4:-0.084051944 #
12.133047805206830460633682378102 1:0.14880912 2:0.0070026778 3:-0.094231322 4:0.090504974 #
-12.133047805206830460633682378102 1:0.33512816 2:0.19614397 3:0.026697677 4:0.049140684 #
12.133047805206830460633682378102 1:-0.32894561 2:0.14714402 3:-0.098127604 4:-0.06987305 #
12.133047805206830460633682378102 1:0.18736023 2:0.038910516 3:-0.073397763 4:0.053290751 #
12.133047805206830460633682378102 1:-0.33317107 2:0.15594175 3:-0.065568589 4:0.049354035 #
12.133047805206830460633682378102 1:0.20585077 2:0.10209621 3:0.033271316 4:0.048679672 #
-12.133047805206830460633682378102 1:-0.34193704 2:0.06620162 3:-0.081547782 4:-0.097957157 #
12.133047805206830460633682378102 1:0.14799497 2:-0.011128557 3:-0.098876067 4:0.036666051 #
-12.133047805206830460633682378102 1:-0.32932189 2:0.047408503 3:-0.11094819 4:-0.12145016 #
-12.133047805206830460633682378102 1:0.30529591 2:0.20862274 3:0.10119487 4:0.13562976 #
-12.133047805206830460633682378102 1:0.078615442 2:-0.24755754 3:-0.028822508 4:-0.07403025 #
12.133047805206830460633682378102 1:-0.30159694 2:0.024417274 3:-0.00049432844 4:0.023963265 #
-12.133047805206830460633682378102 1:-0.35344815 2:0.080444865 3:-0.025189498 4:-0.083063893 #
-12.133047805206830460633682378102 1:0.35011995 2:0.095310517 3:-0.029872514 4:-0.0250719 #
-12.133047805206830460633682378102 1:0.30227304 2:0.21566895 3:0.072204828 4:-0.071199767 #
12.133047805206830460633682378102 1:-0.31817463 2:0.1621013 3:-0.11099447 4:-0.0019669053 #
-12.133047805206830460633682378102 1:-0.34626448 2:0.15612817 3:-0.0932936 4:-0.021138374 #
-12.133047805206830460633682378102 1:0.12512021 2:-0.2646223 3:-0.0015537123 4:-0.11113267 #
-12.133047805206830460633682378102 1:-0.35385281 2:0.091547728 3:-0.055887505 4:-0.077936277 #
-12.133047805206830460633682378102 1:0.30544573 2:0.21344729 3:0.089195013 4:-0.018676072 #
-12.133047805206830460633682378102 1:-0.30065647 2:0.16236877 3:-0.050907224 4:-0.11856434 #
12.133047805206830460633682378102 1:-0.3315818 2:0.1446377 3:-0.073646553 4:-0.017035339 #
12.133047805206830460633682378102 1:0.21697743 2:0.12806699 3:0.069131471 4:-0.17258783 #
-12.133047805206830460633682378102 1:0.31225815 2:0.18374886 3:0.10017585 4:0.004601242 #
12.133047805206830460633682378102 1:-0.292546 2:0.13076752 3:-0.053289443 4:-0.0093906438 #
12.133047805206830460633682378102 1:-0.31730261 2:0.10827611 3:-0.096510477 4:-0.044505894 #
-12.133047805206830460633682378102 1:-0.17370953 2:-0.026465723 3:0.18119107 4:0.025339622 #
12.133047805206830460633682378102 1:-0.044149261 2:-0.16455655 3:0.10289654 4:0.092667848 #
12.133047805206830460633682378102 1:0.22425096 2:0.1269502 3:0.061163075 4:-0.084510967 #
-12.133047805206830460633682378102 1:0.20543966 2:-0.055684716 3:-0.21221939 4:-0.089645341 #
-12.133047805206830460633682378102 1:0.20556732 2:0.065758295 3:-0.13253108 4:0.27363032 #
-12.133047805206830460633682378102 1:0.032054406 2:-0.22001599 3:0.027453262 4:-0.063682228 #
-12.133047805206830460633682378102 1:0.26345754 2:0.16826659 3:0.0312583 4:-0.11934783 #
-12.133047805206830460633682378102 1:0.23758429 2:0.036090732 3:-0.12987776 4:0.2273853 #
12.133047805206830460633682378102 1:-0.26875195 2:0.13798445 3:0.092093602 4:0.015711106 #
-12.133047805206830460633682378102 1:-0.18462253 2:0.010232922 3:0.13252141 4:0.037284929 #
12.133047805206830460633682378102 1:-0.32577884 2:0.14175957 3:0.029040879 4:0.084823266 #
12.133047805206830460633682378102 1:0.24106722 2:-0.067166239 3:-0.17814846 4:0.021344118 #
12.133047805206830460633682378102 1:-0.32021698 2:0.14233662 3:0.054138768 4:0.091146365 #
12.133047805206830460633682378102 1:0.033099622 2:-0.16912453 3:-0.030792538 4:0.16025591 #
12.133047805206830460633682378102 1:0.2229021 2:-0.10918064 3:-0.054604225 4:-0.08633741 #
12.133047805206830460633682378102 1:0.22336163 2:0.12390656 3:0.039143808 4:-0.085156247 #
12.133047805206830460633682378102 1:0.11067668 2:-0.18338433 3:-0.067050569 4:0.078065783 #
12.133047805206830460633682378102 1:0.098764136 2:-0.17661934 3:-0.14666514 4:0.14230029 #
12.133047805206830460633682378102 1:0.061800789 2:-0.14833334 3:-0.0052262186 4:0.13608006 #
12.133047805206830460633682378102 1:-0.047196161 2:-0.10355506 3:0.10870493 4:-0.090088598 #
12.133047805206830460633682378102 1:-0.08141382 2:-0.12531947 3:0.1238184 4:0.047210861 #
12.133047805206830460633682378102 1:0.08238183 2:-0.022379711 3:-0.035620004 4:0.22100444 #
-12.133047805206830460633682378102 1:0.1368095 2:-0.24787559 3:-0.01030211 4:-0.22766057 #
-12.133047805206830460633682378102 1:-0.042958215 2:-0.11647073 3:0.11970695 4:-0.19922823 #
-12.133047805206830460633682378102 1:0.26918378 2:0.14312154 3:-0.037442703 4:0.24402592 #
12.133047805206830460633682378102 1:-0.033112638 2:-0.088736258 3:0.093462348 4:-0.1497298 #
-12.133047805206830460633682378102 1:-0.31427258 2:0.073666871 3:0.050113767 4:0.067628577 #
12.133047805206830460633682378102 1:0.27190292 2:0.13122468 3:0.090439677 4:-0.19682807 #
-12.133047805206830460633682378102 1:0.34062284 2:0.16433585 3:-0.019312158 4:-0.013281086 #
12.133047805206830460633682378102 1:0.29491907 2:0.11129765 3:0.083791554 4:-0.094536141 #
-12.133047805206830460633682378102 1:-0.31283337 2:0.080450632 3:0.021427458 4:0.075265817 #
-12.133047805206830460633682378102 1:0.34682623 2:0.11279178 3:-0.031480055 4:-0.020477399 #
-12.133047805206830460633682378102 1:-0.27380612 2:0.052003734 3:0.1100029 4:0.17465168 #
-12.133047805206830460633682378102 1:0.30336022 2:0.063259445 3:-0.1314835 4:-0.10020291 #
-12.133047805206830460633682378102 1:0.24883957 2:-0.08026585 3:-0.175401 4:-0.10064881 #
12.133047805206830460633682378102 1:-0.30770847 2:0.13787074 3:0.053344432 4:0.078091815 #
-12.133047805206830460633682378102 1:-0.33866143 2:0.175326 3:-0.056022115 4:0.031219106 #
-12.133047805206830460633682378102 1:-0.17587902 2:-0.033070374 3:0.1420228 4:0.026362756 #
-12.133047805206830460633682378102 1:0.30009857 2:0.19859856 3:0.10584689 4:-0.0090658786 #
-12.133047805206830460633682378102 1:-0.33807707 2:0.18417391 3:-0.097280122 4:0.013227446 #
12.133047805206830460633682378102 1:0.24660683 2:0.13018107 3:0.070032164 4:-0.13926269 #
12.133047805206830460633682378102 1:-0.32139939 2:0.1360504 3:-0.11937826 4:-0.047392242 #
-12.133047805206830460633682378102 1:0.30144495 2:0.18493257 3:0.00017477728 4:0.11215233 #
-12.133047805206830460633682378102 1:0.29706594 2:0.21143268 3:0.014454087 4:0.056926593 #
12.133047805206830460633682378102 1:-0.065710478 2:-0.13387762 3:0.12202574 4:0.025711019 #
12.133047805206830460633682378102 1:0.18101573 2:0.11710716 3:0.06885875 4:0.044571634 #
12.133047805206830460633682378102 1:0.12221925 2:0.11308499 3:0.028963936 4:0.029909398 #
12.133047805206830460633682378102 1:-0.30052289 2:0.095720589 3:0.012129195 4:0.077953689 #
-12.133047805206830460633682378102 1:-0.31416884 2:0.19861026 3:-0.1137917 4:-0.047552556 #
12.133047805206830460633682378102 1:0.15783539 2:-0.17324461 3:-0.14938501 4:0.04565246 #
-12.133047805206830460633682378102 1:0.20079435 2:-0.22010779 3:-0.21035689 4:0.0082937544 #
-12.133047805206830460633682378102 1:0.21275681 2:-0.20956098 3:-0.21572642 4:-0.03064956 #
-12.133047805206830460633682378102 1:0.065255374 2:-0.22847353 3:-0.062879033 4:0.14225414 #
-12.133047805206830460633682378102 1:-0.32843417 2:0.15272933 3:-0.01240774 4:0.052948177 #
12.133047805206830460633682378102 1:0.18453689 2:-0.15398715 3:-0.16692582 4:-0.051565774 #
-12.133047805206830460633682378102 1:0.26814616 2:0.21139984 3:0.059719846 4:-0.0071908417 #
12.133047805206830460633682378102 1:0.023357043 2:-0.12955016 3:-0.083496749 4:0.021358136 #
12.133047805206830460633682378102 1:0.20922205 2:0.09907499 3:0.033935636 4:0.059188928 #
12.133047805206830460633682378102 1:-0.28342289 2:0.12080677 3:0.04782787 4:0.085758574 #
12.133047805206830460633682378102 1:-0.29365373 2:0.13522714 3:0.067054041 4:0.0686469 #
12.133047805206830460633682378102 1:0.2437987 2:0.059727982 3:-0.0041965311 4:-0.054401919 #
-12.133047805206830460633682378102 1:-0.27867663 2:0.066555172 3:0.096243665 4:0.1734546 #
-12.133047805206830460633682378102 1:0.32738453 2:0.13372377 3:-0.075251587 4:-0.067384325 #
12.133047805206830460633682378102 1:-0.30698225 2:0.056829266 3:0.039707169 4:0.028557673 #
12.133047805206830460633682378102 1:0.25318521 2:0.12556703 3:0.093880959 4:-0.16931468 #
-12.133047805206830460633682378102 1:-0.30755976 2:0.16248088 3:-0.03215282 4:-0.0046284092 #
-12.133047805206830460633682378102 1:0.33485475 2:0.11506716 3:-0.032324899 4:0.051502366 #
12.133047805206830460633682378102 1:-0.32569242 2:0.12861511 3:-0.077978276 4:-0.064234421 #
-12.133047805206830460633682378102 1:-0.28781438 2:0.18873253 3:-0.13794336 4:-0.053434014 #
12.133047805206830460633682378102 1:0.14699954 2:0.069518723 3:-0.048405614 4:0.097902909 #
-12.133047805206830460633682378102 1:0.30990034 2:0.20920338 3:0.092054188 4:0.049946517 #
-12.133047805206830460633682378102 1:-0.29399601 2:0.17789675 3:-0.1086051 4:0.0055368189 #
-12.133047805206830460633682378102 1:0.068617143 2:-0.2383282 3:-0.013991266 4:-0.019058304 #
-12.133047805206830460633682378102 1:0.33041832 2:0.1011292 3:-0.046473101 4:0.045741469 #
12.133047805206830460633682378102 1:-0.3210848 2:0.13502471 3:-0.11070919 4:-0.064294405 #
12.133047805206830460633682378102 1:0.2275655 2:0.11404878 3:0.072066411 4:0.039067362 #
-12.133047805206830460633682378102 1:-0.20940633 2:0.0065200278 3:0.12745804 4:0.095671646 #
-12.133047805206830460633682378102 1:0.30690765 2:0.2106667 3:0.089990214 4:0.10277406 #
12.133047805206830460633682378102 1:-0.32151037 2:0.12669004 3:-0.10885802 4:-0.06608583 #
-12.133047805206830460633682378102 1:-0.30503854 2:0.16905925 3:-0.078024715 4:0.057210818 #
-12.133047805206830460633682378102 1:0.28853613 2:0.21710522 3:0.065389045 4:-0.072291024 #
12.133047805206830460633682378102 1:-0.32288641 2:0.11349946 3:-0.10220502 4:-0.053434569 #
12.133047805206830460633682378102 1:0.28351459 2:0.11130127 3:0.066205293 4:-0.10163247 #
-12.133047805206830460633682378102 1:0.28915092 2:0.060910311 3:-0.12851344 4:-0.083898231 #
-12.133047805206830460633682378102 1:-0.30198142 2:0.11577045 3:0.036487624 4:0.086356074 #
12.133047805206830460633682378102 1:0.19471267 2:0.015565847 3:-0.047320675 4:-0.010002544 #
12.133047805206830460633682378102 1:-0.30101091 2:0.13418913 3:0.056196228 4:0.075084157 #
-12.133047805206830460633682378102 1:0.27884477 2:0.20840442 3:0.068400793 4:-0.081489377 #
-12.133047805206830460633682378102 1:-0.31014499 2:0.15098958 3:-0.036192391 4:0.05588286 #
-12.133047805206830460633682378102 1:0.27685294 2:0.20359041 3:0.072938144 4:-0.061859004 #
12.133047805206830460633682378102 1:-0.3186174 2:0.1069838 3:-0.045239877 4:0.0059911609 #
12.133047805206830460633682378102 1:-0.31383297 2:0.11784943 3:-0.08019124 4:-0.0091534695 #
-12.133047805206830460633682378102 1:-0.28903788 2:0.12372731 3:0.0079363221 4:0.019772192 #
-12.133047805206830460633682378102 1:0.092534326 2:-0.25908276 3:-0.02353186 4:-0.079814613 #
-12.133047805206830460633682378102 1:0.3337079 2:0.13826609 3:-0.036726262 4:0.027683539 #
-12.133047805206830460633682378102 1:-0.31274095 2:0.14912556 3:-0.022861551 4:0.079675138 #
12.133047805206830460633682378102 1:0.1712321 2:0.10629901 3:0.022206672 4:0.08216802 #
-12.133047805206830460633682378102 1:0.31950295 2:0.13673124 3:-0.053542234 4:-0.034240868 #
-12.133047805206830460633682378102 1:-0.29054362 2:0.1309054 3:0.013728557 4:0.021972423 #
12.133047805206830460633682378102 1:-0.31518823 2:0.15662377 3:-0.057457976 4:-0.07483869 #
-12.133047805206830460633682378102 1:0.25324044 2:0.18494691 3:0.043994967 4:-0.037965294 #
12.133047805206830460633682378102 1:0.13769272 2:0.011413671 3:-0.095993854 4:0.19988959 #
12.133047805206830460633682378102 1:0.062413692 2:-0.095576771 3:-0.1330888 4:0.16081586 #
-12.133047805206830460633682378102 1:0.024159497 2:-0.22733773 3:-0.14124577 4:0.11452673 #
-12.133047805206830460633682378102 1:-0.22612873 2:0.0013048126 3:0.12862629 4:0.08405517 #
-12.133047805206830460633682378102 1:0.29278901 2:0.22284524 3:0.043650441 4:-0.028044485 #
12.133047805206830460633682378102 1:-0.036134414 2:-0.12669137 3:-0.097403683 4:0.12539327 #
-12.133047805206830460633682378102 1:0.025155231 2:-0.19318654 3:0.076059312 4:-0.074558727 #
-12.133047805206830460633682378102 1:0.087641515 2:-0.23130046 3:-0.0031886781 4:-0.10773273 #
-12.133047805206830460633682378102 1:0.3056711 2:0.16337033 3:-0.052448053 4:-0.043114841 #
12.133047805206830460633682378102 1:-0.089221463 2:-0.14674366 3:0.084128127 4:0.10083883 #
12.133047805206830460633682378102 1:-0.22353832 2:0.030417459 3:-0.067766525 4:-0.03140894 #
-2.8698771568503005369166203308851 1:-0.19352309 2:-0.04153613 3:0.15745261 4:0.092307806 #
-12.133047805206830460633682378102 1:-0.26872289 2:0.055447705 3:-0.021338645 4:0.034269951 #
-12.133047805206830460633682378102 1:0.073779427 2:-0.23657863 3:-0.024122555 4:-0.059989445 #
12.133047805206830460633682378102 1:-0.31635144 2:0.089453205 3:-0.0049484498 4:0.014891718 #
-12.133047805206830460633682378102 1:-0.29033047 2:0.14494029 3:-0.018520368 4:0.020296771 #
-12.133047805206830460633682378102 1:-0.22806941 2:-0.024490088 3:0.12679644 4:0.12515795 #
-12.133047805206830460633682378102 1:0.18087864 2:-0.20599315 3:-0.19995385 4:-0.022603912 #
12.133047805206830460633682378102 1:-0.28842658 2:0.12979643 3:0.060677987 4:0.063110813 #
-12.133047805206830460633682378102 1:-0.29566696 2:0.10645632 3:0.043409836 4:0.13696557 #
2.5085021480625613321535638533533 1:0.15422101 2:0.034375299 3:-0.098149896 4:-0.037099753 #
-12.133047805206830460633682378102 1:-0.26554728 2:0.17523551 3:-0.096957043 4:-0.042824093 #
12.133047805206830460633682378102 1:0.14067449 2:-0.15743072 3:-0.18413293 4:0.086393841 #
-12.133047805206830460633682378102 1:0.13265447 2:-0.19928783 3:-0.24911584 4:0.088101819 #
12.133047805206830460633682378102 1:-0.30905977 2:0.13648342 3:-0.062667385 4:-0.064313084 #
-12.133047805206830460633682378102 1:-0.28248319 2:0.13311449 3:0.023878811 4:0.020543309 #
12.133047805206830460633682378102 1:0.19184305 2:-0.10979263 3:-0.19372092 4:0.0079142796 #
-12.133047805206830460633682378102 1:0.17080511 2:-0.19564763 3:-0.2299719 4:-0.0082896575 #
12.133047805206830460633682378102 1:-0.29258651 2:0.15045163 3:0.032070875 4:0.00022154726 #
-12.133047805206830460633682378102 1:-0.27076247 2:0.14096572 3:0.017052805 4:0.020666778 #
12.133047805206830460633682378102 1:0.1674847 2:-0.13270086 3:-0.19892812 4:0.0016262608 #
-12.133047805206830460633682378102 1:0.26360002 2:-0.0307869 3:-0.15314069 4:-0.013275702 #
-12.133047805206830460633682378102 1:0.29410356 2:0.061958566 3:-0.1266955 4:-0.043217599 #
12.133047805206830460633682378102 1:-0.31114048 2:0.15130138 3:-0.07431148 4:-0.032089178 #
12.133047805206830460633682378102 1:0.15054229 2:-0.085366815 3:-0.2116539 4:0.1292319 #
12.133047805206830460633682378102 1:-0.27746612 2:0.13996392 3:0.056137405 4:0.0049126605 #
-12.133047805206830460633682378102 1:-0.27349865 2:0.049641285 3:0.14731014 4:0.19220887 #
12.133047805206830460633682378102 1:0.16289927 2:-0.13299407 3:-0.18343078 4:-0.098192662 #
12.133047805206830460633682378102 1:-0.28901082 2:0.067398705 3:0.071658418 4:0.061475717 #
-12.133047805206830460633682378102 1:-0.29309088 2:0.10017277 3:0.02141251 4:0.042770635 #
-12.133047805206830460633682378102 1:0.045892023 2:-0.25780919 3:-0.02449747 4:0.051528651 #
-12.133047805206830460633682378102 1:0.29087421 2:0.21910274 3:0.064386934 4:0.024635321 #
12.133047805206830460633682378102 1:-0.29767701 2:0.079046249 3:0.030123362 4:0.054923046 #
-12.133047805206830460633682378102 1:0.26455247 2:0.20982726 3:0.072023578 4:-0.010558795 #
12.133047805206830460633682378102 1:-0.25923175 2:0.039089091 3:-0.087368436 4:0.028374286 #
-12.133047805206830460633682378102 1:-0.25848767 2:0.1702697 3:-0.10681029 4:-0.046361204 #
12.133047805206830460633682378102 1:0.12202103 2:0.0045684362 3:-0.11180595 4:0.062186893 #
-12.133047805206830460633682378102 1:0.10092898 2:-0.20886298 3:-0.083624937 4:0.038838249 #
-12.133047805206830460633682378102 1:0.070723243 2:-0.19800703 3:-0.048900619 4:0.053795051 #
12.133047805206830460633682378102 1:0.12731896 2:0.015176313 3:-0.078913108 4:0.19851293 #
12.133047805206830460633682378102 1:0.14307113 2:0.086494818 3:-0.012612144 4:0.17180158 #
12.133047805206830460633682378102 1:0.1287882 2:-0.19316696 3:-0.07738027 4:-0.0057437392 #
12.133047805206830460633682378102 1:0.15339807 2:-0.1610027 3:-0.09272705 4:-0.09457776 #
12.133047805206830460633682378102 1:0.080990411 2:-0.020144509 3:-0.043977994 4:0.20662487 #
12.133047805206830460633682378102 1:0.16684622 2:0.11292446 3:0.07601101 4:0.16294426 #
12.133047805206830460633682378102 1:-0.30586791 2:0.084414653 3:0.029232042 4:0.022610003 #
12.133047805206830460633682378102 1:-0.28774512 2:0.090072796 3:0.0060174125 4:0.058145061 #
-12.133047805206830460633682378102 1:0.18850066 2:-0.17604424 3:-0.24136041 4:-0.092277087 #
-12.133047805206830460633682378102 1:0.16979241 2:-0.18883593 3:-0.20414428 4:-0.13624793 #
-12.133047805206830460633682378102 1:-0.25783548 2:0.078621991 3:0.072690673 4:0.073085286 #
-12.133047805206830460633682378102 1:-0.2573874 2:0.06626264 3:0.10629971 4:0.14197265 #
12.133047805206830460633682378102 1:0.18009941 2:-0.12788793 3:-0.10279636 4:-0.13945594 #
-12.133047805206830460633682378102 1:0.31149828 2:0.06389951 3:-0.10040084 4:0.025687434 #
-12.133047805206830460633682378102 1:0.31101066 2:0.13859108 3:-0.045379341 4:-0.0047370531 #
-12.133047805206830460633682378102 1:-0.34976581 2:0.098827288 3:-0.070160978 4:-0.082440272 #
-12.133047805206830460633682378102 1:-0.34469265 2:0.16553123 3:-0.075469628 4:-0.028924944 #
-12.133047805206830460633682378102 1:0.30983183 2:0.18276279 3:0.0043120775 4:-0.0050987671 #
-12.133047805206830460633682378102 1:-0.33081612 2:0.10176638 3:-0.063076779 4:-0.094862685 #
-12.133047805206830460633682378102 1:0.08011771 2:-0.2106107 3:0.079411581 4:-0.20716445 #
12.133047805206830460633682378102 1:0.097559638 2:-0.036655705 3:-0.11362433 4:0.17765969 #
-12.133047805206830460633682378102 1:0.21522729 2:0.011738382 3:-0.14844859 4:0.27851108 #
-12.133047805206830460633682378102 1:0.20376398 2:0.13784707 3:-0.080113597 4:0.25016084 #
12.133047805206830460633682378102 1:0.016301379 2:-0.11377397 3:0.077250183 4:-0.15542451 #
7.039967977128024578803433541907 1:0.27556956 2:0.1310043 3:0.081282452 4:-0.17953964 #
-12.133047805206830460633682378102 1:-0.26858902 2:0.0095186019 3:-0.13234463 4:-0.10007947 #
12.133047805206830460633682378102 1:0.16622815 2:0.11844799 3:0.052855339 4:-0.042302221 #
-12.133047805206830460633682378102 1:0.29401779 2:0.19948798 3:0.10793661 4:0.049498882 #
12.133047805206830460633682378102 1:-0.32083204 2:0.11947466 3:-0.10114489 4:-0.058633588 #
-12.133047805206830460633682378102 1:-0.33095622 2:0.091068767 3:-0.081998698 4:-0.087132506 #
-12.133047805206830460633682378102 1:-0.25398877 2:0.010319195 3:-0.1272655 4:-0.10721365 #
12.133047805206830460633682378102 1:0.21443318 2:0.019493625 3:-0.070477203 4:-0.070386231 #
12.133047805206830460633682378102 1:0.16092281 2:0.0034714865 3:-0.12113022 4:-0.0091106212 #
-12.133047805206830460633682378102 1:0.29070321 2:0.19979466 3:0.10243642 4:0.036430642 #
12.133047805206830460633682378102 1:-0.31792134 2:0.11379656 3:-0.10133568 4:-0.054447096 #
-12.133047805206830460633682378102 1:0.1066801 2:-0.22440955 3:-0.15659626 4:0.012427679 #
-12.133047805206830460633682378102 1:0.27423328 2:0.047407705 3:-0.13653322 4:-0.040141191 #
-12.133047805206830460633682378102 1:-0.33883014 2:0.16085517 3:-0.066465028 4:-0.05117308 #
12.133047805206830460633682378102 1:0.25031927 2:0.11489283 3:0.065238357 4:-0.067409977 #
-12.133047805206830460633682378102 1:0.30694056 2:0.2051183 3:0.036631927 4:0.11049305 #
12.133047805206830460633682378102 1:-0.3041327 2:0.10935872 3:-0.088013515 4:-0.059748765 #
12.133047805206830460633682378102 1:0.24061678 2:0.050679762 3:-0.044053465 4:-0.025792815 #
-12.133047805206830460633682378102 1:0.32187414 2:0.16467588 3:0.015398511 4:0.050920237 #
12.133047805206830460633682378102 1:-0.31157815 2:0.094318815 3:-0.076410592 4:-0.022047142 #
-12.133047805206830460633682378102 1:-0.33539587 2:0.091004722 3:-0.083644792 4:-0.061023027 #
12.133047805206830460633682378102 1:0.1454805 2:0.089761697 3:-0.031395696 4:0.092718087 #
-12.133047805206830460633682378102 1:0.3007606 2:0.21090087 3:0.061797019 4:0.067793921 #
-12.133047805206830460633682378102 1:0.26559591 2:0.20909664 3:0.064837083 4:0.0031297526 #
12.133047805206830460633682378102 1:-0.30135047 2:0.10866872 3:-0.10814882 4:-0.026573287 #
-12.133047805206830460633682378102 1:-0.32295689 2:0.039621938 3:-0.079437874 4:-0.067953713 #
12.133047805206830460633682378102 1:0.13262187 2:0.023520499 3:-0.082682982 4:0.095730796 #
12.133047805206830460633682378102 1:-0.30134237 2:0.10864326 3:-0.10867795 4:-0.042345989 #
-12.133047805206830460633682378102 1:-0.32879415 2:0.091751032 3:-0.092759386 4:-0.068818912 #
-12.133047805206830460633682378102 1:-0.31674746 2:0.11030618 3:-0.083723024 4:-0.10806303 #
-12.133047805206830460633682378102 1:-0.32685536 2:0.16470909 3:-0.066429377 4:-0.058205925 #
-12.133047805206830460633682378102 1:0.066153295 2:-0.20786875 3:0.0064521558 4:-0.070200458 #
-12.133047805206830460633682378102 1:0.30884063 2:0.092048399 3:-0.0485548 4:0.042053327 #
12.133047805206830460633682378102 1:-0.3073324 2:0.12619586 3:-0.080216542 4:-0.077675693 #
-12.133047805206830460633682378102 1:-0.19465274 2:-0.01631438 3:0.17498364 4:0.12460124 #
-12.133047805206830460633682378102 1:-0.33566415 2:0.091014765 3:-0.044121131 4:-0.068364993 #
12.133047805206830460633682378102 1:0.22731362 2:0.11405502 3:0.06916894 4:0.039862424 #
-12.133047805206830460633682378102 1:0.30263057 2:0.19737861 3:0.036300536 4:0.15199818 #
12.133047805206830460633682378102 1:0.23314029 2:0.16600972 3:0.055689838 4:0.1419763 #
-12.133047805206830460633682378102 1:0.29524353 2:0.17648186 3:0.02583597 4:0.15350242 #
12.133047805206830460633682378102 1:0.13641088 2:0.024403796 3:-0.091954373 4:0.11300793 #
12.133047805206830460633682378102 1:-0.29922199 2:0.10852253 3:-0.1004187 4:-0.047488391 #
12.133047805206830460633682378102 1:0.22367233 2:0.11579933 3:0.051888172 4:-0.027635306 #
-12.133047805206830460633682378102 1:0.035069745 2:-0.21617211 3:0.013583813 4:0.011609848 #
-12.133047805206830460633682378102 1:0.31268701 2:0.1793377 3:-0.010662314 4:0.048559435 #
-12.133047805206830460633682378102 1:0.29185876 2:0.20495731 3:0.053601462 4:0.079498217 #
12.133047805206830460633682378102 1:-0.30803061 2:0.09559381 3:-0.05527015 4:-0.0037598752 #
12.133047805206830460633682378102 1:-0.3061738 2:0.11946361 3:-0.076007873 4:-0.050779078 #
12.133047805206830460633682378102 1:0.18516663 2:0.024360113 3:-0.057249989 4:0.013520707 #
-12.133047805206830460633682378102 1:0.046350047 2:-0.22843371 3:0.020474136 4:-0.023614207 #
12.133047805206830460633682378102 1:0.16845304 2:-0.071173131 3:-0.20809402 4:0.097157784 #
12.133047805206830460633682378102 1:0.16975054 2:-0.15918353 3:-0.079097889 4:-0.040919699 #
12.133047805206830460633682378102 1:-0.13447651 2:-0.1000073 3:0.073804349 4:0.079441451 #
12.133047805206830460633682378102 1:0.18378295 2:0.11081834 3:0.075040527 4:0.12635788 #
-12.133047805206830460633682378102 1:0.056562949 2:-0.21082962 3:0.001823757 4:-0.09844932 #
-12.133047805206830460633682378102 1:-0.21622093 2:0.16800256 3:-0.049367543 4:-0.11413573 #
-12.133047805206830460633682378102 1:0.22880511 2:-0.16819322 3:-0.14479049 4:-0.05720241 #
12.133047805206830460633682378102 1:-0.27156031 2:0.14813204 3:0.025612038 4:-0.036185004 #
-12.133047805206830460633682378102 1:-0.29236171 2:0.13436246 3:0.0095210103 4:0.081825741 #
12.133047805206830460633682378102 1:0.18920337 2:-0.1444945 3:-0.077873498 4:-0.11812115 #
-12.133047805206830460633682378102 1:0.16525732 2:-0.24105154 3:-0.059524536 4:-0.15396042 #
12.133047805206830460633682378102 1:-0.30607367 2:0.098578781 3:-0.015047434 4:0.010278546 #
-12.133047805206830460633682378102 1:-0.32528451 2:0.16544831 3:-0.084532224 4:-0.070130825 #
12.133047805206830460633682378102 1:0.18813284 2:-0.13616855 3:-0.088176042 4:-0.12286314 #
-12.133047805206830460633682378102 1:0.21806878 2:-0.24309105 3:-0.13714693 4:-0.09958598 #
-12.133047805206830460633682378102 1:0.30489552 2:0.12432104 3:-0.063158527 4:-0.0020548764 #
12.133047805206830460633682378102 1:-0.30841538 2:0.12175601 3:-0.064650878 4:-0.060568672 #
-12.133047805206830460633682378102 1:-0.33650213 2:0.10702094 3:-0.046791963 4:-0.061735436 #
-12.133047805206830460633682378102 1:0.27131918 2:0.21298322 3:0.059330132 4:0.049136668 #
-12.133047805206830460633682378102 1:0.15628926 2:-0.26604363 3:0.04529231 4:-0.11954597 #
12.133047805206830460633682378102 1:-0.2924971 2:0.10082034 3:-0.10323597 4:-0.034248006 #
-12.133047805206830460633682378102 1:-0.33575323 2:0.14615358 3:-0.071632273 4:-0.032157227 #
-12.133047805206830460633682378102 1:0.28314257 2:0.081628717 3:-0.12001637 4:-0.013537557 #
12.133047805206830460633682378102 1:-0.29278293 2:0.084651932 3:0.019783942 4:0.025612529 #
-12.133047805206830460633682378102 1:-0.32434601 2:0.097913206 3:0.0020016353 4:0.029854687 #
12.133047805206830460633682378102 1:-0.30192369 2:0.14940779 3:-0.048595935 4:-0.042316761 #
12.133047805206830460633682378102 1:-0.28249496 2:0.14718127 3:0.0050080847 4:-0.0077311504 #
-12.133047805206830460633682378102 1:-0.28807363 2:0.15149237 3:-0.045714334 4:0.090742663 #
-12.133047805206830460633682378102 1:0.19636329 2:-0.18716574 3:-0.21651143 4:-0.10300732 #
12.133047805206830460633682378102 1:-0.30515906 2:0.12619089 3:-0.05707315 4:-0.038460765 #
-12.133047805206830460633682378102 1:-0.28288117 2:0.12091211 3:0.035323974 4:0.097029299 #
-12.133047805206830460633682378102 1:-0.2549659 2:0.078490198 3:0.102328 4:0.11257838 #
12.133047805206830460633682378102 1:0.10791606 2:-0.1571994 3:-0.1628114 4:0.070010759 #
12.133047805206830460633682378102 1:0.12596278 2:-0.15115035 3:-0.13893203 4:0.0014963532 #
12.133047805206830460633682378102 1:-0.25698817 2:0.13949637 3:0.07981503 4:-0.015542749 #
-12.133047805206830460633682378102 1:0.30406737 2:0.08959914 3:-0.10044122 4:0.044004459 #
12.133047805206830460633682378102 1:-0.28054357 2:0.076100744 3:0.044633199 4:0.0038546466 #
-12.133047805206830460633682378102 1:-0.34054503 2:0.13168058 3:-0.066799343 4:-0.050968226 #
12.133047805206830460633682378102 1:-0.29636896 2:0.093534835 3:-0.10311609 4:-0.04334297 #
-12.133047805206830460633682378102 1:-0.31703246 2:0.10203101 3:-0.082239069 4:-0.10180432 #
-12.133047805206830460633682378102 1:0.30286679 2:0.17290105 3:-0.023949176 4:0.057813261 #
-12.133047805206830460633682378102 1:-0.3206526 2:0.072444648 3:-0.046215743 4:-0.077019572 #
-12.133047805206830460633682378102 1:0.28312415 2:0.20673408 3:0.050781894 4:0.10971802 #
12.133047805206830460633682378102 1:-0.29362765 2:0.10572091 3:-0.10528007 4:-0.052708205 #
-12.133047805206830460633682378102 1:0.066575095 2:-0.22427629 3:0.027248118 4:-0.086976074 #
-12.133047805206830460633682378102 1:-0.3117573 2:0.047613617 3:-0.088962577 4:-0.081297919 #
-12.133047805206830460633682378102 1:0.28966337 2:0.20247726 3:0.025949592 4:0.13291593 #
12.133047805206830460633682378102 1:-0.09840057 2:-0.097012192 3:0.063015677 4:0.026152816 #
-12.133047805206830460633682378102 1:-0.29421023 2:0.069276795 3:-0.092173867 4:-0.10940053 #
12.133047805206830460633682378102 1:0.20091785 2:0.09072981 3:-0.0016030233 4:0.15808631 #
-12.133047805206830460633682378102 1:-0.23770116 2:0.012610591 3:0.11792151 4:0.12928537 #
12.133047805206830460633682378102 1:0.095437877 2:-0.15597652 3:-0.060557589 4:-0.10861558 #
-12.133047805206830460633682378102 1:-0.27852535 2:0.16766727 3:-0.10703485 4:-0.00011076776 #
12.133047805206830460633682378102 1:0.12731735 2:-0.16881494 3:-0.057970889 4:-0.083364502 #
-12.133047805206830460633682378102 1:0.1460007 2:-0.21363077 3:-0.049016189 4:-0.21005523 #
-12.133047805206830460633682378102 1:0.16671982 2:-0.24289721 3:-0.094809726 4:-0.089563482 #
12.133047805206830460633682378102 1:0.22515494 2:0.12174923 3:0.080952987 4:-0.19326557 #
12.133047805206830460633682378102 1:-0.090878755 2:-0.10455617 3:0.096085705 4:0.0064885942 #
-12.133047805206830460633682378102 1:0.19999319 2:0.14548001 3:-0.054846883 4:0.23149829 #
12.133047805206830460633682378102 1:0.0056175496 2:-0.14406151 3:0.068645582 4:-0.10463995 #
-12.133047805206830460633682378102 1:0.074968651 2:-0.19810773 3:0.065448962 4:-0.20183757 #
12.133047805206830460633682378102 1:0.16111931 2:0.034823213 3:-0.075305089 4:0.0062970486 #
-12.133047805206830460633682378102 1:0.11928237 2:-0.24879593 3:0.038445275 4:-0.077317275 #
12.133047805206830460633682378102 1:0.052767139 2:-0.17468908 3:-0.055991076 4:0.060688626 #
-12.133047805206830460633682378102 1:0.2480015 2:0.20444794 3:0.077560037 4:0.13672198 #
12.133047805206830460633682378102 1:0.21631603 2:0.10333844 3:0.016398711 4:-0.047707383 #
12.133047805206830460633682378102 1:-0.29987592 2:0.068071105 3:0.0096545294 4:-0.0033320503 #
-12.133047805206830460633682378102 1:0.26570225 2:0.21726516 3:0.047302201 4:0.033580028 #
12.133047805206830460633682378102 1:-0.29389375 2:0.088912919 3:-0.0028560252 4:0.025521785 #
12.133047805206830460633682378102 1:0.1622555 2:0.028874483 3:-0.098211572 4:0.030145714 #
-12.133047805206830460633682378102 1:-0.18090041 2:0.012395049 3:0.12662949 4:0.013427222 #
-12.133047805206830460633682378102 1:0.28879744 2:0.086114362 3:-0.095213808 4:0.087381303 #
12.133047805206830460633682378102 1:-0.26314116 2:0.0095716547 3:0.046805456 4:0.0038369398 #
12.133047805206830460633682378102 1:0.25033554 2:0.12738514 3:0.087286763 4:-0.1579999 #
12.133047805206830460633682378102 1:-0.025558949 2:-0.099510454 3:0.062006455 4:-0.10973582 #
-12.133047805206830460633682378102 1:0.084420852 2:-0.24076042 3:-0.030399477 4:-0.0017304234 #
12.133047805206830460633682378102 1:-0.29812095 2:0.060811453 3:0.029336883 4:-0.0045925607 #
12.133047805206830460633682378102 1:0.21976002 2:0.082999445 3:0.021745551 4:0.13565943 #
12.133047805206830460633682378102 1:0.079975992 2:-0.19617435 3:-0.050316561 4:0.071812302 #
12.133047805206830460633682378102 1:0.17590545 2:0.012819449 3:-0.043538034 4:0.173812 #
12.133047805206830460633682378102 1:0.13916726 2:-0.11301333 3:-0.016308846 4:-0.16248648 #
12.133047805206830460633682378102 1:0.11644166 2:-0.18590011 3:-0.090109386 4:-0.0048520598 #
12.133047805206830460633682378102 1:0.086796246 2:-0.18577485 3:-0.045815412 4:0.019670449 #
-12.133047805206830460633682378102 1:0.24410564 2:0.11866698 3:-0.069483116 4:0.23618664 #
-12.133047805206830460633682378102 1:0.24533588 2:0.19333346 3:-0.031249672 4:0.086943939 #
12.133047805206830460633682378102 1:-0.035170205 2:-0.15714011 3:0.094679981 4:0.044651486 #
-12.133047805206830460633682378102 1:0.086528145 2:-0.19302085 3:-0.10249545 4:0.041649725 #
-12.133047805206830460633682378102 1:-0.14895771 2:0.0004903886 3:0.18546362 4:-0.019412233 #
-12.133047805206830460633682378102 1:0.24961261 2:0.20963326 3:0.056177139 4:0.03232453 #
-12.133047805206830460633682378102 1:0.2607255 2:0.20544426 3:0.064307816 4:0.068806559 #
12.133047805206830460633682378102 1:-0.063678958 2:-0.15297918 3:0.04551008 4:0.066040054 #
-12.133047805206830460633682378102 1:-0.28284648 2:0.0011065062 3:-0.1262483 4:-0.079262301 #
12.133047805206830460633682378102 1:0.23964892 2:0.1227833 3:0.092322804 4:-0.13214983 #
-12.133047805206830460633682378102 1:0.2588082 2:0.20692544 3:0.069484524 4:0.10676398 #
12.133047805206830460633682378102 1:-0.28811008 2:0.15665182 3:-0.094894104 4:-0.048312481 #
-12.133047805206830460633682378102 1:-0.32542744 2:0.080179863 3:-0.088991642 4:-0.059338119 #
12.133047805206830460633682378102 1:0.22922358 2:0.10511506 3:0.023782348 4:-0.064916261 #
12.133047805206830460633682378102 1:-0.055742066 2:-0.10733943 3:0.092775859 4:-0.033341512 #
-12.133047805206830460633682378102 1:-0.26862484 2:0.061255433 3:-0.080575272 4:-0.13440426 #
12.133047805206830460633682378102 1:0.21479993 2:0.15827775 3:0.042769343 4:0.12978926 #
-12.133047805206830460633682378102 1:0.24877314 2:0.19641262 3:0.087032564 4:0.13231145 #
12.133047805206830460633682378102 1:-0.28473309 2:0.088223152 3:-0.096620522 4:-0.046605445 #
-12.133047805206830460633682378102 1:-0.30287477 2:0.022939989 3:-0.10268364 4:-0.065848134 #
-12.133047805206830460633682378102 1:0.29183516 2:0.15683663 3:-0.054558013 4:0.045062918 #
12.133047805206830460633682378102 1:-0.26924539 2:0.026821967 3:-0.058227982 4:0.014512732 #
-12.133047805206830460633682378102 1:-0.33991835 2:0.094575115 3:-0.058907501 4:-0.040669527 #
12.133047805206830460633682378102 1:0.23666365 2:0.10690346 3:0.053331275 4:-0.025323611 #
12.133047805206830460633682378102 1:-0.28779054 2:0.13756311 3:-0.086528711 4:-0.00028450659 #
12.133047805206830460633682378102 1:-0.021953378 2:-0.10796873 3:0.048786655 4:-0.090496436 #
-12.133047805206830460633682378102 1:0.17809859 2:0.033261266 3:-0.16599943 4:0.22098012 #
-12.133047805206830460633682378102 1:0.18851444 2:-0.02825702 3:-0.17420453 4:0.24160513 #
12.133047805206830460633682378102 1:0.30725795 2:0.13367656 3:0.11311006 4:-0.25804636 #
12.133047805206830460633682378102 1:0.25037152 2:0.12964216 3:0.063635275 4:-0.1151024 #
-12.133047805206830460633682378102 1:0.24299636 2:0.18823551 3:0.056821868 4:0.032786213 #
12.133047805206830460633682378102 1:-0.057593569 2:-0.12272296 3:-0.025145372 4:0.12495025 #
12.133047805206830460633682378102 1:-0.09164311 2:-0.095686153 3:0.077541895 4:-0.028056102 #
-12.133047805206830460633682378102 1:0.13005818 2:-0.22887383 3:-0.034619424 4:-0.17173593 #
-12.133047805206830460633682378102 1:-0.29482272 2:0.097055763 3:0.025960261 4:0.12805891 #
12.133047805206830460633682378102 1:0.17325708 2:-0.14475305 3:-0.087246239 4:-0.066249721 #
-12.133047805206830460633682378102 1:0.1555907 2:-0.22962549 3:-0.10025933 4:-0.13073233 #
12.133047805206830460633682378102 1:-0.28735211 2:0.089848533 3:0.02519929 4:0.031771138 #
-12.133047805206830460633682378102 1:-0.26349375 2:0.15875788 3:-0.021657787 4:0.036871072 #
-12.133047805206830460633682378102 1:0.15890105 2:-0.23484266 3:-0.092904642 4:-0.11660778 #
12.133047805206830460633682378102 1:-0.2946431 2:0.1386282 3:-0.066449359 4:-0.026645387 #
-12.133047805206830460633682378102 1:-0.2809687 2:0.16102712 3:-0.085323691 4:0.033446975 #
12.133047805206830460633682378102 1:0.15629719 2:-0.1518348 3:-0.083353721 4:-0.026407804 #
-12.133047805206830460633682378102 1:0.2909357 2:0.093950696 3:-0.057469066 4:0.043124173 #
-12.133047805206830460633682378102 1:0.1440275 2:-0.26879719 3:-0.0091683986 4:-0.12990355 #
12.133047805206830460633682378102 1:-0.28267726 2:0.14422497 3:0.0055264947 4:0.0019292546 #
-12.133047805206830460633682378102 1:0.21001877 2:0.048348431 3:-0.16230066 4:0.077560268 #
12.133047805206830460633682378102 1:0.029339436 2:-0.11808495 3:-0.1459749 4:0.12719992 #
-12.133047805206830460633682378102 1:-0.33619529 2:0.1274441 3:-0.069921352 4:-0.055882704 #
-12.133047805206830460633682378102 1:0.26528507 2:0.14006156 3:-0.091270596 4:0.030157654 #
-12.133047805206830460633682378102 1:-0.29944721 2:0.12528181 3:-0.079893097 4:-0.083648644 #
12.133047805206830460633682378102 1:-0.28133151 2:0.14375614 3:-0.055047348 4:-0.040546097 #
12.133047805206830460633682378102 1:0.054947544 2:-0.1472325 3:-0.033370964 4:-0.11710394 #
12.133047805206830460633682378102 1:-0.28774852 2:0.072184794 3:-0.010265952 4:-0.05013309 #
-12.133047805206830460633682378102 1:0.29345024 2:0.15823559 3:-0.00048261631 4:0.10719251 #
12.133047805206830460633682378102 1:-0.28244078 2:0.069212481 3:-0.088739865 4:-0.020108782 #
12.133047805206830460633682378102 1:0.18986236 2:0.024146063 3:-0.097497933 4:0.00035875163 #
-12.133047805206830460633682378102 1:0.055256903 2:-0.22537318 3:0.03397084 4:-0.080237485 #
-12.133047805206830460633682378102 1:0.27554691 2:0.19546206 3:-0.01569839 4:0.083052896 #
12.133047805206830460633682378102 1:-0.25914812 2:-0.011441418 3:0.0085746134 4:0.015818793 #
-12.133047805206830460633682378102 1:0.018598283 2:-0.25002241 3:-0.027957909 4:0.037156399 #
12.133047805206830460633682378102 1:0.21722925 2:0.1283479 3:0.060207352 4:-0.11038438 #
-12.133047805206830460633682378102 1:-0.054009724 2:-0.099210024 3:0.16899417 4:-0.13933575 #
-12.133047805206830460633682378102 1:-0.081786484 2:-0.10834408 3:0.12337972 4:-0.11386594 #
12.133047805206830460633682378102 1:0.1355391 2:-0.055198766 3:-0.051328503 4:0.14923029 #
-12.133047805206830460633682378102 1:0.27958038 2:0.13464823 3:-0.086978227 4:0.033320207 #
12.133047805206830460633682378102 1:-0.24955519 2:0.14247397 3:0.071487047 4:-0.052708454 #
12.133047805206830460633682378102 1:0.17887302 2:0.11088851 3:0.076724738 4:-0.01674211 #
12.133047805206830460633682378102 1:0.25285366 2:0.11418308 3:0.069771267 4:-0.046147417 #
12.133047805206830460633682378102 1:-0.08692313 2:-0.11949647 3:0.11501873 4:0.047284648 #
-12.133047805206830460633682378102 1:0.14067802 2:-0.20374244 3:-0.13290244 4:-0.11182857 #
-12.133047805206830460633682378102 1:-0.11083791 2:-0.077875681 3:0.16434108 4:-0.073038951 #
-12.133047805206830460633682378102 1:-0.19220322 2:-0.036551364 3:0.13832602 4:0.074833706 #
12.133047805206830460633682378102 1:0.13400953 2:-0.15549979 3:-0.10177065 4:0.046800114 #
12.133047805206830460633682378102 1:0.1043239 2:-0.16128163 3:-0.11577972 4:0.0902697 #
12.133047805206830460633682378102 1:-0.042120777 2:-0.11969685 3:0.11424703 4:-0.037502576 #
-12.133047805206830460633682378102 1:0.3055132 2:0.15176225 3:-0.023942471 4:0.086935677 #
-12.133047805206830460633682378102 1:0.0068514487 2:-0.24976754 3:-0.070152692 4:0.12494168 #
12.133047805206830460633682378102 1:0.1830928 2:0.00536608 3:-0.088674702 4:-0.045972418 #
12.133047805206830460633682378102 1:0.038879216 2:-0.1467189 3:-0.037958223 4:0.11222548 #
-12.133047805206830460633682378102 1:0.23324396 2:0.20880273 3:0.032529019 4:0.093112171 #
-12.133047805206830460633682378102 1:0.083780944 2:-0.22432649 3:-0.05427191 4:-0.15596792 #
-12.133047805206830460633682378102 1:0.059273656 2:-0.23231474 3:-0.046307165 4:-0.099698536 #
12.133047805206830460633682378102 1:0.24714629 2:0.085432425 3:-0.0034108746 4:-0.026890736 #
12.133047805206830460633682378102 1:0.085061125 2:-0.18294768 3:-0.073637001 4:-0.0013745163 #
-12.133047805206830460633682378102 1:0.24376372 2:0.18750241 3:0.079218194 4:0.13070349 #
12.133047805206830460633682378102 1:-0.0035624872 2:-0.14479746 3:0.088779494 4:-0.064726718 #
-12.133047805206830460633682378102 1:-0.049041577 2:-0.14467749 3:0.11365688 4:-0.14398029 #
-12.133047805206830460633682378102 1:-0.070332937 2:-0.14462638 3:0.10207957 4:-0.08604937 #
-12.133047805206830460633682378102 1:0.063327864 2:-0.22907974 3:-0.020233968 4:-0.019740352 #
12.133047805206830460633682378102 1:-0.0455736 2:-0.1514976 3:0.085229851 4:0.011395569 #
-12.133047805206830460633682378102 1:0.21443491 2:0.1787532 3:0.046648037 4:0.094059475 #
12.133047805206830460633682378102 1:0.24898592 2:0.11225808 3:0.047876965 4:-0.099954464 #
12.133047805206830460633682378102 1:-0.052878894 2:-0.12065286 3:0.041049037 4:0.016824238 #
-12.133047805206830460633682378102 1:0.19951968 2:0.17235713 3:0.033410806 4:0.10752159 #
-12.133047805206830460633682378102 1:0.044607699 2:-0.19992346 3:-0.13451761 4:0.015988782 #
12.133047805206830460633682378102 1:-0.012401101 2:-0.1474122 3:0.10626661 4:-0.00082868832 #
12.133047805206830460633682378102 1:-0.014478794 2:-0.14101556 3:0.09453728 4:-0.013407726 #
-12.133047805206830460633682378102 1:-0.18368454 2:-0.034855921 3:0.17215681 4:0.063774914 #
-12.133047805206830460633682378102 1:-0.21503285 2:-0.015729355 3:0.16313528 4:0.14111052 #
12.133047805206830460633682378102 1:0.23120697 2:0.12545343 3:0.076490402 4:-0.11193328 #
12.133047805206830460633682378102 1:-0.10112683 2:-0.11021139 3:0.088390209 4:0.044995558 #
-12.133047805206830460633682378102 1:0.2105619 2:0.1484682 3:0.030828536 4:0.086382717 #
12.133047805206830460633682378102 1:-0.076458588 2:-0.11373032 3:0.10209309 4:0.022183307 #
12.133047805206830460633682378102 1:-0.076094754 2:-0.12364186 3:0.091922186 4:0.026385529 #
-12.133047805206830460633682378102 1:0.086132795 2:-0.2460835 3:-0.00050207652 4:-0.012972707 #
-12.133047805206830460633682378102 1:-0.20498881 2:-0.029728075 3:0.12879835 4:0.072706796 #
-12.133047805206830460633682378102 1:0.15546444 2:-0.22005121 3:-0.13083419 4:-0.10170742 #
12.133047805206830460633682378102 1:-0.081121445 2:-0.12196759 3:0.066901654 4:0.069795132 #
-12.133047805206830460633682378102 1:0.19160773 2:-0.14429916 3:-0.17163305 4:0.048651073 #
12.133047805206830460633682378102 1:0.10549317 2:-0.15525497 3:-0.14812176 4:0.056629896 #
-12.133047805206830460633682378102 1:0.15146488 2:-0.20995109 3:-0.128327 4:-0.092513047 #
-12.133047805206830460633682378102 1:-0.0070796888 2:-0.15772294 3:-0.097848788 4:0.11960859 #
12.133047805206830460633682378102 1:0.0033932028 2:-0.14056154 3:0.073557198 4:-0.058337506 #
12.133047805206830460633682378102 1:0.049862843 2:-0.16295491 3:-0.097444147 4:0.10690574 #
12.133047805206830460633682378102 1:0.24872443 2:0.11424844 3:0.041369405 4:-0.098063223 #
-12.133047805206830460633682378102 1:0.089024603 2:-0.20928605 3:-0.12788686 4:-0.070040539 #
12.133047805206830460633682378102 1:0.24631199 2:0.12071236 3:0.087035976 4:-0.073806681 #
12.133047805206830460633682378102 1:0.091327935 2:-0.17739862 3:-0.047059923 4:-0.017128397 #
12.133047805206830460633682378102 1:-0.083668247 2:-0.1114746 3:0.086450398 4:0.007138513 #
-12.133047805206830460633682378102 1:0.052399315 2:-0.15498143 3:-0.042602699 4:-0.06416253 #
-12.133047805206830460633682378102 1:0.048727963 2:-0.15919803 3:-0.051029343 4:-0.043746993 #
12.133047805206830460633682378102 1:-0.082826495 2:-0.11919596 3:0.071437106 4:0.036327314 #
12.133047805206830460633682378102 1:-0.066314265 2:-0.12269056 3:0.086857326 4:0.0097326692 #
-12.133047805206830460633682378102 1:0.24960886 2:0.10057103 3:-0.088199429 4:0.054914184 #
-12.133047805206830460633682378102 1:0.071815968 2:-0.23422906 3:-0.11504743 4:-0.011400873 #
12.133047805206830460633682378102 1:-0.043740328 2:-0.12574303 3:0.088025942 4:-0.052011047 #
12.133047805206830460633682378102 1:0.060706478 2:-0.18221766 3:-0.10785838 4:0.06558346 #
-12.133047805206830460633682378102 1:0.038407687 2:-0.19815099 3:-0.029273324 4:0.0049602496 #
-12.133047805206830460633682378102 1:0.051525313 2:-0.22786105 3:-0.073093578 4:0.027243873 #
12.133047805206830460633682378102 1:-0.049574662 2:-0.1455998 3:0.043380734 4:0.0069454848 #
12.133047805206830460633682378102 1:-0.024231913 2:-0.1319356 3:0.078244209 4:-0.084438436 #
12.133047805206830460633682378102 1:0.18628563 2:0.021109888 3:-0.054515909 4:-0.027151708 #
-12.133047805206830460633682378102 1:0.11083562 2:-0.2501561 3:0.017599151 4:-0.1456103 #
-12.133047805206830460633682378102 1:0.034006316 2:-0.21918431 3:0.0091573149 4:-0.021285286 #
12.133047805206830460633682378102 1:0.060109492 2:-0.18173076 3:-0.071129464 4:0.046805404 #
12.133047805206830460633682378102 1:-0.06457442 2:-0.1042982 3:0.098350659 4:-0.047513295 #
-12.133047805206830460633682378102 1:0.051582411 2:-0.25199813 3:-0.066389851 4:-0.028511003 #
-12.133047805206830460633682378102 1:0.034186903 2:-0.20347787 3:-0.027701156 4:-0.038488962 #
12.133047805206830460633682378102 1:0.042994145 2:-0.13971286 3:0.025623813 4:-0.035010446 #
-12.133047805206830460633682378102 1:0.048775297 2:-0.22060961 3:-0.034231357 4:-0.045403857 #
12.133047805206830460633682378102 1:-0.068455674 2:-0.10417226 3:0.088943586 4:-0.045377113 #
-12.133047805206830460633682378102 1:0.033760123 2:-0.16684911 3:0.12490771 4:-0.12963532 #
-12.133047805206830460633682378102 1:0.047550671 2:-0.23855051 3:0.024102893 4:-0.036007348 #
12.133047805206830460633682378102 1:-0.043233037 2:-0.13567664 3:0.046767242 4:-0.028914891 #
12.133047805206830460633682378102 1:-0.049595159 2:-0.12858556 3:0.051000725 4:-0.0025881117 #
12.133047805206830460633682378102 1:-0.092641696 2:-0.10679585 3:0.071896426 4:0.034006841 #
-12.133047805206830460633682378102 1:0.039612286 2:-0.24316487 3:-0.060984217 4:0.061395254 #
-12.133047805206830460633682378102 1:-0.17619053 2:-0.034964904 3:0.14984943 4:0.037164181 #
12.133047805206830460633682378102 1:0.034230351 2:-0.17056662 3:-0.049177535 4:0.051850617 #
-12.133047805206830460633682378102 1:0.0581646 2:-0.24254771 3:-0.055657163 4:-0.056723196 #
12.133047805206830460633682378102 1:-0.01338838 2:-0.14446174 3:0.013059419 4:0.021359233 #
12.133047805206830460633682378102 1:0.12526964 2:-0.12354661 3:0.016683454 4:0.0048673898 #
-12.133047805206830460633682378102 1:0.0064610061 2:-0.24315684 3:-0.063191466 4:0.054246608 #
-12.133047805206830460633682378102 1:0.019593054 2:-0.20698516 3:0.067508645 4:-0.11088341 #
12.133047805206830460633682378102 1:-0.0018315534 2:-0.13473739 3:0.032339931 4:0.034485813 #
12.133047805206830460633682378102 1:-0.034158181 2:-0.10243027 3:0.084780537 4:-0.083913952 #
-12.133047805206830460633682378102 1:0.014141649 2:-0.2369872 3:-0.058937643 4:0.045204375 #
12.133047805206830460633682378102 1:0.03117287 2:-0.17358734 3:-0.073912218 4:0.07737276 #
12.133047805206830460633682378102 1:-0.039410472 2:-0.12754986 3:0.047277633 4:0.0053094178 #
12.133047805206830460633682378102 1:-0.007821383 2:-0.13863713 3:0.015801076 4:0.043562576 #
12.133047805206830460633682378102 1:0.092878662 2:-0.1684096 3:-0.057880376 4:-0.035903256 #
12.133047805206830460633682378102 1:0.012493086 2:-0.11945928 3:0.04033171 4:-0.13353947 #
-12.133047805206830460633682378102 1:0.23693296 2:0.018664705 3:-0.1654347 4:-0.0069955532 #
-12.133047805206830460633682378102 1:-0.30678844 2:0.13788353 3:-0.08221177 4:-0.065797694 #
12.133047805206830460633682378102 1:-0.11938178 2:-0.10253191 3:0.044098437 4:0.05786138 #
12.133047805206830460633682378102 1:0.074625291 2:-0.099938095 3:0.0043389355 4:0.12092024 #
-12.133047805206830460633682378102 1:0.14265865 2:-0.22031724 3:-0.14359239 4:0.062554367 #
-12.133047805206830460633682378102 1:0.096912958 2:-0.23868129 3:-0.044976149 4:-0.032291342 #
12.133047805206830460633682378102 1:-0.27692896 2:0.10535672 3:-0.0944134 4:-0.075487986 #
-12.133047805206830460633682378102 1:-0.32356307 2:0.13398452 3:-0.073331989 4:-0.063133702 #
-12.133047805206830460633682378102 1:0.27212209 2:0.14468722 3:-0.054773815 4:0.10526401 #
-12.133047805206830460633682378102 1:0.27702874 2:0.15479292 3:-0.027900625 4:0.15369132 #
12.133047805206830460633682378102 1:0.032568555 2:-0.17161155 3:-0.064313218 4:0.048589732 #
-12.133047805206830460633682378102 1:-0.26470283 2:-0.032780454 3:-0.089535311 4:-0.040638659 #
-12.133047805206830460633682378102 1:0.11512768 2:-0.23644345 3:-0.0084582157 4:-0.19664466 #
-12.133047805206830460633682378102 1:0.11730684 2:-0.23256986 3:0.060215458 4:-0.15909807 #
12.133047805206830460633682378102 1:-0.30090749 2:0.099847712 3:-0.077609643 4:-0.042668819 #
-12.133047805206830460633682378102 1:-0.33655176 2:0.13105674 3:-0.074944064 4:-0.037200361 #
-12.133047805206830460633682378102 1:-0.3305572 2:0.12806351 3:-0.079442561 4:-0.035908218 #
12.133047805206830460633682378102 1:0.10528191 2:-0.17085271 3:-0.10146606 4:0.047484141 #
-12.133047805206830460633682378102 1:0.26724961 2:0.11182694 3:-0.068853498 4:0.22430895 #
-12.133047805206830460633682378102 1:0.28780755 2:0.10015925 3:-0.057113942 4:0.14675853 #
-12.133047805206830460633682378102 1:-0.31838223 2:0.054632209 3:-0.075807489 4:-0.041239198 #
-12.133047805206830460633682378102 1:-0.33630857 2:0.11811563 3:-0.051755086 4:-0.042973798 #
-12.133047805206830460633682378102 1:0.2902492 2:0.10691403 3:-0.055975977 4:0.10870606 #
-12.133047805206830460633682378102 1:-0.28129968 2:0.0094026774 3:-0.028320173 4:-0.059628595 #
12.133047805206830460633682378102 1:0.20244205 2:0.10522138 3:0.048919477 4:0.058372352 #
-12.133047805206830460633682378102 1:0.11111709 2:-0.18798423 3:-0.25765657 4:0.090849645 #
-12.133047805206830460633682378102 1:0.20311494 2:0.035831902 3:-0.14935133 4:0.23022786 #
-12.133047805206830460633682378102 1:-0.23278166 2:0.08144372 3:0.031390596 4:-0.11056609 #
-12.133047805206830460633682378102 1:-0.2910316 2:0.084126167 3:-0.058809139 4:-0.035137437 #
12.133047805206830460633682378102 1:0.02607996 2:-0.084621973 3:-0.15024538 4:0.1462196 #
-12.133047805206830460633682378102 1:0.27678162 2:0.033909906 3:-0.1217353 4:0.037242424 #
12.133047805206830460633682378102 1:0.07676962 2:-0.14558175 3:-0.094600819 4:0.0067019453 #
-12.133047805206830460633682378102 1:0.13576488 2:-0.26895234 3:-0.07721673 4:0.0011757025 #
-12.133047805206830460633682378102 1:0.1245795 2:-0.26179361 3:-0.023846395 4:-0.042863 #
-12.133047805206830460633682378102 1:-0.27527621 2:0.14335942 3:0.0054075378 4:0.04359274 #
-12.133047805206830460633682378102 1:-0.26710501 2:0.099516414 3:0.062076565 4:0.021945234 #
12.133047805206830460633682378102 1:0.045067981 2:-0.16723748 3:-0.10589119 4:0.024944618 #
-12.133047805206830460633682378102 1:0.18145654 2:-0.20230973 3:-0.20884936 4:-0.049739745 #
-12.133047805206830460633682378102 1:0.18205461 2:-0.2000718 3:-0.19962372 4:-0.055460382 #
12.133047805206830460633682378102 1:-0.25161532 2:-0.0025549075 3:-0.012712531 4:-0.024576966 #
-12.133047805206830460633682378102 1:-0.28407499 2:0.076423548 3:0.043742437 4:0.013963586 #
-12.133047805206830460633682378102 1:0.27074727 2:0.13652988 3:-0.051182531 4:0.10461433 #
12.133047805206830460633682378102 1:-0.24253967 2:-0.012932158 3:-0.039035849 4:0.021790141 #
12.133047805206830460633682378102 1:0.031832021 2:-0.13299794 3:-0.098584034 4:0.015522189 #
-12.133047805206830460633682378102 1:-0.18669625 2:0.066212669 3:0.11360223 4:-0.055767283 #
12.133047805206830460633682378102 1:-0.23806003 2:-0.015617811 3:-0.020505857 4:0.013040142 #
-12.133047805206830460633682378102 1:-0.32822764 2:0.10125782 3:-0.065607727 4:-0.054658342 #
12.133047805206830460633682378102 1:0.10603636 2:-0.068051398 3:0.01998228 4:0.084962673 #
12.133047805206830460633682378102 1:-0.23517236 2:0.01520157 3:0.015123823 4:-0.073341087 #
-12.133047805206830460633682378102 1:-0.19447045 2:0.07938379 3:0.12220233 4:-0.059716344 #
12.133047805206830460633682378102 1:0.063439019 2:-0.14354955 3:-0.10161124 4:0.023188682 #
-12.133047805206830460633682378102 1:0.095920414 2:-0.24275011 3:-0.16819802 4:0.12029322 #
12.133047805206830460633682378102 1:0.12577629 2:-0.10080302 3:0.0022671467 4:-0.059378754 #
12.133047805206830460633682378102 1:-0.2174082 2:-0.0088540083 3:-0.0020373783 4:-0.061664846 #
12.133047805206830460633682378102 1:0.076968074 2:-0.15108167 3:-0.033108495 4:0.0044950694 #
-12.133047805206830460633682378102 1:-0.32447106 2:0.12993458 3:-0.076066583 4:-0.019506471 #
-12.133047805206830460633682378102 1:0.12853478 2:-0.25369254 3:-0.071531378 4:-0.10129789 #
12.133047805206830460633682378102 1:-0.2129212 2:-0.023454566 3:-0.042889051 4:0.029536281 #
12.133047805206830460633682378102 1:0.075443581 2:-0.15274596 3:-0.090437882 4:-0.042026188 #
12.133047805206830460633682378102 1:-0.19888999 2:-0.019315358 3:-0.025248876 4:0.023962773 #
-12.133047805206830460633682378102 1:-0.31315619 2:0.052914653 3:-0.096265696 4:-0.044291135 #
12.133047805206830460633682378102 1:0.034737207 2:-0.10770227 3:0.0050017335 4:-0.13959995 #
12.133047805206830460633682378102 1:-0.2173506 2:-0.012577708 3:-0.0037999763 4:-0.041209348 #
-12.133047805206830460633682378102 1:0.14497064 2:-0.21207753 3:-0.066625834 4:-0.12286633 #
12.133047805206830460633682378102 1:0.023086289 2:-0.11408447 3:-0.088777848 4:-0.095359512 #
-12.133047805206830460633682378102 1:-0.21046686 2:0.014672121 3:0.11075627 4:0.058032252 #
12.133047805206830460633682378102 1:-0.06915953 2:-0.10513172 3:0.054885313 4:0.011941592 #
-12.133047805206830460633682378102 1:0.17009339 2:-0.012747344 3:-0.18770121 4:0.15671588 #
-12.133047805206830460633682378102 1:0.13759539 2:-0.091504455 3:-0.21398105 4:0.09213876 #
12.133047805206830460633682378102 1:-0.045805316 2:-0.11615951 3:0.047043305 4:-0.020469645 #
-12.133047805206830460633682378102 1:-0.13012667 2:-0.013006624 3:0.15970504 4:-0.11008958 #
-12.133047805206830460633682378102 1:-0.28361815 2:0.10171995 3:-0.025640437 4:-0.090438649 #
12.133047805206830460633682378102 1:0.018523915 2:-0.13019547 3:-0.10461422 4:0.061894488 #
12.133047805206830460633682378102 1:-0.0016907707 2:-0.12653317 3:-0.10939333 4:0.081875779 #
12.133047805206830460633682378102 1:0.25729799 2:0.03080041 3:-0.036353767 4:-0.1397793 #
-4.1427698709132325660675633116625 1:0.052338518 2:-0.27359816 3:-0.015414316 4:0.0031407741 #
12.133047805206830460633682378102 1:0.23418294 2:0.11070418 3:0.051983908 4:-0.02352334 #
12.133047805206830460633682378102 1:0.066913351 2:-0.06534259 3:-0.023841081 4:0.05533509 #
12.133047805206830460633682378102 1:0.080791906 2:-0.09102653 3:-0.0097522093 4:0.045681931 #
-12.133047805206830460633682378102 1:-0.25092682 2:0.16138832 3:-0.048495311 4:-0.022229811 #
12.133047805206830460633682378102 1:0.069084257 2:-0.16163532 3:-0.065035515 4:-0.023415463 #
12.133047805206830460633682378102 1:-0.076603785 2:-0.084596954 3:-0.059465397 4:0.0572262 #
-12.133047805206830460633682378102 1:0.12140057 2:-0.26008451 3:-0.065651499 4:0.027884539 #
-12.133047805206830460633682378102 1:0.055099718 2:-0.22958568 3:0.039416 4:-0.036882173 #
-12.133047805206830460633682378102 1:-0.19240507 2:0.0025956272 3:0.14415278 4:0.040967822 #
12.133047805206830460633682378102 1:0.10591394 2:-0.096575439 3:-0.0014532794 4:-0.0051969578 #
12.133047805206830460633682378102 1:0.01075342 2:-0.12736368 3:-0.070737511 4:0.078017697 #
12.133047805206830460633682378102 1:-0.025487775 2:-0.10719202 3:0.043145332 4:-0.08894033 #
-12.133047805206830460633682378102 1:-0.2168458 2:-0.046321642 3:-0.13466868 4:-0.027472373 #
12.133047805206830460633682378102 1:0.043510407 2:-0.12739497 3:0.02747204 4:-0.10014723 #
12.133047805206830460633682378102 1:-0.060089793 2:-0.10401955 3:0.047249053 4:-0.043733317 #
-12.133047805206830460633682378102 1:0.12777999 2:-0.24786456 3:-0.079230927 4:-0.11247713 #
12.133047805206830460633682378102 1:-0.072538555 2:-0.11934575 3:-0.027061384 4:0.1081166 #
-12.133047805206830460633682378102 1:-0.25731111 2:0.12082268 3:0.029649477 4:0.038343355 #
-12.133047805206830460633682378102 1:-0.25065276 2:0.1029126 3:0.028406627 4:0.03584449 #
12.133047805206830460633682378102 1:0.048266076 2:-0.11965459 3:-0.078989603 4:-0.087046184 #
12.133047805206830460633682378102 1:0.03583324 2:-0.11561223 3:0.015881497 4:-0.11907022 #
-12.133047805206830460633682378102 1:0.16428189 2:-0.2103339 3:-0.12735985 4:-0.064789727 #
12.133047805206830460633682378102 1:-0.062475823 2:-0.0915455 3:0.02066409 4:-0.066007204 #
12.133047805206830460633682378102 1:-0.05821725 2:-0.091737054 3:0.029625596 4:-0.081773274 #
12.133047805206830460633682378102 1:-0.027556151 2:-0.10010227 3:-0.077772237 4:0.039478112 #
-12.133047805206830460633682378102 1:0.099788047 2:-0.24336727 3:0.039233826 4:-0.15722264 #
-12.133047805206830460633682378102 1:0.048288431 2:-0.26283878 3:-0.094791196 4:0.10435461 #
-12.133047805206830460633682378102 1:-0.2564469 2:-0.018708833 3:-0.10344873 4:-0.019139554 #
12.133047805206830460633682378102 1:0.053015377 2:-0.1048861 3:-0.036496431 4:-0.072640993 #
-12.133047805206830460633682378102 1:0.16051905 2:-0.20502129 3:-0.07080517 4:-0.085674211 #
12.133047805206830460633682378102 1:-0.06555143 2:-0.1182157 3:-0.048463393 4:0.031020839 #
12.133047805206830460633682378102 1:-0.015733441 2:-0.11819001 3:-0.093789354 4:0.037487857 #
12.133047805206830460633682378102 1:0.17651451 2:0.024235673 3:-0.076870397 4:-0.061923262 #
-12.133047805206830460633682378102 1:-0.26290524 2:-0.013967688 3:-0.13288799 4:-0.072966084 #
-12.133047805206830460633682378102 1:-0.27345198 2:-0.0066781235 3:-0.12457164 4:-0.073112071 #
12.133047805206830460633682378102 1:-0.047756068 2:-0.13039941 3:-0.007507835 4:0.096351638 #
12.133047805206830460633682378102 1:-0.040456347 2:-0.1332538 3:-0.0062290379 4:0.089739576 #
-12.133047805206830460633682378102 1:0.070111722 2:-0.26888907 3:-0.042625923 4:0.062259182 #
12.133047805206830460633682378102 1:-0.050260551 2:-0.10841458 3:-0.016552873 4:-0.028740214 #
12.133047805206830460633682378102 1:0.16618736 2:0.090633079 3:-0.023923462 4:0.089113839 #
12.133047805206830460633682378102 1:0.0066489801 2:-0.1086358 3:-0.075409628 4:-0.040405463 #
12.133047805206830460633682378102 1:0.0031510987 2:-0.11645228 3:-0.09290722 4:0.0032039748 #
-12.133047805206830460633682378102 1:0.13003743 2:-0.22017597 3:-0.042914368 4:-0.012200357 #
12.133047805206830460633682378102 1:-0.02804286 2:-0.11760188 3:-0.024721436 4:-0.040071741 #
-12.133047805206830460633682378102 1:0.10878586 2:-0.21669413 3:-0.082437493 4:-0.056796581 #
-12.133047805206830460633682378102 1:-0.31727359 2:0.11433608 3:-0.062843509 4:-0.015871057 #
12.133047805206830460633682378102 1:0.045954268 2:-0.14913619 3:-0.08706522 4:0.020197634 #
-12.133047805206830460633682378102 1:0.12211654 2:-0.24867447 3:-0.083188809 4:-0.040772378 #
12.133047805206830460633682378102 1:-0.052247327 2:-0.12454464 3:-0.0052038347 4:0.065838166 #
-12.133047805206830460633682378102 1:-0.16699079 2:-0.033880562 3:0.17728411 4:0.055024046 #
-12.133047805206830460633682378102 1:0.0428022 2:-0.2630167 3:-0.029480698 4:0.096466571 #
12.133047805206830460633682378102 1:0.036655188 2:-0.12517376 3:-0.082562588 4:-0.081765205 #
12.133047805206830460633682378102 1:-0.00072151824 2:-0.12460949 3:-0.039453678 4:-0.077488527 #
-12.133047805206830460633682378102 1:-0.25757575 2:0.1001666 3:-0.027881976 4:-0.10108968 #
12.133047805206830460633682378102 1:-0.016657716 2:-0.15466419 3:-0.092116587 4:0.092284672 #
12.133047805206830460633682378102 1:-0.0077090007 2:-0.14424793 3:-0.086799003 4:0.098332636 #
12.133047805206830460633682378102 1:-0.043291457 2:-0.12137147 3:-0.012022206 4:0.023195911 #
-12.133047805206830460633682378102 1:0.14748794 2:-0.20362823 3:-0.053176723 4:-0.081737742 #
-12.133047805206830460633682378102 1:0.13227329 2:-0.21237558 3:-0.065212175 4:-0.03394004 #
12.133047805206830460633682378102 1:-0.0047267214 2:-0.1079227 3:-0.012492372 4:-0.080523618 #
-12.133047805206830460633682378102 1:0.12351663 2:-0.21344577 3:-0.04450047 4:-0.022594975 #
-12.133047805206830460633682378102 1:0.042585086 2:-0.22783075 3:0.0053901328 4:0.083019629 #
12.133047805206830460633682378102 1:0.017042859 2:-0.14311914 3:-0.058430661 4:-0.05309926 #
-12.133047805206830460633682378102 1:-0.24380329 2:0.1564295 3:-0.05887489 4:-0.03756943 #
12.133047805206830460633682378102 1:-0.038638499 2:-0.13148507 3:-0.004291472 4:0.068524592 #
-12.133047805206830460633682378102 1:0.14454983 2:-0.19557047 3:-0.071921378 4:-0.063513555 #
-12.133047805206830460633682378102 1:-0.24378996 2:0.14417776 3:-0.016206849 4:0.042500444 #
12.133047805206830460633682378102 1:0.048712417 2:-0.13061924 3:-0.080510348 4:-0.073293433 #
-12.133047805206830460633682378102 1:0.12758556 2:-0.21700269 3:-0.13297056 4:-0.089497954 #
-12.133047805206830460633682378102 1:0.11447755 2:-0.24741229 3:-0.056122955 4:-0.067542955 #
12.133047805206830460633682378102 1:-0.038800992 2:-0.10738589 3:-0.025343847 4:0.060469583 #
12.133047805206830460633682378102 1:-0.025795596 2:-0.11763604 3:-0.0046247011 4:0.057170723 #
-12.133047805206830460633682378102 1:-0.19398107 2:0.052042242 3:0.12556495 4:0.023342695 #
-12.133047805206830460633682378102 1:0.034155216 2:-0.26469931 3:-0.041083392 4:0.10600516 #
12.133047805206830460633682378102 1:0.21667513 2:0.10841198 3:0.017236156 4:-0.031615857 #
12.133047805206830460633682378102 1:0.037503831 2:-0.11210153 3:-0.075094193 4:-0.054549638 #
12.133047805206830460633682378102 1:0.034443654 2:-0.12224007 3:-0.079883456 4:-0.043324471 #
12.133047805206830460633682378102 1:-0.025046157 2:-0.1406256 3:0.0075378749 4:0.027896162 #
-12.133047805206830460633682378102 1:0.12627007 2:-0.21572004 3:-0.090238534 4:-0.12767041 #
-12.133047805206830460633682378102 1:-0.26175106 2:0.14392366 3:-0.013838402 4:0.022398911 #
12.133047805206830460633682378102 1:-0.032255992 2:-0.12374958 3:-0.025679497 4:-0.0092017511 #
12.133047805206830460633682378102 1:-0.026805425 2:-0.12737434 3:-0.0011889088 4:-0.009958161 #
-12.133047805206830460633682378102 1:0.10718481 2:-0.23832458 3:-0.037980601 4:-0.045366656 #
12.133047805206830460633682378102 1:-0.005492507 2:-0.13575289 3:-0.048287474 4:-0.026812268 #
-12.133047805206830460633682378102 1:0.099607706 2:-0.21725127 3:-0.071460277 4:-0.0082876822 #
12.133047805206830460633682378102 1:-0.0050788508 2:-0.14734295 3:-0.017463924 4:-0.0052235806 #
-12.133047805206830460633682378102 1:-0.20924625 2:0.074105673 3:0.12019416 4:0.019642331 #
12.133047805206830460633682378102 1:0.031738717 2:-0.14502516 3:-0.095368586 4:0.0068081808 #
12.133047805206830460633682378102 1:0.019993143 2:-0.15962142 3:-0.072054274 4:0.01477524 #
-12.133047805206830460633682378102 1:0.10324161 2:-0.2479219 3:-0.083323501 4:-0.080512978 #
12.133047805206830460633682378102 1:-0.0033717921 2:-0.134914 3:0.0099656833 4:0.016436078 #
-12.133047805206830460633682378102 1:0.070477717 2:-0.2317573 3:-0.099443093 4:0.021903211 #
12.133047805206830460633682378102 1:-0.011327437 2:-0.12396687 3:-0.080938742 4:0.026588708 #
-12.133047805206830460633682378102 1:0.020503141 2:-0.25106004 3:-0.055861123 4:0.090112425 #
12.133047805206830460633682378102 1:0.0052972049 2:-0.13342436 3:0.0086284047 4:0.038962904 #
-12.133047805206830460633682378102 1:0.10254516 2:-0.19762713 3:-0.069848962 4:-0.034436043 #
-12.133047805206830460633682378102 1:-0.24267219 2:0.095182665 3:0.040571358 4:0.03174483 #
-12.133047805206830460633682378102 1:-0.23775895 2:0.1210332 3:0.035680525 4:-0.0090354839 #
12.133047805206830460633682378102 1:0.046832029 2:-0.16529688 3:-0.040723894 4:0.0059460597 #
-12.133047805206830460633682378102 1:0.066254444 2:-0.2319548 3:-0.058852613 4:0.025443379 #
-12.133047805206830460633682378102 1:-0.23894337 2:0.11196059 3:-0.0047417651 4:-0.012936893 #
12.133047805206830460633682378102 1:0.012074533 2:-0.13488202 3:-0.057419203 4:0.015905278 #
12.133047805206830460633682378102 1:-0.00039394433 2:-0.13165472 3:-0.049306732 4:0.058291633 #
12.133047805206830460633682378102 1:0.0091481423 2:-0.12253219 3:-0.081082202 4:0.0095123472 #
-12.133047805206830460633682378102 1:0.056356423 2:-0.25998747 3:-0.037801366 4:0.041848507 #
12.133047805206830460633682378102 1:0.020548623 2:-0.11151481 3:-0.084554419 4:-0.0042798514 #
-12.133047805206830460633682378102 1:0.073177479 2:-0.23535827 3:-0.060276173 4:-0.012033006 #
-12.133047805206830460633682378102 1:0.10483715 2:-0.23168646 3:-0.10252158 4:-0.097669147 #
12.133047805206830460633682378102 1:0.033913553 2:-0.10908732 3:-0.049198106 4:0.015279492 #
12.133047805206830460633682378102 1:0.18296754 2:0.054891434 3:-0.067540243 4:0.061426621 #
-12.133047805206830460633682378102 1:0.043377679 2:-0.25730568 3:-0.014544921 4:0.068398513 #
12.133047805206830460633682378102 1:0.0081366906 2:-0.13530874 3:-0.084798023 4:0.071362175 #
-12.133047805206830460633682378102 1:0.24734159 2:0.10510249 3:-0.095569484 4:0.16975687 #
-12.133047805206830460633682378102 1:0.24283233 2:0.099628359 3:-0.11900438 4:0.14209579 #
12.133047805206830460633682378102 1:-0.2806091 2:0.031961344 3:0.02491596 4:-0.01600394 #
12.133047805206830460633682378102 1:-0.25994289 2:0.031356879 3:0.012623033 4:-0.044066619 #
12.133047805206830460633682378102 1:0.13317287 2:-0.1604564 3:-0.092994377 4:0.001098876 #
-12.133047805206830460633682378102 1:-0.31411225 2:0.10982218 3:-0.067797936 4:-0.019536996 #
-12.133047805206830460633682378102 1:-0.16755974 2:-0.056755111 3:-0.11786025 4:-0.012074952 #
12.133047805206830460633682378102 1:0.1359109 2:-0.1478949 3:-0.10503372 4:-0.057452921 #
12.133047805206830460633682378102 1:-0.022577444 2:-0.094611429 3:-0.12037705 4:0.0053883223 #
12.133047805206830460633682378102 1:0.1357096 2:-0.035647336 3:0.015468432 4:-0.0045872726 #
-12.133047805206830460633682378102 1:-0.24603996 2:0.031213414 3:-0.065104559 4:-0.099481575 #
-12.133047805206830460633682378102 1:-0.23320512 2:0.07010521 3:-0.052772783 4:-0.08928515 #
-12.133047805206830460633682378102 1:-0.2084059 2:0.068834014 3:0.10433402 4:-0.025153656 #
12.133047805206830460633682378102 1:0.0024941775 2:-0.11697376 3:-0.14989096 4:0.052083429 #
12.133047805206830460633682378102 1:0.039596204 2:-0.085627064 3:-0.066860959 4:-0.099501491 #
-12.133047805206830460633682378102 1:0.20571662 2:-0.13731985 3:-0.17079516 4:-0.097080186 #
12.133047805206830460633682378102 1:-0.3101916 2:0.14182417 3:0.059342671 4:0.068281993 #
-12.133047805206830460633682378102 1:0.13956255 2:0.15540519 3:-0.011188757 4:0.13988212 #
12.133047805206830460633682378102 1:0.12031877 2:-0.10282572 3:-0.1216025 4:-0.14403886 #
-12.133047805206830460633682378102 1:0.096149571 2:-0.23952587 3:-0.018410895 4:-0.16111477 #
12.133047805206830460633682378102 1:0.1084299 2:-0.056154992 3:-0.0013580313 4:-0.005545795 #
-12.133047805206830460633682378102 1:-0.30842495 2:0.1057196 3:-0.054545529 4:-0.0087140109 #
-12.133047805206830460633682378102 1:0.26443034 2:0.053694606 3:-0.11626648 4:0.12733801 #
12.133047805206830460633682378102 1:-0.29801428 2:0.050168514 3:0.0094110295 4:-0.01171454 #
-12.133047805206830460633682378102 1:-0.32622445 2:0.099101305 3:-0.052784722 4:-0.040431038 #
12.133047805206830460633682378102 1:-0.20310864 2:0.0019791864 3:-0.063434735 4:-0.033325061 #
-12.133047805206830460633682378102 1:-0.2588684 2:0.067881748 3:-0.010913692 4:-0.071600661 #
-12.133047805206830460633682378102 1:0.060461532 2:-0.22864296 3:-0.0062352414 4:-0.02033145 #
-12.133047805206830460633682378102 1:-0.31451812 2:0.10257577 3:-0.071439184 4:-0.051624544 #
12.133047805206830460633682378102 1:0.14111285 2:-0.038394656 3:0.01253218 4:-0.054270253 #
12.133047805206830460633682378102 1:-0.30390698 2:0.13789433 3:0.050541531 4:0.06354209 #
12.133047805206830460633682378102 1:0.18866697 2:0.059294254 3:-0.058849465 4:0.067427605 #
-12.133047805206830460633682378102 1:0.098856024 2:-0.24006607 3:0.021389918 4:-0.0895169 #
12.133047805206830460633682378102 1:-0.29454067 2:0.067228623 3:0.025351381 4:-0.023761813 #
12.133047805206830460633682378102 1:-0.24831915 2:0.14668256 3:0.036595762 4:-0.082459398 #
-12.133047805206830460633682378102 1:-0.28850254 2:0.10851061 3:-0.057741918 4:-0.10319951 #
-12.133047805206830460633682378102 1:-0.29506332 2:0.10442798 3:-0.057286795 4:-0.10297475 #
12.133047805206830460633682378102 1:0.083504453 2:-0.15893191 3:-0.1148789 4:0.061543118 #
-12.133047805206830460633682378102 1:-0.26944491 2:0.0629353 3:0.014300898 4:-0.022915894 #
12.133047805206830460633682378102 1:0.19681564 2:0.12230013 3:0.068801358 4:-0.1255022 #
12.133047805206830460633682378102 1:-0.2930848 2:0.14520772 3:0.037980426 4:0.021987574 #
-12.133047805206830460633682378102 1:-0.30980694 2:0.1020864 3:-0.056709308 4:-0.01971603 #
12.133047805206830460633682378102 1:0.087068714 2:-0.15496773 3:-0.12417312 4:0.00074978464 #
12.133047805206830460633682378102 1:0.059427183 2:-0.13485745 3:-0.095950119 4:-0.0011788403 #
12.133047805206830460633682378102 1:0.26621613 2:0.1216568 3:0.066111498 4:-0.13382767 #
-12.133047805206830460633682378102 1:-0.17470445 2:-0.06026338 3:-0.11644553 4:-0.030091088 #
12.133047805206830460633682378102 1:-0.28275269 2:0.040820904 3:0.015872682 4:-0.020754874 #
12.133047805206830460633682378102 1:-0.27655375 2:0.014266506 3:-0.016327636 4:0.0026947386 #
-12.133047805206830460633682378102 1:-0.24462986 2:0.11093248 3:0.01292827 4:0.0016509135 #
12.133047805206830460633682378102 1:-0.28059798 2:0.070221074 3:0.015166848 4:-0.033854805 #
-12.133047805206830460633682378102 1:-0.28391147 2:0.066334851 3:-0.072418734 4:-0.0039585819 #
-12.133047805206830460633682378102 1:-0.25778821 2:0.11610995 3:0.045029774 4:-0.0020026914 #
12.133047805206830460633682378102 1:-0.28004488 2:0.075383313 3:0.033307731 4:-0.011756928 #
-12.133047805206830460633682378102 1:-0.20482567 2:-0.051965956 3:-0.12492503 4:-0.011889497 #
12.133047805206830460633682378102 1:-0.28556025 2:0.085176028 3:0.01963431 4:0.0085494323 #
-12.133047805206830460633682378102 1:-0.23037902 2:0.092232436 3:0.072296016 4:0.01738322 #
-12.133047805206830460633682378102 1:-0.2531217 2:0.1132435 3:0.038468413 4:-0.034557123 #
12.133047805206830460633682378102 1:0.065149806 2:-0.10986599 3:-0.098457567 4:-0.11054733 #
-12.133047805206830460633682378102 1:-0.27830324 2:0.022592926 3:-0.057703566 4:-0.012196585 #
-12.133047805206830460633682378102 1:0.019759817 2:-0.19452564 3:0.051440079 4:-0.084127143 #
12.133047805206830460633682378102 1:-0.30757755 2:0.13916078 3:0.02997789 4:0.065558657 #
12.133047805206830460633682378102 1:-0.31135082 2:0.14192142 3:0.015312476 4:0.065938719 #
12.133047805206830460633682378102 1:0.034695733 2:-0.096054569 3:-0.085752897 4:-0.11707973 #
-12.133047805206830460633682378102 1:-0.29642209 2:0.087646917 3:-0.061881281 4:-0.016771821 #
12.133047805206830460633682378102 1:-0.22350398 2:-0.0041140192 3:-0.037548263 4:-0.022090852 #
-12.133047805206830460633682378102 1:-0.20648089 2:-0.046772543 3:-0.13057448 4:-0.033567056 #
12.133047805206830460633682378102 1:-0.26800436 2:0.086228535 3:0.017687242 4:-0.012610424 #
12.133047805206830460633682378102 1:-0.23958988 2:0.00028867557 3:-0.050573174 4:-0.0034123391 #
-12.133047805206830460633682378102 1:-0.27514863 2:0.09980461 3:0.00067829341 4:-0.0092713693 #
12.133047805206830460633682378102 1:-0.2553879 2:0.020283286 3:-0.077465899 4:-0.026927503 #
12.133047805206830460633682378102 1:-0.22929941 2:0.0930776 3:0.016009931 4:-0.092012942 #
12.133047805206830460633682378102 1:-0.27830219 2:0.1149772 3:0.010356333 4:0.023286296 #
12.133047805206830460633682378102 1:-0.27755255 2:0.091079079 3:0.028445784 4:0.027772576 #
12.133047805206830460633682378102 1:-0.26339787 2:0.075053684 3:0.024104329 4:0.015967704 #
-12.133047805206830460633682378102 1:-0.30673122 2:0.099630192 3:-0.052665375 4:-0.054279462 #
12.133047805206830460633682378102 1:-0.20102488 2:-0.007917366 3:-0.05611822 4:-0.035019644 #
-12.133047805206830460633682378102 1:-0.28767484 2:0.062447008 3:-0.059026323 4:0.0070442352 #
12.133047805206830460633682378102 1:-0.21407804 2:-0.0015089415 3:-0.06062353 4:-0.0318745 #
12.133047805206830460633682378102 1:-0.2200481 2:0.0053976923 3:-0.032691427 4:0.00079002237 #
-12.133047805206830460633682378102 1:-0.1799459 2:0.028751308 3:0.12569886 4:0.00381805 #
12.133047805206830460633682378102 1:-0.27552083 2:0.092832282 3:-0.0060994569 4:-0.025416438 #
12.133047805206830460633682378102 1:0.058704652 2:-0.15506907 3:-0.13630456 4:0.039913714 #
-12.133047805206830460633682378102 1:-0.3061249 2:0.076463722 3:-0.085161448 4:-0.049194213 #
12.133047805206830460633682378102 1:-0.235774 2:0.0060054166 3:-0.041437764 4:0.016134501 #
-12.133047805206830460633682378102 1:-0.26019108 2:0.065950997 3:-0.020076808 4:-0.0066092354 #
-12.133047805206830460633682378102 1:-0.21300162 2:-0.048472136 3:-0.12738207 4:-0.050663147 #
12.133047805206830460633682378102 1:-0.26874754 2:0.13238677 3:0.090109542 4:0.037206963 #
-12.133047805206830460633682378102 1:-0.22292484 2:0.092311159 3:0.077428736 4:-0.011048527 #
-12.133047805206830460633682378102 1:-0.21034017 2:0.090033554 3:0.08652094 4:-0.02042255 #
12.133047805206830460633682378102 1:-0.23311777 2:0.0069708051 3:-0.072716795 4:-0.026184712 #
12.133047805206830460633682378102 1:-0.2156315 2:0.019474857 3:-0.060992192 4:-0.061844066 #
-12.133047805206830460633682378102 1:-0.2161946 2:-0.057348676 3:-0.12687859 4:-0.039885178 #
-12.133047805206830460633682378102 1:-0.20387237 2:-0.074198849 3:-0.10919566 4:-0.011597577 #
12.133047805206830460633682378102 1:-0.23423168 2:0.10533664 3:0.04573565 4:-0.051338073 #
12.133047805206830460633682378102 1:-0.23925187 2:0.095496945 3:0.037385542 4:-0.036382783 #
-12.133047805206830460633682378102 1:-0.22237599 2:0.081842132 3:0.095706068 4:0.00089859572 #
-12.133047805206830460633682378102 1:-0.22190042 2:0.079103105 3:0.093841784 4:0.0059874128 #
12.133047805206830460633682378102 1:-0.21768141 2:-0.0031174521 3:-0.053407084 4:-0.012221405 #
-12.133047805206830460633682378102 1:-0.24401914 2:0.046765957 3:-0.04270947 4:-0.045253232 #
-12.133047805206830460633682378102 1:-0.27536747 2:0.080576874 3:-0.013462501 4:-0.017966708 #
12.133047805206830460633682378102 1:-0.21057874 2:0.0026959109 3:-0.061139751 4:-0.033816516 #
-12.133047805206830460633682378102 1:-0.27294204 2:0.055227533 3:-0.032276727 4:0.002770297 #
12.133047805206830460633682378102 1:-0.26630414 2:0.082260944 3:-0.033507768 4:-0.052769762 #
-12.133047805206830460633682378102 1:-0.24559714 2:0.092222765 3:0.0068732388 4:-0.075018272 #
-12.133047805206830460633682378102 1:-0.24216722 2:0.043596782 3:-0.02096945 4:-0.023066359 #
12.133047805206830460633682378102 1:-0.25563443 2:0.091510221 3:0.026487526 4:-0.0096273888 #
12.133047805206830460633682378102 1:-0.23985833 2:0.016609484 3:-0.062009536 4:-0.015639799 #
12.133047805206830460633682378102 1:-0.24661873 2:0.019898737 3:-0.067272939 4:-0.014548931 #
-12.133047805206830460633682378102 1:-0.27476287 2:-0.0035860352 3:-0.11406265 4:-0.046669662 #
12.133047805206830460633682378102 1:-0.25334507 2:0.14177397 3:0.058835063 4:-0.038933408 #
-12.133047805206830460633682378102 1:-0.21710853 2:0.076070264 3:0.10861769 4:0.008095758 #
-12.133047805206830460633682378102 1:-0.28316766 2:0.092345186 3:-0.034851618 4:-0.056322828 #
12.133047805206830460633682378102 1:-0.21207047 2:-0.0072081955 3:-0.043307107 4:0.0074824058 #
-12.133047805206830460633682378102 1:0.060736138 2:-0.24263297 3:-0.064502858 4:-0.0051537221 #
12.133047805206830460633682378102 1:-0.21893902 2:0.0025747912 3:-0.019142846 4:0.052437428 #
-12.133047805206830460633682378102 1:-0.26388893 2:0.097545296 3:-0.015124994 4:-0.088912249 #
-12.133047805206830460633682378102 1:-0.31720355 2:0.076670304 3:-0.072319999 4:-0.042890284 #
12.133047805206830460633682378102 1:-0.17719401 2:0.0099834269 3:-0.010687413 4:-0.026185278 #
12.133047805206830460633682378102 1:-0.2266378 2:0.021412255 3:-0.057067301 4:-0.036240604 #
12.133047805206830460633682378102 1:-0.27452046 2:0.090533018 3:-0.035950981 4:-0.052639149 #
-12.133047805206830460633682378102 1:-0.25918424 2:0.06765911 3:-0.016250549 4:-0.042463496 #
12.133047805206830460633682378102 1:-0.23891938 2:0.018475812 3:-0.038732212 4:0.02055276 #
-12.133047805206830460633682378102 1:-0.25159356 2:0.068424322 3:-0.025512762 4:-0.074120872 #
-12.133047805206830460633682378102 1:-0.27544382 2:0.055744331 3:-0.018659795 4:-0.0016939134 #
12.133047805206830460633682378102 1:-0.26569289 2:0.10381492 3:0.010889595 4:-0.02913012 #
12.133047805206830460633682378102 1:-0.26512226 2:0.082671322 3:-0.039093483 4:-0.05488921 #
-12.133047805206830460633682378102 1:-0.30230895 2:0.087186337 3:-0.027789749 4:-0.034831155 #
-12.133047805206830460633682378102 1:-0.27211311 2:0.070901953 3:0.031929206 4:0.02211551 #
12.133047805206830460633682378102 1:-0.2364672 2:0.025306759 3:-0.077913158 4:-0.048659567 #
12.133047805206830460633682378102 1:-0.29740566 2:0.13923654 3:0.048081778 4:0.045059491 #
-12.133047805206830460633682378102 1:-0.17980096 2:0.016468795 3:0.12319542 4:-0.021203248 #
12.133047805206830460633682378102 1:-0.29482922 2:0.093942374 3:-0.016779587 4:0.014583634 #
-12.133047805206830460633682378102 1:-0.28964174 2:0.060487106 3:-0.087922186 4:-0.096456878 #
12.133047805206830460633682378102 1:-0.21816435 2:-0.0079428321 3:-0.042167004 4:0.042139601 #
-12.133047805206830460633682378102 1:-0.20464547 2:0.057614386 3:0.11116624 4:0.022332905 #
12.133047805206830460633682378102 1:-0.26981923 2:0.10392267 3:-0.026877629 4:-0.060692232 #
-12.133047805206830460633682378102 1:-0.30971268 2:0.046973955 3:-0.09695109 4:-0.056229714 #
12.133047805206830460633682378102 1:-0.20089465 2:0.0089310324 3:-0.0097886026 4:0.02385756 #
-12.133047805206830460633682378102 1:-0.23331705 2:0.05714326 3:0.021040626 4:-0.040091198 #
12.133047805206830460633682378102 1:-0.20650251 2:0.016904976 3:-0.060519956 4:-0.055511396 #
-12.133047805206830460633682378102 1:-0.26702726 2:0.0038241658 3:-0.095726065 4:-0.043413874 #
12.133047805206830460633682378102 1:-0.24375363 2:0.10030751 3:-0.0054497519 4:-0.068450019 #
-12.133047805206830460633682378102 1:-0.20389861 2:0.076195352 3:0.11283179 4:-0.014731762 #
12.133047805206830460633682378102 1:-0.24363565 2:0.019181257 3:-0.062399581 4:0.00026094072 #
-12.133047805206830460633682378102 1:-0.29791212 2:0.079594418 3:-0.056181494 4:-0.079059742 #
12.133047805206830460633682378102 1:-0.25425836 2:0.146081 3:0.044645485 4:-0.05201653 #
-12.133047805206830460633682378102 1:-0.23645508 2:0.045900445 3:-0.012916093 4:-0.059636656 #
12.133047805206830460633682378102 1:-0.27621639 2:0.096049674 3:-0.025928097 4:-0.033943515 #
-12.133047805206830460633682378102 1:-0.30982092 2:0.078834705 3:-0.050586347 4:-0.061756015 #
-12.133047805206830460633682378102 1:0.25642389 2:0.090118878 3:-0.069754742 4:0.1874332 #
12.133047805206830460633682378102 1:-0.26203281 2:0.10861212 3:0.001579463 4:-0.033116285 #
-12.133047805206830460633682378102 1:0.27042833 2:0.1479512 3:-0.016441677 4:0.1397814 #
-12.133047805206830460633682378102 1:0.20543437 2:0.063029863 3:-0.14509405 4:0.16308871 #
-12.133047805206830460633682378102 1:-0.30973727 2:0.076823905 3:-0.043330763 4:-0.058288474 #
12.133047805206830460633682378102 1:0.11747394 2:-0.15178838 3:-0.12016527 4:0.029382911 #
-12.133047805206830460633682378102 1:0.2679103 2:0.059733242 3:-0.11738071 4:0.11907061 #
12.133047805206830460633682378102 1:-0.30873775 2:0.15001687 3:-0.00030203487 4:0.03212329 #
-12.133047805206830460633682378102 1:-0.31461832 2:0.048863541 3:-0.075653538 4:-0.044956237 #
-12.133047805206830460633682378102 1:-0.31027374 2:0.060500063 3:-0.037950814 4:-0.040399443 #
12.133047805206830460633682378102 1:0.1072401 2:-0.14086968 3:-0.11252555 4:0.024311062 #
-12.133047805206830460633682378102 1:-0.26657221 2:0.039100993 3:-0.055416603 4:-0.082063496 #
12.133047805206830460633682378102 1:-0.27620026 2:0.11057197 3:0.025779232 4:0.038551535 #
-12.133047805206830460633682378102 1:-0.18025695 2:0.0062705916 3:0.12228456 4:0.00060027279 #
12.133047805206830460633682378102 1:-0.32383376 2:0.16336936 3:-0.10268886 4:-0.008309654 #
-12.133047805206830460633682378102 1:-0.25123993 2:0.067997791 3:0.084983476 4:0.0019809934 #
12.133047805206830460633682378102 1:0.041261695 2:-0.14277409 3:-0.12343442 4:0.10027691 #
-12.133047805206830460633682378102 1:0.1626161 2:-0.079951569 3:-0.19567287 4:0.16219603 #
12.133047805206830460633682378102 1:-0.30653894 2:0.14707108 3:-0.00069417403 4:0.03229956 #
12.133047805206830460633682378102 1:-0.25624219 2:0.070970766 3:-0.06610284 4:-0.031056868 #
-12.133047805206830460633682378102 1:-0.30643159 2:0.05040564 3:-0.059847776 4:-0.052796252 #
12.133047805206830460633682378102 1:-0.26932427 2:0.091395594 3:-0.087246977 4:-0.044964425 #
-12.133047805206830460633682378102 1:-0.30743077 2:0.039283235 3:-0.055009395 4:-0.031967521 #
-12.133047805206830460633682378102 1:-0.28474876 2:0.055949036 3:-0.023438908 4:-0.073282927 #
12.133047805206830460633682378102 1:-0.26690641 2:0.10208165 3:-0.011203849 4:-0.02125046 #
12.133047805206830460633682378102 1:-0.27595884 2:0.087348141 3:-0.085050881 4:-0.036909305 #
12.133047805206830460633682378102 1:-0.25575545 2:0.1052141 3:-0.022382384 4:-0.056177393 #
-12.133047805206830460633682378102 1:-0.30678341 2:0.032510679 3:-0.085366048 4:-0.051021308 #
-12.133047805206830460633682378102 1:-0.29314443 2:0.037730943 3:-0.081976891 4:-0.06381657 #
12.133047805206830460633682378102 1:-0.28261751 2:0.090059362 3:-0.093703821 4:-0.044961065 #
-12.133047805206830460633682378102 1:0.2287828 2:0.1087311 3:-0.097597763 4:0.087791838 #
12.133047805206830460633682378102 1:-0.23078364 2:0.13782352 3:0.0026693749 4:-0.090660974 #
-12.133047805206830460633682378102 1:-0.26973918 2:0.027472282 3:-0.03456207 4:-0.053978071 #
12.133047805206830460633682378102 1:-0.27134249 2:0.10023464 3:-0.085460283 4:-0.06768319 #
-12.133047805206830460633682378102 1:-0.26848719 2:0.027664617 3:-0.066929482 4:-0.074771732 #
12.133047805206830460633682378102 1:-0.26624721 2:0.10994997 3:-0.0010728341 4:-0.017391967 #
-12.133047805206830460633682378102 1:-0.27560711 2:0.0057718721 3:-0.066615157 4:-0.049977187 #
12.133047805206830460633682378102 1:-0.27834001 2:0.097810656 3:-0.032204151 4:-0.027875794 #
-12.133047805206830460633682378102 1:0.25824189 2:0.091050081 3:-0.066927932 4:0.18339087 #
-12.133047805206830460633682378102 1:-0.17664912 2:0.045857657 3:0.13422847 4:-0.048017032 #
12.133047805206830460633682378102 1:-0.26899686 2:0.12647887 3:0.034409612 4:0.038683373 #
-12.133047805206830460633682378102 1:-0.25835192 2:-0.034330647 3:-0.095022276 4:-0.03870989 #
12.133047805206830460633682378102 1:-0.28649968 2:0.10388201 3:-0.045113787 4:-0.019338191 #
12.133047805206830460633682378102 1:0.036306147 2:-0.10511478 3:-0.11016108 4:-0.054711565 #
-12.133047805206830460633682378102 1:-0.27418369 2:0.1221446 3:0.028317595 4:0.074784085 #
12.133047805206830460633682378102 1:0.21871294 2:-0.0051422026 3:0.028627284 4:-0.10732915 #
12.133047805206830460633682378102 1:-0.22562937 2:0.013098657 3:-0.020918563 4:0.052843373 #
-12.133047805206830460633682378102 1:-0.2677561 2:0.1024427 3:-0.0042703883 4:0.084646411 #
12.133047805206830460633682378102 1:0.085626148 2:-0.15013328 3:-0.10249866 4:0.10491315 #
12.133047805206830460633682378102 1:-0.29762709 2:0.11969183 3:0.0080866888 4:0.072882175 #
-12.133047805206830460633682378102 1:-0.28309718 2:0.095696762 3:0.038438987 4:0.093244225 #
12.133047805206830460633682378102 1:0.23919374 2:0.087178253 3:0.057430442 4:0.076276898 #
12.133047805206830460633682378102 1:-0.27975294 2:0.13441974 3:-0.023254342 4:-0.013673884 #
-12.133047805206830460633682378102 1:-0.14262417 2:0.024030842 3:0.14182356 4:-0.065214626 #
12.133047805206830460633682378102 1:-0.2938149 2:0.11280552 3:-0.00099439861 4:0.04078706 #
12.133047805206830460633682378102 1:0.10007519 2:-0.15658088 3:-0.11511715 4:0.098200999 #
-12.133047805206830460633682378102 1:-0.26700765 2:0.09471269 3:0.02497939 4:0.10949036 #
12.133047805206830460633682378102 1:-0.27264783 2:0.13341899 3:0.014268217 4:0.022516131 #
-12.133047805206830460633682378102 1:-0.2832278 2:0.090045772 3:0.047194004 4:0.12298186 #
12.133047805206830460633682378102 1:-0.26390928 2:0.13832997 3:0.02483228 4:-0.0020481315 #
-12.133047805206830460633682378102 1:-0.15853629 2:0.029065358 3:0.1319425 4:-0.038972024 #
12.133047805206830460633682378102 1:-0.22666056 2:0.0085810749 3:-0.033197381 4:0.056888416 #
12.133047805206830460633682378102 1:-0.22670394 2:0.017260617 3:-0.037234619 4:0.02201058 #
12.133047805206830460633682378102 1:-0.291848 2:0.12654515 3:-0.0035989999 4:0.048837926 #
-12.133047805206830460633682378102 1:-0.25263619 2:0.036887601 3:-0.024205713 4:0.012099584 #
-12.133047805206830460633682378102 1:0.086588144 2:-0.19018899 3:-0.23855308 4:0.085161462 #
-12.133047805206830460633682378102 1:0.21786283 2:0.035880998 3:-0.15808821 4:0.10342851 #
12.133047805206830460633682378102 1:-0.18345279 2:0.0068608401 3:-0.030727632 4:-0.018799786 #
-12.133047805206830460633682378102 1:-0.30020872 2:0.068879776 3:0.014165265 4:0.034569211 #
12.133047805206830460633682378102 1:-0.19806032 2:-0.0043100957 3:-0.052932914 4:-0.002199684 #
-12.133047805206830460633682378102 1:-0.25869232 2:0.032158162 3:-0.02335123 4:0.024655033 #
12.133047805206830460633682378102 1:-0.2163931 2:0.019926125 3:-0.046640389 4:0.0027582936 #
-12.133047805206830460633682378102 1:-0.23416282 2:0.025493745 3:-0.0067304694 4:0.007177006 #
12.133047805206830460633682378102 1:-0.27397615 2:0.1213936 3:-0.0036424568 4:0.0076528159 #
-12.133047805206830460633682378102 1:-0.2757082 2:0.074819386 3:0.014967576 4:0.033756822 #
-12.133047805206830460633682378102 1:-0.29793492 2:0.075516239 3:0.044380825 4:0.039732751 #
12.133047805206830460633682378102 1:-0.209325 2:0.022650098 3:-0.058166049 4:-0.004538212 #
12.133047805206830460633682378102 1:-0.20180312 2:0.022979598 3:-0.054350041 4:-0.040574774 #
-12.133047805206830460633682378102 1:0.16591506 2:-0.1544428 3:-0.16937424 4:-0.049764693 #
12.133047805206830460633682378102 1:-0.28295112 2:0.13972972 3:-0.003416575 4:0.0083545251 #
-12.133047805206830460633682378102 1:-0.24369712 2:0.068941385 3:0.099496163 4:0.090391241 #
12.133047805206830460633682378102 1:-0.28928262 2:0.12961124 3:-0.01569722 4:0.012928254 #
12.133047805206830460633682378102 1:-0.18795992 2:0.031972058 3:-0.059118293 4:-0.086835861 #
-12.133047805206830460633682378102 1:-0.25477007 2:0.09349823 3:0.061977386 4:0.05106613 #
-12.133047805206830460633682378102 1:-0.25485867 2:0.084003076 3:0.049752254 4:0.06138907 #
12.133047805206830460633682378102 1:-0.21951286 2:0.027424544 3:-0.067460172 4:0.0055602365 #
-12.133047805206830460633682378102 1:-0.24466306 2:0.083819486 3:0.065960467 4:0.047712795 #
12.133047805206830460633682378102 1:-0.27675354 2:0.12393219 3:-0.028448833 4:0.012880135 #
-12.133047805206830460633682378102 1:0.085237734 2:-0.2101914 3:-0.049679678 4:-0.12182904 #
-12.133047805206830460633682378102 1:0.10215161 2:-0.21075273 3:-0.042629745 4:-0.1246306 #
12.133047805206830460633682378102 1:0.12773763 2:0.1114499 3:0.040945556 4:0.16181275 #
12.133047805206830460633682378102 1:0.032047387 2:-0.092207856 3:-0.0836372 4:-0.049141593 #
-12.133047805206830460633682378102 1:-0.25216523 2:0.094716668 3:0.043642003 4:0.07845778 #
-12.133047805206830460633682378102 1:-0.26460809 2:0.096450523 3:0.057965774 4:0.084427111 #
12.133047805206830460633682378102 1:0.12910108 2:-0.11512458 3:-0.10461223 4:-0.038802415 #
