SVM-light Version V6.02
0 # kernel type
3 # kernel parameter -d 
1 # kernel parameter -g 
1 # kernel parameter -s 
1 # kernel parameter -r 
empty# kernel parameter -u 
14 # highest feature index 
1684 # number of training documents 
731 # number of support vectors plus 1 
-0.1459423 # threshold b, each following line is a SV (starting with alpha*y)
8.9734053922702905481401103315875 1:0.19155446 2:-0.020868637 3:-0.042212088 4:-0.060249247 5:0.068984367 6:0.05975521 7:-0.059754077 8:0.014520615 9:-0.0023326988 10:-0.040818892 11:0.078049183 12:-0.031974528 13:0.016922403 14:-0.018423464 #
8.9734053922702905481401103315875 1:-0.28842658 2:0.12979643 3:0.060677987 4:0.063110813 5:0.18738423 6:-0.036118463 7:0.06645412 8:-0.076895408 9:0.021016937 10:-0.019048866 11:-0.0074388096 12:0.010658113 13:-0.0073340763 14:-0.016559081 #
-8.9734053922702905481401103315875 1:-0.26349375 2:0.15875788 3:-0.021657787 4:0.036871072 5:0.1754925 6:-0.022060165 7:0.1606041 8:-0.12243251 9:0.10920659 10:0.064005628 11:0.010569557 12:-0.069173008 13:-0.054468971 14:0.050315574 #
-8.9734053922702905481401103315875 1:0.16428189 2:-0.2103339 3:-0.12735985 4:-0.064789727 5:0.088808767 6:-0.0499276 7:0.10376501 8:0.0095758326 9:-0.12338525 10:0.032195952 11:0.0095354123 12:0.0051183603 13:-0.018335503 14:0.070946187 #
-8.9734053922702905481401103315875 1:-0.091778986 2:-0.11283909 3:0.17697822 4:-0.025726108 5:-0.058728646 6:0.025647607 7:-0.21735847 8:0.10870289 9:-0.037144769 10:0.070790574 11:0.062638231 12:-0.037018731 13:0.018439651 14:0.042493854 #
8.9734053922702905481401103315875 1:0.16486351 2:-0.15192783 3:-0.029292939 4:-0.23194186 5:0.089636423 6:0.027551545 7:0.024441741 8:-0.025112741 9:-0.038474716 10:-0.014914445 11:0.047433458 12:0.018820405 13:0.0085330503 14:0.029186038 #
-8.9734053922702905481401103315875 1:-0.27852535 2:0.16766727 3:-0.10703485 4:-0.00011076776 5:0.059352405 6:-0.10948149 7:-0.056665119 8:-0.10913425 9:0.081981331 10:0.057116408 11:0.031188019 12:-0.063668139 13:-0.037398778 14:0.053349532 #
8.9734053922702905481401103315875 1:0.1856581 2:-0.16754407 3:-0.064923689 4:-0.012857414 5:0.11852844 6:0.048555382 7:0.10944793 8:0.050793782 9:-0.02113477 10:-0.0001084211 11:-0.018730102 12:-0.049942639 13:-0.035048977 14:0.0025279596 #
-8.9734053922702905481401103315875 1:0.4795773 2:0.4901261 3:-0.064975783 4:0.35376936 5:-0.18528073 6:0.62905258 7:0.53473222 8:-0.074396364 9:0.27737635 10:0.13919559 11:0.60105133 12:0.423722 13:0.77796078 14:-0.077533036 #
8.9734053922702905481401103315875 1:-0.3186174 2:0.1069838 3:-0.045239877 4:0.0059911609 5:-0.036757085 6:-0.059215132 7:-0.098389573 8:-0.019298077 9:0.0087923901 10:0.024697339 11:0.021907657 12:-0.0022980052 13:-0.0022570954 14:0.023572177 #
-8.9734053922702905481401103315875 1:0.19636329 2:-0.18716574 3:-0.21651143 4:-0.10300732 5:0.15846908 6:-0.032615419 7:0.026261015 8:0.075235277 9:-0.14290766 10:0.077826783 11:0.024676504 12:-0.0095695741 13:-0.037033737 14:0.011909427 #
-8.9734053922702905481401103315875 1:-0.32851252 2:0.19678959 3:-0.12250698 4:-0.0050826068 5:0.0074493983 6:-0.0027579416 7:0.097267091 8:-0.034786157 9:0.02558141 10:-0.013871184 11:-0.013155093 12:-0.041607551 13:-0.035422076 14:0.00082426768 #
-8.9734053922702905481401103315875 1:0.086588144 2:-0.19018899 3:-0.23855308 4:0.085161462 5:0.042086873 6:-0.13065636 7:-0.057992272 8:0.041569535 9:-0.13926335 10:0.03976436 11:0.0057447148 12:-0.0057132505 13:-0.008872319 14:0.018116152 #
8.9734053922702905481401103315875 1:-0.32516828 2:0.087328739 3:0.011375704 4:0.044193521 5:-0.016096771 6:0.01419222 7:0.03946688 8:0.0042223944 9:0.015969774 10:0.038115561 11:0.015783438 12:-0.0039172708 13:0.0056913448 14:0.032602925 #
-8.9734053922702905481401103315875 1:-0.25263619 2:0.036887601 3:-0.024205713 4:0.012099584 5:-0.063250102 6:-0.0077495296 7:-0.0044547888 8:8.9189292e-05 9:-0.0085360408 10:-0.0059109512 11:-0.016884344 12:0.0076610772 13:-0.018002495 14:0.02298802 #
8.9734053922702905481401103315875 1:0.24655475 2:-0.017518656 3:-0.16705854 4:0.02370714 5:0.13040674 6:0.06233453 7:-0.07374911 8:0.11832713 9:0.024619212 10:0.0023297053 11:-0.025715662 12:-0.061146751 13:-0.03181272 14:-0.048313722 #
8.9734053922702905481401103315875 1:0.18084002 2:-0.013507714 3:-0.030306697 4:-0.02492556 5:0.054042466 6:0.042777259 7:-0.046325643 8:0.018591058 9:0.001748674 10:-0.046375103 11:0.093488589 12:-0.02109926 13:-0.0046077124 14:-0.012901533 #
-8.9734053922702905481401103315875 1:0.2994588 2:0.19773138 3:0.066965349 4:-0.11774958 5:-0.028717369 6:-0.022614777 7:0.02850721 8:0.00096173154 9:0.0068334462 10:-0.053387828 11:0.21477419 12:0.087258182 13:-0.1336904 14:0.017733376 #
8.9734053922702905481401103315875 1:-0.3061738 2:0.11946361 3:-0.076007873 4:-0.050779078 5:-0.02575467 6:-0.02822604 7:-0.046115775 8:-0.017882509 9:0.012230636 10:0.0035911989 11:0.010025016 12:-0.010131868 13:-0.012231309 14:0.034938667 #
8.9734053922702905481401103315875 1:-0.076603785 2:-0.084596954 3:-0.059465397 4:0.0572262 5:-0.048357598 6:-0.1133668 7:-0.15224262 8:-0.030739069 9:-0.027337128 10:-0.0079889037 11:0.013800598 12:0.0081763556 13:0.039556384 14:-0.0093053617 #
-8.9734053922702905481401103315875 1:-0.37175718 2:0.16974548 3:-0.080879867 4:-0.061047483 5:-0.094679877 6:0.089728206 7:0.075800531 8:0.093828715 9:-0.063219696 10:-0.07367406 11:-0.012690723 12:-0.024797985 13:0.020579778 14:-0.017583324 #
-8.9734053922702905481401103315875 1:-0.29399601 2:0.17789675 3:-0.1086051 4:0.0055368189 5:0.037336476 6:-0.035686754 7:0.07245063 8:-0.074792713 9:0.07170812 10:0.03804896 11:0.0085087223 12:-0.067214683 13:-0.043548673 14:0.045214269 #
8.9734053922702905481401103315875 1:0.32637912 2:0.21084951 3:0.083852708 4:0.020438744 5:-0.054698847 6:0.04760145 7:0.039289132 8:-0.085627213 9:-0.038256053 10:0.011314272 11:0.0064192642 12:0.013364328 13:-0.018897476 14:0.027806859 #
-8.9734053922702905481401103315875 1:0.28822428 2:0.18248424 3:0.01601254 4:0.083937943 5:-0.050487202 6:0.073592082 7:-0.047883607 8:-0.10535932 9:-0.065119803 10:0.018018907 11:-0.028018275 12:-0.014506908 13:-0.0061233868 14:0.011601673 #
-8.9734053922702905481401103315875 1:0.23693296 2:0.018664705 3:-0.1654347 4:-0.0069955532 5:0.1171924 6:0.051031817 7:-0.13929179 8:0.13093798 9:0.058627114 10:-0.017615506 11:-0.015918709 12:-0.021796692 13:-0.025980894 14:-0.049203359 #
-8.9734053922702905481401103315875 1:-0.2809687 2:0.16102712 3:-0.085323691 4:0.033446975 5:0.084623195 6:-0.10507783 7:-0.01931111 8:-0.11786114 9:0.08933533 10:0.061248831 11:0.024202637 12:-0.061494045 13:-0.040007487 14:0.054930631 #
8.9734053922702905481401103315875 1:0.33032539 2:0.15572348 3:-0.016837221 4:-0.05969907 5:0.046926741 6:0.12067086 7:-0.054286998 8:-0.00081462326 9:0.033128615 10:-0.038459156 11:0.039022814 12:0.029966362 13:-0.016585598 14:0.012272349 #
8.9734053922702905481401103315875 1:0.18475723 2:-0.15182513 3:-0.17842853 4:0.010514951 5:0.10753967 6:-0.031426035 7:0.039844893 8:0.060839195 9:-0.093122393 10:0.040239021 11:0.0054478599 12:-0.034575593 13:-0.034552097 14:0.0076395557 #
8.9734053922702905481401103315875 1:0.36282915 2:0.21521436 3:0.10607859 4:-0.012357722 5:-0.035540741 6:0.090141185 7:0.092052571 8:-0.091371328 9:-0.041642368 10:0.024652131 11:0.0022532241 12:0.0073484425 13:-0.020635303 14:0.019256543 #
8.9734053922702905481401103315875 1:0.21335217 2:0.16109118 3:0.013193864 4:0.017368536 5:-0.085054271 6:-0.0996297 7:-0.11980907 8:-0.035810418 9:-0.063855469 10:-0.0092115505 11:-0.028596342 12:-0.036673911 13:0.0027490326 14:-0.029601622 #
8.9734053922702905481401103315875 1:0.24358031 2:-0.14530328 3:-0.16164672 4:-0.025247822 5:0.15859421 6:0.021353053 7:0.099950559 8:0.092726357 9:-0.085309617 10:0.057135686 11:-0.0078937775 12:-0.058107734 13:-0.074748993 14:-0.013093845 #
-1.3654443978776078516546022001421 1:0.33424208 2:0.075460114 3:-0.093487769 4:-0.051729959 5:0.15451482 6:0.19206312 7:-0.039933477 8:0.10735042 9:0.12804613 10:-0.022234872 11:-0.059067111 12:0.018608725 13:-0.049650799 14:-0.0039378991 #
-8.9734053922702905481401103315875 1:-0.30503854 2:0.16905925 3:-0.078024715 4:0.057210818 5:0.099073581 6:-0.075713016 7:0.055813737 8:-0.12095729 9:0.10239484 10:0.07579188 11:0.026275886 12:-0.053994101 13:-0.033119954 14:0.045105912 #
8.9734053922702905481401103315875 1:0.36051098 2:0.10486125 3:-0.065737568 4:-0.1297894 5:0.14721234 6:0.20368698 7:-0.022913018 8:0.071340464 9:0.092578486 10:-0.023767877 11:-0.0062588574 12:0.0030206933 13:-0.02241873 14:-0.015300885 #
8.9734053922702905481401103315875 1:-0.30757755 2:0.13916078 3:0.02997789 4:0.065558657 5:0.14767928 6:-0.096111551 7:-0.068581149 8:-0.063770294 9:-0.029200999 10:-0.060916405 11:-0.010876561 12:0.045406267 13:0.018151879 14:-0.063391224 #
-8.9734053922702905481401103315875 1:0.13834801 2:-0.21737981 3:-0.051780261 4:-0.21593125 5:0.026477871 6:-0.0083922725 7:-0.00460767 8:-0.078392252 9:0.024140187 10:-0.087596223 11:0.0071878438 12:0.0046608755 13:0.015836576 14:-0.004472597 #
-8.9734053922702905481401103315875 1:0.18850066 2:-0.17604424 3:-0.24136041 4:-0.092277087 5:0.15432957 6:-0.060238406 7:-0.005898762 8:0.083753012 9:-0.18922094 10:0.11087127 11:0.038336538 12:-0.030680984 13:-0.037633073 14:-0.0047806953 #
-8.9734053922702905481401103315875 1:0.33984613 2:0.21789055 3:0.09328527 4:-0.12493087 5:-0.027702678 6:0.050585158 7:0.027764102 8:-0.10195708 9:-0.08334846 10:0.040525191 11:0.034247871 12:-0.019394038 13:-0.038415272 14:-0.025916258 #
-8.9734053922702905481401103315875 1:-0.063136905 2:-0.11262269 3:0.22404362 4:-0.07566613 5:0.0043073688 6:0.091520026 7:-0.11982787 8:0.11933874 9:-0.028501056 10:0.080042109 11:0.058476679 12:-0.020515058 13:0.013933577 14:0.038276229 #
8.9734053922702905481401103315875 1:-0.066602103 2:-0.17173934 3:0.093049407 4:0.12177125 5:-0.045378905 6:0.016307311 7:0.063268229 8:-0.01167959 9:0.037567466 10:0.021008736 11:-0.01148053 12:-0.01191761 13:0.00078267069 14:-0.020633725 #
8.9734053922702905481401103315875 1:0.16889952 2:0.024878262 3:-0.043138087 4:0.18684112 5:-0.010025449 6:0.094483748 7:0.15311126 8:0.0073719528 9:0.0087942518 10:0.0077022277 11:0.062653571 12:0.0021489162 13:0.0015827109 14:-0.0098126903 #
8.9734053922702905481401103315875 1:-0.29454067 2:0.067228623 3:0.025351381 4:-0.023761813 5:-0.01300908 6:0.025171939 7:-0.010540595 8:0.0067158998 9:0.01220013 10:0.022147363 11:0.026676623 12:0.0017983186 13:0.015809391 14:0.040549528 #
8.9734053922702905481401103315875 1:0.15998176 2:-0.0052244635 3:-0.0058497968 4:-0.017718593 5:0.0378621 6:0.022464393 7:-0.052702837 8:0.025049642 9:0.0070279273 10:-0.05276351 11:0.096674725 12:-0.01462893 13:-0.014499359 14:-0.015399802 #
8.9734053922702905481401103315875 1:0.01075342 2:-0.12736368 3:-0.070737511 4:0.078017697 5:0.033674855 6:-0.02987214 7:0.085502096 8:-0.018488036 9:-0.022717966 10:0.034167722 11:-0.003839697 12:0.0056653214 13:0.034167223 14:0.015700445 #
8.9734053922702905481401103315875 1:0.24267161 2:0.14667845 3:0.012694722 4:-0.02847656 5:-0.033692989 6:-0.039059062 7:-0.079160325 8:-0.016332235 9:-0.024058813 10:0.0085970098 11:-0.055572223 12:-0.012405982 13:-0.0045239311 14:-0.0075194938 #
-8.9734053922702905481401103315875 1:-0.28284648 2:0.0011065062 3:-0.1262483 4:-0.079262301 5:-0.1482508 6:0.082143441 7:0.068010591 8:0.052790768 9:-0.034226436 10:0.06146789 11:-0.01696909 12:0.084512964 13:-0.015940337 14:-0.026986426 #
8.9734053922702905481401103315875 1:-0.2806091 2:0.031961344 3:0.02491596 4:-0.01600394 5:-0.039210383 6:0.02685515 7:-0.0040822541 8:0.00055425515 9:0.019368028 10:0.04236738 11:0.016896263 12:0.022316938 13:-0.0080584753 14:0.026159054 #
-8.9734053922702905481401103315875 1:0.3418622 2:0.22457458 3:0.084540486 4:-0.14533156 5:-0.026597697 6:0.056927361 7:0.0064374185 8:-0.10231378 9:-0.084072731 10:0.038117275 11:0.040068876 12:-0.017204238 13:-0.032487083 14:-0.033240974 #
8.9734053922702905481401103315875 1:-0.099158272 2:-0.14757773 3:0.10645881 4:0.13280457 5:-0.034329541 6:0.021232016 7:0.084870517 8:-0.010347832 9:0.033734228 10:0.033704389 11:-0.014751446 12:0.0015177343 13:-0.012024472 14:-0.031400852 #
-8.9734053922702905481401103315875 1:-0.30038133 2:0.16138376 3:-0.077766232 4:0.065519057 5:0.087260976 6:-0.098013125 7:0.011462341 8:-0.11279977 9:0.079909615 10:0.053073991 11:0.016624937 12:-0.046288915 13:-0.030811155 14:0.037766259 #
-8.9734053922702905481401103315875 1:-0.010559254 2:-0.20761025 3:0.13443919 4:0.04062758 5:-0.061550781 6:0.042126719 7:-0.00050641323 8:0.016925242 9:0.044326898 10:0.024040516 11:0.018613439 12:-0.062772162 13:-0.002268597 14:0.0027133161 #
-8.9734053922702905481401103315875 1:0.3346467 2:0.21460983 3:0.094325557 4:-0.082732596 5:-0.037870076 6:0.050800506 7:0.044448365 8:-0.10076387 9:-0.080067635 10:0.038024478 11:0.02973064 12:-0.019250244 13:-0.044433873 14:-0.024518155 #
8.9734053922702905481401103315875 1:-0.28420177 2:0.1297446 3:-0.067503169 4:0.01818384 5:0.020859828 6:-0.061228119 7:-0.019115871 8:-0.05203294 9:0.032864776 10:0.015160096 11:0.0045421864 12:-0.041491132 13:-0.021560997 14:0.034251645 #
8.9734053922702905481401103315875 1:-0.005492507 2:-0.13575289 3:-0.048287474 4:-0.026812268 5:-0.010989644 6:-0.076223768 7:-0.068105966 8:-0.045156814 9:-0.03314824 10:-0.013237462 11:0.0082496228 12:0.025137916 13:0.026035611 14:0.025287407 #
8.9734053922702905481401103315875 1:0.35972577 2:0.17260976 3:0.025552208 4:-0.092609391 5:0.04266851 6:0.12115138 7:0.023594346 8:-0.012014193 9:0.015883747 10:-0.017849172 11:0.064406022 12:0.032749921 13:-0.046858072 14:0.00068710808 #
8.2274378584079954634944442659616 1:0.16659263 2:0.022453915 3:-0.069058172 4:0.048867475 5:-0.010976088 6:0.038335107 7:-0.033518799 8:0.0057843477 9:-0.0045956098 10:-0.011298994 11:0.050705373 12:-0.0057882499 13:0.028250014 14:-0.023813354 #
-8.9734053922702905481401103315875 1:-0.19447045 2:0.07938379 3:0.12220233 4:-0.059716344 5:0.22948241 6:0.011240304 7:-3.1697014e-05 8:-0.0058414852 9:-0.057063915 10:-0.059005812 11:-0.0094345594 12:0.055793718 13:0.010440464 14:-0.065825738 #
-8.9734053922702905481401103315875 1:0.067858174 2:-0.20337334 3:-0.075189032 4:-0.067202017 5:-0.043365836 6:-0.061139736 7:-0.086237989 8:-0.099518225 9:0.0060036406 10:-0.12344515 11:-0.0028978263 12:-0.014865939 13:0.045138523 14:0.011625554 #
8.9734053922702905481401103315875 1:0.17590545 2:0.012819449 3:-0.043538034 4:0.173812 5:-0.035171267 6:0.088520728 7:0.13559678 8:0.0040644896 9:-0.0094471462 10:0.019038787 11:0.056733951 12:0.001057254 13:0.01508636 14:-0.015839495 #
-8.9734053922702905481401103315875 1:0.30529591 2:0.20862274 3:0.10119487 4:0.13562976 5:-0.10963745 6:0.033563662 7:0.11261678 8:-0.11696822 9:-0.081828982 10:0.036368664 11:0.012740065 12:-0.032413926 13:-0.053590726 14:-0.015254909 #
-2.1311070413433519377122138394043 1:-0.3841975 2:0.11482425 3:-0.077291206 4:-0.13752539 5:-0.1564476 6:0.13974348 7:0.093473196 8:0.10571696 9:-0.040984064 10:-0.072897345 11:-0.010563237 12:0.0034454954 13:0.02967649 14:-0.02753252 #
-8.9734053922702905481401103315875 1:0.31782764 2:0.21442607 3:0.087579779 4:-0.032086607 5:-0.056585666 6:0.035412651 7:0.030722804 8:-0.10979944 9:-0.084321246 10:0.034649488 11:0.03273743 12:-0.016301101 13:-0.031214816 14:-0.013957203 #
8.9734053922702905481401103315875 1:-0.27156031 2:0.14813204 3:0.025612038 4:-0.036185004 5:0.17099828 6:-0.08625149 7:-0.10720991 8:-0.066264078 9:-0.020648632 10:-0.056987222 11:0.0067866696 12:0.023955587 13:0.0046482934 14:-0.045028191 #
8.9734053922702905481401103315875 1:-0.25334507 2:0.14177397 3:0.058835063 4:-0.038933408 5:0.2157997 6:-0.052738234 7:-0.042594694 8:-0.06272433 9:-0.022570131 10:-0.063143119 11:-0.0045405426 12:0.039961796 13:0.0057438025 14:-0.054111429 #
-8.9734053922702905481401103315875 1:-0.27336526 2:0.16171637 3:-0.056777585 4:0.01448069 5:0.13935819 6:-0.073768757 7:0.034011595 8:-0.12349901 9:0.09761411 10:0.065595746 11:0.03004821 12:-0.046710834 13:-0.025599137 14:0.048553191 #
-8.9734053922702905481401103315875 1:0.24566622 2:0.19747487 3:0.0093904231 4:0.23395678 5:-0.11169533 6:0.064848229 7:-0.049736511 8:-0.12276901 9:-0.0432036 10:0.0033507834 11:-0.048888855 12:0.017142732 13:0.040918466 14:0.056997016 #
8.9734053922702905481401103315875 1:-0.25954592 2:0.060409851 3:0.068619214 4:-0.029729808 5:0.046674829 6:0.04846064 7:0.037687633 8:0.0047268555 9:0.011847459 10:0.010679549 11:0.022341004 12:-0.016027698 13:0.014601552 14:0.052686021 #
8.9734053922702905481401103315875 1:0.012074533 2:-0.13488202 3:-0.057419203 4:0.015905278 5:0.016752593 6:-0.031291492 7:0.034872707 8:-0.027935484 9:-0.020043105 10:0.012457403 11:0.012388983 12:0.017233012 13:0.04319841 14:0.020459486 #
-8.9734053922702905481401103315875 1:-0.21622093 2:0.16800256 3:-0.049367543 4:-0.11413573 5:0.17898646 6:-0.050739903 7:-0.00020107323 8:-0.11672528 9:0.091409586 10:0.05184824 11:0.040074453 12:-0.051290095 13:-0.033690553 14:0.05027616 #
8.9734053922702905481401103315875 1:0.11960902 2:-0.14781801 3:-0.2069167 4:0.16603976 5:0.047905512 6:-0.086145736 7:0.0070414599 8:0.064774714 9:-0.10262003 10:0.042685188 11:-0.0046928371 12:-0.044239651 13:-0.019871684 14:-0.0033649672 #
-8.9734053922702905481401103315875 1:0.13265447 2:-0.19928783 3:-0.24911584 4:0.088101819 5:0.1027929 6:-0.099030003 7:0.03821715 8:0.077176586 9:-0.19031611 10:0.11285307 11:0.018250398 12:-0.03634211 13:-0.03099975 14:0.008603856 #
-8.9734053922702905481401103315875 1:0.31268701 2:0.1793377 3:-0.010662314 4:0.048559435 5:0.0061599384 6:0.14321877 7:-0.081637301 8:-0.045777373 9:0.046746191 10:-0.032222953 11:-0.050136384 12:0.070269205 13:0.018405771 14:0.094519243 #
8.9734053922702905481401103315875 1:0.33660206 2:0.16676565 3:0.070025422 4:-0.14646049 5:0.032151524 6:0.056110136 7:0.048919983 8:-0.023116788 9:-0.024382958 10:0.040304165 11:-0.060438953 12:-0.029644601 13:-0.021858558 14:-0.023687603 #
-8.9734053922702905481401103315875 1:0.26345754 2:0.16826659 3:0.0312583 4:-0.11934783 5:-0.013185211 6:-0.060710706 7:-0.013201375 8:0.056183815 9:0.044663604 10:-0.074211903 11:0.19571789 12:0.07679446 13:-0.11034723 14:0.0078191869 #
-8.9734053922702905481401103315875 1:-0.28807363 2:0.15149237 3:-0.045714334 4:0.090742663 5:0.12057592 6:-0.065119423 7:0.10695539 8:-0.11856474 9:0.10220169 10:0.072846241 11:0.0084444201 12:-0.058473714 13:-0.049617082 14:0.047423318 #
8.9734053922702905481401103315875 1:0.30882096 2:0.20406754 3:0.061203811 4:0.017989764 5:-0.048768841 6:0.040785626 7:0.0028624372 8:-0.066299602 9:-0.018265881 10:-0.0033857478 11:0.014255373 12:0.031226404 13:-0.0097890086 14:0.035006486 #
-8.9734053922702905481401103315875 1:0.31149828 2:0.06389951 3:-0.10040084 4:0.025687434 5:0.1332341 6:0.16784352 7:-0.037511978 8:0.10319387 9:0.11478497 10:-0.022696279 11:-0.054837205 12:0.0041424646 13:-0.041590326 14:-0.012814575 #
-8.9734053922702905481401103315875 1:-0.021305561 2:-0.18757351 3:0.097845621 4:0.052930575 5:-0.073826432 6:0.00031069876 7:-0.094171196 8:0.028633744 9:0.020223731 10:0.01697048 11:0.026795406 12:-0.073878437 13:0.0072525903 14:0.010214796 #
8.9734053922702905481401103315875 1:-0.29508525 2:0.13404782 3:-0.058740485 4:0.018399166 5:0.029450625 6:-0.059979897 7:-0.032724936 8:-0.048089251 9:0.023879252 10:0.0090755643 11:0.0089520421 12:-0.035123054 13:-0.011863028 14:0.025439814 #
-8.9734053922702905481401103315875 1:0.24883957 2:-0.08026585 3:-0.175401 4:-0.10064881 5:0.17491058 6:0.030179569 7:-0.0064644725 8:0.13507971 9:-0.029303063 10:0.046883631 11:0.004504133 12:-0.033341501 13:-0.049451206 14:-0.043506309 #
-8.9734053922702905481401103315875 1:0.22880511 2:-0.16819322 3:-0.14479049 4:-0.05720241 5:0.14803152 6:0.0069842809 7:0.12719788 8:0.074769743 9:-0.084973335 10:0.04821495 11:0.0023748889 12:-0.03125165 13:-0.042573676 14:0.0042699627 #
8.9734053922702905481401103315875 1:-0.28774512 2:0.090072796 3:0.0060174125 4:0.058145061 5:0.032469444 6:-0.022820266 7:0.04342908 8:-0.047054742 9:0.053035997 10:0.051389184 11:0.011464773 12:-0.026255338 13:-0.022405338 14:0.05985336 #
8.9734053922702905481401103315875 1:0.066913351 2:-0.06534259 3:-0.023841081 4:0.05533509 5:-0.054224506 6:-0.065805785 7:-0.11802074 8:-0.017416244 9:0.0015907339 10:-0.066146515 11:0.044415135 12:-0.023741914 13:0.0047021615 14:-0.01094684 #
8.9734053922702905481401103315875 1:0.23481093 2:0.12020692 3:-0.075349078 4:0.14940916 5:-0.021220883 6:0.035754446 7:-0.13876235 8:0.012170902 9:0.036402408 10:-0.068369232 11:0.0056489739 12:0.0048828321 13:0.00053926109 14:0.014133716 #
-8.9734053922702905481401103315875 1:0.23324396 2:0.20880273 3:0.032529019 4:0.093112171 5:-0.12961203 6:-0.042860184 7:-0.1129205 8:-0.12861617 9:-0.11281545 10:0.0022829939 11:0.021433307 12:-0.026670268 13:-0.0085766837 14:-0.012316646 #
-8.9734053922702905481401103315875 1:0.21874651 2:0.039210644 3:-0.14048165 4:0.1624036 5:0.058147073 6:0.056037117 7:-0.097474746 8:0.088636681 9:0.062830836 10:-0.018597264 11:-0.04665079 12:-0.019428462 13:-0.028379628 14:-0.023667056 #
8.9734053922702905481401103315875 1:0.2838358 2:0.16250783 3:0.0029478371 4:0.060417898 5:-0.027040746 6:0.034250244 7:-0.031595159 8:-0.02369483 9:-0.00073906343 10:-0.0351942 11:0.066943146 12:0.027235461 13:-0.031949963 14:0.0079777651 #
-8.9734053922702905481401103315875 1:0.28915092 2:0.060910311 3:-0.12851344 4:-0.083898231 5:0.13180649 6:0.11536264 7:-0.1181201 8:0.097013094 9:0.061932646 10:-0.007157471 11:-0.018272409 12:-0.0025271969 13:-0.031193394 14:-0.039759062 #
-8.9734053922702905481401103315875 1:0.28867099 2:0.20971763 3:0.071403973 4:-0.13881406 5:-0.057095516 6:-0.042492703 7:-0.028808955 8:-0.055923533 9:-0.063112408 10:-0.014166329 11:0.13979757 12:0.027805783 13:-0.098872535 14:-0.014998575 #
8.9734053922702905481401103315875 1:-0.038502019 2:-0.16512276 3:0.036597893 4:0.10657987 5:-0.024215937 6:0.013238452 7:0.12399666 8:-0.041975725 9:0.037580181 10:0.01160144 11:-0.010329895 12:-0.0066299331 13:0.010605727 14:-0.01169391 #
8.9734053922702905481401103315875 1:0.20790625 2:0.022612192 3:-0.060029835 4:0.051127687 5:0.01864337 6:0.073988266 7:0.031225003 8:0.010504968 9:0.00038359108 10:-0.0038920275 11:0.039987992 12:0.00066597294 13:0.01667155 14:-0.0075351968 #
-8.9734053922702905481401103315875 1:0.18851444 2:-0.02825702 3:-0.17420453 4:0.24160513 5:0.07276123 6:0.031787157 7:0.0041601937 8:0.14621019 9:0.061137661 10:0.011601881 11:-0.048710402 12:-0.051708005 13:-0.040547408 14:-0.054066628 #
-8.9734053922702905481401103315875 1:0.21522729 2:0.011738382 3:-0.14844859 4:0.27851108 5:0.046823468 6:0.083450265 7:0.033304852 8:0.11437444 9:0.072152048 10:0.015316712 11:-0.056835786 12:-0.03791989 13:-0.041967928 14:-0.04761241 #
8.9734053922702905481401103315875 1:0.069084257 2:-0.16163532 3:-0.065035515 4:-0.023415463 5:0.045631811 6:0.033249144 7:0.14918166 8:-0.0095268805 9:-0.024158437 10:0.036024 11:0.0089058513 12:0.015385133 13:0.039612699 14:0.02079499 #
8.9734053922702905481401103315875 1:0.3654027 2:0.19445242 3:0.080879956 4:-0.12806359 5:0.029327823 6:0.08042939 7:0.089288525 8:-0.0055079036 9:0.0048617278 10:-0.012233057 11:0.044225119 12:-0.0033172769 13:-0.06823466 14:-0.00526381 #
8.9734053922702905481401103315875 1:0.26782462 2:0.16004153 3:0.016410386 4:0.048999395 5:-0.038600899 6:-0.023365712 7:-0.029813552 8:-0.007081979 9:-0.0056595742 10:-0.026007634 11:0.051029678 12:0.015259611 13:-0.039324194 14:-0.0094999513 #
-8.9734053922702905481401103315875 1:0.30144495 2:0.18493257 3:0.00017477728 4:0.11215233 5:-0.025733192 6:0.12712282 7:-0.061625555 8:-0.070476562 9:0.022812191 10:-0.022640103 11:-0.054473381 12:0.056558017 13:0.026983889 14:0.093744121 #
-8.9734053922702905481401103315875 1:0.095947102 2:-0.23664266 3:-0.075343877 4:-0.1468149 5:-0.014547682 6:-0.066716619 7:-0.010449491 8:-0.11060038 9:-0.024743294 10:-0.11094082 11:0.00098311587 12:0.081375211 13:0.045747038 14:0.097441286 #
-8.9734053922702905481401103315875 1:0.11222367 2:-0.23108472 3:-0.076460101 4:-0.096855752 5:0.023990646 6:-0.028828977 7:0.0079655191 8:-0.044310674 9:-0.0072395918 10:-0.055266798 11:0.0004026313 12:-0.0011228522 13:0.0043209344 14:0.019254237 #
8.9734053922702905481401103315875 1:0.080990411 2:-0.020144509 3:-0.043977994 4:0.20662487 5:-0.041392125 6:-0.039198443 7:-0.0383734 8:0.015176027 9:0.0003348586 10:-0.049179096 11:0.079337694 12:-0.018048044 13:-3.8178401e-05 14:-0.0055846618 #
-8.9734053922702905481401103315875 1:0.1795827 2:0.19941333 3:0.045334592 4:0.20860822 5:-0.1777835 6:-0.10393896 7:-0.013906267 8:-0.097434275 9:-0.079339601 10:0.0016201843 11:0.073984697 12:0.010402665 13:-0.043800645 14:0.0019859315 #
-8.9734053922702905481401103315875 1:-0.16458766 2:-0.11605926 3:0.21700764 4:0.14441505 5:-0.069395863 6:0.052063614 7:-0.076725669 8:0.12314044 9:-0.034650899 10:0.095276944 11:0.038820732 12:-0.015268648 13:0.029098378 14:0.0404175 #
8.9734053922702905481401103315875 1:0.1688575 2:-0.13553542 3:-0.098994292 4:-0.1434952 5:0.12269023 6:0.019161392 7:-0.03584386 8:0.058142003 9:-0.034174208 10:0.0078298226 11:0.025193529 12:-0.045547917 13:-0.013051113 14:-0.022793747 #
8.9734053922702905481401103315875 1:0.12725356 2:-0.17511007 3:-0.04809754 4:-0.11995636 5:0.057574648 6:-0.016983353 7:0.034729309 8:-0.035023242 9:-0.060078464 10:-0.01197513 11:0.034950431 12:0.018005425 13:0.0057944166 14:0.040507428 #
8.9734053922702905481401103315875 1:0.16371925 2:-0.15063158 3:-0.15792255 4:-0.056499928 5:0.080737136 6:-0.040339753 7:-0.033279743 8:0.03675925 9:-0.071264215 10:0.005170037 11:0.013426629 12:-0.025028609 13:-0.019460395 14:0.0032224793 #
-8.9734053922702905481401103315875 1:-0.061259512 2:-0.089919195 3:0.27476978 4:-0.12908277 5:0.061437368 6:0.14323287 7:-0.090578981 8:0.16029772 9:-0.054521449 10:0.10882954 11:0.070549153 12:-0.0024436342 13:0.019990256 14:0.074938819 #
8.9734053922702905481401103315875 1:0.24009261 2:0.21106921 3:0.043237455 4:0.11229213 5:-0.13547873 6:-0.055481896 7:-0.094633095 8:-0.11460779 9:-0.08928778 10:-0.00288571 11:0.0080593629 12:-0.0060541318 13:0.0091456613 14:0.011238214 #
8.9734053922702905481401103315875 1:-0.26314116 2:0.0095716547 3:0.046805456 4:0.0038369398 5:-0.025806021 6:0.042238768 7:0.042959325 8:-0.0034517215 9:0.025602797 10:0.048848014 11:0.0082530053 12:0.02157313 13:-0.016648905 14:0.02710402 #
-8.9734053922702905481401103315875 1:0.13215502 2:-0.19028227 3:-0.24576132 4:0.088817634 5:0.096209221 6:-0.11002994 7:0.014798817 8:0.074608289 9:-0.19384301 10:0.10656689 11:0.012852675 12:-0.043905009 13:-0.038033057 14:0.0073114708 #
-8.9734053922702905481401103315875 1:-0.30565947 2:0.20324203 3:-0.14105478 4:-0.080872744 5:-0.0045696744 6:-0.047355302 7:-0.045829885 8:-0.025074085 9:-0.013294256 10:-0.054592896 11:-0.011934293 12:-0.040689193 13:-0.041108634 14:-0.0099269198 #
8.9734053922702905481401103315875 1:0.24106722 2:-0.067166239 3:-0.17814846 4:0.021344118 5:0.14978176 6:0.044505585 7:-0.0074660326 8:0.12614439 9:-0.012622894 10:0.033805218 11:-0.01853865 12:-0.070088357 13:-0.050452452 14:-0.050532341 #
-8.9734053922702905481401103315875 1:0.26670352 2:-0.13493179 3:-0.15477683 4:-0.024046626 5:0.18321379 6:0.053019233 7:0.14527828 8:0.13577992 9:-0.047859162 10:0.066108182 11:-0.013999133 12:-0.051006012 13:-0.073926799 14:-0.030459784 #
8.9734053922702905481401103315875 1:0.11941714 2:-0.17692566 3:-0.10260188 4:-0.047226507 5:0.087064594 6:-0.038543634 7:0.027664952 8:0.023911599 9:-0.10304888 10:0.035356674 11:0.036584426 12:-0.02279162 13:0.00051619555 14:0.01671846 #
8.9734053922702905481401103315875 1:0.18453689 2:-0.15398715 3:-0.16692582 4:-0.051565774 5:0.10199402 6:-0.030283887 7:0.0035676099 8:0.044602357 9:-0.084836408 10:0.019706605 11:0.013883291 12:-0.025155332 13:-0.025469007 14:0.0075266426 #
8.9734053922702905481401103315875 1:0.11644166 2:-0.18590011 3:-0.090109386 4:-0.0048520598 5:0.078836665 6:-0.043735452 7:0.057717007 8:0.017422706 9:-0.10633185 10:0.03038829 11:0.021194179 12:-0.024125772 13:-0.013232072 14:0.027435154 #
-8.9734053922702905481401103315875 1:-0.25848767 2:0.1702697 3:-0.10681029 4:-0.046361204 5:0.060783401 6:-0.092376158 7:-0.058289833 8:-0.095480949 9:0.070753574 10:0.04035743 11:0.025694089 12:-0.067561403 13:-0.045586906 14:0.051312566 #
8.9734053922702905481401103315875 1:0.060706478 2:-0.18221766 3:-0.10785838 4:0.06558346 5:0.015136165 6:-0.10480978 7:-0.0036374058 8:-0.014200905 9:-0.11214264 10:0.0061389962 11:0.014927866 12:-0.0034673489 13:0.0036501654 14:0.040494721 #
-8.9734053922702905481401103315875 1:-0.27645519 2:-0.0070021409 3:-0.11851158 4:-0.083053522 5:-0.14152719 6:0.060132973 7:0.025929147 8:0.048172753 9:-0.038630847 10:0.057527207 11:-0.017882181 12:0.087959453 13:-0.013539789 14:-0.027685046 #
8.9734053922702905481401103315875 1:0.076968074 2:-0.15108167 3:-0.033108495 4:0.0044950694 5:-0.0011670135 6:-0.040136807 7:0.0048369444 8:-0.036954153 9:-0.025487887 10:-0.035448857 11:0.017571876 12:0.0071653705 13:0.013288687 14:0.024121907 #
8.9734053922702905481401103315875 1:0.14252114 2:-0.044114921 3:0.034239288 4:0.081051737 5:0.012341294 6:0.036922526 7:0.0416505 8:0.020436117 9:0.026843378 10:-0.042570833 11:0.06929601 12:-0.027121615 13:-0.017888164 14:-0.0054462156 #
-8.9734053922702905481401103315875 1:-0.011223339 2:-0.23889577 3:0.013003916 4:0.073494315 5:-0.11224036 6:-0.053090353 7:-0.044365566 8:-0.087344185 9:0.076486856 10:-0.10476653 11:-0.0075690188 12:-0.091520816 13:0.039676689 14:-0.043537837 #
8.9734053922702905481401103315875 1:0.32161394 2:0.14503992 3:0.0015390092 4:0.05860113 5:0.021003231 6:0.118869 7:0.025582876 8:-0.0048619695 9:0.035494462 10:-0.030672712 11:0.019215176 12:0.017725049 13:-0.029676134 14:0.016651461 #
-8.9734053922702905481401103315875 1:-0.26065463 2:0.060939789 3:0.083560102 4:0.12062683 5:0.11274064 6:-0.053205177 7:-0.02318933 8:-0.009052583 9:-0.047061414 10:-0.032039039 11:-0.020292399 12:0.034734413 13:0.0070229652 14:-0.040417019 #
8.9734053922702905481401103315875 1:-0.12861307 2:-0.12589113 3:0.060889162 4:0.13058749 5:-0.048699025 6:-0.0047949697 7:0.05241764 8:-0.034866631 9:0.039096102 10:0.029528184 11:-0.0051785237 12:0.013682573 13:0.0076587102 14:-0.030583402 #
-8.9734053922702905481401103315875 1:0.29401779 2:0.19948798 3:0.10793661 4:0.049498882 5:-0.08666075 6:-0.019829858 7:0.10015427 8:-0.077731952 9:-0.063034378 10:0.0059777997 11:0.096197642 12:0.010532176 13:-0.092010304 14:0.0012537054 #
8.9734053922702905481401103315875 1:0.12370931 2:-0.037882399 3:-0.12391489 4:-0.023704665 5:0.067813382 6:0.0070617073 7:-0.096565776 8:0.052676905 9:-0.0026141487 10:-0.013070213 11:0.017326595 12:-0.014324996 13:0.030607181 14:-0.017398249 #
-8.9734053922702905481401103315875 1:0.20543966 2:-0.055684716 3:-0.21221939 4:-0.089645341 5:0.12121651 6:-0.026811952 7:-0.14283538 8:0.12655644 9:-0.040528838 10:0.020834174 11:0.019054869 12:-0.036686011 13:-0.027135909 14:-0.053454455 #
8.9734053922702905481401103315875 1:-0.29365373 2:0.13522714 3:0.067054041 4:0.0686469 5:0.19697022 6:-0.051753096 7:0.029496767 8:-0.066051058 9:-0.012867878 10:-0.051338263 11:-0.017375166 12:0.037512317 13:0.0060370662 14:-0.054657247 #
-8.9734053922702905481401103315875 1:0.10215161 2:-0.21075273 3:-0.042629745 4:-0.1246306 5:-0.01062566 6:-0.018214084 7:-0.049838688 8:-0.045583814 9:0.0072101853 10:0.033128042 11:-0.0093495604 12:0.047827672 13:-0.037714962 14:-0.040827695 #
8.9734053922702905481401103315875 1:0.10312996 2:-0.035953075 3:-0.035666283 4:0.23369928 5:-0.028454624 6:0.0031046378 7:0.040186767 8:0.016607055 9:0.012277416 10:-0.037583873 11:0.070984982 12:-0.032217536 13:-0.0044306954 14:-0.0089995945 #
8.9734053922702905481401103315875 1:-0.057593569 2:-0.12272296 3:-0.025145372 4:0.12495025 5:-0.020238601 6:-0.055370439 7:0.02697726 8:-0.039466325 9:-0.0012983223 10:0.019370085 11:-0.0058172252 12:0.010996733 13:0.029044911 14:0.0052412138 #
8.9734053922702905481401103315875 1:0.0036642484 2:-0.10001801 3:0.12866287 4:-0.19619219 5:0.095488884 6:0.0885024 7:-0.0024211123 8:0.011153151 9:0.020623254 10:0.017332084 11:0.024873832 12:0.012610953 13:-0.0065755593 14:-0.039403498 #
-8.9734053922702905481401103315875 1:-0.32843417 2:0.15272933 3:-0.01240774 4:0.052948177 5:0.033499166 6:0.024029646 7:0.09782134 8:0.025652161 9:-0.034220282 10:-0.021151641 11:-0.010465623 12:-0.013098219 13:0.011278846 14:-0.0044993469 #
-8.9734053922702905481401103315875 1:-0.29482272 2:0.097055763 3:0.025960261 4:0.12805891 5:0.1107309 6:-0.066196375 7:0.016371517 8:-0.052964181 9:0.0051308917 10:0.012651231 11:-0.0042442111 12:0.011771771 13:-0.00024599646 14:-0.0046562981 #
8.9734053922702905481401103315875 1:-0.27452046 2:0.090533018 3:-0.035950981 4:-0.052639149 5:-0.016274026 6:0.0056327437 7:-0.024834611 8:-0.0061407629 9:0.019331591 10:0.022757895 11:0.020090988 12:-0.020560648 13:-0.0037923071 14:0.054196414 #
-8.9734053922702905481401103315875 1:0.26360002 2:-0.0307869 3:-0.15314069 4:-0.013275702 5:0.16560464 6:0.074140102 7:-0.010242682 8:0.15005 9:0.042719737 10:0.019367037 11:-0.018938629 12:-0.036326341 13:-0.05145929 14:-0.052378893 #
8.9734053922702905481401103315875 1:-0.041198865 2:-0.18568924 3:0.10586528 4:0.074385405 5:-0.011064508 6:0.036388803 7:0.092774816 8:-0.01199438 9:0.0208364 10:0.01298559 11:-0.012554117 12:0.0086383168 13:-0.0007716426 14:-0.022104038 #
8.9734053922702905481401103315875 1:-0.06904716 2:-0.15264662 3:0.06620872 4:0.058007583 5:-0.031663857 6:-0.018761117 7:-0.024170779 8:-0.019047976 9:0.0086996872 10:0.0038138984 11:-0.0022321895 12:0.016094832 13:0.016857782 14:-0.021333978 #
8.9734053922702905481401103315875 1:-0.063678958 2:-0.15297918 3:0.04551008 4:0.066040054 5:-0.045467641 6:-0.036076788 7:-0.060637672 8:-0.010101782 9:-0.0029854947 10:0.0058429008 11:-0.00060295564 12:0.012899382 13:0.019568259 14:-0.011619856 #
6.0802145663598565761276404373348 1:0.27034575 2:0.16079748 3:0.034333646 4:0.079150535 5:-0.042492799 6:-0.032759052 7:0.036143165 8:0.012642768 9:0.0077970908 10:-0.059396904 11:0.089972511 12:0.0008504077 13:-0.057677779 14:0.018927846 #
8.9734053922702905481401103315875 1:0.3049334 2:0.076733373 3:-0.085601754 4:0.0048389053 5:0.10903376 6:0.14343336 7:-0.042825617 8:0.073006645 9:0.080454998 10:-0.03055713 11:-0.024961159 12:-0.015181093 13:-0.020975618 14:-0.013091778 #
-8.9734053922702905481401103315875 1:0.34332669 2:0.22314772 3:0.025928296 4:-0.065366037 5:-0.018226361 6:0.13142091 7:-0.08936137 8:-0.11869755 9:-0.053347472 10:0.014014718 11:-0.024201583 12:0.013327501 13:0.034779839 14:0.031570803 #
-8.9734053922702905481401103315875 1:-0.05632272 2:-0.18802258 3:0.16870475 4:0.04420457 5:-0.081513159 6:0.042607218 7:-0.068204209 8:0.036954954 9:0.0511894 10:0.043629039 11:0.034271382 12:-0.080620475 13:0.0010212776 14:-0.028737662 #
8.9734053922702905481401103315875 1:-0.30390698 2:0.13789433 3:0.050541531 4:0.06354209 5:0.17554106 6:-0.067201309 7:-0.012787309 8:-0.063546918 9:-0.021191783 10:-0.054930165 11:-0.012532341 12:0.045634247 13:0.015285851 14:-0.063144445 #
8.9734053922702905481401103315875 1:0.22889797 2:0.18566874 3:0.0034424595 4:0.096919782 5:-0.10140735 6:-0.052118793 7:-0.13196081 8:-0.04642408 9:-0.020875478 10:-0.042657726 11:0.018917607 12:0.031156063 13:0.00084078999 14:0.029942846 #
8.9734053922702905481401103315875 1:0.24860877 2:0.17747389 3:0.045430455 4:0.18562372 5:-0.095515765 6:-0.025845315 7:0.054433759 8:-0.024723547 9:-0.0089584319 10:-0.030706782 11:0.028574551 12:-0.016114162 13:-0.045254361 14:0.0062719667 #
-8.9734053922702905481401103315875 1:0.37017751 2:0.20486775 3:0.063973218 4:0.067980334 5:-0.020037981 6:0.18036164 7:0.057288799 8:-0.11425058 9:-0.026084758 10:0.022564707 11:-0.063417673 12:0.0088837426 13:0.011908919 14:0.055070508 #
8.9734053922702905481401103315875 1:-0.30159694 2:0.024417274 3:-0.00049432844 4:0.023963265 5:-0.076080866 6:0.016756449 7:0.012282197 8:-0.0014936029 9:0.025923999 10:0.070742317 11:0.011732989 12:0.038256694 13:-0.01884832 14:0.0097610326 #
8.9734053922702905481401103315875 1:0.29590818 2:0.15108331 3:0.041163139 4:-0.053251807 5:0.0065085101 6:0.030213531 7:0.019089408 8:-0.014146041 9:-0.0048604514 10:0.03073835 11:-0.072664469 12:-0.010289918 13:-0.012064816 14:0.0017324982 #
8.9734053922702905481401103315875 1:0.2229021 2:-0.10918064 3:-0.054604225 4:-0.08633741 5:0.14831601 6:0.13593701 7:0.052796312 8:0.045983683 9:0.025799494 10:0.0098352376 11:-0.02364864 12:-0.067240857 13:0.028106712 14:-0.015590657 #
8.9734053922702905481401103315875 1:0.34703395 2:0.22363368 3:0.097686723 4:-0.03030665 5:-0.046842616 6:0.062620044 7:0.039828163 8:-0.10978074 9:-0.066687234 10:0.029487375 11:0.0028826622 12:-0.0045798649 13:-0.005405975 14:0.010378329 #
8.9734053922702905481401103315875 1:-0.26874754 2:0.13238677 3:0.090109542 4:0.037206963 5:0.23177916 6:-0.0042163683 7:0.11686946 8:-0.074192442 9:0.025312923 10:-0.01988042 11:-0.011190888 12:0.0072497195 13:-0.016155303 14:-0.024129337 #
-8.9734053922702905481401103315875 1:-0.24378996 2:0.14417776 3:-0.016206849 4:0.042500444 5:0.16886202 6:-0.037319276 7:0.13651921 8:-0.12009082 9:0.10800173 10:0.06925571 11:0.0075826356 12:-0.06738288 13:-0.059560105 14:0.057813402 #
-8.9734053922702905481401103315875 1:-0.29569459 2:0.095299214 3:0.070908017 4:0.14341383 5:0.13372508 6:-0.015735779 7:0.10414572 8:-0.020828551 9:-0.01357088 10:0.0044247545 11:-0.014087047 12:0.02378064 13:0.013219257 14:-0.016273361 #
-8.9734053922702905481401103315875 1:-0.27527621 2:0.14335942 3:0.0054075378 4:0.04359274 5:0.17545411 6:-0.042372268 7:0.075715341 8:-0.089940041 9:0.04660533 10:0.018050507 11:0.0033823377 12:-0.014347849 13:-0.021422084 14:0.008389187 #
-8.9734053922702905481401103315875 1:-0.31395856 2:0.096953139 3:0.033634249 4:0.11762953 5:0.087704487 6:-0.067330509 7:-0.040478863 8:-0.015404941 9:-0.040818736 10:-0.011699851 11:-0.00553881 12:0.053071868 13:0.024733791 14:-0.051023722 #
8.9734053922702905481401103315875 1:0.17325708 2:-0.14475305 3:-0.087246239 4:-0.066249721 5:0.11334033 6:0.031311523 7:0.040681563 8:0.046304546 9:-0.026110228 10:0.0021250979 11:-0.0018962659 12:-0.031861879 13:-0.011582327 14:0.0010339296 #
8.9734053922702905481401103315875 1:-0.28901082 2:0.067398705 3:0.071658418 4:0.061475717 5:0.05110836 6:0.061733115 7:0.16525686 8:-0.0069054435 9:0.038749922 10:0.035040006 11:-0.00043793724 12:-0.02658033 13:-0.015940946 14:0.040930681 #
-8.9734053922702905481401103315875 1:-0.00093626103 2:-0.25241777 3:-0.0018841767 4:0.13816737 5:-0.11647601 6:-0.030082023 7:0.084022567 8:-0.10787655 9:0.075862177 10:-0.092137605 11:-0.028346306 12:-0.055817004 13:0.036087036 14:-0.033339445 #
-8.9734053922702905481401103315875 1:-0.0094753783 2:-0.25135502 3:0.011372372 4:0.085238196 5:-0.086344615 6:-0.036938917 7:0.010325502 8:-0.036974285 9:0.032460928 10:-0.028111463 11:0.0041562906 12:-0.053184621 13:0.017869409 14:-0.0062757474 #
-8.9734053922702905481401103315875 1:-0.088210717 2:-0.16214493 3:0.13522312 4:0.029692899 5:-0.11491454 6:0.00079289125 7:-0.17826714 8:0.046198346 9:0.031171883 10:0.048977762 11:0.052329186 12:-0.078255214 13:0.010348747 14:-0.028695395 #
8.9734053922702905481401103315875 1:0.30856183 2:0.05239046 3:-0.10209703 4:-0.0063200602 5:0.13255794 6:0.14583176 7:-0.030128457 8:0.092539363 9:0.077646621 10:-0.018238705 11:-0.036004487 12:-0.032634798 13:-0.027381808 14:-0.026241375 #
-8.9734053922702905481401103315875 1:0.05947683 2:-0.21007422 3:-0.10324324 4:0.14595316 5:-0.052252099 6:-0.080480345 7:0.013057488 8:-0.033577543 9:-0.0081871077 10:0.083288461 11:-0.051900521 12:0.043945555 13:-0.040955383 14:-0.048820537 #
8.9734053922702905481401103315875 1:-0.083553299 2:-0.18002011 3:0.068087831 4:0.15292229 5:-0.059829552 6:-0.0017718264 7:0.062211797 8:-0.0081209717 9:0.012399054 10:0.023630911 11:-0.013223346 12:0.018905809 13:0.018325228 14:-0.017256778 #
-8.9734053922702905481401103315875 1:-0.26554728 2:0.17523551 3:-0.096957043 4:-0.042824093 5:0.059556637 6:-0.034556482 7:0.038868271 8:-0.068824299 9:0.05445563 10:0.015596641 11:0.0056790579 12:-0.062903613 13:-0.046174966 14:0.040488455 #
8.9734053922702905481401103315875 1:-0.25994289 2:0.031356879 3:0.012623033 4:-0.044066619 5:-0.039992232 6:0.00048991147 7:-0.064558081 8:-0.0027548426 9:0.0090289665 10:0.03448737 11:0.016600003 12:0.019388968 13:-0.018334225 14:0.022753308 #
8.9734053922702905481401103315875 1:-0.043233037 2:-0.13567664 3:0.046767242 4:-0.028914891 5:-0.028306274 6:-0.026821926 7:-0.11605152 8:-0.010376667 9:0.0052261609 10:-0.0013907661 11:0.018845418 12:0.0025111472 13:0.022412011 14:-0.017414987 #
-8.9734053922702905481401103315875 1:0.15040615 2:-0.18364707 3:-0.23527473 4:-0.023743231 5:0.10385936 6:-0.092918746 7:-0.0022775012 8:0.04933019 9:-0.19638239 10:0.093579374 11:0.030630264 12:-0.0022007704 13:-0.019779671 14:0.041053701 #
-8.9734053922702905481401103315875 1:0.16591506 2:-0.1544428 3:-0.16937424 4:-0.049764693 5:0.093467265 6:-0.058435272 7:0.013296596 8:0.051826745 9:-0.1015405 10:0.032499894 11:0.013181919 12:-0.015029203 13:-0.018259771 14:0.007101289 #
-8.9734053922702905481401103315875 1:0.11111709 2:-0.18798423 3:-0.25765657 4:0.090849645 5:0.079909228 6:-0.11839188 7:-0.016655207 8:0.07451731 9:-0.17989537 10:0.094683945 11:0.016746433 12:-0.031256061 13:-0.026563162 14:0.0031916997 #
8.9734053922702905481401103315875 1:-0.00039394433 2:-0.13165472 3:-0.049306732 4:0.058291633 5:0.0091645708 6:-0.018021828 7:0.064013213 8:-0.019864129 9:-0.010169529 10:0.021577189 11:0.009229362 12:0.0042497572 13:0.04251663 14:0.014555793 #
8.9734053922702905481401103315875 1:-0.012401101 2:-0.1474122 3:0.10626661 4:-0.00082868832 5:0.025289407 6:0.048796169 7:0.064612716 8:-0.01696231 9:0.040183775 10:0.010267999 11:0.0039692977 12:-0.022273107 13:-0.0020594967 14:-0.0093646292 #
8.9734053922702905481401103315875 1:0.17382804 2:0.046702746 3:-0.069303162 4:0.092336409 5:-0.033377036 6:0.0014141498 7:-0.042830631 8:0.0026004955 9:-0.019472264 10:-0.012499042 11:0.052853972 12:0.002837491 13:0.016108584 14:-0.01419701 #
8.9734053922702905481401103315875 1:0.14067449 2:-0.15743072 3:-0.18413293 4:0.086393841 5:0.063858442 6:-0.06652794 7:0.017405441 8:0.048716053 9:-0.095994875 10:0.029202072 11:-0.0011450553 12:-0.032201651 13:-0.024267094 14:0.0097939288 #
8.9734053922702905481401103315875 1:0.14817141 2:-0.09843713 3:-0.21297479 4:0.12678795 5:0.071088441 6:-0.065867662 7:-0.073656388 8:0.096448556 9:-0.073452815 10:0.032004949 11:-0.0079936003 12:-0.065088227 13:-0.02846095 14:-0.039284818 #
-8.9734053922702905481401103315875 1:0.2510792 2:0.045819137 3:-0.12799565 4:0.11773338 5:0.088771857 6:0.097602382 7:-0.076418176 8:0.10038552 9:0.088241719 10:-0.022156822 11:-0.051729482 12:-0.010214623 13:-0.034862418 14:-0.020857409 #
-8.9734053922702905481401103315875 1:0.21716297 2:0.15619971 3:0.032830078 4:0.080042489 5:-0.071224011 6:-0.093451843 7:0.031610198 8:0.042866208 9:0.040677678 10:-0.076337129 11:0.18538326 12:0.071318567 13:-0.10673889 14:0.017429231 #
-8.9734053922702905481401103315875 1:0.28853613 2:0.21710522 3:0.065389045 4:-0.072291024 5:-0.067722395 6:-0.00088809675 7:-0.041819446 8:-0.099502541 9:-0.082187004 10:0.0144623 11:0.061491676 12:0.0033299332 13:-0.025942979 14:-0.008228559 #
8.9734053922702905481401103315875 1:-0.25914812 2:-0.011441418 3:0.0085746134 4:0.015818793 5:-0.054811683 6:0.026921932 7:0.044680987 8:-0.018449495 9:0.034255777 10:0.06609603 11:-0.0039632777 12:0.04074714 13:-0.029513972 14:-0.0046854988 #
8.9734053922702905481401103315875 1:-0.26512226 2:0.082671322 3:-0.039093483 4:-0.05488921 5:-0.03117713 6:-0.01116081 7:-0.057976179 8:-0.0044962727 9:0.010617968 10:0.022215445 11:0.015125836 12:-0.017685767 13:-0.017948495 14:0.059263151 #
-8.9734053922702905481401103315875 1:-0.31274095 2:0.14912556 3:-0.022861551 4:0.079675138 5:0.1196073 6:-0.077273667 7:0.012869668 8:-0.076476529 9:0.020681351 10:0.0020076204 11:-0.0012245544 12:0.00070298789 13:-0.0086268038 14:-0.012574391 #
-8.9734053922702905481401103315875 1:-0.24934897 2:0.10396928 3:0.019985212 4:0.032971781 5:0.14225103 6:-0.071945108 7:-0.036677603 8:-0.066528916 9:0.011275656 10:0.00065307965 11:0.0048553194 12:-0.00096090307 13:-0.013526658 14:0.003828234 #
-8.9734053922702905481401103315875 1:0.089024603 2:-0.20928605 3:-0.12788686 4:-0.070040539 5:-0.019558832 6:-0.10160685 7:-0.055099953 8:-0.085116915 9:-0.047199253 10:-0.08520633 11:-0.0026260877 12:0.055951677 13:0.032669734 14:0.061308406 #
-8.9734053922702905481401103315875 1:-0.0046286052 2:-0.17631298 3:0.11938222 4:-0.0055079339 5:-0.036287189 6:0.032574039 7:-0.0739436 8:0.04477245 9:0.0047643534 10:0.025193591 11:0.034356762 12:-0.05303387 13:0.01016198 14:0.021975024 #
8.9734053922702905481401103315875 1:0.2668058 2:0.14751561 3:0.039647132 4:0.041026752 5:-0.028628275 6:0.00269059 7:0.021631734 8:-0.027996296 9:-0.017744422 10:0.028628448 11:-0.078465581 12:-0.018900439 13:-0.0064798295 14:0.0044055348 #
-8.9734053922702905481401103315875 1:0.30336022 2:0.063259445 3:-0.1314835 4:-0.10020291 5:0.14120068 6:0.13777359 7:-0.11276197 8:0.10300928 9:0.079468146 10:-0.018559879 11:-0.014946899 12:0.021795835 13:-0.02116557 14:-0.0074984799 #
-8.9734053922702905481401103315875 1:-0.25216523 2:0.094716668 3:0.043642003 4:0.07845778 5:0.15512271 6:-0.03141373 7:0.075012505 8:-0.063509539 9:0.027478768 10:0.015723903 11:-0.003472216 12:-0.0027927891 13:-0.015271071 14:0.0052948967 #
8.9734053922702905481401103315875 1:0.19184305 2:-0.10979263 3:-0.19372092 4:0.0079142796 5:0.11772367 6:-0.031971872 7:-0.038809042 8:0.092314012 9:-0.084447004 10:0.039975472 11:0.0035682376 12:-0.054929063 13:-0.040112652 14:-0.029576086 #
8.9734053922702905481401103315875 1:0.23826616 2:0.036651883 3:-0.14114082 4:0.085156552 5:0.07940729 6:0.06722784 7:-0.11405054 8:0.086688213 9:0.050415725 10:-0.028725129 11:-0.033580966 12:-0.045551986 13:-0.0033387779 14:-0.033579018 #
8.9734053922702905481401103315875 1:-0.26875195 2:0.13798445 3:0.092093602 4:0.015711106 5:0.24503018 6:-0.012830873 7:0.074459471 8:-0.063707769 9:-0.0089953803 10:-0.052561082 11:-0.015031101 12:0.043298066 13:0.003113715 14:-0.062144525 #
8.9734053922702905481401103315875 1:0.16845304 2:-0.071173131 3:-0.20809402 4:0.097157784 5:0.079584591 6:-0.041998807 7:-0.10568699 8:0.1075392 9:-0.046763148 10:0.017160164 11:-0.014210206 12:-0.069731206 13:-0.0330268 14:-0.050849233 #
8.9734053922702905481401103315875 1:0.15783539 2:-0.17324461 3:-0.14938501 4:0.04565246 5:0.074466541 6:-0.034605846 7:0.059145365 8:0.037722167 9:-0.069284618 10:0.01678448 11:-0.0055729914 12:-0.031937417 13:-0.03008488 14:0.016004631 #
8.9734053922702905481401103315875 1:0.061800789 2:-0.14833334 3:-0.0052262186 4:0.13608006 5:-0.031992704 6:-0.02377254 7:0.063810766 8:-0.032512907 9:0.0083120195 10:-0.042623971 11:0.0096524218 12:-0.022339627 13:0.010099594 14:0.0036360531 #
8.9734053922702905481401103315875 1:-0.32577884 2:0.14175957 3:0.029040879 4:0.084823266 5:0.14271815 6:-0.086829647 7:-0.039135858 8:-0.063232653 9:-0.022693649 10:-0.050769161 11:-0.010220873 12:0.051507842 13:0.021352733 14:-0.067619309 #
8.9734053922702905481401103315875 1:0.18920337 2:-0.1444945 3:-0.077873498 4:-0.11812115 5:0.13794276 6:0.051773164 7:0.047788396 8:0.059638802 9:-0.017433003 10:0.0120108 11:0.0063114641 12:-0.043447189 13:-0.025100976 14:-0.015161091 #
8.9734053922702905481401103315875 1:-0.27746612 2:0.13996392 3:0.056137405 4:0.0049126605 5:0.2001745 6:-0.043041993 7:0.0070619602 8:-0.071533732 9:0.0050933929 10:-0.033800624 11:0.0020403229 12:0.023872243 13:0.0059329444 14:-0.030816521 #
8.9734053922702905481401103315875 1:0.10791606 2:-0.1571994 3:-0.1628114 4:0.070010759 5:0.021157714 6:-0.088931687 7:-0.063698865 8:0.030932058 9:-0.073900983 10:-0.0064430856 11:3.2135911e-05 12:-0.039782353 13:-0.014956823 14:0.00076197705 #
-8.9734053922702905481401103315875 1:-0.26702726 2:0.0038241658 3:-0.095726065 4:-0.043413874 5:-0.13362476 6:0.05630986 7:0.028081631 8:0.043545913 9:-0.034762226 10:0.033218011 11:-0.01804122 12:0.063421533 13:-0.0080691082 14:-0.01516142 #
8.9734053922702905481401103315875 1:0.16289927 2:-0.13299407 3:-0.18343078 4:-0.098192662 5:0.076662019 6:-0.057854529 7:-0.096077017 8:0.039165422 9:-0.090017617 10:0.001385505 11:0.02632677 12:-0.021060558 13:-0.011922175 14:-0.0022729659 #
8.9734053922702905481401103315875 1:0.18009941 2:-0.12788793 3:-0.10279636 4:-0.13945594 5:0.11030474 6:0.020369049 7:-0.030701999 8:0.048843909 9:-0.042720489 10:0.0012690858 11:0.015557677 12:-0.022700427 13:-0.0069059134 14:0.0022224444 #
8.9734053922702905481401103315875 1:-0.29988593 2:0.13970299 3:-0.11870477 4:-0.086347751 5:-0.044946518 6:-0.042014532 7:-0.068952024 8:-0.017219985 9:-0.0009458795 10:-0.024349064 11:-0.0034105082 12:-0.030145567 13:-0.023886774 14:0.00030644838 #
8.9734053922702905481401103315875 1:0.30368927 2:0.15705761 3:0.035536673 4:0.08201851 5:-0.024815833 6:0.035809997 7:0.051036946 8:-0.014801634 9:0.0026199629 10:-0.021931641 11:0.049051009 12:0.014239738 13:-0.06456168 14:0.0023187422 #
8.9734053922702905481401103315875 1:-0.27655375 2:0.014266506 3:-0.016327636 4:0.0026947386 5:-0.078323275 6:-0.011991857 7:-0.051535785 8:-0.010385583 9:0.018294003 10:0.059587628 11:0.0085564572 12:0.033542015 13:-0.023251025 14:-0.0022949129 #
8.9734053922702905481401103315875 1:0.25845197 2:0.047700264 3:-0.0073480424 4:0.041585412 5:0.03135765 6:0.14793214 7:0.1733786 8:-0.0013905279 9:-0.0012731624 10:0.0087496154 11:0.082692772 12:-0.0051474026 13:-0.016686521 14:-0.022863794 #
8.9734053922702905481401103315875 1:0.2929703 2:0.15763736 3:0.0037375335 4:0.071001314 5:-0.015159676 6:0.055601209 7:-0.018861501 8:-0.023068072 9:0.0074346089 10:-0.035401229 11:0.049573064 12:0.022512527 13:-0.03052198 14:0.015042793 #
8.9734053922702905481401103315875 1:0.31727886 2:0.16228403 3:0.0063153389 4:0.019339914 5:0.0054433146 6:0.081216827 7:-0.010956005 8:-0.017100027 9:0.015440508 10:-0.031420734 11:0.045019139 12:0.023110559 13:-0.036494233 14:0.013930354 #
8.9734053922702905481401103315875 1:0.30928254 2:0.034105793 3:-0.12911023 4:-0.095594361 5:0.16674013 6:0.14621571 7:-0.05454503 8:0.1098899 9:0.062588312 10:-0.00044861791 11:-0.020078465 12:-0.034986399 13:-0.016395088 14:-0.046080191 #
8.9734053922702905481401103315875 1:0.085061125 2:-0.18294768 3:-0.073637001 4:-0.0013745163 5:0.019131221 6:-0.072922796 7:0.016355818 8:-0.03729777 9:-0.080823839 10:-0.013443471 11:0.018934628 12:0.010880861 13:0.0028611063 14:0.047720846 #
8.9734053922702905481401103315875 1:0.30790117 2:0.15910581 3:0.039066009 4:0.084998868 5:-0.0263715 6:0.036747415 7:0.069102786 8:-0.010644516 9:0.0051437574 10:-0.015804972 11:0.050928373 12:0.012719055 13:-0.059476495 14:-0.0044841142 #
8.9734053922702905481401103315875 1:-0.042120777 2:-0.11969685 3:0.11424703 4:-0.037502576 5:0.049051337 6:0.040429603 7:0.0044903341 8:0.0093784221 9:-0.00042323966 10:0.019522363 11:0.013609383 12:0.013731804 13:0.0071485522 14:0.0024663326 #
8.9734053922702905481401103315875 1:0.30871674 2:0.22336935 3:0.085324556 4:0.0054598036 5:-0.081230082 6:0.011249334 7:0.00031456561 8:-0.11813182 9:-0.086667806 10:0.031451788 11:-0.00049330189 12:-0.018508997 13:0.0027045477 14:-0.0031389729 #
8.9734053922702905481401103315875 1:-0.08692313 2:-0.11949647 3:0.11501873 4:0.047284648 5:0.015325777 6:0.024428641 7:0.011632841 8:0.0045556636 9:0.0073148701 10:0.021782644 11:0.0068332125 12:-0.00038341008 13:0.0053798174 14:-0.024891432 #
8.9734053922702905481401103315875 1:-0.055742066 2:-0.10733943 3:0.092775859 4:-0.033341512 5:0.036168244 6:0.014952792 7:-0.045888215 8:0.008495247 9:-0.009772311 10:0.017748287 11:0.018258916 12:0.01198807 13:0.013555917 14:0.00075982162 #
-8.9734053922702905481401103315875 1:-0.25092682 2:0.16138832 3:-0.048495311 4:-0.022229811 5:0.1479706 6:-0.060434379 7:0.034126163 8:-0.11082731 9:0.080444247 10:0.041170385 11:0.018530605 12:-0.051520903 13:-0.043981142 14:0.039982148 #
-8.9734053922702905481401103315875 1:0.020261714 2:-0.25022313 3:0.049612481 4:0.016898554 5:-0.07498493 6:0.0069372058 7:0.014762374 8:-0.071266666 9:0.09287589 10:-0.076989017 11:0.010190822 12:-0.10180403 13:0.040791605 14:-0.047787461 #
8.9734053922702905481401103315875 1:0.16975054 2:-0.15918353 3:-0.079097889 4:-0.040919699 5:0.1183005 6:0.029353552 7:0.059451386 8:0.058689773 9:-0.023959542 10:0.013065188 11:-0.0005327774 12:-0.057879306 13:-0.030210961 14:-0.011564229 #
-8.9734053922702905481401103315875 1:-0.26175106 2:0.14392366 3:-0.013838402 4:0.022398911 5:0.16002816 6:-0.065484263 7:0.02476421 8:-0.094514713 9:0.048092578 10:0.01869336 11:0.0048521487 12:-0.019561453 13:-0.0280574 14:0.015963135 #
8.9734053922702905481401103315875 1:0.11067668 2:-0.18338433 3:-0.067050569 4:0.078065783 5:0.069206752 6:0.03375984 7:0.058649238 8:0.025148682 9:-0.016793482 10:0.026023138 11:-0.03585365 12:-0.049768858 13:0.014585938 14:-0.006519685 #
-8.9734053922702905481401103315875 1:0.21912014 2:-0.014742754 3:-0.17414992 4:0.040776141 5:0.11585285 6:0.026736423 7:-0.088537082 8:0.13811935 9:0.035997972 10:0.0045839185 11:-0.018381085 12:-0.034982752 13:-0.034112528 14:-0.052955911 #
-8.9734053922702905481401103315875 1:0.085168369 2:-0.20147197 3:-0.094682716 4:0.055520706 5:-0.020584526 6:-0.066815957 7:-0.0090316366 8:-0.033912759 9:-0.015593952 10:0.080362238 11:-0.035095464 12:0.047913622 13:-0.031586941 14:-0.037891872 #
-8.9734053922702905481401103315875 1:-0.24462986 2:0.11093248 3:0.01292827 4:0.0016509135 5:0.14792152 6:-0.069580764 7:-0.049279485 8:-0.068364426 9:0.013080629 10:0.001064367 11:0.012586924 12:0.0006554444 13:-0.0086218175 14:0.0031865397 #
-8.9734053922702905481401103315875 1:0.27263561 2:0.1529396 3:0.078116752 4:0.14212522 5:-0.071703911 6:-0.044910617 7:0.17844285 8:0.055883579 9:0.057513356 10:-0.072060689 11:0.18603326 12:0.058950368 13:-0.15181679 14:0.0095771747 #
-8.9734053922702905481401103315875 1:0.22332275 2:0.019479269 3:-0.16049738 4:0.082150042 5:0.097209051 6:0.054227699 7:-0.11380707 8:0.12296635 9:0.070667662 10:-0.019956637 11:-0.032079339 12:-0.019315658 13:-0.019176632 14:-0.034935758 #
8.9734053922702905481401103315875 1:-0.26333895 2:0.081383243 3:0.015882654 4:-0.065792166 5:0.0093793506 6:-0.010141517 7:-0.083632112 8:0.0036280442 9:-0.0059508197 10:0.0011512971 11:0.022707526 12:-0.014049017 13:-0.0015946907 14:0.041860871 #
-8.9734053922702905481401103315875 1:-0.31014499 2:0.15098958 3:-0.036192391 4:0.05588286 5:0.096600071 6:-0.10293316 7:-0.064686634 8:-0.062863827 9:-0.0080306064 10:-0.023080789 11:-0.0030389635 12:0.011423678 13:-0.0025700897 14:-0.028161824 #
-8.9734053922702905481401103315875 1:0.10345746 2:-0.24100018 3:0.13569963 4:-0.1350984 5:0.015976654 6:0.11947248 7:0.074528679 8:-0.0053802719 9:0.096631147 10:-0.0089671668 11:0.030409412 12:-0.1152826 13:-0.0057242201 14:-0.043967433 #
8.9734053922702905481401103315875 1:-0.3101916 2:0.14182417 3:0.059342671 4:0.068281993 5:0.19065979 6:-0.04680695 7:0.031135391 8:-0.064073272 9:-0.013570129 10:-0.047477771 11:-0.010364057 12:0.05047312 13:0.020960456 14:-0.067203306 #
8.9734053922702905481401103315875 1:-0.044149261 2:-0.16455655 3:0.10289654 4:0.092667848 5:-0.018096695 6:0.028291363 7:0.080941819 8:-0.015891414 9:0.039717235 10:0.014206959 11:-0.011989607 12:-0.018377054 13:-0.0073923827 14:-0.013309047 #
-8.9734053922702905481401103315875 1:-0.25444168 2:0.10695048 3:0.016718095 4:0.032487184 5:0.13964868 6:-0.072730914 7:-0.043239992 8:-0.065648481 9:0.010421685 10:0.0038657228 11:0.0094164182 12:0.0023074413 13:-0.0065270634 14:0.0030032638 #
-8.9734053922702905481401103315875 1:0.20571662 2:-0.13731985 3:-0.17079516 4:-0.097080186 5:0.1343317 6:-0.019103318 7:0.02215872 8:0.073172033 9:-0.086629637 10:0.042667881 11:0.018589139 12:-0.016633853 13:-0.019139625 14:-0.0048143533 #
-8.9734053922702905481401103315875 1:0.28260383 2:0.05332914 3:-0.13456878 4:-0.035600889 5:0.12141255 6:0.11499851 7:-0.10334918 8:0.09572345 9:0.065140918 10:-0.012635892 11:-0.019961443 12:0.01088104 13:-0.01660265 14:-0.0094868988 #
8.9734053922702905481401103315875 1:-0.28774852 2:0.072184794 3:-0.010265952 4:-0.05013309 5:-0.038260017 6:-0.01867055 7:-0.097092666 8:-0.0013447441 9:0.00038778241 10:0.017139625 11:0.023269389 12:0.01233852 13:-0.0029668082 14:0.031978134 #
-8.9734053922702905481401103315875 1:-0.25065276 2:0.1029126 3:0.028406627 4:0.03584449 5:0.14994247 6:-0.054298662 7:-0.0057862103 8:-0.060798749 9:0.0089784507 10:-0.00084155513 11:0.0045102565 12:0.0096648606 13:-0.0033607734 14:-0.003709896 #
-8.9734053922702905481401103315875 1:-0.039242942 2:-0.21901779 3:0.11285909 4:0.11106055 5:-0.10310517 6:0.024189712 7:0.0092411581 8:0.0032492527 9:0.054608203 10:0.031563424 11:0.022380777 12:-0.072138242 13:0.01021317 14:-0.0114954 #
-8.9734053922702905481401103315875 1:-0.23894337 2:0.11196059 3:-0.0047417651 4:-0.012936893 5:0.12797573 6:-0.092050433 7:-0.10180094 8:-0.068408035 9:0.0064848065 10:-0.007790626 11:0.013224396 12:-0.0039983378 13:-0.011906738 14:0.0040615099 #
8.9734053922702905481401103315875 1:0.27441937 2:0.15269326 3:0.036381666 4:0.2177887 5:-0.076761678 6:0.0047372459 7:0.11633651 8:0.0012152294 9:0.016348835 10:-0.0093348669 11:0.028685581 12:-0.0066199074 13:-0.058640983 14:-0.017537413 #
-8.9734053922702905481401103315875 1:-0.27322975 2:0.10732141 3:-8.09427e-05 4:0.058266338 5:0.10669629 6:-0.095830247 7:-0.077002667 8:-0.061196502 9:0.00067511137 10:0.00040582597 11:0.0070838979 12:0.0058319722 13:-0.0015021866 14:-0.00054443651 #
-8.9734053922702905481401103315875 1:0.33512816 2:0.19614397 3:0.026697677 4:0.049140684 5:-0.0094712228 6:0.15849331 7:-0.026612313 8:-0.092715308 9:-0.0037537469 10:-0.0012592465 11:-0.05082377 12:0.041486528 13:0.032251496 14:0.076721072 #
-8.9734053922702905481401103315875 1:0.33847851 2:0.2058586 3:0.035845321 4:0.0057844142 5:-0.01607197 6:0.13945617 7:-0.045849103 8:-0.11098249 9:-0.034743648 10:0.0081850924 11:-0.045971069 12:0.022768252 13:0.027752753 14:0.059341546 #
8.9734053922702905481401103315875 1:-0.24955519 2:0.14247397 3:0.071487047 4:-0.052708454 5:0.23320441 6:-0.035165407 7:-0.019692095 8:-0.062119585 9:-0.018113064 10:-0.06014955 11:-3.228533e-05 12:0.036706418 13:0.0086058071 14:-0.048970606 #
8.9734053922702905481401103315875 1:-0.30905977 2:0.13648342 3:-0.062667385 4:-0.064313084 5:-0.020677479 6:-0.031641446 7:-0.07575196 8:-0.0011338728 9:0.0035880106 10:-0.018822931 11:0.016765114 12:-0.046198908 13:-0.0020629035 14:0.049882606 #
-8.9734053922702905481401103315875 1:-0.2168458 2:-0.046321642 3:-0.13466868 4:-0.027472373 5:-0.091910347 6:0.053960029 7:-0.011036313 8:0.029164255 9:-0.0010602267 10:0.12260418 11:-0.015453093 12:0.096466273 13:0.015238744 14:-0.072027571 #
8.9734053922702905481401103315875 1:0.32305852 2:0.17456792 3:0.016712783 4:-0.052254584 5:0.0066364282 6:0.064076655 7:-0.013863669 8:-0.016923623 9:0.0012834755 10:-0.022249093 11:0.075097479 12:0.03147975 13:-0.044671152 14:-0.0037458215 #
-8.9734053922702905481401103315875 1:-0.24466306 2:0.083819486 3:0.065960467 4:0.047712795 5:0.13994586 6:-0.060594033 7:-0.062714852 8:-0.018385734 9:-0.049230814 10:-0.040049091 11:-0.012879333 12:0.035243541 13:0.0045005032 14:-0.034707747 #
8.9734053922702905481401103315875 1:-0.31635144 2:0.089453205 3:-0.0049484498 4:0.014891718 5:-0.02451081 6:-0.017668515 7:-0.044092767 8:-0.00014564619 9:0.0053651333 10:0.023971858 11:0.022978162 12:-0.0028584271 13:0.013267951 14:0.03309375 #
-8.9734053922702905481401103315875 1:-0.28781438 2:0.18873253 3:-0.13794336 4:-0.053434014 5:0.002328573 6:-0.087273881 7:-0.08181335 8:-0.054246839 9:0.014917265 10:-0.020699229 11:0.00050626014 12:-0.054842886 13:-0.048367262 14:0.015647981 #
-8.9734053922702905481401103315875 1:0.3051303 2:0.20959835 3:0.094464108 4:-0.074885495 5:-0.057270572 6:-0.016401695 7:0.046168059 8:-0.067528948 9:-0.059972193 10:0.0021097518 11:0.12303277 12:0.025793614 13:-0.092555694 14:-0.0046344679 #
8.9734053922702905481401103315875 1:-0.30770847 2:0.13787074 3:0.053344432 4:0.078091815 5:0.17674294 6:-0.054213718 7:0.029089596 8:-0.06943009 9:0.0016572868 10:-0.031765819 11:-0.0079642637 12:0.026446478 13:0.0065542813 14:-0.038713288 #
-8.9734053922702905481401103315875 1:-0.26989213 2:0.092340484 3:0.067897722 4:0.082592018 5:0.13472848 6:-0.036936294 7:0.0040824171 8:-0.012035791 9:-0.038095161 10:-0.02202419 11:-0.0067388695 12:0.02994048 13:0.026865719 14:-0.014693668 #
8.9734053922702905481401103315875 1:0.35283989 2:0.20656002 3:0.073985189 4:-0.069603972 5:-0.0056026299 6:0.083673619 7:0.038217582 8:-0.049487822 9:-0.00069501682 10:0.0027580112 11:0.015259138 12:0.036469717 13:-0.02748438 14:0.031349115 #
-8.9734053922702905481401103315875 1:0.30544573 2:0.21344729 3:0.089195013 4:-0.018676072 5:-0.066192053 6:0.018485328 7:0.036308549 8:-0.1012779 9:-0.073316582 10:0.026219655 11:0.044537708 12:-0.0040526488 13:-0.038016982 14:-0.0029651865 #
-8.9734053922702905481401103315875 1:0.30227304 2:0.21566895 3:0.072204828 4:-0.071199767 5:-0.057910319 6:0.017911613 7:-0.015935445 8:-0.10601334 9:-0.08888527 10:0.031171808 11:0.037757818 12:-0.014297595 13:-0.024663085 14:-0.021663491 #
8.9734053922702905481401103315875 1:-0.31383297 2:0.11784943 3:-0.08019124 4:-0.0091534695 5:-0.040281348 6:-0.045405604 7:-0.051645163 8:-0.019114023 9:0.010015331 10:0.0081323348 11:0.0025218597 12:-0.00907249 13:-0.014967309 14:0.031779852 #
-8.9734053922702905481401103315875 1:-0.27514863 2:0.09980461 3:0.00067829341 4:-0.0092713693 5:-0.022534169 6:-0.037868429 7:-0.10529912 8:0.029468941 9:-0.044670127 10:-0.050580896 11:0.001547071 12:-0.039569747 13:0.009969891 14:0.024767941 #
-8.9734053922702905481401103315875 1:-0.33807707 2:0.18417391 3:-0.097280122 4:0.013227446 5:-0.0041608554 6:-0.039385371 7:-0.0045934711 8:-0.0078262463 9:-0.026906116 10:-0.035982504 11:-0.010616517 12:-0.011551629 13:-0.0069626383 14:-0.016122749 #
-8.9734053922702905481401103315875 1:0.07943733 2:-0.20738451 3:0.13090542 4:-0.15965793 5:0.0080967331 6:0.10114922 7:0.0046896916 8:0.0013417086 9:0.072601512 10:0.015794128 11:0.044428855 12:-0.073157512 13:-0.00097426883 14:-0.028305439 #
-8.9734053922702905481401103315875 1:0.099788047 2:-0.24336727 3:0.039233826 4:-0.15722264 5:0.017167414 6:0.041040428 7:0.024758814 8:-0.031441908 9:0.043987341 10:-0.035726022 11:0.022488255 12:-0.054193743 13:0.002508529 14:-0.0090425024 #
8.9734053922702905481401103315875 1:0.15949842 2:-0.1342911 3:-0.10217118 4:-0.09605062 5:0.10637936 6:0.01738205 7:-0.018729039 8:0.048050705 9:-0.024831351 10:-0.00089152058 11:0.014687017 12:-0.035447355 13:0.00055168348 14:-0.01243851 #
8.9734053922702905481401103315875 1:-0.30803061 2:0.09559381 3:-0.05527015 4:-0.0037598752 5:-0.061828583 6:-0.017342972 7:-0.040860265 8:0.00042221605 9:0.012898347 10:0.032165557 11:0.015062623 12:-0.0092257084 13:-0.005523805 14:0.05799336 #
8.9734053922702905481401103315875 1:-0.23311777 2:0.0069708051 3:-0.072716795 4:-0.026184712 5:-0.062045872 6:-0.038438134 7:-0.099142209 8:-0.02878614 9:0.021336567 10:0.056625728 11:0.0013695288 12:0.040674381 13:-0.0080034127 14:-0.02305069 #
-8.9734053922702905481401103315875 1:-0.30755976 2:0.16248088 3:-0.03215282 4:-0.0046284092 5:0.045118049 6:0.010030766 7:0.047851361 8:0.012797508 9:-0.036069058 10:-0.040672127 11:-0.0068811057 12:-0.01753117 13:0.0076918001 14:-0.003071611 #
8.9734053922702905481401103315875 1:0.12596278 2:-0.15115035 3:-0.13893203 4:0.0014963532 5:0.044748582 6:-0.059594046 7:-0.066822521 8:0.036567155 9:-0.068419918 10:-0.0023904606 11:0.008974961 12:-0.040800415 13:-0.014148743 14:0.0015319654 #
-8.9734053922702905481401103315875 1:0.13759539 2:-0.091504455 3:-0.21398105 4:0.09213876 5:0.067458674 6:-0.085162409 7:-0.096727163 8:0.10762618 9:-0.063145317 10:0.029009538 11:-0.0043743984 12:-0.040175989 13:-0.020480506 14:-0.034210432 #
8.9734053922702905481401103315875 1:-0.25698817 2:0.13949637 3:0.07981503 4:-0.015542749 5:0.23649286 6:-0.018282397 7:0.04558485 8:-0.067058511 9:0.0011905016 10:-0.04193804 11:-0.0052633253 12:0.028016657 13:-0.00063162658 14:-0.041946214 #
-8.9734053922702905481401103315875 1:-0.24520926 2:0.087805182 3:0.081874274 4:0.082653627 5:0.18423624 6:-0.0043181395 7:0.11543716 8:-0.04595454 9:0.012173456 10:0.010270417 11:-0.012408207 12:0.0033333136 13:-0.020591566 14:-0.0031400165 #
8.9734053922702905481401103315875 1:0.34315673 2:0.16132377 3:0.055442519 4:-0.045993868 5:0.025900908 6:0.056958128 7:0.073564664 8:0.016546546 9:0.027317224 10:-0.0091834394 11:0.026990198 12:0.014282147 13:-0.061207928 14:-0.010467743 #
8.9734053922702905481401103315875 1:0.27009219 2:0.10871539 3:-0.081442282 4:0.065537229 5:0.039993972 6:0.094965518 7:-0.10200551 8:0.038585633 9:0.062434383 10:-0.052048817 11:-0.0043874411 12:0.0035471888 13:-0.0013713023 14:0.002611049 #
-8.9734053922702905481401103315875 1:0.34184524 2:0.18740568 3:0.024026325 4:0.080891825 5:-0.0010026017 6:0.17244855 7:-0.0016605556 8:-0.072809577 9:0.025940171 10:-0.010466587 11:-0.057358705 12:0.052445743 13:0.020521663 14:0.088977613 #
-8.9734053922702905481401103315875 1:0.27958038 2:0.13464823 3:-0.086978227 4:0.033320207 5:0.052709814 6:0.13045481 7:-0.16080934 8:0.052942831 9:0.12965536 10:-0.072059855 11:-0.047106382 12:0.071120895 13:0.0050452612 14:0.05830339 #
8.9734053922702905481401103315875 1:-0.30101091 2:0.13418913 3:0.056196228 4:0.075084157 5:0.18386349 6:-0.037944056 7:0.068521924 8:-0.078904927 9:0.024441421 10:-0.014293217 11:-0.0043050954 12:0.011464558 13:-0.0016704655 14:-0.018722093 #
-8.9734053922702905481401103315875 1:-0.26484981 2:0.083923064 3:0.078261003 4:0.10933904 5:0.14326018 6:-0.030365877 7:0.040153041 8:-0.017432135 9:-0.027135534 10:-0.0076850331 11:-0.012698101 12:0.023476612 13:0.010514203 14:-0.0093566673 #
8.9734053922702905481401103315875 1:0.30551055 2:0.1502924 3:-0.054081973 4:-0.067645118 5:0.040295277 6:0.10566796 7:-0.12468871 8:0.01208125 9:0.039004326 10:-0.051379073 11:0.037927166 12:0.028035253 13:0.0011185887 14:0.0045752283 #
-8.9734053922702905481401103315875 1:0.30175617 2:0.22227643 3:0.059153825 4:-0.065928943 5:-0.067845881 6:0.016222814 7:-0.061796095 8:-0.11371091 9:-0.095821477 10:0.018350204 11:0.032703981 12:-0.021420714 13:-0.01925181 14:-0.022522494 #
8.9734053922702905481401103315875 1:-0.29987592 2:0.068071105 3:0.0096545294 4:-0.0033320503 5:-0.030112719 6:0.0013938567 7:-0.029850865 8:-5.1692437e-05 9:0.010820301 10:0.025675779 11:0.015850833 12:0.011584979 13:-0.0013698771 14:0.037726521 #
8.9734053922702905481401103315875 1:-0.29740566 2:0.13923654 3:0.048081778 4:0.045059491 5:0.18232277 6:-0.053619552 7:0.0079403948 8:-0.069618918 9:0.0018874598 10:-0.031466402 11:-0.0017993598 12:0.028179176 13:0.0098123671 14:-0.034908693 #
-8.9734053922702905481401103315875 1:-0.28309718 2:0.095696762 3:0.038438987 4:0.093244225 5:0.10824828 6:-0.072491057 7:-0.052637063 8:-0.024468675 9:-0.033843074 10:-0.015011716 11:-0.0026251937 12:0.028802481 13:0.021621784 14:-0.016147386 #
8.9734053922702905481401103315875 1:-0.28267726 2:0.14422497 3:0.0055264947 4:0.0019292546 5:0.14759339 6:-0.082399629 7:-0.05474437 8:-0.085452408 9:0.020981051 10:-0.017014831 11:0.012047029 12:9.3135342e-05 13:-0.005276389 14:-0.0059924396 #
-8.9734053922702905481401103315875 1:-0.29033047 2:0.14494029 3:-0.018520368 4:0.020296771 5:0.1095469 6:-0.088024132 7:-0.079501845 8:-0.040912028 9:-0.039473906 10:-0.049032699 11:-0.0042829164 12:0.028596438 13:0.013478793 14:-0.041969005 #
8.9734053922702905481401103315875 1:0.35656476 2:0.16692595 3:0.069589086 4:0.027885221 5:0.010584046 6:0.096744038 7:0.11942033 8:0.0069283335 9:0.046106432 10:-0.013222706 11:0.0060461434 12:0.027272981 13:-0.052632596 14:0.016382517 #
-8.9734053922702905481401103315875 1:0.059237942 2:-0.20016053 3:0.10865758 4:-0.13471754 5:0.023280656 6:0.079778351 7:-0.010157716 8:0.03361525 9:0.019925188 10:0.012322292 11:0.033370744 12:-0.043328755 13:-0.0015171219 14:0.012250397 #
-8.9734053922702905481401103315875 1:0.36581463 2:0.21479475 3:0.056370236 4:-0.037242547 5:-0.0069810022 6:0.15733762 7:-0.0080148662 8:-0.12378088 9:-0.054192379 10:0.027228452 11:-0.03929073 12:-0.00047154722 13:0.011892871 14:0.027077571 #
-8.9734053922702905481401103315875 1:-0.25835192 2:-0.034330647 3:-0.095022276 4:-0.03870989 5:-0.098426715 6:0.091253094 7:0.12044137 8:0.045041475 9:-0.016816681 10:0.10511062 11:-0.022104928 12:0.087638386 13:-0.020227263 14:-0.039372988 #
8.9734053922702905481401103315875 1:0.32616651 2:0.22816247 3:0.082809813 4:-0.053938653 5:-0.061020553 6:0.033064846 7:-0.0072339703 8:-0.11192486 9:-0.079624929 10:0.030343691 11:0.009154723 12:-0.0086929249 13:-0.001855155 14:-0.0026636655 #
-8.9734053922702905481401103315875 1:0.26455247 2:0.20982726 3:0.072023578 4:-0.010558795 5:-0.094508812 6:-0.047219794 7:-0.011880863 8:-0.085989654 9:-0.078133762 10:0.0062207365 11:0.090284772 12:0.0072341058 13:-0.061743427 14:-0.012983564 #
8.9734053922702905481401103315875 1:-0.22808243 2:-0.0099824602 3:-0.016254872 4:-0.022767646 5:-0.037839763 6:-0.00043871652 7:-0.02810492 8:-0.020760372 9:0.023299614 10:0.070048824 11:0.0044597671 12:0.037058573 13:-0.024963763 14:-0.012163564 #
8.9734053922702905481401103315875 1:-0.25161532 2:-0.0025549075 3:-0.012712531 4:-0.024576966 5:-0.050365377 6:0.0049645328 7:-0.025835369 8:-0.022853216 9:0.024440587 10:0.060444012 11:0.011096248 12:0.045359388 13:-0.011827478 14:-0.0069729974 #
-8.9734053922702905481401103315875 1:0.037713356 2:-0.22169374 3:0.10805047 4:-0.038806729 5:-0.044627313 6:0.056511078 7:0.0058263494 8:-0.017043021 9:0.078022987 10:-0.00038309122 11:0.027934637 12:-0.085446402 13:0.0028115013 14:-0.039018933 #
-8.9734053922702905481401103315875 1:-0.060594022 2:-0.18268465 3:0.14401378 4:0.043001294 5:-0.089354262 6:0.020062668 7:-0.090626068 8:0.021791225 9:0.047485627 10:0.022748666 11:0.030438166 12:-0.072107896 13:0.010246481 14:-0.033689477 #
-8.9734053922702905481401103315875 1:-0.12502287 2:-0.14325145 3:0.18701442 4:0.10237391 5:-0.10630702 6:0.027386464 7:-0.15083955 8:0.11150166 9:-0.013978551 10:0.10692308 11:0.057464462 12:-0.052151456 13:0.016893959 14:0.04791037 #
8.9734053922702905481401103315875 1:0.30099633 2:0.17447084 3:0.0064236079 4:-0.058610201 5:-0.010161842 6:0.024485201 7:-0.06802959 8:-0.016739044 9:-0.010228947 10:-0.033321597 11:0.080425672 12:0.028960815 13:-0.040382646 14:-0.0084971525 #
8.9734053922702905481401103315875 1:0.27622652 2:0.17846359 3:0.042165533 4:0.011133277 5:-0.040847898 6:-0.024751382 7:0.0034597877 8:-0.0073506692 9:-0.00980331 10:-0.040848691 11:0.071391933 12:0.0006500131 13:-0.060504742 14:0.0039928858 #
-8.9734053922702905481401103315875 1:0.19951968 2:0.17235713 3:0.033410806 4:0.10752159 5:-0.11445069 6:-0.121323 7:-0.020459561 8:0.0019204891 9:0.0024329924 10:-0.076637208 11:0.19084194 12:0.076314315 13:-0.12025764 14:0.025947325 #
-8.9734053922702905481401103315875 1:0.20376398 2:0.13784707 3:-0.080113597 4:0.25016084 5:-0.044518903 6:0.071210697 7:-0.13586165 8:0.01373807 9:0.1042581 10:-0.068102971 11:-0.06314984 12:0.076883286 13:0.026171351 14:0.081880629 #
-8.9734053922702905481401103315875 1:0.26528507 2:0.14006156 3:-0.091270596 4:0.030157654 5:0.033911396 6:0.1051534 7:-0.20572789 8:0.040225409 9:0.1120484 10:-0.081069857 11:-0.038514744 12:0.070067935 13:0.013477115 14:0.061042067 #
8.9734053922702905481401103315875 1:-0.08141382 2:-0.12531947 3:0.1238184 4:0.047210861 5:0.0040156823 6:0.037785184 7:0.040143497 8:-0.0050428961 9:0.032214608 10:0.019082433 11:-0.0025684603 12:-0.0023932168 13:-0.0090509038 14:-0.030001683 #
8.9734053922702905481401103315875 1:0.0018662015 2:-0.16787849 3:0.10102006 4:-0.030663719 5:0.023502117 6:0.049500909 7:0.038157184 8:-0.0015187671 9:0.023647282 10:0.019496184 11:0.0055288882 12:0.00049706869 13:0.0043196213 14:-0.0094607631 #
8.9734053922702905481401103315875 1:-0.035170205 2:-0.15714011 3:0.094679981 4:0.044651486 5:-0.0078460751 6:0.025012819 7:0.041714977 8:-0.017880138 9:0.037949134 10:0.0088811964 11:-0.0032249717 12:-0.012676401 13:0.0021936889 14:-0.013444089 #
-8.9734053922702905481401103315875 1:-0.23037902 2:0.092232436 3:0.072296016 4:0.01738322 5:0.18879347 6:-0.023216804 7:0.022129424 8:-0.038535986 9:-0.014758309 10:-0.019078638 11:-0.0051436923 12:0.023137726 13:0.0002469366 14:-0.019838819 #
-8.9734053922702905481401103315875 1:-0.26555991 2:0.089067586 3:0.07533212 4:0.089097962 5:0.14569619 6:-0.034375947 7:0.018415855 8:-0.017602148 9:-0.033467803 10:-0.023570593 11:-0.0098890923 12:0.021318581 13:0.018477261 14:-0.0090586189 #
8.9734053922702905481401103315875 1:0.20525771 2:0.15551434 3:-0.020980107 4:0.039929159 5:-0.078228123 6:-0.10567939 7:-0.13825911 8:0.013915406 9:-0.014256751 10:-0.081879944 11:0.079780944 12:0.00073866296 13:-0.034252889 14:0.010729354 #
-8.9734053922702905481401103315875 1:0.2588082 2:0.20692544 3:0.069484524 4:0.10676398 5:-0.11510132 6:-0.015611483 7:0.013645868 8:-0.11726785 9:-0.087872408 10:0.024277102 11:0.031485111 12:-0.014489531 13:-0.022176716 14:-0.0038611467 #
8.9734053922702905481401103315875 1:-0.23517236 2:0.01520157 3:0.015123823 4:-0.073341087 5:-0.028480392 6:0.0085418224 7:-0.06575904 8:-0.0080402121 9:0.013994323 10:0.042632483 11:0.021014495 12:0.025507823 13:-0.015779739 14:0.016688515 #
8.9734053922702905481401103315875 1:0.35085654 2:0.20880008 3:0.072069444 4:-0.079181582 5:-0.0051127826 6:0.082277991 7:0.023739779 8:-0.054169618 9:-0.0058642989 10:0.002119008 11:0.020707157 12:0.038359802 13:-0.016185287 14:0.03037896 #
8.9734053922702905481401103315875 1:-0.29801428 2:0.050168514 3:0.0094110295 4:-0.01171454 5:-0.045454714 6:0.015233752 7:-0.018871004 8:0.0014163197 9:0.015963711 10:0.037911925 11:0.019646646 12:0.021211522 13:-0.0019126884 14:0.026212787 #
8.9734053922702905481401103315875 1:0.10549317 2:-0.15525497 3:-0.14812176 4:0.056629896 5:0.024324881 6:-0.079736903 7:-0.065730274 8:0.03296265 9:-0.071282424 10:-0.0025860195 11:0.0035923389 12:-0.039836761 13:-0.011140472 14:0.0041263364 #
8.9734053922702905481401103315875 1:-0.27954122 2:0.0060116514 3:-0.010090478 4:0.0039935629 5:-0.073192067 6:0.015205733 7:0.0029315152 8:-0.013493874 9:0.031799439 10:0.069557339 11:0.0097564645 12:0.04124802 13:-0.01769964 14:-0.0071845162 #
8.9734053922702905481401103315875 1:0.052835073 2:-0.12954094 3:-0.14038219 4:0.11884239 5:-0.01173406 6:-0.10018242 7:-0.11094421 8:0.026669875 9:-0.061237905 10:-0.02139706 11:-0.010788694 12:-0.029640654 13:0.014920102 14:0.0023895446 #
8.9734053922702905481401103315875 1:0.25882182 2:0.22102186 3:0.052799542 4:0.059859864 5:-0.12370692 6:-0.034032587 7:-0.079338253 8:-0.12344524 9:-0.10012607 10:0.015702948 11:0.0016639362 12:-0.01666492 13:0.019901089 14:-0.0050522438 #
8.9734053922702905481401103315875 1:0.27574983 2:0.16379586 3:0.017522659 4:0.030826014 5:-0.038877741 6:-0.022489334 7:-0.036245797 8:-0.0091563594 9:-0.0095591787 10:-0.028085489 11:0.053371496 12:0.013041929 13:-0.048681833 14:-0.010552017 #
8.9734053922702905481401103315875 1:0.25306353 2:0.19987918 3:0.039849769 4:0.11276312 5:-0.10360118 6:-0.024813222 7:-0.061602164 8:-0.081262685 9:-0.041488335 10:-0.016303729 11:0.01399679 12:0.023191649 13:0.0064733145 14:0.034896117 #
8.9734053922702905481401103315875 1:-0.033112638 2:-0.088736258 3:0.093462348 4:-0.1497298 5:0.040981267 6:0.020743443 7:-0.11201237 8:-0.0015114407 9:0.0094453758 10:-0.0058171912 11:0.023221759 12:0.0064577418 13:-0.0038024082 14:-0.03712517 #
8.9734053922702905481401103315875 1:0.32900095 2:0.1720902 3:0.056709841 4:0.055676889 5:-0.011474109 6:0.065307565 7:0.079015635 8:-0.0025221335 9:0.040247969 10:-0.017705403 11:0.0092813289 12:0.030100791 13:-0.040102787 14:0.025943501 #
8.9734053922702905481401103315875 1:0.2914747 2:0.17257094 3:0.039226331 4:0.089825422 5:-0.03650485 6:0.03375626 7:0.032400407 8:-0.011041021 9:0.031863656 10:-0.022439571 11:0.012394613 12:0.035535865 13:-0.023796279 14:0.030134417 #
-8.9734053922702905481401103315875 1:0.24489675 2:0.18511876 3:0.078185454 4:0.12068768 5:-0.11007321 6:-0.07575313 7:0.07973554 8:-0.029409794 9:-0.018419337 10:-0.045522097 11:0.17792419 12:0.05996782 13:-0.13291317 14:0.023692667 #
8.9734053922702905481401103315875 1:0.16248946 2:-0.10665102 3:-0.071173243 4:0.057468187 5:0.082914434 6:0.071281642 7:0.0035883943 8:0.028172357 9:0.014137874 10:-0.0077265073 11:-0.030477118 12:-0.073290609 13:0.047816258 14:-0.0068239905 #
-8.9734053922702905481401103315875 1:0.1368095 2:-0.24787559 3:-0.01030211 4:-0.22766057 5:0.027573565 6:0.019208211 7:0.047310919 8:-0.091120161 9:0.044120315 10:-0.10262043 11:0.0076675951 12:0.011662515 13:0.025466964 14:0.021271009 #
8.9734053922702905481401103315875 1:0.2997452 2:0.20770662 3:0.06626752 4:0.070822254 5:-0.073367126 6:0.028708493 7:0.01375377 8:-0.082012631 9:-0.031134527 10:0.0014024382 11:0.011720167 12:0.022737402 13:-0.0040399516 14:0.034831721 #
-8.9734053922702905481401103315875 1:0.2480015 2:0.20444794 3:0.077560037 4:0.13672198 5:-0.13157883 6:-0.040392701 7:0.044603985 8:-0.1004515 9:-0.074763216 10:0.012476866 11:0.058932409 12:0.0011651422 13:-0.05167162 14:0.0042778109 #
-8.9734053922702905481401103315875 1:-0.27774516 2:0.10236683 3:0.028936448 4:0.078718521 5:0.13409629 6:-0.074530646 7:-0.028516363 8:-0.052423872 9:-0.015862083 10:-0.02086634 11:-0.0081579862 12:0.02934623 13:0.003699014 14:-0.030381808 #
-8.9734053922702905481401103315875 1:0.19160773 2:-0.14429916 3:-0.17163305 4:0.048651073 5:0.1147565 6:-0.026166495 7:0.072555996 8:0.091543682 9:-0.07228259 10:0.044802547 11:-0.010599234 12:-0.031443898 13:-0.039707296 14:0.0023627637 #
8.9734053922702905481401103315875 1:-0.33526993 2:0.1392698 3:-0.11272154 4:-0.076634072 5:-0.052420005 6:-0.029499495 7:-0.056986984 8:-0.0086316783 9:-0.0038264673 10:0.0034152037 11:0.012549479 12:0.0055838474 13:-0.0032161521 14:0.012063533 #
-8.9734053922702905481401103315875 1:-0.31416884 2:0.19861026 3:-0.1137917 4:-0.047552556 5:0.01944444 6:-0.015933912 7:0.032198373 8:-0.021321112 9:-0.0095279319 10:-0.049109142 11:-0.017327163 12:-0.029614773 13:-0.030290952 14:-0.012517799 #
8.9734053922702905481401103315875 1:0.079975992 2:-0.19617435 3:-0.050316561 4:0.071812302 5:0.06229084 6:0.02969902 7:0.084029593 8:0.00015396962 9:-0.006322985 10:0.032285802 11:-0.042525444 12:-0.024584711 13:0.0057593919 14:-0.010670714 #
-8.9734053922702905481401103315875 1:0.062011082 2:-0.2390594 3:0.086912893 4:-0.058188576 5:-0.030874716 6:0.046211191 7:0.019403368 8:-0.041512836 9:0.090053178 10:-0.050722212 11:0.014350486 12:-0.11460719 13:0.0096225161 14:-0.048420351 #
-8.9734053922702905481401103315875 1:-0.28903788 2:0.12372731 3:0.0079363221 4:0.019772192 5:0.042694211 6:-0.036690284 7:-0.053519234 8:0.011732093 9:-0.043257728 10:-0.040991042 11:0.0028990333 12:-0.020298047 13:0.020888137 14:0.011842064 #
8.9734053922702905481401103315875 1:0.086796246 2:-0.18577485 3:-0.045815412 4:0.019670449 5:0.075099587 6:0.028086985 7:0.048821319 8:-0.0040954021 9:-0.0042719534 10:0.025882682 11:-0.036367018 12:-0.01743654 13:0.0073468783 14:-0.0050972034 #
-8.9734053922702905481401103315875 1:0.17080511 2:-0.19564763 3:-0.2299719 4:-0.0082896575 5:0.13710065 6:-0.060067263 7:0.044346862 8:0.079832777 9:-0.16511682 10:0.096566088 11:0.018271128 12:-0.02427783 13:-0.041977022 14:0.012309977 #
8.9734053922702905481401103315875 1:-0.30653894 2:0.14707108 3:-0.00069417403 4:0.03229956 5:0.12574412 6:-0.10237484 7:-0.088443466 8:-0.077961579 9:0.0050777779 10:-0.024619963 11:0.0095503023 12:0.011423709 13:0.0040697618 14:-0.021580962 #
-8.9734053922702905481401103315875 1:-0.18669625 2:0.066212669 3:0.11360223 4:-0.055767283 5:0.18687497 6:-0.0022356394 7:-0.044271257 8:0.0040891627 9:-0.051969644 10:-0.040227376 11:-0.0015847189 12:0.036340572 13:0.0062686889 14:-0.033175457 #
-8.9734053922702905481401103315875 1:0.056562949 2:-0.21082962 3:0.001823757 4:-0.09844932 5:-0.051154103 6:-0.020061146 7:-0.072297394 8:-0.093605421 9:0.063550778 10:-0.1048945 11:0.011977635 12:-0.058366187 13:0.038181581 14:-0.043448836 #
8.9734053922702905481401103315875 1:0.10679001 2:-0.16367088 3:-0.12014118 4:0.076891705 5:0.03596459 6:-0.051108364 7:-0.010940887 8:0.033322569 9:-0.062991984 10:0.0050445623 11:0.00025425723 12:-0.037857115 13:-0.0028438529 14:0.016740533 #
-8.9734053922702905481401103315875 1:0.13925068 2:-0.04774655 3:-0.19246309 4:0.23415898 5:0.048823953 6:-0.042826802 7:-0.062541053 8:0.12893489 9:0.01486412 10:0.010311594 11:-0.038006309 12:-0.046526734 13:-0.028608175 14:-0.043421645 #
8.9734053922702905481401103315875 1:-0.032064036 2:-0.10417078 3:0.081347287 4:-0.10153982 5:0.0350703 6:0.022650756 7:-0.046010457 8:-0.020332785 9:0.024270335 10:0.0029263373 11:0.013082584 12:0.0063597974 13:-0.0069587571 14:-0.022942344 #
8.9734053922702905481401103315875 1:-0.292546 2:0.13076752 3:-0.053289443 4:-0.0093906438 5:0.026191959 6:-0.024668228 7:0.0013173238 8:-0.03269254 9:0.022764767 10:0.0038833986 11:0.010050799 12:-0.034625918 13:-0.0031015028 14:0.024088442 #
-8.9734053922702905481401103315875 1:0.24961261 2:0.20963326 3:0.056177139 4:0.03232453 5:-0.11078335 6:-0.045967627 7:-0.052726917 8:-0.10291548 9:-0.087736264 10:0.0038743464 11:0.061023537 12:-0.0002339832 13:-0.031698909 14:-0.0029201773 #
8.9734053922702905481401103315875 1:0.15629719 2:-0.1518348 3:-0.083353721 4:-0.026407804 5:0.10522859 6:0.020214697 7:0.045047984 8:0.055565987 9:-0.022344472 10:0.0091597661 11:-0.0057998495 12:-0.052319221 13:-0.028454097 14:-0.010722902 #
-8.9734053922702905481401103315875 1:0.11083562 2:-0.2501561 3:0.017599151 4:-0.1456103 5:0.0058585848 6:0.029402282 7:0.05107088 8:-0.091347307 9:0.065268502 10:-0.11516257 11:-0.00056245964 12:-0.05174946 13:0.031297829 14:-0.0043949625 #
-8.9734053922702905481401103315875 1:0.079059571 2:-0.15525158 3:-0.19680347 4:0.1631574 5:0.0090193516 6:-0.12869354 7:-0.0060714115 8:0.045489494 9:-0.10556493 10:0.031382889 11:-0.007131807 12:-0.021960387 13:-0.0023101284 14:0.0076154312 #
8.9734053922702905481401103315875 1:-0.061265428 2:-0.086816154 3:0.074241571 4:-0.10541356 5:0.012033614 6:-0.011295462 7:-0.1481971 8:-0.0016015894 9:-0.0029146746 10:-0.010054497 11:0.024797345 12:0.0045906315 13:0.0058512581 14:-0.035251226 #
-8.9734053922702905481401103315875 1:-0.22292484 2:0.092311159 3:0.077428736 4:-0.011048527 5:0.17133662 6:-0.02538697 7:-0.033333808 8:-0.011086746 9:-0.041417409 10:-0.029435646 11:0.0028118712 12:0.026591204 13:0.019805696 14:-0.0077505298 #
-8.9734053922702905481401103315875 1:-0.21034017 2:0.090033554 3:0.08652094 4:-0.02042255 5:0.19756459 6:-0.013424397 7:0.00064593984 8:-0.024840081 9:-0.023934824 10:-0.021890583 11:-0.0020787506 12:0.020120125 13:-0.0013997799 14:-0.010500537 #
-8.9734053922702905481401103315875 1:-0.25477007 2:0.09349823 3:0.061977386 4:0.05106613 5:0.15372035 6:-0.043268707 7:-0.019137196 8:-0.02737573 9:-0.026509756 10:-0.015317322 11:0.00027042045 12:0.026873328 13:0.017352976 14:-0.0095184688 #
8.9734053922702905481401103315875 1:0.1043239 2:-0.16128163 3:-0.11577972 4:0.0902697 5:0.033726826 6:-0.042064685 7:0.007259401 8:0.036184162 9:-0.056414269 10:0.0086185951 11:-0.0043227132 12:-0.033544201 13:0.00083127379 14:0.018376112 #
8.9734053922702905481401103315875 1:0.1137908 2:-0.14960812 3:-0.10238104 4:0.065165862 5:0.057930589 6:-0.018423315 7:0.020549107 8:0.040856957 9:-0.026151145 10:-0.0016107764 11:-0.013256352 12:-0.043344844 13:-0.0064951424 14:-0.0019972953 #
-8.9734053922702905481401103315875 1:0.16979241 2:-0.18883593 3:-0.20414428 4:-0.13624793 5:0.11577162 6:-0.046978761 7:-0.026047358 8:0.037101917 9:-0.11209875 10:0.029843343 11:0.026335001 12:0.0095292535 13:-0.013963321 14:0.015350183 #
-8.9734053922702905481401103315875 1:0.16051905 2:-0.20502129 3:-0.07080517 4:-0.085674211 5:0.047101811 6:0.00828146 7:0.052583545 8:-0.023335652 9:0.0049208826 10:0.094993919 11:-0.034237225 12:0.063805051 13:-0.060270395 14:-0.051627409 #
8.9734053922702905481401103315875 1:-0.29258651 2:0.15045163 3:0.032070875 4:0.00022154726 5:0.17768279 6:-0.067099772 7:-0.047583204 8:-0.069174521 9:-0.0073079318 10:-0.040691841 11:0.0081432611 12:0.031620502 13:0.01657976 14:-0.044062708 #
-8.9734053922702905481401103315875 1:0.26570225 2:0.21726516 3:0.047302201 4:0.033580028 5:-0.1035337 6:-0.013854707 7:-0.071955934 8:-0.11932281 9:-0.096834935 10:0.010875642 11:0.030459464 12:-0.018277109 13:-0.012881513 14:-0.01231208 #
-8.9734053922702905481401103315875 1:-0.25217205 2:0.096241131 3:0.034644444 4:0.058534648 5:0.14407261 6:-0.067526773 7:-0.020936258 8:-0.056056984 9:-0.0053058672 10:-0.014911455 11:-0.0079190964 12:0.014495694 13:-0.0091869636 14:-0.012077847 #
8.9734053922702905481401103315875 1:0.15605035 2:-0.1613505 3:-0.11013802 4:-0.031337958 5:0.082332067 6:-0.0089420266 7:0.013229248 8:0.040672429 9:-0.056817301 10:0.013508227 11:0.0095963413 12:-0.034686651 13:-0.013658145 14:0.0097751459 #
8.9734053922702905481401103315875 1:0.075559415 2:-0.17876971 3:-0.060527649 4:0.05332534 5:0.057453603 6:0.0084880432 7:0.032190267 8:-0.00069686893 9:-0.016264936 10:0.022427376 11:-0.039172154 12:-0.019649375 13:0.0089759454 14:-0.010378733 #
-8.9734053922702905481401103315875 1:0.18145654 2:-0.20230973 3:-0.20884936 4:-0.049739745 5:0.14223064 6:-0.039623473 7:0.053096406 8:0.065398857 9:-0.13517207 10:0.068500996 11:0.014267066 12:-0.0085475063 13:-0.035452783 14:0.02274096 #
-8.9734053922702905481401103315875 1:0.12572868 2:-0.19334781 3:-0.16776188 4:0.11047767 5:0.052927289 6:-0.074627928 7:0.10721022 8:0.040825441 9:-0.10593321 10:0.04104732 11:-0.00062046532 12:-0.022618854 13:-0.0096139768 14:0.023225226 #
8.9734053922702905481401103315875 1:-0.30841538 2:0.12175601 3:-0.064650878 4:-0.060568672 5:-0.028395405 6:-0.021629339 7:-0.05475577 8:-0.0072531914 9:0.0093448991 10:-0.00017327473 11:0.016639065 12:-0.018179474 13:-0.0041675773 14:0.046000119 #
-8.9734053922702905481401103315875 1:-0.20482567 2:-0.051965956 3:-0.12492503 4:-0.011889497 5:-0.097044565 6:0.071139999 7:0.0026863089 8:0.032725394 9:0.0075394195 10:0.096472539 11:-0.024720287 12:0.07639157 13:0.032826744 14:-0.070296444 #
8.9734053922702905481401103315875 1:0.3013494 2:0.15149786 3:0.046748213 4:0.11910129 5:-0.033380337 6:0.024503402 7:0.10233051 8:0.0089557292 9:0.021410907 10:-0.011284382 11:0.022946335 12:-0.00035092339 13:-0.06024373 14:-0.013230806 #
8.9734053922702905481401103315875 1:-0.2488372 2:-0.009873637 3:-0.043988012 4:0.051003978 5:-0.061562479 6:-0.021299116 7:-0.010501897 8:-0.027702413 9:0.03291614 10:0.074845739 11:-0.012469991 12:0.039268497 13:-0.024628581 14:-0.02831261 #
-8.9734053922702905481401103315875 1:-0.29054362 2:0.1309054 3:0.013728557 4:0.021972423 5:0.054276343 6:-0.0063699489 7:0.0026331607 8:0.023520105 9:-0.046929739 10:-0.032946322 11:-0.00086191623 12:-0.021337513 13:0.015833324 14:0.016473783 #
1.5489882086435207142471881525125 1:-0.29468966 2:0.12808537 3:-0.045461271 4:-0.012695554 5:0.027950209 6:-0.0098527279 7:0.01683988 8:-0.0275087 9:0.025406251 10:0.0076507884 11:0.011616942 12:-0.034994923 13:-0.00041883031 14:0.02826152 #
-8.9734053922702905481401103315875 1:0.047550671 2:-0.23855051 3:0.024102893 4:-0.036007348 5:-0.060144976 6:-0.02197464 7:-0.03054085 8:-0.090894155 9:0.079207167 10:-0.12097155 11:-0.0079113981 12:-0.091318436 13:0.030011967 14:-0.03807053 #
8.9734053922702905481401103315875 1:-0.29812095 2:0.060811453 3:0.029336883 4:-0.0045925607 5:-0.016939957 6:0.026913483 7:0.006355884 8:0.0029742098 9:0.016923616 10:0.02417491 11:0.021219062 12:0.0047673997 13:0.011998901 14:0.040873449 #
-8.9734053922702905481401103315875 1:-0.26782116 2:0.13819495 3:0.019749233 4:0.026711963 5:0.16768308 6:-0.049228456 7:0.022917172 8:-0.057045896 9:-0.0065038041 10:-0.029336065 11:-0.011914048 12:0.0092931716 13:-0.010868007 14:-0.022076868 #
-8.9734053922702905481401103315875 1:-0.16755974 2:-0.056755111 3:-0.11786025 4:-0.012074952 5:-0.069063552 6:0.054461617 7:-0.038332507 8:0.017409148 9:0.0054658204 10:0.089680701 11:-0.024920585 12:0.067211531 13:0.037521534 14:-0.068680376 #
8.9734053922702905481401103315875 1:0.052767139 2:-0.17468908 3:-0.055991076 4:0.060688626 5:-0.018270647 6:-0.075410508 7:0.0088614849 8:-0.043907501 9:-0.055450983 10:-0.024933092 11:0.014523149 12:0.010874223 13:0.018458849 14:0.045305621 #
8.9734053922702905481401103315875 1:-0.065710478 2:-0.13387762 3:0.12202574 4:0.025711019 5:0.015781332 6:0.05420424 7:0.069231942 8:-0.015911415 9:0.042841636 10:0.017440094 11:0.00057968212 12:-0.0035122945 13:-0.0066614444 14:-0.03222876 #
-8.9734053922702905481401103315875 1:-0.22612873 2:0.0013048126 3:0.12862629 4:0.08405517 5:0.041185103 6:-0.0054487349 7:-0.060727417 8:0.044812445 9:-0.040873807 10:0.016177081 11:0.016994288 12:-0.0048715379 13:0.032807797 14:0.048290238 #
-8.9734053922702905481401103315875 1:0.070535377 2:-0.21823457 3:0.077933572 4:-0.10293433 5:-0.024632122 6:0.050204273 7:0.0073748385 8:-0.046726208 9:0.086867042 10:-0.0379107 11:0.018103437 12:-0.081151523 13:0.0058719115 14:-0.059093699 #
8.9734053922702905481401103315875 1:0.21871294 2:-0.0051422026 3:0.028627284 4:-0.10732915 5:0.090200849 6:0.089330763 7:0.030692847 8:0.034339231 9:0.022234682 10:-0.037667572 11:0.091501847 12:-0.015578105 13:-0.036566753 14:-0.018282542 #
8.9734053922702905481401103315875 1:0.15339807 2:-0.1610027 3:-0.09272705 4:-0.09457776 5:0.11965358 6:-0.0033571823 7:0.013746166 8:0.054635916 9:-0.07278318 10:0.032850299 11:0.027684035 12:-0.04753131 13:-0.019508813 14:-0.0069876332 #
8.9734053922702905481401103315875 1:-0.25425836 2:0.146081 3:0.044645485 4:-0.05201653 5:0.21050751 6:-0.043154877 7:-0.019396219 8:-0.079004921 9:0.017829893 10:-0.024399998 11:0.013941448 12:0.010243321 13:-0.0018685312 14:-0.016928146 #
8.9734053922702905481401103315875 1:-0.30586791 2:0.084414653 3:0.029232042 4:0.022610003 5:0.020824153 6:0.024010791 7:0.048882704 8:-0.0060344976 9:0.02229345 10:0.030287746 11:0.021752706 12:-0.0077677667 13:0.014203466 14:0.037892796 #
-8.9734053922702905481401103315875 1:-0.25223216 2:0.08241003 3:0.00053124374 4:-0.053888664 5:-0.024793711 6:-0.002004399 7:-0.059719097 8:0.014301199 9:-0.011061082 10:-0.04241167 11:0.0092460141 12:-0.043235019 13:0.011451364 14:0.041978654 #
-8.9734053922702905481401103315875 1:-0.2531217 2:0.1132435 3:0.038468413 4:-0.034557123 5:0.076189101 6:-0.00089661119 7:-0.027456028 8:0.018522989 9:-0.037232958 10:-0.041814469 11:0.0077312621 12:-0.029213483 13:0.017361354 14:0.024210993 #
8.9734053922702905481401103315875 1:0.11747394 2:-0.15178838 3:-0.12016527 4:0.029382911 5:0.043688864 6:-0.045002297 7:-0.034471687 8:0.036252193 9:-0.062047366 10:0.0028361387 11:0.0037759405 12:-0.032615062 13:-0.0033652191 14:0.0114643 #
8.9734053922702905481401103315875 1:0.091327935 2:-0.17739862 3:-0.047059923 4:-0.017128397 5:0.081651881 6:0.034527507 7:0.039843701 8:-0.0044886107 9:-4.3050979e-05 10:0.029252009 11:-0.031224022 12:-0.010949314 13:0.0090883542 14:-0.0047389348 #
-8.9734053922702905481401103315875 1:0.21926582 2:0.050566442 3:-0.13309358 4:0.18541093 5:0.051592942 6:0.072663903 7:-0.095779389 8:0.087645575 9:0.087190554 10:-0.031815041 11:-0.058170229 12:-0.0040970454 13:-0.019719208 14:-0.0083707608 #
-8.9734053922702905481401103315875 1:0.080111131 2:-0.23202743 3:0.06383352 4:-0.077263869 5:-0.024788862 6:0.037308384 7:0.034230005 8:-0.072213426 9:0.088498138 10:-0.072180159 11:-0.00046009661 12:-0.082683556 13:0.0064503001 14:-0.052559868 #
8.9734053922702905481401103315875 1:-0.32256353 2:0.13889496 3:-0.045142971 4:0.021696186 5:0.021439316 6:-0.0038117457 7:0.050355673 8:-0.013290058 9:0.015066316 10:-0.0025938957 11:0.0012477377 12:-0.038609136 13:0.0041039879 14:0.022656295 #
-8.9734053922702905481401103315875 1:-0.33877978 2:0.19324718 3:-0.10777065 4:0.0094423667 5:0.0011956679 6:-0.014480972 7:0.06130917 8:-0.013462479 9:-0.013026917 10:-0.040157542 11:-0.025316792 12:-0.020801937 13:-0.029412787 14:-0.019629274 #
-8.9734053922702905481401103315875 1:-0.17470445 2:-0.06026338 3:-0.11644553 4:-0.030091088 5:-0.073970839 6:0.067841671 7:-0.022718558 8:0.023780134 9:0.00601862 10:0.093178637 11:-0.02226666 12:0.071594179 13:0.036579892 14:-0.071151122 #
8.9734053922702905481401103315875 1:-0.024231913 2:-0.1319356 3:0.078244209 4:-0.084438436 5:0.016581146 6:0.011180626 7:-0.058965713 8:-0.014008241 9:0.011382306 10:0.0016993387 11:0.014230752 12:0.01449044 13:0.0056550782 14:-0.026356488 #
-8.9734053922702905481401103315875 1:0.0039320211 2:-0.18187621 3:0.22424325 4:-0.089940608 5:-0.019435804 6:0.11466885 7:-0.053463023 8:0.079366133 9:0.052359469 10:0.087932184 11:0.056050181 12:-0.090537205 13:-0.028986506 14:-0.011139073 #
-8.9734053922702905481401103315875 1:-0.06105933 2:-0.1302954 3:0.20707116 4:-0.055761285 5:-0.035506502 6:0.072295159 7:-0.1564461 8:0.11811459 9:-0.01815814 10:0.096619204 11:0.069255933 12:-0.041100435 13:0.012420669 14:0.049396243 #
8.9734053922702905481401103315875 1:-0.0455736 2:-0.1514976 3:0.085229851 4:0.011395569 5:-0.002366405 6:0.0049566831 7:-0.0084327944 8:-0.017896738 9:0.013171511 10:0.0044490467 11:0.00039335297 12:0.015662722 13:0.010350605 14:-0.020659884 #
8.9734053922702905481401103315875 1:0.18813284 2:-0.13616855 3:-0.088176042 4:-0.12286314 5:0.12762325 6:0.042626966 7:0.026445901 8:0.049402107 9:-0.027308922 10:0.0034646627 11:0.0067160297 12:-0.025884699 13:-0.010583212 14:0.00084062218 #
-8.9734053922702905481401103315875 1:-0.24267219 2:0.095182665 3:0.040571358 4:0.03174483 5:0.1453912 6:-0.06510292 7:-0.04766044 8:-0.041680403 9:-0.020722646 10:-0.020302184 11:-0.0045738025 12:0.016889952 13:-0.0034211501 14:-0.014593879 #
8.9734053922702905481401103315875 1:-0.047196161 2:-0.10355506 3:0.10870493 4:-0.090088598 5:0.048202585 6:0.039990772 7:-0.039354984 8:0.0021568595 9:0.011055425 10:0.0080443835 11:0.022451827 12:0.010317746 13:0.0085457405 14:-0.034723576 #
-8.9734053922702905481401103315875 1:0.085237734 2:-0.2101914 3:-0.049679678 4:-0.12182904 5:-0.025095763 6:-0.027803162 7:-0.060142454 8:-0.10600129 9:0.027227612 10:-0.11974468 11:0.012408736 12:-0.01883357 13:0.059536971 14:0.0040154071 #
8.9734053922702905481401103315875 1:-0.092641696 2:-0.10679585 3:0.071896426 4:0.034006841 5:-0.0095986528 6:-0.023295734 7:-0.074120648 8:0.0041842954 9:-0.016064022 10:0.012301587 11:0.012192792 12:0.01021123 13:0.016931102 14:-0.00044877845 #
-8.9734053922702905481401103315875 1:-0.29236171 2:0.13436246 3:0.0095210103 4:0.081825741 5:0.13155425 6:-0.068301708 7:0.011367168 8:-0.047168344 9:-0.02451941 10:-0.038951762 11:-0.02388691 12:0.020588651 13:-0.0066304761 14:-0.034719523 #
-8.9734053922702905481401103315875 1:0.027544042 2:-0.18272577 3:0.13768928 4:-0.12062231 5:-0.01382028 6:0.070773654 7:-0.058025837 8:0.0194754 9:0.045849375 10:0.014452034 11:0.041182 12:-0.046873577 13:0.0089622196 14:-0.0084892437 #
-8.9734053922702905481401103315875 1:0.010292169 2:-0.20152065 3:0.12457009 4:-0.021804074 5:-0.045121904 6:0.043969169 7:-0.034054905 8:0.013119656 9:0.04281361 10:0.024478769 11:0.033842199 12:-0.062780693 13:0.005149777 14:0.0023557288 #
8.9734053922702905481401103315875 1:-0.30515906 2:0.12619089 3:-0.05707315 4:-0.038460765 5:0.0059260461 6:-0.014222931 7:-0.0090884911 8:-0.019666718 9:0.017171232 10:-0.0063967207 11:0.007898259 12:-0.02465779 13:-0.0019480688 14:0.035443898 #
8.9734053922702905481401103315875 1:-0.31183743 2:0.12826338 3:-0.06003987 4:-0.063754492 5:-0.026982084 6:-0.022316858 7:-0.065480724 8:-0.0025009902 9:0.0091102943 10:-0.0066237166 11:0.02196235 12:-0.034951806 13:0.0017892241 14:0.054686323 #
-8.9734053922702905481401103315875 1:-0.20648089 2:-0.046772543 3:-0.13057448 4:-0.033567056 5:-0.10166655 6:0.062407821 7:-0.014339642 8:0.034536403 9:-0.0034192707 10:0.091688998 11:-0.023236427 12:0.079950668 13:0.024095332 14:-0.069543213 #
-8.9734053922702905481401103315875 1:-0.20387237 2:-0.074198849 3:-0.10919566 4:-0.011597577 5:-0.076120965 6:0.08824148 7:0.063656844 8:0.038253751 9:0.0028454335 10:0.11960734 11:-0.029309664 12:0.094630405 13:0.010100648 14:-0.070466556 #
8.9734053922702905481401103315875 1:0.0056175496 2:-0.14406151 3:0.068645582 4:-0.10463995 5:0.024664477 6:0.022737661 7:-0.056713644 8:-0.0033668729 9:0.0083869752 10:0.0075867111 11:0.01926324 12:0.01179859 13:0.012961586 14:-0.015144521 #
-8.9734053922702905481401103315875 1:0.054111835 2:-0.23435739 3:-0.02953551 4:-0.085028112 5:-0.048384245 6:-0.039743222 7:-0.050758455 8:-0.099161625 9:0.04150394 10:-0.12389398 11:0.0064882333 12:-0.041103885 13:0.051196102 14:-0.0050475853 #
8.9734053922702905481401103315875 1:-0.23806003 2:-0.015617811 3:-0.020505857 4:0.013040142 5:-0.040473886 6:0.00076489052 7:0.0048623555 8:-0.027028594 9:0.030182855 10:0.075176716 11:1.8332456e-05 12:0.043030191 13:-0.018925581 14:-0.014862657 #
-8.9734053922702905481401103315875 1:-0.27418369 2:0.1221446 3:0.028317595 4:0.074784085 5:0.14156741 6:-0.050898135 7:0.029363016 8:-0.037721679 9:-0.029938214 10:-0.043882471 11:-0.024965797 12:0.020674804 13:-0.0013285093 14:-0.030225523 #
8.9734053922702905481401103315875 1:0.038879216 2:-0.1467189 3:-0.037958223 4:0.11222548 5:-0.047470089 6:-0.06865336 7:-0.0024992761 8:-0.039264318 9:-0.015668359 10:-0.044191372 11:0.0058195102 12:-0.004716902 13:0.012646856 14:0.013967135 #
-8.9734053922702905481401103315875 1:0.017105021 2:-0.21193348 3:0.0086480062 4:-0.016368948 5:-0.06117326 6:-0.04744764 7:-0.093744121 8:-0.014291877 9:0.010731479 10:-0.021310328 11:0.019673508 12:-0.049247663 13:0.0060698832 14:-0.00037992126 #
8.9734053922702905481401103315875 1:0.14926593 2:-0.063939765 3:-0.069500297 4:0.064405225 5:0.046661895 6:0.0470431 7:-0.038770415 8:0.0060685351 9:-0.0025893846 10:-0.01879946 11:-0.0021939208 12:-0.0641969 13:0.06132381 14:-0.0099934433 #
-8.9734053922702905481401103315875 1:-0.30198142 2:0.11577045 3:0.036487624 4:0.086356074 5:0.049646597 6:6.7978108e-06 7:0.060020152 8:0.023572747 9:-0.035530388 10:-0.022225108 11:-0.013984345 12:-0.025386933 13:0.0050864159 14:0.012067321 #
8.9734053922702905481401103315875 1:-0.0035624872 2:-0.14479746 3:0.088779494 4:-0.064726718 5:0.018594244 6:0.030443117 7:-0.021154774 8:-0.013109078 9:0.030972624 10:0.0043046041 11:0.01334495 12:-0.0051170639 13:0.009316165 14:-0.014435397 #
-8.9734053922702905481401103315875 1:0.038595974 2:-0.20443952 3:0.12618223 4:-0.051178306 5:-0.018475305 6:0.061260954 7:-0.034962274 8:0.025164844 9:0.047227968 10:0.01952908 11:0.036953952 12:-0.082539551 13:0.0023488011 14:0.0018160846 #
8.9734053922702905481401103315875 1:-0.090878755 2:-0.10455617 3:0.096085705 4:0.0064885942 5:0.0099332035 6:0.0077008195 7:-0.047396731 8:0.00087164779 9:0.0042639677 10:0.013882488 11:0.017260386 12:0.0073993984 13:0.016259555 14:-0.02863241 #
8.9734053922702905481401103315875 1:-0.049574662 2:-0.1455998 3:0.043380734 4:0.0069454848 5:-0.027502593 6:-0.024292858 7:-0.068255261 8:-0.012255213 9:-0.0063515496 10:0.0013412079 11:0.0053166668 12:0.023010496 13:0.022470456 14:-0.015820833 #
8.9734053922702905481401103315875 1:-0.06457442 2:-0.1042982 3:0.098350659 4:-0.047513295 5:0.03399916 6:0.027738538 7:-0.039533608 8:0.0079197502 9:0.0024516275 10:0.02340305 11:0.025975244 12:0.0093431277 13:0.016623221 14:-0.024111524 #
8.9734053922702905481401103315875 1:-0.09164311 2:-0.095686153 3:0.077541895 4:-0.028056102 5:-0.0071119703 6:-0.0039711706 7:-0.087112151 8:-0.010180963 9:0.015505609 10:0.0053592897 11:0.019389214 12:0.013227576 13:0.014961996 14:-0.035826936 #
8.9734053922702905481401103315875 1:-0.083668247 2:-0.1114746 3:0.086450398 4:0.007138513 5:0.0042133695 6:-0.0075071016 7:-0.065841928 8:0.0016741024 9:-0.0069843917 10:0.010418969 11:0.014952488 12:0.016944777 13:0.020243561 14:-0.0022723312 #
